svm_type c_svc
kernel_type linear
nr_class 3
total_sv 919
rho -0.124507 -0.761036 -0.663131
label 0 1 2
probA -0.665631 -2.90758 -2.49612
probB 0.0378026 0.0102674 -0.181514
nr_sv 399 410 110
SV
0.09087530460314022 0 296:1 1061:1 1955:1 2840:1 3314:1 
0.3447656498890512 0.0275363905698824 40:1 198:1 1936:1 2272:1 3713:1 4390:1 4650:1 
1 0.3342180589349073 832:1 1781:1 3307:1 3572:1 
1 0.2832229900446082 832:1 1469:1 
0.2824005815283159 0.04929152987372259 1781:1 2734:1 3433:1 4369:1 
1 0.1937819333485331 1242:1 
0.04244461459800251 0 158:1 232:1 562:1 667:1 832:1 1031:1 1518:1 1639:1 1781:1 2176:1 2320:1 2389:1 2663:1 3446:1 3685:1 4260:1 4261:1 4650:1 
0.0212032055903109 0 1092:1 1188:1 1918:1 4419:1 
0.1783318593779553 0.06452934787379241 832:1 1044:1 1620:1 3499:1 4661:1 
0.09585601577055113 0.01004731490752065 623:1 767:1 1503:1 1775:1 1781:1 2250:1 2375:1 2386:1 2490:1 3142:1 3273:1 3277:1 4531:1 4629:1 4650:1 4827:1 
0.03391132035435267 0 98:1 302:1 1092:1 1341:1 1781:1 2148:1 2163:1 2245:1 2389:1 2735:1 3345:1 3865:1 4690:1 
0 0.00779347599446759 831:1 1000:1 1098:1 1781:1 1823:1 1905:1 2450:1 2490:1 2906:1 3055:1 3759:1 4370:1 4423:1 
0.5948863466239152 0 458:1 1058:1 1781:1 2373:1 2400:1 4496:1 
0.3358066154466642 0.1727891696505547 832:1 1660:1 1781:1 2283:1 2460:1 2735:1 4214:1 4306:1 4391:1 4560:1 
0.3191321105310627 0.07661359133633611 208:1 807:1 832:1 974:1 1000:1 1918:1 2384:1 2817:1 3502:1 3782:1 4106:1 4650:1 
0.4550937579987832 0.1830249902340252 1381:1 1569:1 2584:1 4593:1 4650:1 
0.1986977313267801 0.08366017317549117 79:1 1141:1 1295:1 3641:1 3767:1 
0.1880353993190743 0.04374151316210104 219:1 832:1 1588:1 1781:1 1896:1 2202:1 3576:1 
0.2442527713272571 0.1584283784093006 192:1 832:1 1517:1 1781:1 1955:1 2411:1 2490:1 2567:1 2793:1 2877:1 3480:1 4169:1 4225:1 4448:1 4576:1 
0.1802393515015879 0.03982857747631018 65:1 841:1 1000:1 1401:1 1883:1 2490:1 2735:1 3607:1 3673:1 4248:1 4434:1 4650:1 
0.901441150139936 0.04954050240716919 1015:1 2400:1 
0.1056247445467086 0.04757342241246681 184:1 445:1 1154:1 2363:1 2605:1 4579:1 
0.599548786793612 0 1242:1 4508:1 4661:1 
0.4376009612064114 0.1193204580463985 2754:1 2767:1 
0.7589594871461474 0.07768883906392229 10:1 258:1 316:1 502:1 975:1 2584:1 3238:1 3549:1 4376:1 4580:1 
0.1451000917750496 0.02537744280699158 234:1 411:1 421:1 554:1 1000:1 1085:1 1167:1 2490:1 2735:1 3832:1 3835:1 4650:1 
0.1417698437185211 0.1394812615107537 832:1 2735:1 2870:1 4316:1 4360:1 4650:1 
0.01515612068260765 0 55:1 215:1 832:1 1003:1 1201:1 1469:1 1670:1 1864:1 2083:1 2228:1 2386:1 2450:1 2490:1 2567:1 2782:1 2926:1 3716:1 3871:1 4233:1 4650:1 4785:1 
0.8751782280653544 0.2388137189654452 4118:1 
0.4435916081834779 0 157:1 694:1 832:1 852:1 1092:1 1381:1 1781:1 2389:1 2477:1 2490:1 2837:1 3446:1 3480:1 3579:1 4650:1 
0.08383261603664359 0 244:1 394:1 625:1 694:1 864:1 1887:1 2172:1 2411:1 2490:1 3412:1 3480:1 3720:1 4212:1 4298:1 4469:1 4650:1 4827:1 
0.6454552536373913 0.06861909990538145 841:1 1000:1 1400:1 1583:1 1781:1 1883:1 2083:1 2257:1 2384:1 2490:1 3353:1 3572:1 4186:1 4659:1 
0.05542300918485975 0 502:1 550:1 724:1 832:1 1401:1 1781:1 1838:1 2691:1 3288:1 3302:1 3696:1 3728:1 4342:1 4438:1 4562:1 4650:1 
0.1493984284151153 0 832:1 1401:1 2148:1 2729:1 3406:1 4845:1 
0.287794559900139 0 1568:1 2389:1 2544:1 3103:1 4093:1 4094:1 
0.1849060926818812 0.08516275555508415 341:1 832:1 1883:1 2490:1 3103:1 3480:1 3698:1 3720:1 3757:1 3872:1 
0.2505103977753178 0 98:1 288:1 832:1 1517:1 2257:1 2389:1 2735:1 2805:1 3412:1 3801:1 4024:1 4402:1 4650:1 
0.2085329208623726 0 10:1 122:1 197:1 637:1 680:1 1000:1 1781:1 2257:1 2638:1 3155:1 3303:1 3412:1 4024:1 4255:1 4734:1 
0.03905581947596164 0 241:1 1401:1 1551:1 1781:1 2180:1 2490:1 2879:1 3375:1 3837:1 4040:1 4085:1 4847:1 
0.2575793754123861 0 832:1 2257:1 2735:1 3619:1 4024:1 4316:1 
0.2578041061984148 0.008749916784658694 533:1 832:1 871:1 1154:1 1401:1 1883:1 2490:1 2923:1 2938:1 4143:1 4267:1 4287:1 
0.4435229070349099 0 215:1 502:1 750:1 1367:1 1409:1 1710:1 1781:1 2081:1 2113:1 2353:1 2490:1 2632:1 2735:1 3366:1 4024:1 
0.06773563225518321 0.04479338216430074 158:1 351:1 769:1 832:1 841:1 1000:1 1040:1 1242:1 1438:1 1448:1 1588:1 2328:1 2330:1 2644:1 3104:1 3412:1 3480:1 3609:1 4212:1 4580:1 4650:1 4765:1 4768:1 
0.3277275634670129 0.01492906364468602 1098:1 1449:1 2193:1 3360:1 4776:1 
0.01426200299027655 0 588:1 832:1 931:1 1210:1 1401:1 1459:1 1485:1 1588:1 1781:1 2016:1 2094:1 2325:1 2490:1 2604:1 3480:1 3707:1 4557:1 4650:1 
0 0.1089806130832171 26:1 47:1 158:1 433:1 533:1 671:1 687:1 1781:1 2177:1 2320:1 2490:1 3613:1 4277:1 4650:1 4740:1 
0.3043473384538853 0 355:1 581:1 832:1 1090:1 1568:1 1928:1 2353:1 2490:1 2798:1 2858:1 3148:1 4557:1 4650:1 
0.05460840328628485 0.03562127634488751 10:1 79:1 215:1 832:1 851:1 972:1 1517:1 1526:1 1596:1 1598:1 1671:1 1781:1 1953:1 2493:1 2735:1 2782:1 4441:1 4636:1 
0 0.06784846721367145 296:1 832:1 1061:1 2829:1 
0.1868322455903648 0.1067381828785058 10:1 533:1 787:1 832:1 1092:1 2650:1 2667:1 2840:1 3151:1 4650:1 4765:1 
0.3422809295824917 0.1179545853642009 98:1 645:1 832:1 2735:1 4024:1 4385:1 4763:1 
0.09560086617192065 0 533:1 832:1 1090:1 1252:1 1506:1 1781:1 2325:1 2389:1 2879:1 2921:1 4350:1 4654:1 
0.8752162304918749 0.2388137189654453 4829:1 
0.396473949670776 0.1512438141972024 1991:1 2879:1 3817:1 
0.2188287373884938 0.0597693967209532 140:1 1113:1 3888:1 4245:1 
0.2702166425069925 0.04743770454473434 62:1 630:1 637:1 832:1 1925:1 2283:1 2490:1 3292:1 3559:1 4186:1 4198:1 4320:1 4650:1 
0 0.007368988619330517 1092:1 1588:1 
1 0 1469:1 1781:1 1906:1 
0.06298551534478899 0 215:1 230:1 484:1 788:1 832:1 1232:1 1936:1 2325:1 2403:1 2407:1 2475:1 2490:1 2735:1 2798:1 3480:1 3710:1 4650:1 
0.2054843328678962 0.05872641802541282 36:1 320:1 521:1 584:1 836:1 841:1 1337:1 1781:1 2411:1 2490:1 2544:1 2545:1 3499:1 4560:1 4650:1 
0.2470868617645445 0.06366696503708286 165:1 832:1 833:1 1075:1 1655:1 2148:1 2386:1 2490:1 2661:1 2879:1 3014:1 3148:1 3572:1 3637:1 3759:1 4350:1 4600:1 4650:1 4693:1 
1 0.0370068509179814 841:1 1339:1 2411:1 2490:1 3148:1 3382:1 3480:1 4650:1 4784:1 
0.07114484471728992 0 232:1 972:1 1087:1 2490:1 2798:1 4650:1 
0.5341368149874659 0.06746443575454888 1401:1 2325:1 2514:1 3148:1 4350:1 
0.395507148400681 0.06691707497770459 677:1 972:1 2083:1 2490:1 2835:1 2990:1 3446:1 3931:1 4650:1 
0.1869664803689937 0.0319021506804989 524:1 832:1 1473:1 1781:1 1867:1 2490:1 2497:1 2735:1 3412:1 4024:1 4650:1 
0.08603783921587564 0.02063586335060209 533:1 832:1 833:1 1068:1 1367:1 1517:1 1624:1 1694:1 1749:1 1781:1 1815:1 1864:1 2225:1 2281:1 2490:1 2702:1 2735:1 3412:1 3499:1 3572:1 4575:1 4619:1 
0.1967224885354824 0.06525837111451291 832:1 1661:1 1781:1 2432:1 3907:1 4036:1 4196:1 4650:1 
1 0 972:1 1781:1 2798:1 4024:1 
0.1713240726107585 0.03944560570138875 1411:1 1578:1 1827:1 3773:1 3919:1 4205:1 4313:1 4650:1 
0.3753444886833455 0.05364220049794659 533:1 554:1 832:1 1000:1 1090:1 1117:1 1238:1 1296:1 2320:1 2411:1 2530:1 2600:1 2735:1 2837:1 2872:1 2957:1 3827:1 4060:1 4551:1 4650:1 4854:1 
0.04904735755549357 0.05280736407356634 691:1 832:1 1215:1 1613:1 1687:1 2099:1 2228:1 2490:1 2735:1 3024:1 3829:1 3979:1 4650:1 
0.3401202428724646 0.07460940616354833 31:1 1392:1 4159:1 4650:1 
0.3435996320974557 0.006208915953695346 219:1 2135:1 
0.8751424633680475 0.2387118065322079 697:1 
0.7516832165073187 0.3287760052695773 3443:1 4469:1 4650:1 
0.2522331223534445 0.07439329398100132 454:1 608:1 832:1 876:1 1517:1 2100:1 2478:1 2490:1 2850:1 4188:1 4650:1 4704:1 
1 1 
0.2189055092103122 0 215:1 264:1 288:1 750:1 832:1 838:1 1007:1 1040:1 1568:1 1687:1 1781:1 1955:1 2283:1 2389:1 2735:1 3406:1 4024:1 4060:1 4402:1 4562:1 4580:1 4585:1 4650:1 4704:1 
0.07066595824104431 0 30:1 823:1 1000:1 1367:1 1401:1 1552:1 1898:1 1918:1 2228:1 2245:1 2411:1 2462:1 2464:1 2490:1 2502:1 2720:1 2735:1 2817:1 3412:1 4060:1 4650:1 
0.4210952295809289 0.06447192872660672 838:1 1404:1 3545:1 3705:1 4799:1 
0.5277509214545765 0.1958136371969247 832:1 1987:1 2490:1 4557:1 
0.03070984612963953 0.04680634461024569 215:1 512:1 832:1 1596:1 1781:1 2320:1 2329:1 3083:1 3572:1 
0.5003744551280156 0.05025270321326697 625:1 832:1 1098:1 1449:1 1688:1 1781:1 2450:1 2460:1 2490:1 3586:1 3720:1 4560:1 4776:1 
0.2885418843702266 0 421:1 445:1 713:1 1374:1 1710:1 1918:1 2185:1 2460:1 2638:1 
0 0.07136375601854729 1092:1 2353:1 2490:1 2615:1 3371:1 3579:1 4650:1 
0.8542858003007066 0 826:1 2389:1 4661:1 
0.06327209664545805 0.06415173408101667 687:1 821:1 832:1 834:1 1088:1 1762:1 1955:1 2490:1 2644:1 2836:1 2890:1 3535:1 3560:1 4004:1 4110:1 4283:1 4650:1 4704:1 4823:1 
0.1614170097588506 0 244:1 533:1 832:1 914:1 1000:1 1267:1 1340:1 1412:1 2076:1 2490:1 2586:1 2735:1 2798:1 3105:1 3148:1 3422:1 4650:1 4765:1 
0.2172948233136575 0 198:1 215:1 832:1 1000:1 1267:1 1401:1 1781:1 2283:1 2335:1 2646:1 2735:1 3251:1 4024:1 4644:1 
0.1862131048436697 0 10:1 215:1 832:1 1092:1 1473:1 1510:1 1517:1 1781:1 2193:1 2259:1 2781:1 2879:1 3907:1 4024:1 
0 0.0705435707274583 680:1 2830:1 
0.1661924615155614 0.1145238202571653 26:1 1425:1 2257:1 2400:1 
0.01700318300214889 0 66:1 833:1 852:1 1401:1 1781:1 2193:1 2460:1 2490:1 3095:1 3827:1 4650:1 
0.0590127523827339 0 98:1 355:1 777:1 806:1 914:1 1367:1 1517:1 1781:1 1955:1 2113:1 2257:1 2411:1 2460:1 2475:1 2490:1 2735:1 3609:1 4049:1 4560:1 4562:1 4650:1 
0.2686546180209311 0.1192344969228938 687:1 777:1 781:1 832:1 1277:1 2411:1 2735:1 3572:1 3594:1 4167:1 4546:1 4650:1 
0.3289417831470369 0.0595846897556807 334:1 2703:1 2735:1 2775:1 3499:1 4367:1 4650:1 
0.3667842956604436 0 10:1 625:1 629:1 784:1 836:1 1438:1 1652:1 1733:1 1781:1 3237:1 4580:1 4650:1 
0.03115423943935607 0 296:1 4448:1 4661:1 4852:1 
0.250549550326591 0.1022982293583596 215:1 625:1 852:1 1248:1 1507:1 1781:1 2490:1 3066:1 3720:1 4172:1 
0.05452790358679689 0.08905009233949898 687:1 832:1 852:1 975:1 1087:1 2460:1 2490:1 3191:1 4582:1 4650:1 
0.5264187009418378 0.01979474140166824 198:1 215:1 832:1 1000:1 1552:1 2257:1 2735:1 2782:1 4024:1 4809:1 
0.1446644242932455 0.03720686804406011 98:1 877:1 1133:1 1401:1 2638:1 2988:1 
0.5029269483274414 0.008226876256728209 165:1 647:1 832:1 1449:1 1781:1 1883:1 2386:1 2411:1 2490:1 3480:1 4350:1 4562:1 4729:1 4851:1 
0.5669819372869507 0.09898564491207765 1469:1 1556:1 4433:1 
0.2923992396083774 0.09714447145330427 832:1 1749:1 2879:1 3074:1 3115:1 3585:1 4340:1 
0.2355745723902966 0 394:1 833:1 1000:1 1242:1 1781:1 2403:1 2465:1 2483:1 2850:1 3050:1 4560:1 4650:1 
0.1364355202459918 0.02690653827121864 832:1 1061:1 2663:1 3446:1 4028:1 
0.686171168641117 0.1163061356791077 111:1 832:1 975:1 1063:1 2540:1 2666:1 2817:1 4650:1 4755:1 
0.9970109647348413 0.2043466553132707 1985:1 3446:1 
0.3100454343574592 0 217:1 938:1 1710:1 1918:1 2735:1 2830:1 3787:1 4024:1 4316:1 
0.1589329012016791 0 352:1 533:1 1781:1 1818:1 2083:1 2490:1 2992:1 3148:1 3673:1 3746:1 4650:1 
0.004641315864923501 0 98:1 244:1 338:1 554:1 832:1 1510:1 2106:1 2411:1 2490:1 2772:1 3907:1 4317:1 4469:1 4624:1 4650:1 4763:1 4765:1 
0.249094745777748 0.01058226727383155 71:1 835:1 1090:1 1156:1 1401:1 1639:1 1781:1 2490:1 2716:1 2735:1 2752:1 3035:1 3544:1 
0.004955721073029846 0.1279207948224555 1032:1 1491:1 1642:1 4032:1 4078:1 4650:1 
0.6645390428595086 0 316:1 832:1 833:1 1438:1 2735:1 3480:1 3619:1 3720:1 4024:1 4212:1 4402:1 4560:1 4580:1 4650:1 
0.1330410089312125 0 92:1 215:1 533:1 632:1 730:1 871:1 914:1 1000:1 1781:1 2411:1 2586:1 4525:1 4650:1 
0.1670523181676517 0.04523561178385595 54:1 215:1 694:1 852:1 1000:1 1109:1 1385:1 1846:1 1985:1 2433:1 2490:1 3759:1 4024:1 
0.1296194485903054 0.05181294910817357 12:1 249:1 262:1 348:1 1090:1 1369:1 1392:1 2228:1 2337:1 2633:1 2735:1 2953:1 3309:1 3483:1 3679:1 4318:1 4585:1 4650:1 
0 0.06840787674982184 65:1 244:1 832:1 1031:1 2195:1 2328:1 2490:1 2606:1 3556:1 3636:1 4650:1 4704:1 
0.2494874123196757 0.07761993955115838 533:1 832:1 1230:1 1781:1 3636:1 3669:1 4191:1 4766:1 
0.2240614069190214 0 441:1 554:1 832:1 1781:1 1829:1 2223:1 2449:1 2485:1 2586:1 3151:1 3720:1 3927:1 4427:1 
0.8751209653566222 0.238746552872821 3618:1 
0.7424487506926375 0 832:1 1588:1 2389:1 3923:1 
0 0.03184220691262264 847:1 1000:1 1697:1 1781:1 1943:1 2283:1 2384:1 2490:1 2735:1 3005:1 3112:1 3313:1 3380:1 3673:1 3720:1 3927:1 4024:1 4060:1 4560:1 4588:1 4704:1 4716:1 
0.008046325865223339 0.0267826268422155 1225:1 2375:1 3151:1 4259:1 4637:1 
0.004072284275865131 0 198:1 244:1 332:1 832:1 841:1 883:1 972:1 1248:1 1781:1 1918:1 2051:1 2065:1 2389:1 2411:1 2490:1 3376:1 3631:1 4060:1 4192:1 4650:1 
0.1007711300222839 0.01769427584972803 98:1 109:1 490:1 832:1 1090:1 1195:1 1503:1 2384:1 2644:1 2653:1 2735:1 3526:1 3580:1 3714:1 4298:1 4650:1 4765:1 
0.3855430213720214 0.001465172762242991 554:1 580:1 832:1 1346:1 1781:1 1800:1 2735:1 3720:1 4269:1 
0.1416211182071374 0.007184387305659216 215:1 492:1 900:1 1591:1 1781:1 2927:1 3151:1 3975:1 4650:1 
0.2316167709006497 0 363:1 549:1 777:1 832:1 867:1 1061:1 1367:1 1401:1 2411:1 2469:1 2638:1 2694:1 2721:1 2910:1 4259:1 4503:1 4506:1 4560:1 4624:1 4650:1 
0.1635172036800486 0 198:1 625:1 924:1 1498:1 1781:1 2152:1 2490:1 2644:1 2984:1 4557:1 4650:1 
0.1064813260500066 0 10:1 229:1 278:1 832:1 1242:1 1781:1 2490:1 4186:1 4447:1 4557:1 4781:1 
0.4810636372996601 0.1903645066809939 2384:1 3733:1 
0.2565776918791343 0 1090:1 1452:1 3469:1 
0 0.02521678565244235 826:1 832:1 1015:1 1781:1 2333:1 2450:1 2735:1 3687:1 4017:1 4560:1 
0.4375916336950967 0.1193739989508067 471:1 2654:1 
0.09450928984568524 0.07661926344474118 599:1 808:1 832:1 2225:1 2490:1 2644:1 2715:1 2758:1 3113:1 4650:1 
0.1344247702811924 0 98:1 198:1 1281:1 1401:1 2295:1 4402:1 4784:1 
0.1407338237340841 0.04907371669188278 533:1 796:1 832:1 918:1 1154:1 1260:1 1832:1 2183:1 2386:1 2490:1 2599:1 2735:1 2909:1 3774:1 4316:1 4358:1 4416:1 
0.1472043068665783 0 855:1 962:1 1216:1 1732:1 1781:1 2377:1 2490:1 2735:1 3197:1 4191:1 
0.033771619575702 0.06573263648537353 421:1 625:1 832:1 836:1 1000:1 1216:1 1340:1 2490:1 3642:1 3875:1 4650:1 4658:1 
0 0.04004698792563007 15:1 95:1 533:1 832:1 833:1 1883:1 2235:1 2379:1 2411:1 2490:1 2829:1 2861:1 3151:1 3720:1 4529:1 4650:1 
0.2740942161260813 0.1054050229471137 159:1 245:1 832:1 957:1 1007:1 1781:1 1838:1 4438:1 4488:1 
0.675531379267715 0 625:1 750:1 1098:1 2041:1 2490:1 2735:1 2798:1 2850:1 4024:1 4557:1 
0.2162302170211645 0 215:1 294:1 838:1 1107:1 1336:1 1802:1 2225:1 2287:1 2320:1 2389:1 2490:1 2778:1 2829:1 3499:1 3720:1 4024:1 4307:1 4457:1 4650:1 4698:1 
0.343981793020019 0.06274976002036249 130:1 695:1 1263:1 2291:1 2386:1 2539:1 
0.4020325063810116 0.2404306872257395 2490:1 2735:1 2992:1 3040:1 3480:1 3502:1 3510:1 3720:1 4212:1 4465:1 4580:1 
0.175001680294049 0.06751137979624662 30:1 394:1 833:1 1459:1 1728:1 2225:1 2228:1 2319:1 2330:1 2490:1 2735:1 2963:1 2996:1 4580:1 4650:1 4675:1 4766:1 4790:1 
0.1585238448409888 0.01208823664623263 1985:1 2353:1 2411:1 2490:1 2758:1 3572:1 3719:1 3907:1 
0.5645704092482319 0.1548495766694179 10:1 773:1 816:1 1817:1 2389:1 2460:1 2490:1 3073:1 3940:1 4225:1 4560:1 4685:1 
0.2635098633869067 0 554:1 777:1 867:1 1404:1 1499:1 2103:1 2281:1 2330:1 2381:1 2490:1 2758:1 2902:1 2962:1 4048:1 4131:1 4560:1 4765:1 
0.2291215909886471 0.3709066450788457 34:1 1386:1 1955:1 2329:1 2490:1 3546:1 4753:1 
0.1596099560914279 0 198:1 630:1 832:1 833:1 904:1 1469:1 1568:1 2171:1 2411:1 2471:1 3782:1 4704:1 
0.2733504229193268 0 55:1 394:1 833:1 904:1 1088:1 1090:1 1955:1 2281:1 2735:1 3292:1 3499:1 4357:1 4661:1 
0.160368016692585 0.04042923953117462 47:1 2283:1 2735:1 2808:1 3805:1 4024:1 4295:1 4494:1 
0.2338801314502733 0 26:1 215:1 488:1 682:1 1566:1 1721:1 1781:1 1815:1 2320:1 2735:1 3086:1 3151:1 3499:1 3512:1 3758:1 4102:1 4560:1 4646:1 4723:1 4828:1 
0.04497956245690949 0.008014999455494757 198:1 533:1 904:1 2490:1 2502:1 2735:1 2736:1 4446:1 
0.05735938213009223 0 165:1 215:1 554:1 625:1 714:1 838:1 1090:1 1781:1 2083:1 2190:1 2353:1 2490:1 2798:1 3160:1 3179:1 3670:1 4162:1 4560:1 4585:1 4624:1 4650:1 4765:1 
0.4188805464193905 0 15:1 177:1 244:1 777:1 836:1 845:1 1823:1 2411:1 2490:1 4560:1 
0.1327099956573142 0.04322047642547906 98:1 215:1 819:1 904:1 1031:1 1780:1 1781:1 2176:1 2228:1 2735:1 2820:1 2865:1 3827:1 
0.3040896925297157 0.0004988845343190995 2411:1 3121:1 3132:1 3628:1 4212:1 4650:1 
0.5342132299162248 0.02856494180351601 173:1 198:1 847:1 862:1 1063:1 1449:1 1568:1 2735:1 3211:1 3480:1 3720:1 4128:1 4560:1 4650:1 
0.4209699891029464 0.007090688029901545 10:1 244:1 371:1 773:1 833:1 1090:1 1864:1 2735:1 2856:1 3129:1 3238:1 3287:1 3314:1 3600:1 4212:1 4239:1 4560:1 4650:1 4765:1 
0 0.03048155309395896 257:1 833:1 904:1 1126:1 1245:1 1517:1 1883:1 2274:1 2319:1 2328:1 2490:1 2735:1 3619:1 4060:1 4212:1 4560:1 
0.1025698769871432 0 1087:1 1460:1 1581:1 1650:1 1883:1 1898:1 2220:1 2320:1 2353:1 2490:1 2518:1 2638:1 2735:1 3073:1 3197:1 3480:1 3673:1 4102:1 4560:1 4765:1 4784:1 
0 0.01906883545153628 582:1 730:1 777:1 914:1 1073:1 1517:1 2228:1 2490:1 3091:1 
1 0.06879450602250489 102:1 847:1 1449:1 2490:1 2781:1 3148:1 3579:1 3673:1 4212:1 4560:1 
0.2908532907337951 0.0137587954623679 177:1 186:1 394:1 401:1 533:1 833:1 904:1 1059:1 1700:1 1801:1 1882:1 2409:1 2411:1 2490:1 2674:1 2974:1 3720:1 4560:1 4585:1 4638:1 4679:1 4765:1 
0.09668432466096677 0.0185220719621794 215:1 244:1 374:1 421:1 666:1 841:1 882:1 1000:1 1099:1 1844:1 2148:1 2490:1 2648:1 2735:1 2840:1 2919:1 3095:1 3535:1 3550:1 3657:1 3720:1 4221:1 4560:1 4704:1 4778:1 
0.2108507881264795 0 661:1 904:1 1401:1 1531:1 2400:1 4024:1 4176:1 4430:1 4765:1 
0.1187036813295155 0.1148825619765847 386:1 773:1 914:1 1000:1 2283:1 2370:1 2643:1 2809:1 3197:1 3627:1 3943:1 4060:1 4212:1 4650:1 
0.4307537871421658 0.01893073860282271 215:1 670:1 833:1 1000:1 1200:1 2181:1 2228:1 2283:1 2373:1 2381:1 2386:1 2389:1 2411:1 4212:1 4529:1 4560:1 4562:1 4661:1 
0.3494022577447771 0 198:1 369:1 522:1 833:1 904:1 1259:1 1517:1 1678:1 1781:1 2504:1 2736:1 3073:1 3292:1 3480:1 3572:1 3638:1 4212:1 4560:1 4781:1 
0.2821591817619659 0.01915386418219778 198:1 245:1 533:1 1000:1 1552:1 1568:1 2390:1 2411:1 3073:1 3238:1 3570:1 4212:1 4560:1 4634:1 4765:1 
0.6982477749135851 0 296:1 625:1 1401:1 1898:1 2257:1 2272:1 2460:1 2490:1 4560:1 
0.2937197388483474 0.01750516226983276 215:1 491:1 904:1 1000:1 1200:1 1340:1 1955:1 2920:1 3736:1 3961:1 4470:1 4560:1 4650:1 
0.7939532500063927 0 533:1 691:1 833:1 904:1 1090:1 1394:1 2632:1 4560:1 4580:1 4704:1 
0.2030817327877098 0 554:1 557:1 904:1 1090:1 2735:1 3065:1 3219:1 3393:1 3499:1 4560:1 4850:1 
0.2688422822170807 0 750:1 833:1 1267:1 1496:1 1510:1 1558:1 2353:1 2559:1 2735:1 3619:1 
0.1111145140457636 0 215:1 293:1 560:1 1367:1 1781:1 2281:1 2330:1 2502:1 2644:1 3266:1 4167:1 4233:1 4560:1 4793:1 
0.2479568755870358 0.04989691756547299 280:1 504:1 1152:1 1762:1 2391:1 2644:1 2735:1 
0.2787531925789192 0.002080706547157937 832:1 833:1 904:1 1090:1 1223:1 1533:1 1898:1 2353:1 2735:1 3499:1 3560:1 3940:1 4269:1 4560:1 4650:1 
0.05829611301474503 0 10:1 192:1 480:1 661:1 806:1 1062:1 1098:1 1438:1 1898:1 2325:1 2414:1 2735:1 2798:1 2912:1 3238:1 3300:1 3619:1 3865:1 4376:1 4560:1 4781:1 
0.2710187035889047 0 215:1 384:1 398:1 904:1 1292:1 1552:1 1588:1 2257:1 2490:1 3572:1 3725:1 4024:1 4402:1 4445:1 4560:1 4691:1 
0.544262823271187 0 15:1 394:1 833:1 904:1 2611:1 3446:1 3499:1 4167:1 4560:1 4650:1 4765:1 
0.2733643658346625 0.1523507521994646 554:1 733:1 750:1 1359:1 2389:1 2448:1 2735:1 3314:1 3418:1 3579:1 
0.5806088051011034 0.1360445816685192 215:1 311:1 533:1 625:1 832:1 841:1 1007:1 1117:1 1438:1 1634:1 1777:1 2586:1 2834:1 3526:1 3572:1 4070:1 4212:1 4560:1 4580:1 
0.1553554159528652 0 111:1 198:1 260:1 838:1 1000:1 1497:1 1517:1 1781:1 1969:1 2228:1 2281:1 2381:1 2411:1 2735:1 2738:1 3263:1 3388:1 3545:1 4009:1 4187:1 4546:1 4560:1 
0.7540331649186618 0.2988862766201058 316:1 533:1 841:1 2411:1 2623:1 2663:1 2735:1 4244:1 
0.3010677266564237 0.1703982488419 832:1 833:1 944:1 1367:1 1461:1 1497:1 2735:1 3221:1 4269:1 4560:1 
0.5249930573540752 0.09534695452733109 2644:1 2711:1 2850:1 3086:1 4560:1 4824:1 
0.05659078389141788 0 833:1 1178:1 2178:1 2281:1 2735:1 3480:1 3780:1 
0.107382340143423 0.02364587899297283 165:1 1350:1 1367:1 2131:1 2490:1 2586:1 2650:1 2808:1 4140:1 4287:1 4560:1 4650:1 4766:1 4778:1 
0.1537866352567491 0.03925616149716273 43:1 533:1 938:1 1179:1 1517:1 1545:1 1552:1 2252:1 2381:1 2735:1 2786:1 3238:1 3600:1 3861:1 4080:1 4212:1 4560:1 4650:1 4662:1 4765:1 4809:1 
0.0261345373928894 0.02207922790919614 94:1 244:1 976:1 1273:1 1587:1 2735:1 3205:1 4704:1 
0.1617830607792094 0.04314836809265244 293:1 533:1 554:1 841:1 1165:1 1367:1 1815:1 2059:1 2228:1 2411:1 2490:1 2735:1 3210:1 4495:1 4560:1 4562:1 4624:1 
0.6534702289261678 0.04578810376760667 1156:1 1438:1 2063:1 2228:1 2490:1 2731:1 3468:1 4066:1 4429:1 4560:1 4765:1 
0.200522147467234 0 99:1 660:1 777:1 885:1 1000:1 1237:1 1427:1 2102:1 2490:1 2663:1 2735:1 2879:1 2910:1 2912:1 3480:1 4284:1 4495:1 4560:1 4650:1 
0.1050368634992632 0.04849366907452006 34:1 533:1 666:1 833:1 1608:1 1725:1 2002:1 2490:1 2735:1 3292:1 4059:1 4212:1 4529:1 4560:1 4566:1 4650:1 
0.5127911143805357 0.03208595016863094 394:1 904:1 1696:1 2097:1 3446:1 3499:1 
0.422500638695285 0.0696127244968161 158:1 215:1 244:1 655:1 904:1 2347:1 2571:1 2584:1 3332:1 4560:1 
0 0.1102904702969877 291:1 847:1 1394:1 1864:1 2389:1 2490:1 2586:1 2750:1 3032:1 3546:1 3572:1 3720:1 4298:1 4646:1 
0.4006786473433465 0 1762:1 2335:1 2644:1 2735:1 3125:1 3151:1 3732:1 4817:1 
0.4927010071558772 0.04600386671311587 1588:1 2063:1 2217:1 2228:1 2281:1 2353:1 2735:1 
0.1842325162019645 0 87:1 307:1 1066:1 1438:1 1781:1 1815:1 2460:1 2490:1 2735:1 2798:1 3128:1 3522:1 4095:1 4212:1 4560:1 4603:1 4650:1 4805:1 4827:1 
0.3364603202448896 0.02288694836103976 338:1 706:1 750:1 1079:1 1600:1 1621:1 1781:1 2283:1 2353:1 2460:1 3151:1 3943:1 4078:1 4212:1 4560:1 4650:1 4784:1 
0.3187876105347457 0 198:1 833:1 1385:1 2490:1 2586:1 3228:1 3499:1 3579:1 
1 0.05688845992907804 904:1 2281:1 2490:1 2735:1 3086:1 3507:1 4212:1 4560:1 
0.3528586272225563 0.03565743506196507 533:1 833:1 904:1 1156:1 1517:1 2275:1 2384:1 2428:1 2490:1 2781:1 2879:1 3279:1 3525:1 4560:1 4827:1 
0.1478424478377122 0.1843303091239386 215:1 581:1 806:1 841:1 972:1 2173:1 2277:1 2418:1 2490:1 3450:1 4184:1 4562:1 4650:1 
0.1882492655140688 0.06847496840254978 10:1 158:1 533:1 554:1 1066:1 1156:1 1336:1 1381:1 1517:1 1628:1 1642:1 1883:1 1924:1 2228:1 2295:1 2297:1 2490:1 2735:1 2798:1 3307:1 3572:1 3574:1 4580:1 4789:1 
0.4350300505328507 0.1497084647679342 847:1 904:1 1090:1 1531:1 1732:1 3269:1 4376:1 
0.2289451882768279 0 773:1 904:1 1738:1 1764:1 2254:1 2258:1 2329:1 2411:1 2490:1 2632:1 2735:1 3073:1 3287:1 3499:1 3579:1 3780:1 4219:1 4376:1 4560:1 4624:1 4704:1 
0.2863779976254354 0.1141915051352201 258:1 440:1 566:1 833:1 841:1 1179:1 1231:1 1598:1 2735:1 2879:1 3086:1 3720:1 4074:1 4376:1 4560:1 4624:1 4765:1 
0.13630820383565 0.1159947870647858 228:1 634:1 904:1 1179:1 2353:1 3431:1 3885:1 4093:1 
0.2821402666933695 0.1103928805202364 215:1 841:1 1238:1 1253:1 1567:1 2225:1 2330:1 2490:1 2635:1 2722:1 2735:1 3012:1 3287:1 3480:1 4145:1 4167:1 4233:1 4580:1 4612:1 
0.007688320403771907 0 309:1 533:1 884:1 904:1 975:1 1483:1 1643:1 2356:1 2384:1 2422:1 2490:1 2586:1 3095:1 3572:1 4212:1 4356:1 4650:1 
0.6721778324481997 0.06316854159964191 332:1 2083:1 2110:1 2735:1 4212:1 
0.02473768048551601 0.0890343070214135 41:1 98:1 979:1 1367:1 2283:1 2353:1 2411:1 2521:1 2663:1 2735:1 2844:1 3024:1 3838:1 4102:1 4560:1 
0.297934681943279 0.03732782514238805 198:1 637:1 656:1 832:1 1781:1 2236:1 2490:1 3067:1 3175:1 3369:1 3574:1 4560:1 4585:1 4661:1 
0.01682158439214943 0 111:1 244:1 488:1 554:1 750:1 773:1 833:1 1090:1 1588:1 1710:1 1794:1 2228:1 2490:1 2740:1 2856:1 3068:1 3132:1 4560:1 4624:1 
0.1466863083464142 0.004707720141847991 158:1 198:1 1098:1 1425:1 1525:1 1547:1 1558:1 2075:1 2353:1 2490:1 2544:1 
0.1379195647340978 0 387:1 904:1 2228:1 2389:1 2735:1 3148:1 3345:1 4560:1 4704:1 
0.4080985949741236 0.095540117202681 119:1 554:1 904:1 1277:1 1794:1 2330:1 2415:1 4350:1 4560:1 
0 0.04108095438548016 332:1 852:1 1781:1 2396:1 2490:1 2735:1 2758:1 2862:1 3253:1 3382:1 3673:1 3746:1 
0.5998871150469073 0.03162622950109534 215:1 904:1 914:1 1000:1 1008:1 1267:1 1741:1 2735:1 3759:1 4214:1 4376:1 4402:1 4560:1 4650:1 
0.2199954725417621 0 198:1 750:1 832:1 914:1 1000:1 2283:1 2335:1 2735:1 2798:1 2817:1 3579:1 4560:1 
0.4004299473807167 0.09677771245367547 215:1 228:1 1090:1 1452:1 1864:1 1883:1 2228:1 2286:1 2490:1 2719:1 2923:1 3095:1 3701:1 4650:1 4778:1 
0 0.04561300132262591 245:1 847:1 928:1 966:1 1000:1 1090:1 1552:1 1588:1 2386:1 2411:1 2735:1 3151:1 4212:1 4266:1 4350:1 4560:1 4650:1 4781:1 
0.3654175069836934 0.03100202834725752 15:1 338:1 513:1 554:1 852:1 1000:1 1007:1 1087:1 1108:1 1650:1 1781:1 2057:1 2490:1 2735:1 2998:1 3279:1 3514:1 4560:1 4810:1 
0.05394234356515151 0 47:1 244:1 740:1 833:1 882:1 908:1 938:1 980:1 1072:1 1781:1 2490:1 2586:1 2735:1 3148:1 3480:1 3720:1 4346:1 4529:1 4584:1 
0.1742586663499053 0 198:1 625:1 832:1 1000:1 1104:1 1438:1 1517:1 1763:1 1794:1 2320:1 2411:1 2460:1 2490:1 3103:1 3907:1 4142:1 4212:1 4560:1 
0.02738349906326031 0.03052377602102844 55:1 724:1 841:1 904:1 918:1 982:1 1061:1 1098:1 1271:1 2384:1 2389:1 2910:1 3210:1 3279:1 4083:1 4212:1 4243:1 4560:1 
0.198440394398867 0.09406586206804375 190:1 1000:1 1406:1 1720:1 1985:1 2283:1 2490:1 3464:1 4212:1 4280:1 4529:1 4560:1 4650:1 4757:1 
0.1223350132521127 0 1447:1 1588:1 1877:1 2460:1 2490:1 2635:1 3151:1 
0.3144553764322728 0 244:1 833:1 904:1 1568:1 2460:1 2490:1 2872:1 3210:1 4060:1 4560:1 
0.1668340225897874 0.08161587459135491 638:1 666:1 783:1 904:1 1772:1 1955:1 1957:1 2490:1 3616:1 4206:1 
0.2016311773322919 0 93:1 111:1 288:1 750:1 904:1 1918:1 2460:1 3607:1 3687:1 
0.530794975740857 0.2616139275171098 30:1 98:1 938:1 1092:1 2735:1 
0.04693098806132457 0.05734038646559569 133:1 233:1 1463:1 2202:1 2287:1 2317:1 2504:1 2662:1 2735:1 2884:1 3755:1 4304:1 4585:1 
0.1347174724685248 0.01445307414051098 347:1 546:1 1250:1 1449:1 1524:1 1732:1 1883:1 2103:1 2326:1 2490:1 2735:1 4058:1 4088:1 4249:1 4419:1 4560:1 
0.1494679536705998 0 10:1 38:1 258:1 687:1 833:1 2735:1 2798:1 2817:1 4212:1 4560:1 4650:1 
0.276192950660341 0.001164423228231683 841:1 871:1 904:1 1164:1 1238:1 1781:1 2389:1 2411:1 3018:1 3210:1 4560:1 4650:1 4661:1 4702:1 
0.4198846599590874 0.04253305355011239 186:1 738:1 1098:1 1156:1 1588:1 1883:1 2490:1 3031:1 
0.03035302796394959 0.04731404984265411 76:1 533:1 728:1 904:1 1577:1 2228:1 2490:1 3259:1 3446:1 3480:1 3792:1 4465:1 4560:1 4650:1 4814:1 
0.1244261034183225 0.0220202103750405 177:1 198:1 554:1 625:1 1312:1 2411:1 2735:1 3073:1 4704:1 
0.1794015499851601 0.02163866691635368 488:1 533:1 972:1 1090:1 1098:1 1613:1 1776:1 1875:1 2735:1 2781:1 2850:1 2879:1 2957:1 3255:1 3422:1 3825:1 4261:1 4530:1 4560:1 4585:1 4643:1 4650:1 4765:1 
0.3715326581954727 0.1384225111478226 2735:1 3200:1 4270:1 
0 0.05845891845594348 1092:1 2074:1 2228:1 2735:1 2962:1 3273:1 3413:1 3537:1 3805:1 3990:1 4029:1 4350:1 
1 0 278:1 1087:1 1898:1 2228:1 2389:1 2411:1 2490:1 2921:1 3940:1 4650:1 
0.4026746865604964 0.05983626618237912 215:1 841:1 2082:1 2092:1 2281:1 2381:1 4442:1 4560:1 4564:1 4650:1 
0.1156126715437212 0.08349973706316219 198:1 215:1 841:1 904:1 1367:1 1517:1 1537:1 1760:1 1883:1 2008:1 2016:1 2054:1 2283:1 2383:1 3873:1 4271:1 4532:1 4560:1 
0.1461175692420189 0 554:1 676:1 1154:1 1173:1 1566:1 1781:1 1948:1 1988:1 2281:1 2389:1 2460:1 2489:1 2735:1 2840:1 2958:1 3103:1 3608:1 4408:1 4529:1 4560:1 4766:1 4778:1 
0.3948664137790678 0.07869463178614394 98:1 533:1 621:1 979:1 1098:1 1438:1 1440:1 1517:1 2411:1 2475:1 2490:1 2586:1 3151:1 4212:1 4580:1 
1 0.1446219792871221 904:1 2825:1 3103:1 
0.2930848351053565 0.01475681795789235 154:1 196:1 871:1 1000:1 1265:1 1588:1 2320:1 2411:1 2490:1 2586:1 4214:1 4529:1 4560:1 
0 0.01498016136424784 111:1 680:1 841:1 846:1 1154:1 2295:1 2320:1 2330:1 2353:1 2490:1 2595:1 2798:1 3673:1 4106:1 4186:1 4212:1 4560:1 4650:1 4765:1 
0.2223389338294565 0 98:1 244:1 833:1 954:1 1090:1 1568:1 2353:1 2632:1 2735:1 3545:1 4162:1 4212:1 4298:1 4560:1 4650:1 4765:1 4827:1 
0.1167103150710571 0 60:1 263:1 1182:1 1284:1 1439:1 1918:1 2299:1 2490:1 2586:1 2735:1 3511:1 4070:1 4212:1 4580:1 4704:1 
0.1455539282634435 0.2025444266913425 587:1 655:1 841:1 904:1 2353:1 2411:1 2506:1 
0.01023096750395991 0.09583655521163896 186:1 215:1 371:1 647:1 1090:1 2353:1 2389:1 2490:1 2920:1 3344:1 3406:1 3546:1 4167:1 4291:1 4529:1 4560:1 4650:1 
0.4778583620329998 0.01826876943653705 215:1 323:1 777:1 841:1 1277:1 1340:1 1374:1 1517:1 2490:1 2586:1 2850:1 3480:1 3572:1 3574:1 4560:1 4702:1 4858:1 
0.2926254826116609 0.1562466369497131 111:1 369:1 533:1 833:1 2228:1 2735:1 2879:1 3160:1 4298:1 4560:1 
0.4305925941923824 0.007197686736424705 198:1 215:1 307:1 488:1 841:1 916:1 1000:1 1038:1 1194:1 1834:1 1978:1 2490:1 2840:1 3148:1 4285:1 4418:1 4560:1 
0.5270685128149354 0.07230966172578995 750:1 2074:1 2228:1 2490:1 4298:1 4603:1 4650:1 4653:1 
0.2744625059148967 0 34:1 1588:1 1639:1 1710:1 2320:1 2490:1 3544:1 3961:1 4070:1 4580:1 4650:1 
0.293077798818446 0.4586662940755354 1781:1 1856:1 2490:1 2638:1 3225:1 3546:1 4482:1 
0.193555047873436 0 198:1 904:1 1553:1 2330:1 2411:1 3314:1 3446:1 4167:1 
0.1019501931521924 0.005228136423577094 198:1 777:1 1440:1 1588:1 2228:1 2490:1 2664:1 
0 0.02795064538255962 193:1 258:1 394:1 507:1 750:1 904:1 1069:1 2228:1 2328:1 2384:1 2490:1 3446:1 3579:1 4163:1 4293:1 4650:1 
0.1766456264203853 0.01292080775247468 533:1 554:1 882:1 1104:1 1108:1 2384:1 2398:1 2490:1 2642:1 3720:1 4212:1 
0.1786764752746407 0.03923519182390307 228:1 326:1 625:1 1898:1 2328:1 2490:1 3525:1 3976:1 4562:1 4765:1 
0.1772070604142759 0 833:1 904:1 1401:1 1517:1 1674:1 1925:1 2490:1 3269:1 4316:1 4343:1 4702:1 
0.8057492166791091 0 2450:1 2735:1 2798:1 2899:1 
1 0.3257344290316276 2283:1 2735:1 2798:1 4212:1 
0.3934169956906369 0 198:1 307:1 554:1 1000:1 1044:1 1489:1 1503:1 1639:1 2400:1 2450:1 2490:1 2735:1 3544:1 3610:1 3650:1 3827:1 4102:1 4212:1 4560:1 
0.1991583975531662 0 1356:1 2381:1 2490:1 2503:1 2798:1 4560:1 4721:1 
0.2644065049698123 0 165:1 533:1 2374:1 2490:1 2735:1 2749:1 3062:1 3148:1 3480:1 4258:1 4560:1 
0.04315650034108519 0 1218:1 1918:1 2386:1 2411:1 2490:1 2735:1 2798:1 3787:1 4024:1 4212:1 4562:1 
0.1646134750483942 0 307:1 334:1 477:1 625:1 841:1 1568:1 1588:1 1883:1 2193:1 2338:1 2389:1 2490:1 2735:1 3009:1 3658:1 4186:1 4214:1 4560:1 4650:1 
0.3905152737760424 0.01293757938371404 841:1 1098:1 1117:1 2490:1 2530:1 2962:1 3018:1 3151:1 4317:1 4560:1 
0.4025261407950988 0 607:1 773:1 904:1 1568:1 1781:1 2269:1 2353:1 2381:1 2615:1 4048:1 4562:1 
0.4744294006125728 0.1346408288505687 2735:1 4047:1 4418:1 
0.7088143673320985 0.06821443084775471 198:1 1790:1 2228:1 2283:1 2411:1 2460:1 2490:1 2586:1 2856:1 3725:1 4560:1 4765:1 
0.00155382745189564 0.005044959490259964 904:1 1250:1 1441:1 1556:1 1781:1 1925:1 2490:1 2586:1 2761:1 2957:1 3040:1 3073:1 3480:1 4255:1 4434:1 4560:1 4650:1 
0.03485890044314539 0.04126479599427404 288:1 498:1 904:1 916:1 1095:1 1525:1 2186:1 2375:1 2490:1 2735:1 2793:1 3073:1 3309:1 3344:1 3463:1 3480:1 3673:1 4070:1 4212:1 4560:1 4650:1 4781:1 
0 0.1825692876162041 219:1 904:1 1182:1 1438:1 1781:1 2109:1 2389:1 2411:1 2750:1 3546:1 3579:1 3827:1 4650:1 
0.0755229107936565 0 114:1 186:1 249:1 355:1 533:1 833:1 1061:1 1090:1 1331:1 1413:1 1545:1 1944:1 2265:1 2297:1 2490:1 2879:1 3423:1 3957:1 4413:1 4560:1 4650:1 
0 0.0006456455985204414 98:1 772:1 2083:1 2095:1 2320:1 2411:1 2490:1 2735:1 3872:1 4060:1 
0.3911230424636499 0.002610214382841002 198:1 385:1 979:1 1047:1 1510:1 1517:1 1883:1 1942:1 1955:1 2283:1 2328:1 2411:1 2490:1 2879:1 3148:1 3151:1 3210:1 3480:1 4029:1 4167:1 4560:1 4580:1 
0.3972052214116712 0 4:1 55:1 125:1 533:1 790:1 1154:1 1267:1 2490:1 2644:1 2703:1 2735:1 2879:1 2912:1 3424:1 3480:1 4560:1 4650:1 
0 0.00500401142212361 172:1 186:1 749:1 904:1 1351:1 1883:1 2228:1 2490:1 2580:1 4104:1 4450:1 4557:1 4650:1 
0.6397710191134268 0 1955:1 2335:1 2490:1 2735:1 2879:1 2887:1 2912:1 3074:1 3654:1 4560:1 
0.1249550403651137 0.08349956467324146 111:1 164:1 436:1 643:1 691:1 709:1 833:1 841:1 1090:1 1784:1 2490:1 2735:1 3254:1 3577:1 3787:1 4102:1 4212:1 4350:1 4560:1 4784:1 
0.2977132386500601 0.1245640572946919 625:1 773:1 1794:1 2329:1 2490:1 3431:1 4212:1 4560:1 4567:1 
1 0.03477177952823242 904:1 1680:1 3318:1 4560:1 
0.1034950560452481 0.0813701882895102 833:1 904:1 1385:1 1883:1 1957:1 2490:1 2618:1 2707:1 2735:1 3572:1 4261:1 4560:1 
0.2134920100413615 0 32:1 197:1 801:1 882:1 1773:1 1781:1 1822:1 2353:1 2490:1 2617:1 2748:1 3480:1 3579:1 3940:1 4212:1 4560:1 4578:1 4650:1 4776:1 
0.149626412343661 0.01950517445900387 197:1 832:1 1031:1 1124:1 1785:1 2281:1 2490:1 3601:1 4100:1 4119:1 4546:1 4560:1 4602:1 
0.06228071075083506 0 198:1 215:1 402:1 750:1 833:1 1556:1 1827:1 2384:1 2663:1 2825:1 2850:1 3695:1 4024:1 4074:1 4212:1 4854:1 
0.1633227769411755 0.07569009998799511 533:1 833:1 1031:1 1438:1 1517:1 1598:1 1645:1 2190:1 2283:1 2411:1 2490:1 2570:1 2735:1 3556:1 4102:1 4560:1 4650:1 
0.1538207163520157 0.039285573163716 43:1 533:1 710:1 938:1 1179:1 1517:1 1545:1 1552:1 2252:1 2381:1 2735:1 3238:1 3600:1 3861:1 4080:1 4212:1 4560:1 4650:1 4662:1 4765:1 4809:1 
0.4373210325721105 0.02669469868672019 904:1 1642:1 2447:1 2735:1 3376:1 3720:1 4070:1 4390:1 4560:1 4765:1 
0.002780650307298336 0.02989835772726025 215:1 599:1 788:1 904:1 1063:1 1087:1 1098:1 1154:1 1238:1 1331:1 2225:1 2228:1 2283:1 2330:1 2375:1 2397:1 2460:1 2468:1 2490:1 3086:1 3480:1 3566:1 3987:1 4434:1 
0.2722769153383899 0 98:1 186:1 198:1 206:1 838:1 841:1 855:1 1510:1 1588:1 1661:1 2039:1 2250:1 2460:1 2490:1 3094:1 3572:1 3625:1 4024:1 4470:1 4560:1 4690:1 
0.08818033731609799 0 165:1 235:1 436:1 723:1 833:1 914:1 1016:1 1117:1 2717:1 2735:1 3056:1 3838:1 4232:1 4560:1 4765:1 
1 0.7467665477454354 869:1 1087:1 2490:1 2735:1 
0 0.1291384645991462 158:1 855:1 1098:1 2039:1 2148:1 2228:1 2475:1 2490:1 3022:1 3427:1 3546:1 3619:1 4778:1 
0.1184426265210147 0.05087695275240949 445:1 533:1 773:1 841:1 1522:1 1886:1 2228:1 2586:1 2729:1 2735:1 2829:1 3480:1 3645:1 3795:1 4212:1 4259:1 4298:1 4560:1 4650:1 
0.5629224523396068 0.01098332934724813 10:1 554:1 832:1 972:1 1793:1 2411:1 2460:1 2490:1 2808:1 3720:1 4024:1 4212:1 4529:1 4667:1 4704:1 
0.4731116510387037 0.1496134942581714 730:1 907:1 2735:1 3047:1 3572:1 4212:1 
1 0 198:1 852:1 904:1 2225:1 2320:1 2490:1 2912:1 3073:1 4560:1 
0.3487002287013356 0.07943899797056836 832:1 2193:1 2384:1 3273:1 4212:1 4800:1 
0.465378027289592 0.3351162458316335 98:1 215:1 904:1 1393:1 2490:1 3032:1 4019:1 
0.1121536318069832 0 244:1 802:1 904:1 914:1 1000:1 1715:1 1781:1 2490:1 3148:1 3943:1 4060:1 4650:1 
0.2550333756384793 0.2167793677964546 101:1 625:1 1438:1 2339:1 2735:1 3374:1 4529:1 4560:1 
0.2427921752207583 0 22:1 165:1 351:1 1063:1 1367:1 1985:1 2228:1 2490:1 4212:1 
0.3036072376923417 0.04511344535583088 230:1 338:1 846:1 847:1 1150:1 1267:1 1776:1 2047:1 2131:1 2328:1 2535:1 2735:1 2840:1 3174:1 3673:1 3676:1 4060:1 4212:1 4560:1 4650:1 
0.01188134576089226 0 65:1 98:1 404:1 604:1 1781:1 2228:1 2463:1 2490:1 2912:1 3694:1 3940:1 4087:1 4088:1 4212:1 4560:1 4770:1 
0.07562634837211475 0.006229343763011572 819:1 1687:1 2490:1 2729:1 2735:1 2879:1 3519:1 4139:1 
0.4004870683117325 0 207:1 867:1 2257:1 2381:1 2389:1 2490:1 3214:1 3310:1 3572:1 3978:1 4083:1 4212:1 4214:1 4557:1 4560:1 4650:1 4702:1 
0.6915015447498067 0.07940029695388474 111:1 2109:1 2165:1 2353:1 4199:1 4212:1 4560:1 4650:1 4765:1 4795:1 
0.1396700601001541 0 215:1 223:1 1333:1 2411:1 2490:1 2663:1 3148:1 3627:1 
0.3046567783268664 0 384:1 832:1 841:1 1883:1 2490:1 2529:1 2798:1 3480:1 3558:1 3871:1 4186:1 4212:1 4560:1 
0.09326504729722077 0.06733228597370761 120:1 158:1 378:1 838:1 841:1 1390:1 1588:1 1752:1 1781:1 2276:1 2375:1 2490:1 2535:1 2735:1 3382:1 3446:1 3817:1 4560:1 4585:1 4735:1 4765:1 
0.06202482368338604 0.06439811794497002 338:1 488:1 678:1 841:1 914:1 1038:1 2156:1 2444:1 2735:1 2765:1 3151:1 3499:1 3572:1 4027:1 4560:1 
0.09460073029377573 0 90:1 215:1 458:1 554:1 823:1 833:1 861:1 904:1 1532:1 1781:1 1838:1 1907:1 2200:1 2280:1 2384:1 2622:1 2735:1 3480:1 3579:1 4024:1 4167:1 4176:1 4212:1 4560:1 4661:1 
0.5217579245884083 0.1176932866566134 215:1 625:1 1401:1 1517:1 1883:1 1921:1 2297:1 2490:1 3412:1 4434:1 
0.1977580125208097 0 832:1 904:1 1929:1 2459:1 2490:1 3480:1 3664:1 4167:1 
1 0 975:1 2490:1 3673:1 4140:1 4212:1 4560:1 
0.1025802729939552 0 158:1 442:1 672:1 904:1 1250:1 1599:1 1781:1 1904:1 2087:1 2329:1 2490:1 2586:1 2632:1 2664:1 3780:1 4070:1 4560:1 4624:1 4650:1 
0.569617536093538 0 111:1 590:1 1434:1 1985:1 2735:1 4560:1 
0.1044358080851143 0 10:1 227:1 533:1 841:1 847:1 904:1 1087:1 1883:1 2050:1 2381:1 2490:1 2584:1 2735:1 2912:1 3572:1 3838:1 4560:1 4650:1 4704:1 
0 0.08015049608375961 258:1 954:1 1087:1 1367:1 1386:1 1710:1 1801:1 2320:1 2735:1 3546:1 3579:1 4044:1 4650:1 
0.9545603220075202 0.07267520508350135 394:1 713:1 904:1 1710:1 3446:1 3499:1 4650:1 
0.1862771390712875 0.07196341151521581 98:1 215:1 904:1 2203:1 2517:1 2740:1 3499:1 3526:1 4560:1 4763:1 
0.2318958055641723 0.02594156732443778 855:1 904:1 1517:1 1883:1 2228:1 2490:1 3392:1 3723:1 3813:1 4195:1 4214:1 4624:1 4650:1 
0.1274526309714423 0.1302838842205561 832:1 1277:1 1497:1 1741:1 2325:1 2411:1 2692:1 2735:1 2750:1 3314:1 4263:1 
0 0.1524751948051436 334:1 587:1 625:1 784:1 833:1 904:1 1000:1 2186:1 2735:1 2798:1 4765:1 
1 0 158:1 699:1 1918:1 2490:1 4186:1 4316:1 4557:1 4562:1 
0.06991137267632629 0 324:1 1883:1 2257:1 2272:1 2490:1 2735:1 4186:1 4557:1 4643:1 
0.0005930326019326275 0.03610422303483973 111:1 186:1 833:1 1794:1 1964:1 2283:1 2335:1 2381:1 2411:1 2490:1 2735:1 2782:1 3572:1 4212:1 4343:1 4469:1 4560:1 
0.1856034291048257 0.1034883225594743 1377:1 2735:1 3619:1 4212:1 
0 0.1049406548714901 841:1 1238:1 1781:1 2384:1 2389:1 2671:1 2735:1 3086:1 3096:1 3480:1 3502:1 3754:1 4216:1 4328:1 4560:1 
0.8151399129517866 0.1768388629437731 2688:1 2735:1 4024:1 
1 0 10:1 904:1 2490:1 4214:1 4560:1 
0.05044580640886209 0.09143555414856183 1329:1 2283:1 2570:1 2735:1 2962:1 3292:1 4865:1 
0 0.00908855906899006 491:1 916:1 1006:1 1781:1 1857:1 2096:1 2105:1 2375:1 2490:1 2531:1 2540:1 2735:1 2817:1 3444:1 4000:1 4212:1 4457:1 4650:1 4841:1 
0.5826367282137292 0 777:1 1340:1 1605:1 2369:1 2490:1 4167:1 4212:1 4560:1 
0.7227976160589731 0 10:1 307:1 394:1 1238:1 1568:1 2083:1 2488:1 2490:1 2584:1 2879:1 3221:1 4557:1 4560:1 
0 0.2367942540385489 42:1 777:1 2283:1 2490:1 2586:1 2735:1 3238:1 3546:1 3720:1 3827:1 4167:1 4284:1 4560:1 
0.5483351956570544 0.08591501204359292 26:1 177:1 288:1 2330:1 2381:1 2411:1 2490:1 3040:1 3287:1 4298:1 4560:1 4650:1 
0.2079451215985372 0 198:1 803:1 833:1 1086:1 1241:1 1781:1 1815:1 2490:1 2735:1 2737:1 2920:1 3610:1 3805:1 4047:1 4557:1 4560:1 4566:1 
0.1984220857785649 0.1068912996009111 246:1 436:1 1000:1 1055:1 1685:1 1731:1 2320:1 3086:1 3720:1 
0.3820581129236779 0.05661337005738716 215:1 581:1 806:1 989:1 1517:1 1985:1 2050:1 2490:1 2586:1 2735:1 2835:1 3346:1 3572:1 3711:1 4560:1 4661:1 
0.2487620375892777 0 445:1 972:1 1172:1 1517:1 2400:1 2735:1 2782:1 3657:1 3983:1 4560:1 4765:1 
0.3918811048879353 0.1412890454114015 47:1 60:1 98:1 404:1 1000:1 1639:1 1684:1 1898:1 2353:1 2735:1 3262:1 
0.463596816783339 0 316:1 661:1 780:1 1277:1 1401:1 1864:1 2375:1 2386:1 2735:1 2920:1 3787:1 4102:1 4212:1 4560:1 4765:1 
0.2847015126984165 0.04284665056412729 1802:1 2177:1 2367:1 2735:1 4025:1 4214:1 4805:1 
0.1810997442998759 0.0372624384399115 98:1 250:1 747:1 888:1 904:1 1006:1 1559:1 1976:1 2788:1 3292:1 4354:1 4581:1 
0.5649094429013215 0.09658562677605421 252:1 4266:1 
0.02545747608442066 0 1289:1 1514:1 1781:1 2058:1 2411:1 2968:1 3151:1 3393:1 4298:1 4755:1 
0.2552573101819072 0.002370583993636102 1111:1 1955:1 2460:1 2853:1 4618:1 4704:1 
0.1958857797744086 0.02019479342622746 632:1 833:1 1367:1 1406:1 1517:1 2320:1 3973:1 4048:1 4514:1 
0.9615045192230132 0.4255970458439958 855:1 938:1 1199:1 1588:1 2228:1 2325:1 2924:1 3546:1 4770:1 
0.1154518121413175 0.1128874767684534 351:1 1179:1 1517:1 2193:1 2743:1 2782:1 3480:1 3572:1 
0.1247254231488475 0 554:1 655:1 2411:1 3132:1 3151:1 4048:1 4098:1 
0.2629553226639371 0.07906674640495559 198:1 914:1 1000:1 2036:1 2228:1 2245:1 3905:1 
0.3005941826661559 0.1305014981150814 296:1 1854:1 
0.2046110631736755 0 972:1 2798:1 
0.1511499071754361 0 914:1 
0 0.0997172308324496 469:1 632:1 847:1 2411:1 3480:1 4765:1 
0.9965980112983931 0.3398455917227742 3364:1 3572:1 
1 0.2906906837956391 198:1 1000:1 4644:1 
0.4405138625499099 0.0768294329286761 1527:1 3317:1 3499:1 
0.07124893491370725 0.2806699941356682 158:1 260:1 1179:1 2329:1 3132:1 
1 0.1443195220704123 394:1 833:1 2411:1 
0.5036764021455782 0.04696027000035884 789:1 833:1 2081:1 2330:1 2502:1 2920:1 2923:1 3045:1 
0.3457131517842441 0.2198361194099031 914:1 1000:1 1405:1 
0.09067090334805307 0.05992523182923645 1271:1 2155:1 2920:1 4562:1 
1 0 533:1 4167:1 4766:1 
0.8751832673901935 0.2385409659281999 764:1 
0.4269347701923243 0 547:1 625:1 1404:1 2586:1 
1 1 
0.1024639339052413 0.02380266812936931 533:1 625:1 1000:1 1097:1 1438:1 1725:1 2314:1 2411:1 3040:1 4180:1 4641:1 
0.6592998176710023 0.5267450686165499 158:1 215:1 244:1 394:1 3118:1 3151:1 
0.6053076808504804 0.1464374735126758 203:1 327:1 2330:1 4088:1 
0.8751883961957824 0.238640916092797 3476:1 
0 0.0105763168818646 177:1 533:1 847:1 1469:1 2330:1 2389:1 2921:1 3360:1 4348:1 4766:1 
0.2667747638150247 0.04233201735280957 78:1 722:1 2644:1 
0.3238890710823708 0.01206395195395827 1757:1 1968:1 2109:1 2353:1 2384:1 2411:1 2879:1 3095:1 4650:1 4709:1 
0.4484743079304028 0.09647743222891147 2202:1 3854:1 4650:1 4830:1 
0.5888336887457117 0.01859258267167785 1517:1 2411:1 3151:1 3783:1 
1 0.4647488728570973 2375:1 3151:1 
0.3487132771497777 0.2203548545583981 198:1 847:1 1802:1 2411:1 2758:1 3780:1 4214:1 4624:1 
0.7282070455395797 0.1455495685612475 213:1 1065:1 1918:1 2530:1 
0.5592161487297356 0 44:1 198:1 1588:1 1726:1 2278:1 2353:1 
0.6668715651215739 0.5850441652388935 680:1 
-1 0.3364692893772183 4072:1 
-1 1 832:1 1517:1 
-0.1315680654432856 0 198:1 493:1 832:1 924:1 1469:1 1479:1 1565:1 1749:1 1789:1 2228:1 2381:1 2490:1 2634:1 2644:1 3120:1 4148:1 4560:1 4650:1 
-0.5394388863176361 0.09067788577244688 2283:1 2725:1 2879:1 3040:1 3079:1 3115:1 4024:1 4650:1 
-0.5758029293131168 0 394:1 691:1 1588:1 1781:1 1985:1 2143:1 2386:1 2891:1 4024:1 4298:1 4376:1 4560:1 4795:1 
-0.1662316539296697 0.08859332752496223 248:1 1645:1 1827:1 2621:1 2660:1 3572:1 
-0.1189566992392656 0 261:1 394:1 669:1 832:1 972:1 1496:1 2257:1 3330:1 4650:1 
-0.2192587743783037 0.04784658516304403 189:1 215:1 832:1 1744:1 1781:1 1883:1 1934:1 2228:1 2389:1 2735:1 3862:1 4093:1 4599:1 4650:1 4856:1 
-0.2578466987552856 0.007681198608142268 31:1 215:1 394:1 833:1 938:1 1532:1 1781:1 2490:1 2502:1 2526:1 2735:1 2879:1 3296:1 3376:1 3499:1 3720:1 3805:1 3857:1 
-0.4286718221669411 0 832:1 2490:1 2859:1 3218:1 3619:1 4037:1 4167:1 
-0.3101958001461724 0 24:1 1156:1 1401:1 1517:1 1566:1 
-0.7216392659408856 0.05951172776495581 832:1 904:1 2735:1 3883:1 4269:1 4485:1 4650:1 4827:1 
-0.1765338010630383 0 1156:1 1401:1 3011:1 4580:1 
-0 0.07741629320820326 533:1 773:1 832:1 841:1 1179:1 1365:1 1781:1 1864:1 1867:1 2228:1 2490:1 2790:1 3073:1 4276:1 4376:1 4650:1 4839:1 
-0.2702618233810046 0.07112142990299947 1087:1 1421:1 1590:1 2120:1 2228:1 2490:1 2630:1 3040:1 3074:1 3609:1 3720:1 3968:1 4650:1 4828:1 
-0.259986525440576 0.1538461146226748 832:1 1000:1 1826:1 1883:1 2490:1 2735:1 2740:1 3287:1 3446:1 
-1 0.3365553431274637 1261:1 
-0.562473752875809 0 2450:1 2672:1 2735:1 2798:1 4024:1 4580:1 4631:1 
-0.2354895662776848 0.05190509039067503 832:1 1063:1 1341:1 1710:1 1781:1 1883:1 2490:1 2735:1 3291:1 3480:1 3720:1 4761:1 4797:1 
-0.06815062373453239 0.0935445701698765 338:1 694:1 1716:1 1828:1 
-0.419938335955008 0 278:1 445:1 2624:1 4244:1 
-0.05072104861991312 0 762:1 832:1 956:1 2297:1 2450:1 2490:1 2879:1 3446:1 3584:1 3714:1 3745:1 4003:1 4658:1 4783:1 
-0.4420645281413527 0.09645766536121123 661:1 832:1 2450:1 2735:1 2946:1 
-0.7938120514384911 0.1299505524246487 871:1 1156:1 4088:1 
-0.4162234668705715 0 1918:1 2283:1 2460:1 2501:1 2956:1 4024:1 4650:1 
-0.08192996526964692 0.04222323761606875 316:1 554:1 1000:1 1602:1 1762:1 1814:1 2490:1 2533:1 2549:1 2735:1 4269:1 4398:1 4650:1 
-0.1550732226140496 0.04898926195724308 89:1 247:1 533:1 832:1 2049:1 2228:1 2244:1 2828:1 3729:1 3981:1 4765:1 
-0.1793412856489127 0.09313791391197726 144:1 265:1 832:1 903:1 1410:1 2169:1 2218:1 2384:1 2490:1 2735:1 3931:1 4148:1 4269:1 4650:1 
-0.4162178917751655 0.07258169945541525 316:1 1160:1 1238:1 1762:1 1796:1 2052:1 2490:1 2658:1 2735:1 2874:1 3103:1 4024:1 4402:1 
-0.1696760732491892 0 198:1 228:1 838:1 1571:1 1664:1 4733:1 
-0.1919127724683895 0.005395698532007448 33:1 198:1 1007:1 1123:1 1154:1 1960:1 2877:1 
-0.09830610110148708 0 278:1 332:1 338:1 454:1 572:1 832:1 1401:1 1653:1 1728:1 2615:1 2835:1 3775:1 4650:1 4765:1 4826:1 
-0.01883931865305413 0.006520850259092615 161:1 165:1 278:1 429:1 436:1 438:1 520:1 533:1 832:1 1171:1 1268:1 1598:1 1642:1 1781:1 1882:1 2109:1 2122:1 2218:1 2228:1 2490:1 2735:1 2927:1 2943:1 2948:1 3018:1 3480:1 3499:1 3525:1 3720:1 4167:1 4190:1 4269:1 4536:1 4580:1 4650:1 4765:1 
-0.06338883608836857 0 215:1 1774:1 1781:1 1928:1 2923:1 3446:1 3499:1 4393:1 4560:1 4647:1 4650:1 
-0.5660363625503838 0 832:1 1264:1 1469:1 2228:1 4106:1 4686:1 
-0 0.004540917389918869 488:1 694:1 803:1 972:1 2283:1 2353:1 2490:1 2792:1 3292:1 3480:1 3979:1 4165:1 4650:1 4656:1 
-0.1478238273393876 0.04143546470765212 261:1 806:1 2423:1 3220:1 4390:1 4650:1 
-0.7588210314392015 0.08745944320765156 98:1 832:1 1674:1 2325:1 2389:1 2480:1 2487:1 2586:1 2663:1 2920:1 3480:1 4350:1 4402:1 4529:1 4710:1 
-0.1496990604837042 0.0238425721445502 938:1 1438:1 1545:1 1728:1 1781:1 2252:1 2729:1 2735:1 2912:1 3861:1 
-0.1953716862682817 0 215:1 397:1 488:1 832:1 972:1 1449:1 2297:1 2490:1 2617:1 2782:1 2879:1 3720:1 3907:1 3940:1 
-0.3223063894797351 0 198:1 1000:1 2257:1 2490:1 2717:1 2735:1 3148:1 3412:1 3673:1 4024:1 4186:1 4704:1 
-0.9726886397585839 0.4062049618352127 98:1 1202:1 4214:1 
-0.247109748154922 0.01053792972830714 10:1 533:1 832:1 1302:1 1412:1 1469:1 2228:1 2257:1 2389:1 2490:1 3182:1 3446:1 3570:1 4184:1 4650:1 
-1 0.07529916786621338 10:1 1678:1 1781:1 
-1 0.154082474025917 2041:1 
-0.1250853409652145 0.1213963441988162 369:1 454:1 479:1 488:1 777:1 832:1 841:1 892:1 972:1 1026:1 1542:1 1668:1 2228:1 2490:1 2735:1 2920:1 3095:1 3499:1 3546:1 4454:1 4620:1 4650:1 
-0.09221049805725483 0 465:1 572:1 606:1 734:1 832:1 1007:1 1890:1 2132:1 2353:1 2460:1 2490:1 2735:1 2838:1 2899:1 2920:1 3608:1 3782:1 4024:1 4077:1 4765:1 4778:1 
-0.1623578594365988 0 55:1 80:1 658:1 832:1 1588:1 1781:1 1883:1 2311:1 2490:1 2923:1 3103:1 4167:1 4616:1 4778:1 
-0.2650824134914083 0.06345099406744864 832:1 1925:1 4208:1 4498:1 4855:1 
-0.1840561739989716 0.03287762783237811 215:1 258:1 404:1 424:1 741:1 832:1 982:1 1000:1 1365:1 1492:1 1517:1 1691:1 1898:1 2228:1 2406:1 2411:1 2735:1 4024:1 4069:1 4083:1 4529:1 4650:1 
-0.3856553559471813 0.1213600806455663 228:1 801:1 975:1 979:1 1959:1 2225:1 2490:1 2629:1 2735:1 3911:1 4650:1 4765:1 
-0 0.1222999661483546 661:1 1140:1 1598:1 
-0.4488575237351872 0.1363959267971486 98:1 832:1 1000:1 1639:1 2735:1 3144:1 4661:1 
-0 0.0415577260342176 98:1 171:1 338:1 394:1 941:1 1156:1 1381:1 1687:1 1781:1 1969:1 2381:1 2490:1 2664:1 2735:1 2755:1 3168:1 4389:1 4551:1 4560:1 4585:1 4650:1 
-0 0.02840010127760361 101:1 198:1 307:1 605:1 666:1 750:1 979:1 1156:1 1781:1 2460:1 2490:1 2717:1 2735:1 2919:1 3838:1 3943:1 4298:1 4551:1 4650:1 4704:1 
-1 0 2373:1 3446:1 4661:1 
-0.1626360685424331 0.02432854796486078 832:1 1098:1 1682:1 1758:1 1955:1 2460:1 2490:1 2966:1 3929:1 4167:1 4314:1 4323:1 4602:1 4650:1 4765:1 
-0.1789605708263813 0.1117464569393819 832:1 904:1 934:1 1364:1 1950:1 2490:1 3099:1 3480:1 4167:1 4650:1 
-0.3058898870549634 0.03356574675275665 215:1 841:1 1000:1 1781:1 2083:1 2490:1 2735:1 3164:1 3287:1 3984:1 4186:1 4557:1 
-0.2811152220585706 0.0842522303193968 1540:1 1640:1 1986:1 2380:1 
-0.01201350608277243 0.006459436269735528 445:1 447:1 533:1 918:1 1098:1 1428:1 1650:1 1781:1 1940:1 1949:1 1999:1 2297:1 2386:1 2490:1 2735:1 2741:1 2823:1 2850:1 3095:1 3166:1 3187:1 3304:1 3328:1 3499:1 3720:1 3843:1 3918:1 4105:1 4524:1 4551:1 4609:1 4731:1 4765:1 
-0 0.002132337059870716 938:1 1568:1 1781:1 1941:1 2039:1 2191:1 2228:1 2490:1 2497:1 2515:1 2735:1 4376:1 4765:1 
-0.2519490400617068 0 10:1 515:1 832:1 1517:1 1907:1 2252:1 4350:1 
-0.1779702484504713 0.2204996732300475 215:1 832:1 1393:1 1401:1 1781:1 2490:1 3095:1 3243:1 3285:1 3387:1 3693:1 4232:1 
-0.09253566641261265 0.07370590378902352 67:1 806:1 1090:1 1473:1 1517:1 1545:1 1755:1 1776:1 1781:1 2375:1 2490:1 2612:1 2798:1 2830:1 3154:1 3546:1 4005:1 4125:1 4167:1 4650:1 
-1 0.2579257205057568 175:1 777:1 
-0.3118124261310204 0.1367839539784284 98:1 832:1 1672:1 2405:1 3740:1 
-0.08733934101868776 0.04671017906022149 295:1 526:1 533:1 564:1 636:1 832:1 833:1 1156:1 1781:1 2353:1 2490:1 2674:1 2735:1 3292:1 3298:1 3362:1 3407:1 4024:1 4529:1 
-0 0.0220861487604756 215:1 316:1 832:1 1358:1 1904:1 2867:1 2912:1 3851:1 3865:1 4616:1 4650:1 
-0.07964477866685141 0 134:1 488:1 832:1 924:1 1387:1 1414:1 1681:1 1741:1 1883:1 1925:1 2257:1 2320:1 3287:1 3393:1 3572:1 3699:1 3971:1 4350:1 4650:1 
-0.2180240363196679 0.1070691956745269 316:1 488:1 617:1 694:1 832:1 972:1 1090:1 1885:1 1918:1 2381:1 2490:1 2645:1 2735:1 3148:1 3546:1 3572:1 4154:1 4316:1 
-0.02830242312578079 0.09437249768235011 1225:1 1438:1 1762:1 2399:1 2811:1 3164:1 4319:1 
-1 0.3366403796602361 100:1 
-0.1770911833648973 0.04655533454953407 126:1 803:1 832:1 1336:1 1781:1 
-0.09848276624256885 0 740:1 1267:1 1285:1 1762:1 1975:1 2228:1 2490:1 2586:1 2644:1 2735:1 3412:1 3499:1 3738:1 3838:1 4073:1 
-1 0.2452622063792465 832:1 1432:1 2353:1 4650:1 
-0.112254911233454 0 841:1 1063:1 1087:1 1588:1 1828:1 2228:1 2460:1 2490:1 2584:1 2952:1 3446:1 4024:1 4650:1 4661:1 
-1 0.3364791388276948 2204:1 
-0.5691414602453753 0 70:1 198:1 832:1 972:1 1645:1 4560:1 4650:1 
-0.1115077073902052 0 161:1 454:1 832:1 876:1 1000:1 1201:1 1556:1 1781:1 1957:1 2490:1 2499:1 2584:1 2638:1 3211:1 3673:1 3940:1 3943:1 4650:1 4704:1 
-0.08687679154498232 0 31:1 494:1 502:1 531:1 1342:1 1401:1 2735:1 3422:1 4037:1 4650:1 
-0.08300177204202847 0.02011841789794078 98:1 151:1 215:1 428:1 750:1 841:1 1082:1 1090:1 1781:1 1993:1 2011:1 2412:1 2416:1 2490:1 2721:1 2735:1 3499:1 4006:1 
-0.09239801271754559 0 198:1 1503:1 1642:1 2123:1 3256:1 3572:1 
-0.2004504133164176 0 383:1 823:1 904:1 1189:1 1526:1 1781:1 1873:1 2083:1 2141:1 3132:1 3303:1 4470:1 4566:1 4650:1 4697:1 4765:1 4835:1 
-1 0 590:1 1918:1 3353:1 
-0.3578861056716259 0 10:1 832:1 2193:1 2257:1 3053:1 3579:1 
-0.05840188798167571 0 1018:1 1365:1 2389:1 2636:1 3965:1 
-0.05672605391327059 0.005252963006368439 215:1 331:1 816:1 838:1 1403:1 1781:1 2202:1 2228:1 2490:1 2540:1 2735:1 2871:1 3412:1 3516:1 3663:1 4212:1 4560:1 4603:1 4650:1 4691:1 4722:1 
-0 0.009047083797292918 502:1 1781:1 2241:1 4192:1 4596:1 
-0.1520790676425073 0.08499815909228814 774:1 949:1 2386:1 4516:1 
-0.3461197084635079 0.0008061127491220289 384:1 788:1 832:1 910:1 1517:1 1781:1 
-0.1870977293386472 0.0158308048125506 98:1 760:1 773:1 833:1 1365:1 1385:1 1781:1 2400:1 2490:1 2584:1 2879:1 3307:1 3480:1 3572:1 3940:1 4225:1 4376:1 4551:1 4560:1 4650:1 4718:1 
-0.03281973993845282 0.04778216742330819 11:1 533:1 832:1 924:1 978:1 1066:1 1617:1 2686:1 3349:1 3446:1 3856:1 4580:1 4650:1 
-1 0 841:1 1710:1 2257:1 4024:1 4186:1 
-0.2062646515530319 0.1550024652411681 551:1 1039:1 1115:1 
-0.3487877597588952 0.006130015439842444 123:1 482:1 2389:1 3483:1 
-0.284456097341071 0.2917044661979948 198:1 832:1 979:1 1527:1 1556:1 2335:1 2353:1 2617:1 2735:1 2824:1 2856:1 3094:1 3546:1 4325:1 
-0.2633810683970639 0.06662502985259597 832:1 1781:1 2360:1 2680:1 2735:1 3197:1 4146:1 4292:1 
-0.7151709645469306 0.2454903654529605 1063:1 1955:1 4755:1 
-1 0.3364430202602966 4612:1 
-0.3838963822052281 0.02117395102603269 177:1 351:1 730:1 1000:1 1781:1 2438:1 2584:1 2644:1 2735:1 2798:1 2879:1 3480:1 3535:1 3795:1 4024:1 4580:1 4650:1 4728:1 
-0.3748788771001513 0.1121476734200988 350:1 595:1 4687:1 
-1 0 10:1 1568:1 2850:1 4557:1 4580:1 
-0.2761828733017281 0.05588483389312277 189:1 1129:1 1781:1 2850:1 3782:1 3834:1 4470:1 
-0.2899382433526078 0.0003249911676186957 125:1 353:1 832:1 841:1 1006:1 1401:1 1637:1 1762:1 1842:1 2129:1 2389:1 2735:1 2811:1 2817:1 3151:1 3292:1 3314:1 3686:1 3773:1 4024:1 4529:1 4603:1 4650:1 
-0.2172957276378411 0.03499304378106033 713:1 832:1 1785:1 1883:1 2490:1 2923:1 3720:1 3726:1 4650:1 
-0.0210439595717211 0.02493395549444754 445:1 634:1 1212:1 2325:1 2353:1 2490:1 2641:1 2841:1 3353:1 3579:1 3720:1 4350:1 4525:1 4650:1 4698:1 
-0.3959012672692389 0 198:1 551:1 832:1 1336:1 1549:1 1781:1 3219:1 3269:1 
-0.2855741149554636 0 215:1 537:1 773:1 841:1 972:1 1358:1 1659:1 1710:1 1720:1 1781:1 1955:1 2381:1 2490:1 2735:1 2798:1 3241:1 3480:1 3502:1 4024:1 4212:1 4381:1 4560:1 4650:1 
-0 0.04878564659106304 614:1 841:1 1000:1 1154:1 1815:1 2411:1 2490:1 2726:1 2923:1 3446:1 3640:1 3759:1 4226:1 4473:1 4650:1 
-0.1223889472478144 0 167:1 355:1 832:1 904:1 1936:1 2325:1 2490:1 2502:1 2850:1 4151:1 4316:1 4650:1 
-0.4122243839722774 0 167:1 838:1 1883:1 2490:1 3572:1 4562:1 4580:1 4650:1 
-0 0.06743889791685478 215:1 524:1 841:1 1156:1 1662:1 1824:1 1884:1 4510:1 
-0 0.1624121097807285 167:1 773:1 777:1 841:1 2490:1 3537:1 3579:1 4650:1 
-0.5148196399557982 0 813:1 832:1 1381:1 1469:1 1781:1 1936:1 2228:1 2353:1 2735:1 2837:1 
-0.2759813794479944 0.02016815491366946 422:1 1517:1 1626:1 1783:1 2655:1 3369:1 
-0.1092707148882971 0.0423286790374265 890:1 1167:1 1927:1 2207:1 2370:1 2389:1 2735:1 4650:1 4708:1 
-0.1470295993794133 0.1122824726359327 215:1 773:1 814:1 841:1 1000:1 2059:1 2098:1 2460:1 2490:1 3531:1 3759:1 4024:1 
-0.08940929534252644 0.09205554231540065 453:1 1156:1 1162:1 1199:1 3254:1 3341:1 4704:1 
-0.1485278340439938 0.03193284992000125 1365:1 4453:1 
-0.08616013377270765 0.04666272346898724 198:1 533:1 832:1 852:1 1781:1 2219:1 2695:1 2735:1 2850:1 3086:1 3212:1 3540:1 3545:1 4114:1 4350:1 4614:1 4757:1 
-0.3754107116022711 0.1821479583741746 852:1 2114:1 3572:1 4048:1 
-0.2208318941048729 0.05346137714462541 215:1 278:1 436:1 773:1 841:1 1051:1 1071:1 1493:1 1781:1 2490:1 2496:1 2730:1 2735:1 2796:1 2808:1 3499:1 3619:1 4037:1 4212:1 4350:1 4650:1 
-0.1282567318159011 0 197:1 278:1 364:1 761:1 832:1 1883:1 2257:1 2325:1 2490:1 4157:1 4765:1 
-0.6914674094264653 0.2210856781309846 198:1 2462:1 2758:1 4422:1 
-0.5372722354174558 0.1825241545155813 1156:1 1917:1 2041:1 3238:1 
-0.171011947042666 0 5:1 43:1 215:1 838:1 1000:1 1401:1 1770:1 1898:1 1943:1 2228:1 2896:1 2920:1 3583:1 3607:1 4024:1 4650:1 4742:1 
-0.1042186335211226 0.05080900124174578 215:1 478:1 540:1 560:1 802:1 832:1 964:1 1098:1 2124:1 2228:1 2490:1 2507:1 2999:1 3021:1 3085:1 3331:1 3446:1 3576:1 3668:1 3900:1 4758:1 
-1 0.2297674002300193 2703:1 
-0.0320363203856756 0 832:1 1000:1 1029:1 1568:1 1781:1 2149:1 2257:1 2325:1 2460:1 2735:1 2829:1 3405:1 
-0.2111500559982256 0.04992233952482768 439:1 832:1 1211:1 1407:1 2735:1 2827:1 3242:1 4269:1 4650:1 
-0.3232433152021386 0.07017592401798473 198:1 1007:1 2067:1 3313:1 3324:1 
-0.2559544182654366 0.0106140095670065 240:1 454:1 1098:1 2182:1 2291:1 2845:1 2875:1 3412:1 3661:1 
-0.765143468887689 0.1561968083038201 2257:1 4002:1 
-0.9499897538929555 0.1610226439767308 832:1 3600:1 3750:1 4650:1 
-0.2988068186969123 0.09212127082240135 1975:1 2032:1 2228:1 2485:1 3412:1 3632:1 4015:1 4650:1 
-0.5623954033139823 0.16832229453231 2873:1 2987:1 
-0.08720610024303858 0.08686774902578435 97:1 161:1 409:1 687:1 799:1 832:1 955:1 1496:1 1955:1 1957:1 2049:1 2490:1 3720:1 4508:1 
-1 0.1704591923373735 2389:1 3075:1 4650:1 
-0.2695355237813841 0 33:1 630:1 773:1 1781:1 2400:1 3211:1 4418:1 4468:1 4557:1 4650:1 
-0.217071477135601 0.03199313578312637 391:1 1781:1 1816:1 2353:1 2376:1 2735:1 2931:1 3287:1 3917:1 4288:1 4644:1 4815:1 
-1 0.3259227352412296 1469:1 
-0.2527826244526148 0.09144397781948149 38:1 1874:1 3851:1 
-0 0.004653677676714625 832:1 876:1 1781:1 1883:1 2353:1 2411:1 2490:1 2530:1 2735:1 2850:1 3148:1 3150:1 3480:1 3720:1 4048:1 4212:1 4269:1 4580:1 4585:1 
-0.04003860044811044 0 10:1 67:1 765:1 838:1 1098:1 1185:1 1449:1 1568:1 1781:1 2353:1 2490:1 2920:1 3673:1 4214:1 4508:1 4560:1 4650:1 4765:1 
-0.1957950019657278 0.05085098417701429 1:1 249:1 832:1 1092:1 1369:1 1732:1 2090:1 2257:1 2735:1 2763:1 3357:1 3587:1 4822:1 
-0.2740035842240908 0.005880402280398498 938:1 1401:1 2043:1 2480:1 2490:1 2735:1 2879:1 4233:1 4308:1 4354:1 4557:1 4650:1 
-0.4964660751316519 0 197:1 394:1 745:1 1000:1 1701:1 1781:1 1985:1 2384:1 2460:1 2490:1 2530:1 2798:1 3136:1 3148:1 3310:1 4024:1 4212:1 4650:1 
-0.6899315981422859 0.1295830419586025 832:1 2837:1 3295:1 
-0.382694415241198 0.07228335580836638 1982:1 2252:1 3861:1 4385:1 
-0.04739938042075979 0 198:1 1485:1 2174:1 2476:1 4048:1 
-1 0.5224653913219007 832:1 1007:1 4376:1 
-0.06982662750771462 0 852:1 855:1 979:1 1004:1 1642:1 1781:1 2372:1 2910:1 3211:1 3535:1 3690:1 4560:1 4624:1 4650:1 
-0 0.02039800740230695 938:1 1156:1 1645:1 4294:1 
-0.4833057424354468 0.168351348997706 218:1 1651:1 
-0.1775073955161459 0.005534377252416052 131:1 258:1 394:1 581:1 846:1 852:1 1156:1 1781:1 2083:1 2460:1 2577:1 2735:1 2856:1 3418:1 3579:1 4024:1 4389:1 4560:1 4650:1 
-0.02038173840674891 0.03245013954071941 533:1 685:1 773:1 803:1 1338:1 1781:1 1960:1 2148:1 2735:1 3316:1 4024:1 4650:1 
-0 0.2353184451164071 158:1 338:1 376:1 1000:1 1781:1 1898:1 1919:1 2530:1 2910:1 3690:1 4024:1 4212:1 4529:1 4650:1 
-0.131771597054317 0 806:1 1604:1 1735:1 2389:1 2812:1 2850:1 2871:1 
-0 0.07019019211230763 938:1 1081:1 1192:1 1548:1 4863:1 
-0 0.1216121710103866 338:1 549:1 832:1 1624:1 1781:1 2329:1 2644:1 3305:1 3446:1 4212:1 4447:1 4512:1 4650:1 
-0.1781005005938316 0.04975827126697411 832:1 1267:1 2412:1 2735:1 4400:1 4616:1 
-0 0.02650187579629394 167:1 215:1 660:1 1000:1 1792:1 1883:1 2257:1 2490:1 3778:1 4650:1 
-0.01785307199371797 0 1517:1 1898:1 2379:1 2490:1 3353:1 3579:1 4024:1 4650:1 
-0.2921463048335626 0.05683161040171274 828:1 832:1 1781:1 1883:1 2197:1 2228:1 2787:1 3566:1 4488:1 
-0.6047112948174472 0 838:1 1140:1 
-0.01273548957464719 0 1087:1 1090:1 1175:1 1264:1 1450:1 1784:1 1898:1 2225:1 2228:1 2419:1 2490:1 2729:1 2735:1 2840:1 3148:1 3896:1 4060:1 4106:1 4693:1 4816:1 
-0.2884834648589409 0.2781951940435144 362:1 833:1 2283:1 2490:1 2923:1 3526:1 4212:1 
-0.4298473009801039 0 841:1 1449:1 1898:1 2490:1 3446:1 4186:1 4560:1 
-0.2111628211721425 0.06991437734323491 808:1 1000:1 1121:1 1212:1 1598:1 1935:1 2074:1 2283:1 2361:1 2490:1 3673:1 4060:1 4540:1 4560:1 4650:1 
-0.3990223237867076 0.03260558527979839 215:1 750:1 904:1 990:1 1347:1 1936:1 2320:1 2735:1 2912:1 3534:1 
-0.3883910423395324 0.0450962782999707 55:1 158:1 444:1 533:1 832:1 833:1 1340:1 1580:1 2330:1 2723:1 4024:1 4212:1 4560:1 
-0.2297907423129362 0.1057354756992431 454:1 514:1 687:1 1036:1 2325:1 2586:1 3086:1 3171:1 3222:1 3238:1 3314:1 3551:1 3909:1 4011:1 4212:1 4279:1 
-0.3245335389433767 0 1401:1 1802:1 1883:1 2375:1 2490:1 3151:1 3273:1 3579:1 3681:1 4212:1 4348:1 4580:1 
-0.269422891926373 0.04985425716228754 198:1 215:1 228:1 327:1 641:1 1858:1 2283:1 2389:1 2490:1 2650:1 2676:1 2735:1 2921:1 3334:1 3392:1 3446:1 4212:1 4560:1 
-0.1924129342767958 0 51:1 215:1 549:1 873:1 904:1 1473:1 1781:1 2215:1 2411:1 2825:1 3446:1 4060:1 4560:1 4614:1 
-0.04244433443383211 0.01600086215220392 111:1 272:1 533:1 838:1 841:1 1000:1 1061:1 1090:1 1390:1 1430:1 2110:1 2228:1 2490:1 2584:1 2735:1 2995:1 3596:1 3940:1 4069:1 4560:1 4650:1 
-0.6573060962218497 0.007112396169816163 394:1 1090:1 1242:1 1517:1 2490:1 4192:1 4469:1 4560:1 4596:1 4776:1 
-0.5120165350464738 0 215:1 1781:1 1904:1 2272:1 2381:1 2673:1 3151:1 3332:1 4212:1 4560:1 
-0.1501625916136728 0 215:1 384:1 532:1 836:1 904:1 965:1 1781:1 2086:1 2281:1 2381:1 2490:1 2558:1 3068:1 3714:1 4560:1 4707:1 
-0.02888470487012114 0 554:1 717:1 777:1 1650:1 1678:1 2060:1 2490:1 2700:1 2735:1 3073:1 3267:1 3603:1 3720:1 4167:1 4351:1 4560:1 4765:1 
-0.7326944938649287 0 10:1 244:1 371:1 2490:1 4560:1 
-0.04323254576443974 0 501:1 1327:1 1430:1 1733:1 1815:1 2490:1 4212:1 
-0.3578997819217752 0.07928817500845803 841:1 904:1 1438:1 2297:1 2510:1 2633:1 2735:1 2884:1 3747:1 3907:1 4560:1 4650:1 
-0.1509389813332916 0 244:1 533:1 853:1 904:1 1296:1 1957:1 2063:1 2490:1 3151:1 3785:1 3982:1 4560:1 4580:1 
-0.00496652640912588 0.06025308560641214 1271:1 2281:1 2835:1 4220:1 4580:1 
-0.4770767779016775 0.04387819666840238 1021:1 1838:1 1883:1 1898:1 2381:1 2490:1 2735:1 3073:1 4560:1 
-1 0.05784974316846828 904:1 3256:1 3572:1 
-0.2403731824744388 0.5847615684698246 1179:1 3109:1 3546:1 4212:1 4730:1 4811:1 
-0.1227507920865685 0 195:1 625:1 777:1 1378:1 1568:1 1720:1 2306:1 2490:1 3104:1 4102:1 4167:1 4212:1 4560:1 4765:1 
-0.07321162601590894 0.05481012149515729 838:1 1184:1 1558:1 1883:1 1970:1 2490:1 2735:1 3086:1 4402:1 4551:1 
-0.1554391499238453 0 33:1 186:1 533:1 1295:1 1386:1 1517:1 1608:1 2092:1 2198:1 2329:1 2389:1 2411:1 2693:1 2735:1 2850:1 2910:1 3032:1 3279:1 4214:1 4241:1 4560:1 
-0.08368149696994347 0 215:1 375:1 833:1 904:1 932:1 938:1 1199:1 1374:1 1781:1 1802:1 1882:1 1955:1 2490:1 2644:1 2706:1 2735:1 3301:1 3574:1 3643:1 4193:1 4264:1 4298:1 4730:1 
-0.5566369955086083 0.1558433537609611 198:1 535:1 841:1 855:1 869:1 1449:1 2039:1 2490:1 3572:1 3720:1 4434:1 4560:1 4661:1 
-0.1505285503168181 0.1389492220006529 2122:1 2225:1 2490:1 2735:1 3572:1 4230:1 4376:1 
-0.5114467236963053 0.1418655992223295 111:1 533:1 625:1 773:1 1381:1 1955:1 2109:1 2225:1 2490:1 3018:1 4580:1 4765:1 
-1 0.01650516255138088 165:1 513:1 533:1 904:1 2330:1 2411:1 2460:1 2490:1 2534:1 2632:1 2798:1 2840:1 3480:1 4167:1 4560:1 
-0.04614716677410043 0.01152582985191617 215:1 278:1 307:1 1004:1 1090:1 1130:1 1802:1 2444:1 2460:1 2490:1 2498:1 3872:1 4225:1 4508:1 4560:1 4642:1 4765:1 
-0.377014905237771 0 304:1 369:1 841:1 1558:1 2148:1 2490:1 3073:1 3318:1 3720:1 4024:1 4560:1 
-0.2373493694120433 0 832:1 2460:1 2735:1 2962:1 3006:1 3720:1 4376:1 4560:1 
-0.2190914965860032 0 394:1 777:1 833:1 836:1 1089:1 1179:1 1339:1 1517:1 2083:1 2171:1 2228:1 2381:1 2490:1 2545:1 2644:1 2840:1 3073:1 3270:1 3506:1 4376:1 4560:1 4650:1 4704:1 4765:1 
-0.4953809451232001 0 1249:1 3073:1 4212:1 4560:1 
-0 0.01543709785486196 215:1 703:1 832:1 835:1 1373:1 1444:1 1497:1 1568:1 2297:1 2490:1 2520:1 2735:1 2840:1 3287:1 3842:1 4102:1 4213:1 4560:1 
-0.2540503156020072 0 98:1 215:1 488:1 972:1 1208:1 2113:1 2283:1 2389:1 2460:1 2490:1 2808:1 3781:1 4102:1 4560:1 4784:1 4864:1 
-0.2072792798301484 0 625:1 1430:1 1459:1 1898:1 2121:1 2490:1 3289:1 3537:1 4102:1 4148:1 4557:1 4560:1 
-0.3879289122388968 0.04885946995434559 215:1 581:1 777:1 1588:1 1776:1 2411:1 2490:1 2600:1 3940:1 
-0.001216459798936205 0 1150:1 1781:1 2490:1 2681:1 4060:1 4212:1 4333:1 4376:1 4560:1 4648:1 
-0.07291969600550492 0.05547522362108742 33:1 165:1 252:1 533:1 572:1 716:1 1156:1 1926:1 1943:1 2228:1 2411:1 2437:1 2490:1 2735:1 3480:1 3575:1 3845:1 4560:1 4650:1 4770:1 
-0.1723760320309228 0.03928295983510725 106:1 177:1 198:1 215:1 244:1 246:1 742:1 1179:1 1438:1 1898:1 2102:1 2384:1 2389:1 2490:1 2588:1 2735:1 3240:1 3492:1 3499:1 4031:1 4512:1 
-0.3340530991565021 0 198:1 745:1 867:1 904:1 1000:1 1474:1 2245:1 2330:1 2389:1 2490:1 2584:1 2592:1 2735:1 2798:1 2921:1 3480:1 3638:1 3854:1 4092:1 4214:1 4560:1 
-0.4387194919395908 0 10:1 171:1 533:1 1000:1 1199:1 1438:1 2083:1 2389:1 2400:1 2735:1 2781:1 3210:1 3759:1 4070:1 4560:1 
-0.1529843455665048 0.09670014682011832 10:1 215:1 625:1 832:1 836:1 847:1 972:1 1222:1 1365:1 1676:1 1883:1 2190:1 2353:1 2490:1 2584:1 2682:1 2735:1 2934:1 3086:1 3480:1 3720:1 3907:1 4214:1 
-0.4532564902307411 0.04218311418147492 904:1 1696:1 2160:1 2325:1 2540:1 3516:1 4418:1 4497:1 
-0.02669160922831028 0.0001053553700124914 215:1 533:1 1155:1 1673:1 2281:1 2389:1 2628:1 3039:1 4275:1 4376:1 4567:1 4650:1 
-0 0.09720969154375275 47:1 338:1 533:1 625:1 649:1 1955:1 2170:1 2384:1 2460:1 2490:1 3331:1 3579:1 3838:1 4212:1 4560:1 4650:1 4765:1 4766:1 4797:1 
-0.3119463328366344 0 201:1 215:1 1449:1 2374:1 2490:1 2661:1 3499:1 3572:1 4560:1 
-0.09761797853667897 0 451:1 773:1 776:1 833:1 1398:1 2297:1 2490:1 2879:1 3031:1 3579:1 4094:1 4195:1 4212:1 4560:1 4679:1 4765:1 
-0.1100183167513992 0 421:1 1115:1 1568:1 1898:1 1918:1 2228:1 2375:1 2490:1 3353:1 3572:1 3865:1 4212:1 4650:1 
-0.2474074624810598 0.0188358649588921 938:1 1545:1 1879:1 2245:1 2735:1 2753:1 3499:1 
-0.09009915065944055 0 47:1 244:1 394:1 904:1 1199:1 1781:1 2281:1 2353:1 2675:1 2923:1 3148:1 3222:1 3943:1 4024:1 4557:1 4560:1 4650:1 
-0.2665512654588789 0.006421824215731127 47:1 904:1 938:1 1276:1 1588:1 1680:1 1776:1 1802:1 1970:1 2083:1 2225:1 2490:1 2644:1 2735:1 3018:1 3019:1 3086:1 3368:1 4402:1 4512:1 4704:1 
-0 0.02926523600010723 67:1 625:1 731:1 1000:1 1517:1 1642:1 1705:1 1781:1 2148:1 2454:1 2490:1 2735:1 2793:1 3073:1 3525:1 3545:1 3610:1 3673:1 4037:1 4560:1 
-0.1626499428756352 0.01565792636318154 264:1 384:1 668:1 904:1 940:1 1063:1 1525:1 1552:1 2122:1 2297:1 2358:1 2490:1 2509:1 2735:1 3307:1 3480:1 3688:1 3715:1 3798:1 3871:1 4560:1 
-0.4258042337836207 0 2484:1 2490:1 3499:1 4212:1 4560:1 4804:1 
-0.06507021663942365 0 111:1 249:1 394:1 750:1 832:1 841:1 918:1 1517:1 1558:1 1918:1 2330:1 2490:1 2735:1 3673:1 4560:1 4784:1 
-0.1063317256955635 0 161:1 554:1 773:1 841:1 975:1 1053:1 1443:1 1802:1 1949:1 1950:1 2197:1 2363:1 2386:1 2389:1 2490:1 2735:1 2788:1 3560:1 4102:1 4212:1 4661:1 
-0.05273232353669728 0.1322404717982771 10:1 150:1 158:1 215:1 517:1 625:1 687:1 1179:1 1278:1 1438:1 1815:1 1883:1 2283:1 2322:1 2389:1 2490:1 2797:1 2921:1 3197:1 3417:1 3480:1 4212:1 4854:1 
-0.01926510155709931 0 522:1 625:1 661:1 823:1 841:1 1285:1 1453:1 2176:1 2228:1 2490:1 2729:1 2735:1 2879:1 4167:1 4212:1 4560:1 
-0.5042135138868821 0.06917798100362087 554:1 597:1 625:1 676:1 904:1 1517:1 2040:1 2329:1 2411:1 2490:1 2586:1 2735:1 3446:1 3827:1 4214:1 4390:1 4765:1 4861:1 
-0.6508223909746137 0.1143852393337622 533:1 750:1 979:1 1098:1 1781:1 2735:1 3287:1 3446:1 4167:1 4212:1 4560:1 4603:1 4624:1 
-0.3201887769203815 0.04338323094404894 1098:1 1196:1 1229:1 1424:1 1490:1 2283:1 2535:1 2735:1 4212:1 4214:1 4560:1 4851:1 
-0.2165607686598923 0 215:1 311:1 661:1 833:1 841:1 938:1 1098:1 1985:1 2436:1 2566:1 2735:1 2850:1 3211:1 4212:1 4560:1 
-0.1050960098834451 0.05937420141943613 215:1 644:1 841:1 904:1 1316:1 1815:1 1981:1 2481:1 2541:1 2735:1 3318:1 3389:1 3663:1 
-0.446507856874129 0.02690693906669259 194:1 244:1 533:1 1794:1 1802:1 2281:1 2411:1 2879:1 2910:1 3898:1 4429:1 4560:1 4765:1 
-0.08981671637093956 0 2101:1 3318:1 3394:1 3527:1 4212:1 4580:1 4679:1 
-0.4873134507451311 0 533:1 852:1 1517:1 1677:1 2411:1 2490:1 2733:1 2912:1 3210:1 4560:1 
-0.2078766360513704 0.008336341923425505 394:1 441:1 750:1 806:1 833:1 841:1 904:1 1781:1 1862:1 1898:1 2384:1 2490:1 3054:1 3572:1 3764:1 4560:1 4777:1 
-0.2118698756368531 0.09863635299250262 1156:1 1732:1 1980:1 2502:1 2735:1 4212:1 
-0.4523812775757819 0.3953345616179907 111:1 158:1 587:1 699:1 904:1 1000:1 1087:1 1339:1 2228:1 2879:1 3418:1 3546:1 3572:1 3574:1 4070:1 4560:1 4650:1 
-0.1876497090658941 0.0307921646393099 1243:1 2735:1 2879:1 3115:1 3982:1 4828:1 
-0.5623702018420129 0.2288465897088777 2324:1 2490:1 2584:1 2638:1 4212:1 4560:1 
-0.8504107858468758 0 502:1 1267:1 2735:1 
-0.897036432213039 0.06085373166393661 625:1 1000:1 1242:1 1277:1 1552:1 1568:1 2460:1 2490:1 3720:1 4212:1 4560:1 4766:1 
-0 0.05506850946936137 26:1 244:1 338:1 745:1 1776:1 1781:1 2245:1 2735:1 2830:1 3446:1 3593:1 4048:1 4560:1 4580:1 
-0.4445553309049785 0.0768343186506063 2384:1 3073:1 3858:1 4212:1 4560:1 4775:1 
-0.3179179826828688 0.2099487586378185 1271:1 3086:1 3884:1 4474:1 
-0.1359753692942222 0.03244893201899071 215:1 533:1 584:1 832:1 1000:1 1448:1 1639:1 1928:1 1985:1 2490:1 3158:1 3544:1 3787:1 3807:1 3995:1 4580:1 4661:1 4693:1 
-0.5157817076831339 0 1874:1 2193:1 2281:1 2586:1 3103:1 3480:1 3574:1 4127:1 4347:1 4560:1 4765:1 
-0.02984684633729362 0 116:1 325:1 1449:1 2389:1 2411:1 2490:1 3519:1 4560:1 4580:1 4650:1 
-0.8166476988566379 0.1395899243141148 1059:1 1367:1 1797:1 2081:1 2490:1 2632:1 2817:1 3148:1 4650:1 
-0.3389885010850037 0.003797566934536791 904:1 1548:1 2257:1 3129:1 4499:1 4673:1 
-0.106162933161484 0.06309688220587741 823:1 1206:1 1588:1 1706:1 2490:1 3188:1 3596:1 3673:1 4212:1 4560:1 
-0.3834420546772556 0 109:1 198:1 833:1 855:1 1144:1 1367:1 1575:1 1781:1 2092:1 2140:1 2411:1 2586:1 2781:1 2879:1 2911:1 3086:1 4316:1 4560:1 
-0.3145414290302413 0.03258037581087595 111:1 215:1 258:1 395:1 806:1 1404:1 1985:1 2171:1 2381:1 2586:1 2735:1 2909:1 3280:1 3373:1 3392:1 3480:1 3579:1 4467:1 4560:1 4704:1 
-0.304259211660188 0.08988062152653349 166:1 533:1 847:1 904:1 1050:1 1278:1 1781:1 2006:1 2490:1 2586:1 2825:1 2932:1 3247:1 3576:1 3827:1 4557:1 4560:1 4650:1 4719:1 
-0.159708704957614 0 198:1 208:1 852:1 855:1 914:1 969:1 1291:1 1446:1 1781:1 2268:1 2490:1 2735:1 2777:1 2912:1 2923:1 3094:1 4212:1 4560:1 
-0.3777574768842601 0 637:1 713:1 1340:1 1608:1 2389:1 2434:1 2490:1 2886:1 3719:1 3961:1 4212:1 4650:1 4765:1 
-0 0.0379282145263818 215:1 256:1 330:1 637:1 661:1 1051:1 1239:1 1545:1 2228:1 2330:1 2490:1 2735:1 3446:1 4212:1 4560:1 
-0.01514371521220553 0 394:1 436:1 513:1 835:1 904:1 937:1 1000:1 1781:1 1829:1 2057:1 2440:1 2850:1 3151:1 3455:1 3574:1 4286:1 4560:1 
-0.5279689485636192 0 7:1 198:1 694:1 904:1 2411:1 2584:1 3148:1 3499:1 4693:1 
-0.3353204375500702 0 10:1 904:1 1192:1 1588:1 1883:1 2228:1 2376:1 2490:1 3208:1 4650:1 
-0.6413505859227028 0.121559030452627 198:1 533:1 625:1 1000:1 1968:1 2490:1 2735:1 2798:1 2903:1 3525:1 4382:1 
-0.1628646191853287 0 215:1 244:1 288:1 833:1 878:1 895:1 918:1 1090:1 1517:1 1964:1 2228:1 2490:1 3131:1 3148:1 3725:1 4560:1 4650:1 4828:1 
-0 0.3697874880655076 750:1 773:1 841:1 938:1 1204:1 1517:1 2228:1 2297:1 2490:1 2536:1 2693:1 3428:1 3546:1 4225:1 4580:1 
-0.2455026308145343 0.02212269335302884 244:1 554:1 771:1 1588:1 1732:1 1781:1 1977:1 2384:1 2490:1 2735:1 3667:1 3824:1 4212:1 4415:1 4505:1 4560:1 4624:1 4650:1 
-0.1700190247204333 0 1098:1 1449:1 2190:1 2490:1 3073:1 3557:1 3943:1 4052:1 4212:1 4560:1 4650:1 4765:1 
-0.1697544875410594 0.06724251904930885 533:1 545:1 833:1 855:1 1732:1 2327:1 2373:1 2490:1 2586:1 2735:1 3406:1 3480:1 3740:1 4132:1 
-0.495664980748977 0.04014871412162582 171:1 629:1 847:1 904:1 1104:1 1199:1 1277:1 1566:1 1588:1 2057:1 2411:1 3148:1 3961:1 4140:1 4560:1 4562:1 4650:1 4765:1 
-0.2598165440516353 0 1579:1 1909:1 2281:1 2394:1 2411:1 2674:1 4212:1 4858:1 
-0 0.04008673075683668 357:1 413:1 1156:1 1874:1 2735:1 3513:1 4755:1 
-0.5328349021311687 0.192656075148643 833:1 904:1 1543:1 2386:1 2490:1 3480:1 4610:1 
-0 0.0007916304000779245 98:1 394:1 1156:1 1781:1 2735:1 3673:1 4402:1 4560:1 4580:1 
-0.4354746121951488 0.03014017128600823 3:1 288:1 307:1 870:1 2320:1 2411:1 2490:1 2717:1 3572:1 4024:1 4060:1 4065:1 
-0.138598027689921 0 165:1 833:1 904:1 1952:1 2225:1 2283:1 2373:1 2490:1 2644:1 3197:1 3930:1 4212:1 4560:1 4784:1 
-0.1943156803260918 0.001147392206589354 533:1 1173:1 1404:1 1972:1 2225:1 2490:1 2586:1 2723:1 2735:1 3086:1 4376:1 
-0.3427288588395242 0.2040041789246103 98:1 215:1 815:1 852:1 1588:1 1644:1 2228:1 2490:1 2735:1 3322:1 3872:1 4212:1 4298:1 4560:1 
-0.339919616589919 0 10:1 329:1 904:1 1000:1 1090:1 1092:1 1438:1 1488:1 1588:1 1781:1 2383:1 2490:1 2735:1 3480:1 3499:1 3572:1 3673:1 3780:1 4114:1 4560:1 4580:1 
-0.4166896719438762 0.02381968493013596 215:1 296:1 336:1 713:1 938:1 1063:1 2083:1 2411:1 2490:1 3480:1 3526:1 3720:1 4225:1 4698:1 4702:1 4854:1 
-0.1241814227829879 0.09295127863235747 502:1 989:1 1620:1 1741:1 2283:1 2428:1 2490:1 2735:1 2808:1 2850:1 3720:1 3939:1 4212:1 4376:1 4765:1 
-0 0.02135199638364989 33:1 79:1 228:1 547:1 934:1 1379:1 1726:1 2225:1 2330:1 2411:1 2490:1 2736:1 3480:1 4560:1 
-0.3236825659076962 0 111:1 245:1 284:1 533:1 750:1 777:1 904:1 1285:1 1497:1 1528:1 1588:1 2353:1 2384:1 2490:1 2802:1 2808:1 3787:1 4212:1 4560:1 4624:1 4650:1 4854:1 
-0.1748543666979853 0 215:1 488:1 750:1 972:1 1000:1 1138:1 1837:1 1846:1 2013:1 2400:1 2490:1 2686:1 2735:1 2798:1 3290:1 3307:1 3382:1 3718:1 4214:1 4536:1 4552:1 4560:1 
-0.00250963250160976 0.126323785866163 14:1 773:1 832:1 938:1 1000:1 2106:1 2431:1 2460:1 2490:1 3073:1 3813:1 4350:1 4560:1 4650:1 
-0.9542484297673539 0 177:1 198:1 307:1 338:1 533:1 1087:1 1117:1 1438:1 1510:1 1781:1 2063:1 2411:1 2530:1 2781:1 2991:1 3292:1 3673:1 4212:1 4560:1 4562:1 4704:1 
-0.02253045785735542 0 215:1 533:1 1255:1 1367:1 1503:1 1593:1 2193:1 2214:1 2411:1 2460:1 2490:1 2843:1 2923:1 3151:1 3223:1 3310:1 3567:1 3871:1 4001:1 4179:1 4560:1 
-0.2199970491167378 0.0185675870367328 7:1 549:1 841:1 1449:1 1710:1 2173:1 2490:1 2735:1 2829:1 4024:1 4167:1 4560:1 4702:1 
-0.2831232544008229 0 198:1 215:1 832:1 1883:1 2161:1 2281:1 2325:1 2353:1 2490:1 2628:1 3966:1 
-0.6451734181673424 0.01534592131378132 138:1 2490:1 4214:1 4560:1 
-0.07027174957770362 0.07895476609435756 198:1 303:1 1000:1 1898:1 1955:1 2283:1 2460:1 2735:1 3581:1 3989:1 4560:1 
-0.0569320109014723 0 215:1 621:1 755:1 1438:1 1517:1 1566:1 2283:1 2335:1 2411:1 2490:1 2735:1 2769:1 2908:1 3148:1 3499:1 4070:1 4212:1 4274:1 4337:1 4560:1 4650:1 4854:1 
-0.1218240952897129 0 833:1 1892:1 1952:1 2039:1 2490:1 3197:1 4212:1 
-0.1759503070271868 0.003227963908347565 737:1 835:1 1367:1 1449:1 1517:1 1913:1 1999:1 2386:1 2490:1 2735:1 2738:1 3336:1 3943:1 4560:1 4562:1 4650:1 
-0.1279818130897443 0.09845701566682719 316:1 702:1 777:1 1037:1 1104:1 2283:1 2586:1 2735:1 3418:1 3480:1 4560:1 4580:1 
-0.1676041926639716 0 43:1 50:1 198:1 215:1 338:1 533:1 647:1 904:1 972:1 1221:1 1776:1 1781:1 2131:1 2228:1 2248:1 2389:1 2879:1 4560:1 4650:1 4781:1 
-0.1079801793685779 0 198:1 215:1 338:1 549:1 554:1 914:1 1277:1 1510:1 1517:1 1627:1 1776:1 2411:1 2490:1 2959:1 3148:1 3892:1 4562:1 
-0.6517551964064888 0 15:1 198:1 307:1 833:1 975:1 2281:1 2335:1 2490:1 2735:1 3572:1 3737:1 3876:1 4560:1 4667:1 
-0.1894354145334994 0.05565908176539228 158:1 371:1 554:1 603:1 625:1 924:1 1517:1 1776:1 1883:1 2131:1 2330:1 2353:1 2375:1 2488:1 2490:1 2782:1 4048:1 4357:1 4560:1 4650:1 
-0.1581358704144019 0 198:1 218:1 805:1 832:1 833:1 904:1 1918:1 2283:1 2297:1 2490:1 2735:1 2866:1 4212:1 4384:1 
-0.163373613520739 0 836:1 1000:1 1087:1 1391:1 1512:1 1568:1 2283:1 2460:1 2490:1 2735:1 2962:1 3320:1 3521:1 3673:1 4212:1 4434:1 4560:1 4650:1 
-0.394123298881317 0 1054:1 2281:1 2320:1 2411:1 3287:1 3671:1 4212:1 4560:1 4766:1 
-0 0.04840339785929227 215:1 902:1 1023:1 1145:1 1315:1 1393:1 1448:1 1639:1 1728:1 1994:1 2061:1 2228:1 2386:1 3572:1 4212:1 4376:1 4560:1 4650:1 
-0.2961724641553807 0.02299233332259375 30:1 533:1 750:1 1087:1 1090:1 1238:1 1781:1 2735:1 2856:1 3073:1 3438:1 3725:1 4536:1 4560:1 4708:1 4757:1 
-0.06753520098490601 0.07357135793922635 1000:1 1345:1 1367:1 1381:1 2330:1 2374:1 2411:1 2674:1 2735:1 3659:1 4214:1 4560:1 4650:1 4765:1 
-0.8113629471248592 0 904:1 1517:1 1768:1 2912:1 4560:1 
-0.2940714595510332 0 215:1 833:1 904:1 1689:1 1891:1 3031:1 3318:1 3579:1 3780:1 3869:1 4212:1 4560:1 4650:1 
-0.1472985179952163 0.07845286520237284 215:1 232:1 278:1 637:1 897:1 1156:1 1231:1 1430:1 1569:1 1656:1 2078:1 2283:1 2490:1 2651:1 2735:1 2929:1 2957:1 3148:1 3446:1 4302:1 
-0.1718551188997611 0 338:1 487:1 750:1 1406:1 1456:1 1457:1 2074:1 2735:1 3499:1 4084:1 4212:1 4551:1 4560:1 4624:1 4765:1 
-0.3128332121023049 0.09678587852570922 355:1 1503:1 1631:1 2411:1 2490:1 2735:1 4560:1 4650:1 4784:1 
-0.1055367358528095 0.01827133479737431 186:1 724:1 1000:1 1098:1 1588:1 1658:1 2283:1 2509:1 2735:1 3422:1 3483:1 3753:1 3928:1 4212:1 4281:1 4560:1 4580:1 
-0.379292979799485 0.0489087656801149 1820:1 2241:1 2735:1 4212:1 4560:1 
-0.1369134410617955 0.09735640487567496 533:1 581:1 833:1 841:1 918:1 1530:1 2411:1 2590:1 3073:1 3086:1 3673:1 3884:1 3999:1 4560:1 
-0.4478177368455821 0 833:1 1367:1 2490:1 3148:1 4214:1 4376:1 4560:1 4650:1 
-0.1735317592268186 0.07822615879984293 1579:1 1729:1 1809:1 2735:1 3016:1 3725:1 4436:1 4560:1 
-0.1709725704363038 0.1433072593245163 1449:1 1501:1 2490:1 2850:1 3572:1 4560:1 
-0 0.1158228217687772 1140:1 1183:1 2228:1 2735:1 3256:1 3572:1 
-0.3182211054872132 0 646:1 833:1 1063:1 1438:1 1906:1 2002:1 2411:1 2460:1 2490:1 3284:1 4560:1 4783:1 
-0.5698433171763909 0.1462570358577062 1000:1 1845:1 2185:1 2283:1 2335:1 2735:1 2899:1 
-0 0.2181717328863617 838:1 1497:1 2735:1 3256:1 3572:1 4772:1 
-0.006988559126039576 0 171:1 820:1 833:1 1090:1 1450:1 1781:1 2228:1 2257:1 2460:1 2490:1 2830:1 2850:1 2856:1 3648:1 3943:1 4060:1 4209:1 4212:1 4560:1 
-0.1212904462303046 0.00557190477015871 111:1 343:1 833:1 1390:1 1811:1 1925:1 2283:1 2381:1 2485:1 2735:1 3025:1 3176:1 4212:1 4418:1 4560:1 4650:1 
-0.3995801081051429 0.292981077490534 377:1 394:1 904:1 2965:1 3499:1 4312:1 4650:1 4739:1 
-0.3930141623058345 0 196:1 288:1 316:1 833:1 1449:1 2228:1 2735:1 2793:1 2839:1 3480:1 3953:1 4070:1 4402:1 4557:1 4560:1 4708:1 4765:1 
-0.6790736746129566 0.07760897625595717 394:1 2091:1 2320:1 2735:1 2825:1 3499:1 4560:1 4580:1 4646:1 
-0.04597383152542991 0.06150644967310692 445:1 835:1 1000:1 1156:1 1346:1 2472:1 2586:1 2735:1 3734:1 3881:1 3947:1 4294:1 4501:1 4698:1 4762:1 
-0.2312157668398455 0 135:1 570:1 833:1 1090:1 1104:1 1898:1 2735:1 2835:1 2984:1 3559:1 4557:1 4560:1 
-0.1084024059692419 0 67:1 929:1 1000:1 1449:1 1864:1 2328:1 2389:1 2490:1 3257:1 3480:1 3673:1 3952:1 4167:1 4212:1 4560:1 
-0.1816150450239702 0 369:1 750:1 833:1 1090:1 1098:1 1365:1 1496:1 1692:1 1846:1 2336:1 2490:1 2516:1 2571:1 4266:1 4560:1 4650:1 
-0.1254827448475624 0.1514722551243908 215:1 661:1 733:1 904:1 1406:1 2301:1 3157:1 3720:1 3730:1 4660:1 
-0.3803063764588576 0.01439604363832409 33:1 488:1 972:1 1154:1 1753:1 1790:1 2059:1 2228:1 2411:1 2490:1 2544:1 2571:1 2586:1 3221:1 3446:1 3685:1 4240:1 4650:1 
-0.06326547402063633 0 355:1 488:1 533:1 833:1 841:1 1090:1 1163:1 1390:1 1732:1 1781:1 1864:1 2490:1 3673:1 4560:1 4867:1 
-0.04419718090558609 0 198:1 215:1 1000:1 1315:1 2490:1 2798:1 3154:1 3877:1 4580:1 4765:1 
-0.2192853306201056 0 198:1 533:1 632:1 691:1 724:1 803:1 844:1 904:1 1815:1 1918:1 2148:1 2381:1 2411:1 2798:1 2879:1 4560:1 
-0.2727925107310712 0 311:1 533:1 833:1 1661:1 2411:1 2467:1 2490:1 2600:1 2879:1 3151:1 3468:1 3480:1 4212:1 4224:1 4551:1 4650:1 4708:1 
-0.1819973932274564 0 395:1 508:1 1000:1 1401:1 1517:1 1588:1 1864:1 1882:1 2735:1 2889:1 3217:1 3572:1 3927:1 4212:1 4560:1 4650:1 4705:1 
-0.02577920589741377 0 33:1 455:1 832:1 841:1 876:1 1864:1 2490:1 2837:1 2924:1 4560:1 
-0.4183865424800314 0 198:1 554:1 904:1 1031:1 1570:1 2176:1 2469:1 2490:1 3720:1 4109:1 4212:1 4298:1 
-0.9485922707977527 0 244:1 394:1 833:1 1090:1 1781:1 2353:1 2411:1 2490:1 2923:1 3940:1 4560:1 4650:1 4784:1 
-0.1298691620613904 0.03693259951060159 198:1 647:1 832:1 1283:1 1462:1 1781:1 2245:1 2283:1 2328:1 2436:1 2490:1 2735:1 2879:1 3043:1 3086:1 3297:1 3376:1 4144:1 4160:1 4410:1 4469:1 4732:1 4778:1 
-0.9994545954184185 0.1667143118584462 502:1 1267:1 2735:1 
-0.1064428928068373 0 74:1 1000:1 1217:1 1401:1 1804:1 2353:1 2384:1 2389:1 2490:1 2586:1 2952:1 3033:1 3081:1 3748:1 4212:1 4623:1 4755:1 4765:1 
-0.3844642641410173 0.001446866558995731 111:1 215:1 625:1 838:1 904:1 908:1 939:1 1117:1 1340:1 1588:1 1781:1 2174:1 2202:1 2228:1 2353:1 2400:1 2490:1 3148:1 3545:1 3657:1 3795:1 
-0.09832707388152527 0 367:1 554:1 981:1 1449:1 2490:1 3940:1 4560:1 4650:1 4740:1 
-0.5303414976335999 0.1328939646940388 101:1 554:1 625:1 867:1 1277:1 2411:1 2490:1 2835:1 4560:1 
-0.2892155914930838 0 125:1 661:1 975:1 1000:1 1568:1 1588:1 1883:1 1925:1 2080:1 2320:1 2411:1 2530:1 2735:1 2912:1 3151:1 3579:1 4060:1 4293:1 4316:1 4560:1 4766:1 
-0.3776376551047402 0.02740847999416532 151:1 215:1 788:1 914:1 1000:1 1404:1 2381:1 2490:1 3382:1 3416:1 4495:1 4560:1 4650:1 4740:1 
-0.447663476670232 0.0257945453597664 914:1 1000:1 1305:1 2083:1 2389:1 2450:1 2490:1 2604:1 2735:1 2981:1 3249:1 4557:1 4559:1 4650:1 
-0.1756314906708266 0.03181052769774896 98:1 615:1 904:1 1449:1 1864:1 2083:1 2228:1 2307:1 2490:1 2735:1 3032:1 3227:1 3572:1 4512:1 4560:1 4650:1 4765:1 
-0.07632494133125498 0 198:1 264:1 694:1 730:1 841:1 904:1 1271:1 1387:1 1781:1 1955:1 3127:1 3673:1 4186:1 
-0.1708714988741156 0.09449803579382371 101:1 803:1 833:1 1090:1 1503:1 2281:1 3040:1 4650:1 
-0.257589134320577 0.02822026714451382 54:1 601:1 833:1 847:1 1061:1 1090:1 1449:1 1503:1 1781:1 2090:1 2353:1 2375:1 2490:1 2726:1 2952:1 3148:1 3154:1 4560:1 4702:1 4776:1 
-0.4129019708502578 0 625:1 975:1 1098:1 1568:1 1918:1 2228:1 2386:1 2490:1 2735:1 3254:1 3579:1 4212:1 4560:1 4840:1 
-1 0.265337978674281 253:1 904:1 
-0.01495390080380913 0 215:1 777:1 904:1 1000:1 1066:1 1517:1 2493:1 3256:1 3499:1 3572:1 3610:1 4560:1 
-0 0.03492741525845156 20:1 215:1 533:1 1263:1 1267:1 2281:1 2330:1 2672:1 2674:1 2717:1 2735:1 4254:1 4557:1 
-0.3197508255371749 0 777:1 1517:1 1930:1 2257:1 2389:1 2490:1 2682:1 3502:1 4212:1 4560:1 4704:1 
-0.2060349724703131 0 394:1 743:1 836:1 847:1 1762:1 1781:1 1955:1 2353:1 2490:1 2600:1 2735:1 2798:1 2835:1 2840:1 2910:1 3103:1 3513:1 3725:1 4560:1 4603:1 4679:1 4702:1 4778:1 
-0.5937230592618823 0.1414844429649673 10:1 625:1 904:1 1238:1 1781:1 2050:1 2224:1 2490:1 2644:1 2728:1 2924:1 3105:1 3572:1 4560:1 
-0.1191599338328244 0 15:1 803:1 1517:1 2490:1 3049:1 3148:1 4560:1 4650:1 
-0.1213835390084026 0 1367:1 2411:1 2923:1 3585:1 4102:1 4167:1 4212:1 4560:1 4784:1 
-0.6013906349943233 0 198:1 833:1 852:1 1000:1 1438:1 1639:1 1864:1 1955:1 2490:1 2764:1 2798:1 4316:1 4560:1 4580:1 4650:1 4765:1 
-0.1012487475800202 0 1374:1 1568:1 2460:1 2487:1 2490:1 2735:1 2879:1 3770:1 3817:1 3892:1 3896:1 4024:1 4212:1 4350:1 4557:1 4730:1 4840:1 
-0.07950390964414189 0.01567247822268882 661:1 832:1 833:1 904:1 1428:1 1556:1 1794:1 2398:1 2490:1 2735:1 2850:1 4212:1 4516:1 4580:1 
-0.2562349347642894 0 394:1 803:1 904:1 1009:1 1090:1 1639:1 2017:1 2110:1 2273:1 2298:1 2328:1 2490:1 2735:1 3410:1 3480:1 3499:1 3517:1 3544:1 4560:1 
-0.01716751781889582 0.04930619893145089 177:1 266:1 516:1 533:1 569:1 661:1 841:1 1092:1 1295:1 1781:1 1834:1 2490:1 2492:1 3525:1 3660:1 3924:1 4006:1 4580:1 4765:1 
-0.06346196371088837 0.05000311528673401 841:1 1365:1 1883:1 2381:1 2469:1 2490:1 2735:1 3480:1 4560:1 
-0.02903671310151325 0.01089358904308922 533:1 803:1 832:1 1341:1 2148:1 2281:1 2414:1 
-0.1558324893163774 0 1063:1 1862:1 2735:1 2879:1 3673:1 4070:1 4354:1 4778:1 
-0.06400427645419819 0 81:1 82:1 625:1 750:1 889:1 938:1 1090:1 2389:1 2460:1 2490:1 2531:1 2647:1 2842:1 3663:1 4024:1 4650:1 4661:1 4778:1 4868:1 
-0 0.1079991413822803 852:1 1271:1 1473:1 1957:1 2490:1 2735:1 3271:1 3513:1 3572:1 4560:1 4580:1 4765:1 
-0.1812664198543136 0.008258490863993634 421:1 445:1 625:1 1000:1 1401:1 1542:1 1762:1 1814:1 2063:1 2644:1 2735:1 3333:1 3662:1 3870:1 4513:1 4560:1 
-0.2959944310569881 0 15:1 642:1 1673:1 2228:1 2501:1 2735:1 2879:1 4212:1 4560:1 4650:1 
-0.4900663164701085 0.03406084518973927 904:1 1401:1 1497:1 1824:1 1955:1 2411:1 2735:1 3151:1 3387:1 3499:1 3878:1 4585:1 4765:1 
-0.4829773743281403 0.1345696958264151 516:1 2703:1 2735:1 
-0.1449762545600306 0 158:1 355:1 627:1 806:1 1020:1 1277:1 1568:1 1588:1 1598:1 1898:1 2328:1 2353:1 2400:1 2490:1 2586:1 2735:1 3838:1 4557:1 4560:1 4587:1 
-0.3460770904278274 0 98:1 554:1 914:1 1000:1 1090:1 1639:1 2283:1 2335:1 2574:1 2735:1 3086:1 4333:1 4560:1 4765:1 
-0.298890970916161 0 904:1 1625:1 1778:1 1781:1 2490:1 2586:1 2713:1 3095:1 3151:1 3412:1 3480:1 3693:1 3811:1 4851:1 
-0.1262545386525268 0.1117946273145499 394:1 513:1 841:1 904:1 906:1 990:1 1588:1 1781:1 2283:1 2643:1 3943:1 4060:1 4364:1 4560:1 
-0.1719357456292546 0.006167888764828378 29:1 186:1 215:1 376:1 472:1 520:1 833:1 984:1 2381:1 2386:1 2460:1 2490:1 2494:1 2817:1 3073:1 3286:1 4212:1 4284:1 4529:1 4560:1 4650:1 
-0.2758930360636866 0 1087:1 1267:1 1647:1 1710:1 2373:1 2735:1 4102:1 4212:1 
-0.1202934574581735 0.04933398704788613 1776:1 1781:1 1883:1 1898:1 2037:1 2411:1 2490:1 2522:1 4298:1 4560:1 
-0.1293863199503475 0 215:1 296:1 859:1 904:1 924:1 1090:1 1363:1 1469:1 2359:1 2386:1 2460:1 2511:1 3787:1 3920:1 4238:1 4470:1 4560:1 4626:1 4650:1 
-0.2607728444730018 0.06905544871957178 1095:1 2450:1 2674:1 2735:1 2909:1 3720:1 
-0.4393059623194139 0.1105858568102947 849:1 1815:1 2490:1 2735:1 3610:1 4560:1 
-0.4621125574879712 0.03383936147982424 158:1 773:1 833:1 847:1 871:1 938:1 1679:1 1883:1 2075:1 2109:1 2386:1 2460:1 2490:1 2793:1 3151:1 4024:1 4562:1 
-0.2629943825577534 0 2373:1 2411:1 4212:1 
-0.4752175187466088 0 10:1 572:1 750:1 904:1 2490:1 2623:1 2721:1 4212:1 
-0.3627897038277438 0.2362040052992438 149:1 191:1 841:1 2490:1 2735:1 4757:1 
-0.1855726489513412 0.0539904028459313 215:1 410:1 763:1 2390:1 2490:1 2850:1 3526:1 4350:1 4560:1 4566:1 4784:1 
-0.407472560337416 0.2185281241433178 2343:1 4520:1 4766:1 
-0.6253843051034305 0.09648820209495867 111:1 584:1 3579:1 4186:1 
-0 0.07716901316482803 215:1 1205:1 1523:1 3048:1 4708:1 
-1 0.01176286662174796 4661:1 
-0.4348235291400699 0.08325009763987605 1090:1 1502:1 1624:1 2735:1 3674:1 
-0.6549305156908859 0.2286667486430794 316:1 833:1 934:1 1815:1 1918:1 2411:1 2638:1 3720:1 
-1 0.3364695934570011 4244:1 
-0.3701028926051542 0.07573650749926071 261:1 2353:1 2384:1 3095:1 3186:1 4522:1 
-1 1 2411:1 3151:1 4585:1 
-1 0.2264469517518842 554:1 1035:1 
-1 0.0002503503055004371 158:1 554:1 699:1 1401:1 2330:1 4048:1 
-0.3045472194507231 0.2134664067281599 647:1 1179:1 3697:1 4580:1 
-0.1293081261282044 0.07154155090910085 938:1 948:1 1292:1 1687:1 2375:1 3134:1 3202:1 3377:1 3483:1 3579:1 3585:1 
-0.9421287515405097 0.09242463273270432 215:1 841:1 1726:1 2400:1 3151:1 3611:1 4650:1 
-0.2013266187735093 0.1524989127713603 315:1 3211:1 4580:1 4650:1 
-1 1 
-0.4583740051366495 0 61:1 841:1 1568:1 1898:1 2411:1 3148:1 3572:1 
-0.1679680485847072 0.1100151035912574 832:1 841:1 1902:1 4037:1 4650:1 4837:1 
-0.184122300842515 0.009855017748876637 694:1 833:1 938:1 1065:1 1532:1 1883:1 2320:1 2373:1 2947:1 
-0.1465207048622519 0 832:1 1000:1 1087:1 2411:1 2414:1 2782:1 3720:1 4167:1 4244:1 4806:1 
-0.1407298102814281 0.1566921391373597 841:1 935:1 1568:1 2330:1 2386:1 4282:1 
-0.2860102098519653 0 316:1 661:1 1904:1 2375:1 2460:1 2879:1 2912:1 3979:1 4167:1 
-0.1380001581743229 -0.1644290643943562 17:1 111:1 520:1 661:1 702:1 832:1 841:1 1000:1 2389:1 2490:1 2586:1 2735:1 2983:1 3266:1 3340:1 3480:1 3502:1 3720:1 3759:1 4167:1 4383:1 4580:1 4650:1 
-0.06510620630540268 -0.1533417546760947 180:1 661:1 832:1 1517:1 1781:1 2330:1 2473:1 2490:1 2735:1 3073:1 3351:1 3441:1 3827:1 4230:1 4363:1 4560:1 4765:1 
-0.07676933753248433 -0.01980236238829135 37:1 832:1 1088:1 1112:1 1294:1 1438:1 1817:1 2490:1 3309:1 3441:1 3815:1 3893:1 4592:1 4650:1 4843:1 
-0.008921179526278012 -0 1451:1 3363:1 3441:1 3988:1 
-0 -0.005535353767435919 215:1 454:1 533:1 625:1 832:1 979:1 1007:1 1130:1 1781:1 2490:1 2703:1 3299:1 3546:1 3720:1 
-0.1645964851941264 -0.1382590122207335 313:1 687:1 832:1 1000:1 1559:1 2411:1 2679:1 2750:1 4233:1 4650:1 
-1 -1 
-0.5211086230071418 -0.4786813778624907 533:1 687:1 733:1 832:1 1883:1 2650:1 4650:1 
-1 -1 
-0.3389098153977561 -0.4477576773319761 533:1 832:1 881:1 1302:1 2297:1 2490:1 3538:1 3572:1 4580:1 4650:1 
-1 -1 
-0 -0.04519570817216337 832:1 833:1 1114:1 1535:1 2259:1 2386:1 2490:1 2502:1 2735:1 2879:1 3167:1 3649:1 3709:1 
-0.2817665405168257 -0.2573647634984219 224:1 927:1 1708:1 2442:1 4534:1 
-0.06450247869951324 -0.05196998236697459 111:1 1341:1 1405:1 1624:1 1882:1 2109:1 2228:1 2353:1 2411:1 2490:1 2735:1 2791:1 3097:1 3103:1 3280:1 3546:1 3862:1 3927:1 4178:1 4232:1 4298:1 4399:1 4650:1 
-0.04002463654350596 -0.02400350346486917 228:1 244:1 1401:1 1781:1 1872:1 2146:1 2184:1 2334:1 2353:1 2389:1 2490:1 2682:1 3649:1 3771:1 3813:1 4335:1 
-0.145057311594377 -0.1839514491936027 98:1 145:1 832:1 1451:1 2997:1 3720:1 3988:1 4534:1 4650:1 
-0.8790457786125162 -0.4092580883598131 3649:1 
-0.07054357072745826 -0.03118766887348912 245:1 466:1 533:1 832:1 2389:1 2830:1 3649:1 4435:1 4493:1 4547:1 
-0.02604644899935988 -0.02484381484396649 404:1 832:1 841:1 904:1 1285:1 1354:1 1774:1 2014:1 2045:1 2230:1 2320:1 2411:1 2735:1 3509:1 3649:1 4024:1 4102:1 4268:1 4650:1 4719:1 
-0.04208990618522582 -0.07739674823839955 181:1 377:1 847:1 1295:1 1449:1 1663:1 1781:1 1898:1 2228:1 2298:1 2411:1 2490:1 3480:1 4557:1 4650:1 4762:1 4836:1 
-0.06454867789782626 -0.02787750040490055 132:1 377:1 567:1 1478:1 1635:1 1781:1 2375:1 2490:1 2902:1 3190:1 3816:1 4189:1 4464:1 4650:1 
-0.1433231871462555 -0.1862023599125477 98:1 637:1 832:1 841:1 1000:1 1038:1 1556:1 1781:1 1883:1 2386:1 2490:1 2616:1 2850:1 3019:1 3480:1 3578:1 4339:1 
-0.1910951811717739 -0.1573027499798031 101:1 177:1 549:1 914:1 979:1 1588:1 1762:1 1781:1 2228:1 2490:1 2644:1 2857:1 3101:1 3151:1 3280:1 3779:1 3817:1 4487:1 4650:1 4762:1 
-0.4936600754798001 -0.3915118503572039 377:1 581:1 832:1 1781:1 2329:1 3150:1 3720:1 
-0.4359057108268362 -1 832:1 3546:1 4585:1 
-1 -1 
-0.06590961868760102 -0 145:1 1451:1 3441:1 
-0.04774671088632641 -0.03891584148322136 533:1 832:1 1140:1 1169:1 1225:1 1368:1 1451:1 1781:1 2399:1 2657:1 2716:1 3151:1 3502:1 3808:1 3988:1 4534:1 4650:1 
-0 -0.01709586478538971 60:1 91:1 271:1 559:1 756:1 832:1 1657:1 3499:1 3649:1 4568:1 4650:1 
-1 -1 2073:1 
-0.3585469054828597 -0.3592731249068815 1000:1 1781:1 2490:1 2983:1 3572:1 3814:1 4214:1 4521:1 4650:1 
-0.003176083642100738 -0.02216044618131841 98:1 832:1 833:1 934:1 1002:1 1717:1 1975:1 2222:1 2228:1 2384:1 2437:1 2556:1 2735:1 3180:1 3233:1 3412:1 3502:1 3782:1 3900:1 4558:1 4580:1 4765:1 
-0.1195496893053498 -0.08832842429142924 443:1 1362:1 1880:1 2849:1 3441:1 
-0.03750267042685766 -0.05059565848945791 611:1 832:1 1154:1 1179:1 1438:1 1732:1 2074:1 2355:1 2490:1 2740:1 2868:1 3222:1 3546:1 4088:1 4228:1 4349:1 4580:1 4650:1 4765:1 
-0.004801965599186156 -0 98:1 314:1 814:1 1418:1 1781:1 1823:1 2085:1 2490:1 2735:1 2936:1 3480:1 3649:1 3985:1 
-1 -1 3800:1 
-0 -0.01325399118768865 185:1 1156:1 1265:1 1388:1 3042:1 3473:1 3649:1 3804:1 4089:1 
-0.1013791783007077 -0.07040186458713321 1000:1 1271:1 1381:1 2137:1 2750:1 2879:1 3412:1 3441:1 4650:1 4713:1 
-0.07552383993436487 -0.1284518761470523 509:1 551:1 560:1 814:1 1000:1 1101:1 1179:1 1393:1 1503:1 1937:1 2039:1 2411:1 2441:1 2490:1 2735:1 2902:1 3148:1 4212:1 4523:1 4549:1 4650:1 
-0.1006749691098352 -0.1276934217131266 282:1 698:1 777:1 979:1 1143:1 1168:1 1238:1 1281:1 1517:1 1525:1 2490:1 2817:1 3019:1 3446:1 3720:1 4704:1 4765:1 
-0.6034249670017842 -0.6112236194283434 198:1 2490:1 2758:1 3082:1 3086:1 4225:1 4463:1 4650:1 
-0.1149712387232121 -0.07897200153500325 135:1 1769:1 1781:1 2202:1 2490:1 2894:1 3441:1 3991:1 4214:1 4536:1 
-0.00404699827165088 -0.005459196849890102 313:1 904:1 1277:1 1955:1 2389:1 2750:1 3418:1 3441:1 4322:1 4723:1 
-0.26970444279281 -0.4827301267270912 777:1 1271:1 1815:1 2228:1 2490:1 3480:1 3546:1 
-0.5316307752971079 -0.4586052653778128 533:1 904:1 938:1 2186:1 2595:1 3579:1 4130:1 4560:1 4717:1 
-0.2655538438111489 -0.27974503316829 98:1 832:1 904:1 938:1 2228:1 2283:1 2570:1 3563:1 3576:1 3826:1 4715:1 
-0.07023426163605924 -0.07041142448199068 2:1 182:1 904:1 1751:1 2228:1 3023:1 3073:1 3499:1 3546:1 3924:1 4141:1 4379:1 4560:1 4602:1 4650:1 4704:1 
-0.08973293184156349 -0.09558797672254817 198:1 296:1 353:1 394:1 832:1 852:1 2228:1 2411:1 2458:1 2460:1 2490:1 2567:1 2735:1 3073:1 3546:1 3720:1 4038:1 4140:1 4325:1 4603:1 
-0.3316404495569237 -0.3066201090961318 215:1 558:1 847:1 852:1 858:1 989:1 1367:1 2460:1 2490:1 2530:1 2586:1 4212:1 4560:1 4650:1 
-0.2133460956948916 -0.2167121132911384 312:1 650:1 832:1 841:1 1125:1 1556:1 1598:1 1998:1 2320:1 2490:1 2735:1 3499:1 3881:1 4529:1 
-0.02317946158390988 -0 101:1 158:1 186:1 215:1 244:1 635:1 833:1 1385:1 1878:1 1955:1 2297:1 2735:1 2750:1 2910:1 3014:1 3053:1 3546:1 3673:1 3937:1 4560:1 4740:1 
-0.432018343160875 -0.3399874022608243 215:1 979:1 1092:1 1493:1 2228:1 2283:1 2286:1 2490:1 
-0.1598240244855505 -0.1536426122845637 832:1 833:1 918:1 1010:1 1056:1 1559:1 1889:1 2329:1 2386:1 2411:1 2735:1 2825:1 3556:1 3572:1 4534:1 4560:1 4580:1 4765:1 
-0.01895658842583572 -0.01760743312101323 177:1 214:1 1000:1 1438:1 1719:1 2386:1 2490:1 2504:1 2522:1 2718:1 3114:1 3441:1 3498:1 3882:1 4467:1 4551:1 4560:1 4650:1 
-0.1731906840537935 -0.04001443907486902 10:1 47:1 79:1 98:1 158:1 244:1 394:1 833:1 855:1 1031:1 1517:1 1683:1 2154:1 2735:1 3480:1 3546:1 3572:1 3585:1 3936:1 4560:1 4585:1 4765:1 
-0.3493899694410483 -0.4160113429139296 98:1 723:1 841:1 1000:1 1393:1 1955:1 2735:1 3593:1 4024:1 
-0.1247022048446018 -0.05989093114812488 713:1 841:1 1393:1 1657:1 2735:1 3185:1 3593:1 4274:1 
-0.2179750649327786 -0.1324737412227866 159:1 461:1 1000:1 1717:1 2490:1 2735:1 3436:1 3691:1 4202:1 
-0.4180991803207672 -0.3281942146896572 833:1 1238:1 1723:1 2173:1 2283:1 2937:1 4212:1 4469:1 4560:1 4650:1 
-0.1546445628497716 -0.1865122060575844 554:1 587:1 589:1 1156:1 1666:1 1794:1 1970:1 2283:1 2411:1 2490:1 2522:1 2530:1 3151:1 3324:1 3472:1 3499:1 4135:1 
-0.2111989433675471 -0 533:1 683:1 904:1 2116:1 2228:1 2411:1 2735:1 3546:1 
-0.08753048314412851 -0.1096577351930551 43:1 416:1 1000:1 1552:1 1970:1 2411:1 2522:1 2613:1 2735:1 3387:1 3816:1 
-0.1717563539224722 -0.1800323489089876 158:1 194:1 699:1 1883:1 2490:1 3922:1 4175:1 4389:1 4395:1 4529:1 4628:1 4650:1 
-0.3940156591000789 -0.5629120142460512 904:1 1179:1 1706:1 2735:1 3057:1 3446:1 3572:1 3807:1 4212:1 4560:1 
-0.1576538728579235 -0.1794539530696724 85:1 373:1 625:1 1156:1 1238:1 2283:1 2411:1 2490:1 2591:1 2850:1 3073:1 3387:1 3480:1 3840:1 4060:1 4212:1 4298:1 4560:1 4650:1 
-0.1281539044236955 -0.1325541454708786 10:1 773:1 951:1 1781:1 1835:1 2308:1 2375:1 2381:1 2460:1 2490:1 2735:1 3446:1 3447:1 3480:1 3546:1 3673:1 3765:1 4212:1 4560:1 4765:1 4776:1 
-0.03209996516124266 -0.07196028934636001 852:1 904:1 933:1 2106:1 2593:1 2735:1 3070:1 3541:1 3546:1 4580:1 
-0.481596336970313 -0.2636857379656312 215:1 666:1 847:1 904:1 1090:1 1642:1 1781:1 2010:1 2325:1 2330:1 2411:1 2735:1 3118:1 4127:1 4350:1 4560:1 
-0 -0.03957201857578069 215:1 696:1 841:1 852:1 904:1 1641:1 2061:1 2171:1 2490:1 3086:1 3441:1 4646:1 4723:1 
-0.0455817877952996 -0.1428542231418864 230:1 246:1 800:1 832:1 841:1 904:1 979:1 1449:1 1648:1 1955:1 2187:1 2644:1 2879:1 2910:1 3018:1 3019:1 3185:1 3196:1 3526:1 4111:1 4601:1 
-0.09071181180908028 -0.03086151752900436 98:1 196:1 198:1 773:1 847:1 914:1 1393:1 1817:1 1898:1 2283:1 2353:1 2490:1 2735:1 3446:1 3925:1 
-0.4857146747403646 -0.4272806590430739 111:1 619:1 832:1 841:1 934:1 1087:1 2384:1 2490:1 2623:1 2735:1 4622:1 
-0.1506430590661264 -0.1205082365710272 913:1 1574:1 1732:1 2225:1 2228:1 2490:1 2735:1 3163:1 3546:1 
-0.1096263293184024 -0.1038020656569148 43:1 215:1 750:1 833:1 841:1 1520:1 1538:1 1628:1 1781:1 1916:1 1965:1 2228:1 2490:1 2702:1 2735:1 3084:1 4016:1 4083:1 4368:1 4529:1 4560:1 4650:1 4784:1 
-0.1030592259908621 -0.06754889957366841 258:1 585:1 806:1 833:1 841:1 847:1 1393:1 1449:1 1588:1 1817:1 1882:1 1996:1 2257:1 2384:1 2411:1 2490:1 2983:1 3634:1 4212:1 4757:1 
-0 -0.04920395418597514 533:1 832:1 833:1 852:1 1238:1 1882:1 1898:1 2175:1 2228:1 2283:1 2490:1 2735:1 3073:1 3814:1 4547:1 4560:1 4580:1 4624:1 
-0.2079915256767089 -0.269654295832752 76:1 733:1 2059:1 2490:1 3543:1 3702:1 3813:1 4580:1 
-0.1922036710698307 -0.1341214246672692 382:1 936:1 1193:1 1304:1 1636:1 2239:1 2319:1 2490:1 2614:1 2735:1 3021:1 3040:1 4576:1 
-0.4535490326572864 -0.1375320733013674 26:1 244:1 2490:1 2735:1 2879:1 2917:1 3546:1 
-0.02281147675975937 -0.1129981603011628 198:1 288:1 554:1 625:1 750:1 832:1 833:1 904:1 979:1 1393:1 1717:1 2228:1 2297:1 2421:1 2490:1 2923:1 3998:1 4066:1 4083:1 4560:1 4603:1 4650:1 
-0.2588102698366269 -0.2700150505141382 528:1 1000:1 2283:1 2490:1 2957:1 3040:1 3095:1 3203:1 4222:1 4229:1 
-0.1507902395587747 -0.117723222321002 98:1 215:1 1000:1 1802:1 2735:1 3276:1 3545:1 3814:1 4046:1 4175:1 4214:1 4457:1 
-0.1087072320245507 -0.1227883324946097 215:1 258:1 338:1 514:1 750:1 770:1 1182:1 1717:1 2488:1 2735:1 2868:1 2920:1 4309:1 4352:1 4511:1 4560:1 
-0.6164949910661551 -0.8927536671511447 773:1 1187:1 1270:1 1517:1 2735:1 
-0.4317091793906063 -0.1942302457708369 171:1 680:1 833:1 972:1 2735:1 2793:1 3546:1 4560:1 
-0.2390086812676543 -0.1587268170359805 313:1 904:1 1277:1 1955:1 2389:1 2750:1 3418:1 3441:1 4322:1 4723:1 
-0.2607062012637411 -0.3566913630212203 513:1 832:1 1584:1 1717:1 1781:1 2545:1 4212:1 4560:1 4650:1 4720:1 
-0.16252813690837 -0.1390368735220714 334:1 436:1 554:1 1031:1 1154:1 1385:1 1747:1 1957:1 2353:1 2354:1 2375:1 2490:1 2522:1 2682:1 2735:1 2961:1 3151:1 3287:1 3387:1 4580:1 
-0.05503473016647343 -0 872:1 1449:1 1569:1 2051:1 2320:1 2490:1 2735:1 3102:1 3326:1 3649:1 
-0.04823231561919621 -0.05827098792538118 215:1 377:1 425:1 436:1 1101:1 1393:1 1438:1 1638:1 1994:1 2353:1 2384:1 2735:1 3560:1 3647:1 4212:1 4560:1 4757:1 
-0 -0.02231525555215812 47:1 98:1 171:1 377:1 549:1 1393:1 1448:1 2490:1 2703:1 2712:1 2735:1 3377:1 3387:1 3499:1 4086:1 4246:1 4431:1 4650:1 4702:1 
-0.005320896114112655 -0.05299902385958334 533:1 786:1 833:1 904:1 953:1 1000:1 1010:1 1063:1 1077:1 1693:1 2281:1 2386:1 2411:1 2586:1 2590:1 2674:1 2735:1 3441:1 3814:1 4212:1 4529:1 4560:1 
-0.406537335688998 -0.2978510499033013 1254:1 2042:1 2169:1 2490:1 3502:1 3756:1 
-0.2800088273032069 -0.2185556863950014 101:1 215:1 228:1 587:1 963:1 1182:1 1199:1 1367:1 2328:1 2468:1 2577:1 2735:1 2856:1 3151:1 3720:1 4529:1 4560:1 4755:1 4765:1 
-0.03451149469649197 -0.1042200090713545 212:1 1682:1 2490:1 3148:1 3548:1 3649:1 4376:1 4560:1 4650:1 4786:1 4802:1 
-0.2837883428438137 -0.2119612500779044 394:1 1517:1 1588:1 2330:1 2735:1 3314:1 3526:1 3546:1 4350:1 
-0.005733785319319428 -0.01057227282493309 198:1 563:1 904:1 1271:1 1438:1 1706:1 2228:1 2375:1 2386:1 2411:1 2413:1 2475:1 2800:1 2871:1 3148:1 3210:1 3446:1 3526:1 3546:1 3892:1 4560:1 4580:1 4679:1 
-0.06445850363696286 -0 306:1 1321:1 2586:1 2735:1 3353:1 3398:1 3452:1 3480:1 3649:1 3826:1 3827:1 4299:1 4743:1 
-0.08360356482793968 -0.06044116768748029 1225:1 2399:1 2716:1 2735:1 3339:1 3441:1 
-0.534751836432078 -0.5266903272740515 625:1 768:1 1179:1 1497:1 2353:1 2411:1 2735:1 3597:1 4212:1 
-0.2234228107643269 -0.4767406662420762 1156:1 3546:1 3872:1 4766:1 
-1 -1 158:1 869:1 
-0.2526644634870689 -0.1860112484936264 793:1 3016:1 3151:1 3546:1 3565:1 
-0.5870083956918974 -0.994443206083614 3649:1 
-0.1632899916016709 -0.1974529870751409 377:1 394:1 687:1 1748:1 3347:1 4650:1 
-0.3792507026040212 -0.5642636996561485 316:1 338:1 625:1 1007:1 3238:1 3441:1 4376:1 
-0.08523521606623728 -0.0228890051442212 158:1 694:1 1970:1 2522:1 2545:1 2650:1 2961:1 3151:1 3526:1 3752:1 4060:1 4624:1 4650:1 
-0.2931727800712013 -0.2425750425675686 377:1 989:1 1098:1 1438:1 1898:1 2375:1 3315:1 
-0.5159382967659932 -0.5498637408476467 142:1 215:1 721:1 841:1 2584:1 2638:1 3572:1 
-0.02888528559260676 -0.04549646664481921 142:1 1191:1 1384:1 2378:1 3018:1 3082:1 3387:1 
