svm_type c_svc
kernel_type linear
nr_class 3
total_sv 4257
rho -0.165116 -0.999567 -0.806496
label 0 1 2
probA -0.870976 -2.69767 -2.86623
probB 0.011068 -0.237499 -0.262705
nr_sv 1977 1982 298
SV
0.6184872839733563 0 223:1 926:1 2397:1 9903:1 15000:1 
0.4745852642908904 0 256:1 540:1 1757:1 2574:1 2688:1 3178:1 3336:1 4237:1 6251:1 7098:1 9014:1 10503:1 11669:1 12434:1 14070:1 14516:1 15133:1 15320:1 
0.1070839083389252 0 2204:1 2749:1 3000:1 3136:1 6389:1 12846:1 14051:1 15150:1 15849:1 
0.06423509398078593 0 26:1 592:1 1843:1 3000:1 3353:1 4754:1 6494:1 6855:1 7779:1 8330:1 8455:1 9002:1 11732:1 12034:1 13416:1 14417:1 14516:1 
0.1016541365964435 0.0316792725877029 5880:1 6068:1 6251:1 6919:1 7695:1 7779:1 9593:1 10874:1 13647:1 14051:1 
0.3017758281885736 0 4858:1 8860:1 13111:1 
0.04846240924770959 0 1883:1 2062:1 2701:1 4731:1 4981:1 5149:1 6804:1 10721:1 12525:1 12889:1 
0.1869513020346775 0 669:1 1291:1 2052:1 2141:1 2487:1 3506:1 4687:1 5004:1 6177:1 7633:1 8901:1 9090:1 10870:1 12434:1 14514:1 15133:1 16425:1 
0.04237107850301273 0 2058:1 3690:1 6291:1 6460:1 8340:1 9666:1 11139:1 14051:1 14516:1 
1 0 871:1 3070:1 4981:1 6061:1 6494:1 9014:1 16598:1 
0.3204827971062525 0 2397:1 2531:1 3984:1 9251:1 12388:1 14672:1 
1 0 9002:1 14021:1 
0.2458980294514821 0 540:1 2141:1 3196:1 3274:1 3734:1 4981:1 6494:1 6531:1 6638:1 7683:1 8353:1 9014:1 9973:1 11788:1 12525:1 15859:1 16598:1 
0.3051700888249418 0 1987:1 2019:1 2055:1 2141:1 2353:1 3114:1 4981:1 5727:1 5872:1 6494:1 7409:1 8793:1 9002:1 9966:1 11664:1 12542:1 13087:1 13853:1 14051:1 
0.1915991592125756 0 2019:1 2525:1 2883:1 4981:1 5594:1 5862:1 7014:1 8027:1 9014:1 9338:1 10228:1 11017:1 11473:1 12214:1 12440:1 12612:1 14051:1 14455:1 
1 0.5464836253154467 1987:1 2508:1 3336:1 4899:1 5545:1 8178:1 9030:1 12686:1 15629:1 
0.1012668341045589 0.04526203743715998 2141:1 2270:1 2890:1 3353:1 5619:1 5754:1 6401:1 6938:1 8547:1 8752:1 8921:1 9230:1 9767:1 12967:1 15227:1 
0.05434196936447945 0 223:1 534:1 2600:1 3336:1 4205:1 4416:1 5501:1 6494:1 7076:1 8694:1 8695:1 9207:1 11375:1 14051:1 14492:1 14688:1 
0.21938925551678 0 3000:1 6494:1 10380:1 12034:1 13586:1 14417:1 
0.3219494957035786 0.1402302458577439 1709:1 4731:1 4981:1 7478:1 8850:1 9014:1 10602:1 11213:1 11287:1 11573:1 14021:1 
0.2978548653941078 0 1049:1 5689:1 5980:1 6494:1 9002:1 10721:1 12388:1 14672:1 
0.05467697783159958 0 3060:1 3497:1 4361:1 6494:1 7913:1 8330:1 11394:1 14051:1 14516:1 
0.9091701701141685 0 4981:1 7779:1 8356:1 8463:1 13291:1 14516:1 
0.7213977106367158 0 9903:1 14119:1 
0.2143143758811136 0.03645341015074489 540:1 871:1 1049:1 3336:1 4981:1 5722:1 6066:1 6494:1 9014:1 9291:1 9742:1 9903:1 
0.6204121717260669 0 871:1 919:1 1886:1 2058:1 2466:1 3070:1 3933:1 4361:1 4746:1 4981:1 6177:1 6251:1 6342:1 6589:1 9011:1 9021:1 9767:1 11213:1 11229:1 11388:1 12696:1 14051:1 15068:1 15228:1 
0.0743284928222058 0 2141:1 2397:1 3050:1 4834:1 5689:1 6494:1 8785:1 9007:1 9030:1 9829:1 10221:1 10229:1 11084:1 14530:1 16495:1 
0.1908796371437429 0 892:1 3557:1 4731:1 4825:1 5004:1 5545:1 7710:1 14858:1 15133:1 15142:1 
0.1828921962805791 0 2659:1 4981:1 6251:1 11952:1 13021:1 13184:1 
0.1295076047143751 0.01780772973190555 669:1 805:1 1308:1 1355:1 1872:1 2397:1 2869:1 4333:1 4981:1 5149:1 5179:1 6494:1 6598:1 8186:1 9014:1 10580:1 10976:1 11139:1 11359:1 11370:1 11814:1 12067:1 12277:1 12426:1 13217:1 14516:1 
1 0 9355:1 
0.6378151564898327 1 10954:1 15629:1 
0.280576566886983 0 272:1 741:1 1182:1 1987:1 2056:1 2141:1 3353:1 4388:1 4981:1 5862:1 6231:1 8179:1 8858:1 9002:1 9014:1 10118:1 10380:1 10691:1 12434:1 13136:1 13450:1 13944:1 14051:1 15379:1 
0.3205417120808396 0 1143:1 1419:1 2058:1 4687:1 4981:1 7576:1 7675:1 11593:1 12471:1 14312:1 14516:1 15133:1 16546:1 
0.3528786613477658 0 540:1 698:1 1008:1 1990:1 2052:1 2133:1 2141:1 2201:1 2328:1 2701:1 4981:1 5606:1 6017:1 6481:1 6494:1 8340:1 8562:1 9002:1 9894:1 11213:1 12434:1 14051:1 14317:1 14516:1 14723:1 15133:1 15250:1 15725:1 15862:1 
0.08737457419581716 0 858:1 1121:1 1289:1 1342:1 3097:1 4792:1 4914:1 4981:1 9002:1 9014:1 10117:1 10631:1 10643:1 11213:1 12525:1 14051:1 14562:1 15456:1 
0.559001865361214 0 466:1 540:1 567:1 4981:1 6494:1 6982:1 7880:1 9002:1 9075:1 10030:1 10574:1 14516:1 15578:1 
0.2226652482279445 0 135:1 1564:1 1689:1 2141:1 3336:1 3558:1 3768:1 4981:1 5550:1 5652:1 5825:1 6251:1 6455:1 6494:1 6714:1 6926:1 7937:1 7948:1 9742:1 10279:1 11213:1 11932:1 12323:1 14051:1 16392:1 
0.425373465427026 0 1258:1 1419:1 1615:1 2019:1 2131:1 2141:1 2981:1 3557:1 4463:1 5128:1 5146:1 5606:1 6169:1 6494:1 6880:1 7341:1 9907:1 10224:1 10580:1 12434:1 15133:1 
0.1690028235603686 0 199:1 712:1 1215:1 2141:1 3528:1 5382:1 6251:1 6494:1 9002:1 12434:1 12525:1 13973:1 
0.1259000091132696 0 1010:1 2141:1 2313:1 2578:1 3291:1 3557:1 4008:1 4125:1 4595:1 6494:1 6789:1 8186:1 8341:1 9014:1 9030:1 9819:1 10380:1 10633:1 10734:1 10854:1 12323:1 14051:1 14070:1 14081:1 14144:1 14365:1 14807:1 15227:1 15584:1 16579:1 
0.1818046126452929 0.03449395022872997 871:1 1987:1 2056:1 3116:1 3353:1 3398:1 3980:1 4899:1 4924:1 5149:1 5689:1 6494:1 8686:1 9014:1 9429:1 10654:1 10932:1 11553:1 12096:1 12660:1 13944:1 14051:1 15132:1 
0.3554106072210012 0 1304:1 4981:1 5388:1 7064:1 7795:1 9002:1 9742:1 14026:1 14516:1 14858:1 
0.1479799660833441 0 427:1 1008:1 1055:1 2055:1 2353:1 3336:1 4080:1 4908:1 4981:1 5312:1 6391:1 6420:1 6531:1 7416:1 8390:1 9030:1 9887:1 10380:1 11213:1 11676:1 12525:1 14051:1 
0.1613194936613271 0 736:1 871:1 2141:1 4341:1 4981:1 5437:1 5582:1 5948:1 6795:1 6955:1 7114:1 7978:1 9014:1 14516:1 14591:1 15578:1 15795:1 
0.1319458444555738 0 2307:1 4687:1 6494:1 7683:1 9014:1 9928:1 14051:1 14177:1 14514:1 
1 0 6251:1 11573:1 12525:1 
1 0 3698:1 6494:1 6776:1 12936:1 14051:1 14516:1 15862:1 
0.209522407987308 0.01139637434976321 1511:1 4981:1 13709:1 14516:1 16432:1 
0.2724599077038782 0.04061264319931827 1782:1 5968:1 6177:1 6658:1 7159:1 10831:1 12525:1 14512:1 
0 0.001113235585948697 534:1 2269:1 2353:1 3557:1 3671:1 4473:1 4981:1 5689:1 6358:1 6459:1 6494:1 7171:1 8356:1 8554:1 9014:1 9878:1 10446:1 12547:1 14263:1 14398:1 14516:1 14530:1 14713:1 15884:1 16617:1 16671:1 
0.2755973773758509 0 871:1 2606:1 3353:1 3463:1 4981:1 7967:1 9002:1 9260:1 10034:1 10380:1 10890:1 11149:1 12434:1 13808:1 14051:1 14359:1 14516:1 15566:1 
0.09483807274096849 0 855:1 858:1 1182:1 1624:1 2141:1 2701:1 3353:1 4177:1 4981:1 5146:1 5689:1 6494:1 7786:1 9014:1 9767:1 9894:1 11069:1 11952:1 14051:1 14516:1 14991:1 15133:1 15417:1 15832:1 16392:1 16403:1 16634:1 
1 0.007452395939718007 3931:1 5689:1 10854:1 
0.9562031388802236 0.05381413754715048 669:1 1851:1 2141:1 2453:1 2981:1 3679:1 5419:1 5875:1 6050:1 6169:1 6251:1 7188:1 7977:1 8184:1 9028:1 9513:1 10854:1 12525:1 13843:1 14132:1 16636:1 
1 0 4731:1 7116:1 7156:1 8857:1 10383:1 11788:1 11923:1 12434:1 13745:1 
0.5748643782464383 0 1008:1 1479:1 4746:1 4752:1 4981:1 5419:1 8322:1 9009:1 9705:1 14051:1 15346:1 16229:1 
0.2729791128762076 0 2122:1 2353:1 3071:1 4981:1 5990:1 6282:1 7605:1 8475:1 9014:1 12450:1 14051:1 14062:1 15086:1 15227:1 
0.1091212746408623 0 49:1 6494:1 6508:1 9030:1 9671:1 10092:1 10656:1 10691:1 10914:1 11588:1 11625:1 12111:1 12410:1 14319:1 14516:1 14530:1 14555:1 14574:1 
0.1782840659049909 0 1008:1 2701:1 6494:1 6632:1 6949:1 8276:1 9269:1 9894:1 12434:1 13041:1 14051:1 14530:1 
0.8898458108111319 0.02125574683767227 592:1 2701:1 4981:1 8356:1 8752:1 15608:1 16425:1 
0.3303957513668055 0 153:1 871:1 4981:1 5158:1 6286:1 6880:1 8623:1 10092:1 11952:1 12485:1 13111:1 13203:1 14516:1 15698:1 
0.03565011454386855 0 2019:1 3000:1 3258:1 4899:1 4981:1 5740:1 6182:1 6494:1 7440:1 9900:1 10691:1 11139:1 14051:1 14319:1 14516:1 16002:1 
0.7731439586941343 0.002230015665308676 438:1 1308:1 2141:1 2397:1 2981:1 5541:1 6251:1 7718:1 8450:1 9002:1 13057:1 14051:1 14777:1 14959:1 15036:1 
0.8103235536777412 0 1182:1 4637:1 10854:1 15133:1 15237:1 
0.3123515767649093 0 2056:1 3399:1 4981:1 9002:1 9591:1 10129:1 10691:1 
0.1560939491125737 0 994:1 1308:1 1649:1 1777:1 2019:1 2141:1 2353:1 2600:1 3353:1 4981:1 5689:1 6458:1 6494:1 8117:1 9115:1 10854:1 10912:1 11370:1 11671:1 11689:1 12277:1 12323:1 12388:1 14051:1 14687:1 14876:1 15133:1 
0.533350172037388 0.0441286536700098 4482:1 6177:1 6432:1 11037:1 
1 0 540:1 871:1 1008:1 1141:1 2002:1 3353:1 4687:1 7710:1 7779:1 9002:1 9735:1 11139:1 12434:1 15133:1 
0.0864321028854951 0 871:1 1615:1 2141:1 4981:1 6494:1 7341:1 8667:1 8928:1 9014:1 13745:1 16189:1 16356:1 
0.2452640160893551 0.04965040122354324 1291:1 1533:1 2141:1 4864:1 4899:1 5545:1 5689:1 5968:1 6494:1 8356:1 8454:1 9002:1 12525:1 13203:1 16634:1 
0.02608573820496601 0.02372585481010245 736:1 928:1 1846:1 2335:1 3431:1 3646:1 4668:1 4981:1 6494:1 7717:1 7779:1 8480:1 9002:1 10580:1 14516:1 14530:1 
1 0 6558:1 10383:1 
0.3194179662899349 0 199:1 534:1 2141:1 2162:1 2269:1 2397:1 3353:1 4981:1 5162:1 5177:1 5237:1 6419:1 7695:1 7779:1 7998:1 8870:1 9014:1 9518:1 9828:1 10975:1 11118:1 12485:1 12696:1 13172:1 14310:1 14516:1 14937:1 16274:1 16392:1 
0.01587354652056436 0.08349887716749653 3822:1 3960:1 6008:1 9002:1 10683:1 13632:1 16335:1 
1 0 858:1 1008:1 2058:1 2139:1 2701:1 3353:1 5689:1 6182:1 6494:1 9518:1 9819:1 10092:1 11139:1 12323:1 14516:1 15133:1 15334:1 
0.6723438973111155 0 2574:1 3606:1 4981:1 6198:1 6855:1 7779:1 9291:1 9832:1 12434:1 13969:1 14516:1 15578:1 
0.1764796958524647 0 1851:1 2019:1 2055:1 4981:1 6251:1 8122:1 10117:1 12323:1 14017:1 14033:1 
0.09647084194746661 0.03921204446275832 2313:1 3361:1 6494:1 7857:1 8207:1 9014:1 13552:1 14248:1 14516:1 14892:1 16324:1 
0 0.001130728050892744 560:1 669:1 1835:1 2056:1 2119:1 2490:1 4981:1 5195:1 6954:1 9002:1 12525:1 15227:1 15244:1 
1 0 2141:1 4746:1 5664:1 7907:1 9903:1 9907:1 13745:1 14672:1 15133:1 
0.09723782167889965 0.2066880264934373 4981:1 7423:1 8247:1 16707:1 
1 0 1008:1 4731:1 5149:1 5689:1 7177:1 8887:1 12388:1 12525:1 12889:1 15133:1 
0.02768371189915834 0 711:1 855:1 1182:1 1235:1 2055:1 2056:1 2141:1 2167:1 3235:1 3958:1 4223:1 4388:1 4981:1 5146:1 5802:1 6494:1 7156:1 7695:1 8094:1 8567:1 9002:1 11213:1 11282:1 12525:1 14051:1 14516:1 14578:1 14672:1 
0.1349664756620027 0 2019:1 2701:1 4075:1 6050:1 6494:1 11318:1 
0.9533015027591051 0 669:1 1308:1 3645:1 4825:1 4981:1 7710:1 11681:1 12525:1 15333:1 16719:1 
0.4912539844679747 0.002309820754554607 687:1 1511:1 1600:1 2019:1 4901:1 5689:1 6494:1 9002:1 11437:1 12115:1 13347:1 14516:1 15000:1 
0.0997503732208086 0.07537281485034818 704:1 1875:1 4933:1 5644:1 8867:1 8922:1 9473:1 9876:1 11297:1 14315:1 
0.1200124926712085 0 311:1 2269:1 2320:1 3000:1 3994:1 4250:1 4963:1 4981:1 6494:1 7348:1 7352:1 8113:1 14516:1 14672:1 15295:1 16256:1 
0.5965759827148238 0 3163:1 4076:1 12375:1 12434:1 
0.916598419969336 0.04371121554062064 442:1 854:1 1008:1 2225:1 3046:1 4412:1 5508:1 8322:1 8554:1 13014:1 
0.701870665498166 0 101:1 3734:1 4981:1 8218:1 9011:1 9181:1 12388:1 12736:1 12810:1 15133:1 15825:1 
0.6742403879207045 0 1471:1 2286:1 3336:1 3478:1 4065:1 4361:1 4687:1 4981:1 6426:1 6494:1 8205:1 9002:1 9014:1 10369:1 12136:1 12457:1 14516:1 16392:1 
0.8941915902956994 0.001966306251970423 2019:1 5545:1 9363:1 12696:1 13469:1 14510:1 
0 0.00096822701715515 683:1 871:1 954:1 3070:1 3318:1 4981:1 6251:1 6443:1 7779:1 7907:1 12485:1 14051:1 
1 0 
0 0.05356143526276278 2055:1 2600:1 3336:1 5521:1 6494:1 16186:1 16595:1 
0.003709997292938521 0 223:1 858:1 1012:1 1468:1 1652:1 2058:1 2353:1 4981:1 5508:1 6055:1 6420:1 6494:1 6877:1 8113:1 9014:1 9666:1 10380:1 11213:1 13973:1 13995:1 14051:1 14672:1 
0.8049531872866713 0 2049:1 3734:1 4361:1 6251:1 10253:1 13401:1 13489:1 15133:1 
0.01284728432093434 0 851:1 1308:1 2537:1 5149:1 6891:1 12525:1 15133:1 16285:1 16542:1 
0.2876219052236235 0 2274:1 9564:1 10834:1 16629:1 
0.08957383828445267 0 592:1 1227:1 2141:1 3000:1 3788:1 4116:1 4981:1 6896:1 6990:1 7968:1 8273:1 9014:1 9095:1 10065:1 11567:1 12412:1 12527:1 14051:1 14898:1 15264:1 16438:1 16663:1 
0.05062155029356635 0 669:1 1356:1 2141:1 2453:1 2688:1 3958:1 4367:1 4746:1 4899:1 4981:1 6251:1 6797:1 7977:1 9903:1 10068:1 11110:1 11547:1 11952:1 12388:1 12434:1 12525:1 13203:1 14149:1 15949:1 16258:1 
1 0 2141:1 3933:1 10383:1 10756:1 12191:1 13087:1 16333:1 16518:1 
0.6611991610631984 0.01511290937621993 223:1 2141:1 3235:1 6494:1 8857:1 15389:1 15492:1 
0.2920730359351534 0 855:1 1886:1 1946:1 2055:1 2141:1 2397:1 3227:1 4169:1 5689:1 9928:1 10932:1 12279:1 
0.3677374823167521 0 22:1 325:1 532:1 3336:1 4440:1 4595:1 4981:1 5659:1 6494:1 7193:1 9014:1 10976:1 11182:1 12247:1 12434:1 
0 0.00544172495879185 228:1 6494:1 10552:1 
0.3351995514431332 0 153:1 223:1 299:1 702:1 1879:1 2242:1 3949:1 4899:1 4981:1 6251:1 7567:1 7695:1 12388:1 12434:1 13278:1 14051:1 
1 0 540:1 9002:1 12345:1 12598:1 
0.3096245431025002 0.02684272585285168 1049:1 2019:1 3937:1 5012:1 6494:1 7256:1 8731:1 10721:1 11932:1 14051:1 14893:1 
0.2610204847916378 0.1297789653090885 223:1 805:1 1049:1 2058:1 3856:1 4687:1 5504:1 6494:1 7064:1 8921:1 
0.3473936144412365 0.1255145267893244 871:1 1511:1 3086:1 3343:1 3353:1 6182:1 6494:1 9002:1 13408:1 14516:1 
0.2031591806873838 0 101:1 871:1 1289:1 1308:1 2052:1 3336:1 3916:1 5695:1 5868:1 6251:1 6494:1 8510:1 9011:1 10331:1 11388:1 11766:1 12696:1 14051:1 14514:1 14987:1 15133:1 15367:1 
0.1004460579981006 0 1308:1 2677:1 3336:1 3398:1 4981:1 5147:1 5689:1 6494:1 7394:1 8377:1 8470:1 9014:1 9673:1 12505:1 14398:1 15275:1 
0 0.01199075438218266 1182:1 2762:1 2939:1 3274:1 3353:1 4394:1 6494:1 9742:1 11573:1 12502:1 14051:1 15133:1 
0.4251059824314034 0 871:1 1615:1 2055:1 2141:1 3070:1 5664:1 6061:1 7683:1 8093:1 9014:1 9650:1 10086:1 13744:1 14051:1 
0 0.2293024245484156 3558:1 5689:1 6251:1 6494:1 7734:1 8554:1 9014:1 14858:1 
1 0 11283:1 
0.2020445411421112 0 1342:1 2141:1 2688:1 3933:1 6008:1 8870:1 12838:1 14051:1 14081:1 15537:1 16335:1 
0.4015711922123953 0 2141:1 6525:1 7240:1 
0.385231891064234 0 1843:1 9002:1 11246:1 13745:1 13988:1 16585:1 
0.02252468517422034 0 410:1 871:1 1151:1 1304:1 1356:1 1843:1 1886:1 1970:1 2055:1 2056:1 2141:1 2239:1 3906:1 4639:1 4981:1 5723:1 7659:1 8163:1 8707:1 8952:1 9014:1 9291:1 10092:1 10975:1 12410:1 12838:1 12914:1 13278:1 13329:1 13973:1 14051:1 14332:1 14516:1 15578:1 
0.4703954382507594 0 1689:1 2056:1 3336:1 4731:1 4981:1 5695:1 5924:1 5971:1 9014:1 11252:1 
0.0982508565953208 0 1533:1 2315:1 3557:1 4981:1 5873:1 8887:1 12434:1 15133:1 
0.4844506445143361 0.3796355480195517 540:1 2141:1 5689:1 9002:1 12849:1 13589:1 14492:1 14717:1 15133:1 15136:1 15629:1 
1 0 
1 0.9058871777898625 1008:1 9092:1 12115:1 
0.0289076667723359 0 2019:1 4595:1 4981:1 6980:1 7999:1 8386:1 10932:1 11788:1 12059:1 13536:1 14051:1 15922:1 16534:1 
0.1933910775187266 0 490:1 2397:1 3336:1 3353:1 3701:1 4981:1 5695:1 6391:1 7013:1 7203:1 7753:1 8340:1 8683:1 8710:1 9021:1 9664:1 12060:1 12972:1 14051:1 14101:1 
0.6420251661665751 0 353:1 490:1 2055:1 2320:1 7409:1 9028:1 10898:1 12525:1 14051:1 
0.5377927828888861 0.1800334770775631 540:1 2019:1 8353:1 10683:1 13873:1 
0.4634781242087836 0 854:1 4981:1 6494:1 7131:1 8793:1 9014:1 14292:1 
0 1 583:1 
0.1785573487241728 0 534:1 1231:1 1678:1 2141:1 3353:1 3643:1 5325:1 5961:1 6494:1 6955:1 7625:1 8359:1 9014:1 9508:1 10221:1 10854:1 11952:1 12346:1 12375:1 14051:1 14705:1 14713:1 16403:1 
0.4616108771205756 0 2056:1 2141:1 2664:1 3000:1 3295:1 3353:1 4342:1 4473:1 4899:1 5327:1 5545:1 9894:1 12388:1 12457:1 14051:1 16340:1 16440:1 
0.01976223737087121 0 2141:1 3371:1 3689:1 4792:1 5183:1 6494:1 6948:1 8920:1 9014:1 9652:1 11282:1 12088:1 12576:1 14017:1 16221:1 
0.4401225749573728 0 174:1 1342:1 1689:1 2141:1 3177:1 4381:1 4881:1 4899:1 4981:1 6494:1 9030:1 14516:1 14845:1 
0.5420275228043318 0 9595:1 12115:1 12323:1 13111:1 15133:1 
0.1637116281187995 0 1308:1 2058:1 4981:1 5664:1 6494:1 8353:1 9002:1 9742:1 11252:1 11788:1 11976:1 15825:1 16326:1 
0.02343922880895013 0 863:1 2019:1 2055:1 2058:1 3805:1 4712:1 4956:1 4981:1 5074:1 5572:1 5747:1 6107:1 6494:1 6769:1 6949:1 7171:1 11784:1 13251:1 13866:1 14051:1 14066:1 14516:1 
0.6167340810811137 0.006793907918672601 2019:1 2416:1 3938:1 6984:1 10205:1 13228:1 
0.6827955207937398 0.02430228169101175 59:1 680:1 1356:1 2141:1 3353:1 8710:1 9335:1 11049:1 12677:1 
0.1394154790945883 0 69:1 2019:1 2141:1 2162:1 2454:1 2761:1 4174:1 4816:1 4981:1 5689:1 7695:1 7800:1 8233:1 8990:1 9014:1 9614:1 9652:1 9709:1 9859:1 11009:1 11282:1 14051:1 14280:1 15665:1 
0.3178142874702782 0 523:1 1689:1 1851:1 3353:1 4899:1 6494:1 10721:1 11213:1 11252:1 14713:1 15277:1 
0.1074662479422145 0 855:1 1851:1 2141:1 2981:1 3336:1 4899:1 5618:1 6494:1 7718:1 7977:1 9517:1 9903:1 12247:1 12323:1 14555:1 15228:1 15852:1 
0.4128493753199266 0 4:1 534:1 1756:1 2438:1 3070:1 3336:1 4981:1 8554:1 9014:1 10831:1 12696:1 13159:1 13331:1 14021:1 14051:1 15133:1 
0.1763517343378767 0 540:1 1308:1 1419:1 1957:1 3343:1 6494:1 8186:1 8367:1 9002:1 9602:1 13919:1 14713:1 15133:1 
0.02774725240073699 0 221:1 855:1 2385:1 3811:1 4826:1 5225:1 6296:1 8186:1 9014:1 9292:1 9883:1 10092:1 11213:1 11229:1 12043:1 12406:1 12485:1 12665:1 12696:1 14051:1 14516:1 15208:1 15250:1 16121:1 
0.4053765100030037 0 2052:1 2058:1 2192:1 4361:1 5245:1 5689:1 10272:1 15133:1 15285:1 
0.7786402576674307 0 871:1 1987:1 2639:1 4981:1 5198:1 5664:1 9002:1 9014:1 12345:1 12736:1 13021:1 13198:1 15478:1 
0 0.03155372200766082 358:1 540:1 952:1 1192:1 1951:1 2019:1 2382:1 3274:1 5149:1 6367:1 6494:1 8650:1 9386:1 10669:1 10974:1 11139:1 11686:1 12985:1 14051:1 14516:1 
0.004108362143273777 0 174:1 859:1 1468:1 1652:1 1843:1 2774:1 4129:1 4981:1 5689:1 6295:1 6494:1 7695:1 9014:1 9556:1 9870:1 12388:1 13444:1 13798:1 13945:1 13973:1 14030:1 14051:1 14672:1 
0.6313854206356688 0.01408975939367073 2141:1 3336:1 5419:1 7574:1 9819:1 12115:1 12434:1 13624:1 15133:1 15551:1 16351:1 
0.7177328602540699 0.03361877288964337 1615:1 1832:1 2141:1 3071:1 3587:1 3706:1 5689:1 6658:1 6680:1 9002:1 13745:1 16201:1 
0.2095712127351188 0 1471:1 2141:1 4275:1 4981:1 5213:1 5562:1 5689:1 5890:1 6494:1 7567:1 7977:1 11139:1 11952:1 12525:1 15133:1 16467:1 
0.5515973201858119 0 4731:1 5963:1 10669:1 11213:1 11287:1 11573:1 
0.1836005433914719 0 1182:1 2141:1 3146:1 3336:1 4981:1 7341:1 7636:1 7683:1 9014:1 11952:1 12434:1 12665:1 
0.4232383278532982 0 1000:1 1509:1 1843:1 2019:1 4731:1 4796:1 4981:1 6550:1 6658:1 10721:1 11213:1 11287:1 11573:1 12908:1 14352:1 
0.1230316770154805 0 1794:1 2141:1 2984:1 3173:1 6325:1 7210:1 8362:1 8926:1 9403:1 10925:1 11968:1 12702:1 14051:1 14286:1 14409:1 16351:1 
0.2438209964700497 0.003824147660932567 410:1 980:1 2019:1 2055:1 2075:1 3336:1 4607:1 4864:1 4890:1 6494:1 8344:1 9903:1 10812:1 11351:1 12485:1 13064:1 13592:1 14051:1 
0.01941059689179832 0 488:1 1654:1 1986:1 2055:1 2141:1 3196:1 4205:1 4363:1 6494:1 6955:1 8694:1 10043:1 10553:1 11229:1 14051:1 15227:1 15753:1 
0.09722553273730312 0.03057413700095678 1042:1 1204:1 1674:1 2211:1 4196:1 4754:1 5586:1 10650:1 11297:1 11853:1 12307:1 13370:1 14862:1 15511:1 
1 0.04539917243294676 199:1 6060:1 7098:1 8184:1 15451:1 
0.5991746333224268 0 2019:1 3336:1 5545:1 6081:1 6494:1 9819:1 14514:1 
0.0303350586940748 0 855:1 1554:1 2141:1 2390:1 4264:1 4981:1 5419:1 6494:1 7160:1 8547:1 10721:1 11008:1 11859:1 11952:1 12681:1 14051:1 14081:1 14672:1 15133:1 
0.09844431601576353 0 185:1 687:1 871:1 2019:1 2141:1 4981:1 5689:1 5802:1 6881:1 8694:1 9014:1 10246:1 10977:1 12863:1 13317:1 13808:1 13989:1 15223:1 15227:1 15468:1 16258:1 
1 0.5512414349760989 1182:1 2141:1 2981:1 9014:1 12665:1 15133:1 
0.2156224845221857 0 672:1 805:1 1195:1 2019:1 2131:1 4495:1 4981:1 5578:1 7695:1 9226:1 9668:1 10092:1 11952:1 14051:1 14516:1 14672:1 15133:1 
0.002319855806835051 0.08155294876623856 3274:1 13366:1 
0.3447188552649535 0 412:1 3398:1 6494:1 9898:1 10052:1 15390:1 
0.2526872817891477 0 3161:1 4981:1 5352:1 6245:1 7341:1 12388:1 13014:1 13524:1 14563:1 15133:1 15665:1 16518:1 
1 0 4687:1 4981:1 6494:1 6521:1 7018:1 9014:1 9761:1 9928:1 10709:1 10854:1 11262:1 12434:1 14419:1 
1 0 540:1 1580:1 2403:1 4361:1 4490:1 6169:1 7710:1 7779:1 12205:1 12428:1 12696:1 15133:1 16616:1 
1 0.003825489494340553 1615:1 2141:1 2741:1 5541:1 6061:1 6177:1 7683:1 9761:1 10608:1 13745:1 
0.3263004596522348 0.1437630342419154 540:1 1308:1 2144:1 3831:1 4935:1 5045:1 5625:1 6494:1 8322:1 9002:1 9601:1 9666:1 9962:1 10709:1 13228:1 13893:1 14001:1 14051:1 
0.123218314192718 0 135:1 680:1 687:1 1689:1 2036:1 2141:1 2326:1 3309:1 3353:1 4825:1 4899:1 4981:1 6010:1 8353:1 8547:1 8752:1 9002:1 9879:1 11952:1 12323:1 13260:1 13852:1 14516:1 14674:1 15185:1 
0.1743263089668962 0 540:1 3346:1 4498:1 5664:1 7049:1 7156:1 8061:1 9014:1 11246:1 12388:1 12573:1 
0.349454385194769 0.02927073574970013 600:1 1652:1 1990:1 4140:1 4673:1 5508:1 6377:1 9014:1 10421:1 
0.5781689571415835 0 669:1 1008:1 1308:1 2056:1 4361:1 5000:1 6333:1 6494:1 7572:1 7753:1 9002:1 12525:1 12685:1 14516:1 
0.01276967327275621 0 680:1 2055:1 2186:1 2219:1 3163:1 3177:1 3398:1 4899:1 4981:1 5689:1 6494:1 8194:1 8310:1 9002:1 10380:1 10760:1 10765:1 13341:1 14051:1 14516:1 14672:1 14936:1 
1 0 3336:1 4361:1 4825:1 5689:1 10850:1 16403:1 
0 0.06922059107079809 1008:1 1164:1 1199:1 1308:1 1615:1 1650:1 2141:1 2243:1 2390:1 3070:1 3072:1 3336:1 4687:1 5588:1 5689:1 6494:1 6974:1 8322:1 9698:1 10421:1 10721:1 12115:1 14530:1 16671:1 
0.2897667117152947 0 192:1 1284:1 2749:1 11404:1 14051:1 
1 0 1987:1 2141:1 6360:1 15133:1 16518:1 
0.1067805263510392 0 805:1 2453:1 2592:1 4500:1 4899:1 6494:1 10721:1 
0.3069179573038717 0.04238635109916316 1008:1 1308:1 1987:1 2019:1 4008:1 4864:1 5689:1 6494:1 8340:1 9002:1 9857:1 10033:1 10691:1 12247:1 12345:1 12388:1 12542:1 13944:1 14423:1 
0 0.05678636631164879 954:1 1029:1 8232:1 11788:1 
1 0 2056:1 3931:1 5508:1 7636:1 12883:1 
0.2207990928839277 0 272:1 1477:1 2141:1 4862:1 4981:1 6494:1 6949:1 10380:1 10948:1 14051:1 14472:1 14516:1 16700:1 
0.4068914154536936 0.0330007423555123 1419:1 2039:1 2056:1 2141:1 3886:1 4412:1 4981:1 7098:1 7576:1 8376:1 9002:1 11641:1 11671:1 12434:1 12734:1 13721:1 14530:1 15133:1 15989:1 
0.5014124668922767 0 871:1 1049:1 5156:1 5664:1 5710:1 7683:1 
0.04945926047511833 0 1987:1 2891:1 3000:1 5689:1 8003:1 9002:1 10380:1 13512:1 14051:1 14516:1 15227:1 15506:1 15706:1 15800:1 15937:1 16542:1 
0.592613432635568 0 648:1 9197:1 10854:1 16403:1 
0.1955100846542936 0 805:1 2056:1 2106:1 2141:1 2397:1 2701:1 2980:1 2981:1 3000:1 3960:1 4715:1 4981:1 5008:1 5149:1 5313:1 5508:1 6251:1 6863:1 7576:1 8232:1 8356:1 9014:1 9028:1 9642:1 10589:1 10956:1 13467:1 13470:1 14051:1 14927:1 15133:1 15578:1 15923:1 16121:1 16354:1 16403:1 16726:1 
0.1259019128001314 0 534:1 2141:1 2269:1 2537:1 2981:1 3949:1 4899:1 4981:1 5689:1 6494:1 7695:1 9014:1 9894:1 10883:1 11163:1 11322:1 11843:1 12424:1 12525:1 14516:1 14876:1 15852:1 
0.2838207906250191 0 1746:1 8882:1 9002:1 10380:1 14051:1 15988:1 
1 0 
1 0.05100853653600332 3336:1 3706:1 4981:1 12433:1 
0.3564777505866336 0 540:1 871:1 3613:1 7973:1 10909:1 11881:1 15133:1 
0.7347230037598701 0 787:1 793:1 1326:1 2397:1 2677:1 3000:1 3375:1 4981:1 5508:1 5541:1 6494:1 6495:1 7695:1 8835:1 9191:1 9960:1 10831:1 10854:1 12525:1 12820:1 14030:1 14051:1 14516:1 16326:1 16438:1 
1 0.09282780579746196 101:1 4911:1 
0.000110430019950239 0 49:1 680:1 5743:1 6067:1 8477:1 8952:1 11681:1 13335:1 14051:1 14672:1 
0.06703746327976313 0 540:1 817:1 1115:1 2984:1 4409:1 4573:1 5419:1 5545:1 8174:1 8357:1 8601:1 8982:1 10465:1 11213:1 12172:1 13228:1 14027:1 14769:1 15133:1 
0.02969203907729703 0 2055:1 2779:1 5689:1 6494:1 6880:1 9064:1 12690:1 14051:1 15832:1 15841:1 
0.0933168476671479 0 457:1 491:1 1435:1 1879:1 1893:1 2056:1 3398:1 6494:1 8914:1 9761:1 10351:1 11282:1 14051:1 
0.1411583455943018 0.001981532538282719 1008:1 1010:1 2056:1 2937:1 3910:1 6391:1 6929:1 7576:1 7650:1 9002:1 9030:1 9338:1 10037:1 11952:1 12450:1 13518:1 14051:1 14530:1 
0.2796577685671114 0 669:1 4219:1 4381:1 4687:1 4899:1 4981:1 5381:1 5661:1 6494:1 9002:1 9014:1 9528:1 9566:1 10013:1 10870:1 12388:1 12489:1 13203:1 13383:1 14555:1 15133:1 
0.06615828791378778 0 135:1 144:1 680:1 1325:1 2141:1 2576:1 3000:1 3353:1 3370:1 4981:1 7695:1 8590:1 8914:1 9014:1 9152:1 9947:1 11404:1 12671:1 13285:1 13380:1 13515:1 13641:1 13685:1 13706:1 14051:1 14149:1 14516:1 14924:1 15227:1 15492:1 16090:1 
0.9984883300425236 0 4486:1 6494:1 10086:1 10909:1 11952:1 
0.1283441091628658 0 1356:1 1930:1 1941:1 2024:1 2056:1 2141:1 2497:1 2819:1 3071:1 3922:1 4361:1 4495:1 4981:1 5591:1 5862:1 7203:1 7409:1 8642:1 9152:1 10092:1 10367:1 12027:1 12801:1 13147:1 14051:1 14516:1 
0.2727640284847132 0 669:1 2058:1 4981:1 5668:1 6251:1 9030:1 9843:1 10813:1 10870:1 12147:1 12434:1 12525:1 13335:1 14051:1 14516:1 14672:1 16403:1 
0.61441073661431 0.03249302835261073 9523:1 12323:1 14242:1 
0.2087094366856189 0 127:1 971:1 4307:1 11666:1 
0.4684006758463933 0.01740055828103545 495:1 787:1 2141:1 3318:1 3739:1 4981:1 7683:1 7697:1 8325:1 9002:1 10553:1 11139:1 14516:1 
0.5566395661885088 0 11139:1 11577:1 14051:1 
0.8345287919865659 0 11311:1 
0.1679551023671909 0 871:1 1182:1 2059:1 4981:1 5689:1 6251:1 10068:1 10821:1 12388:1 12681:1 13111:1 15133:1 
0.7013040908968029 0 871:1 4981:1 13111:1 13202:1 
0.6737911466836985 1 954:1 5545:1 
0.1850778174616406 0 2385:1 2701:1 3353:1 3719:1 6182:1 6494:1 7567:1 9714:1 10380:1 12696:1 14285:1 14516:1 15127:1 
0.2079002324138806 0 9928:1 10721:1 
0.1148053166876645 0 223:1 2701:1 3353:1 3493:1 4361:1 4981:1 5689:1 5777:1 6494:1 7427:1 8240:1 8628:1 8659:1 8756:1 9002:1 11351:1 11681:1 13093:1 14051:1 14672:1 15971:1 16542:1 
0.05992322521463957 0 1615:1 2141:1 2434:1 2881:1 5656:1 7683:1 9748:1 10086:1 
1 0 4981:1 7203:1 7695:1 9716:1 
0.2190376364570566 0 1231:1 2141:1 2688:1 2701:1 4899:1 5377:1 5689:1 6494:1 12525:1 13493:1 15068:1 
0.117802929047974 0.02910454506869806 5508:1 5688:1 6494:1 8051:1 8340:1 8600:1 9002:1 9021:1 10137:1 14377:1 16180:1 
1 0.2909764867701954 6494:1 9523:1 15133:1 
1 0 1182:1 6251:1 15133:1 
0.07888628443870652 0 1304:1 2141:1 2257:1 2313:1 2397:1 3258:1 3335:1 3376:1 4062:1 4981:1 5689:1 7296:1 8504:1 9014:1 9137:1 10231:1 12115:1 14051:1 14324:1 14350:1 14516:1 15617:1 
0.9716280463515572 0 2058:1 2688:1 3336:1 4544:1 4731:1 6494:1 12388:1 15133:1 15439:1 
0 0.03047070221359549 1419:1 1705:1 2019:1 2131:1 2307:1 3152:1 3353:1 3836:1 5660:1 6251:1 6494:1 8322:1 9002:1 10367:1 14051:1 15133:1 15693:1 
0.1470054004814878 0 1356:1 2055:1 2701:1 3070:1 4502:1 4899:1 4981:1 7007:1 8969:1 9014:1 10010:1 10831:1 12414:1 14516:1 14779:1 15227:1 16705:1 
0.02021581063103374 0 680:1 805:1 1049:1 2058:1 3550:1 4789:1 4899:1 4981:1 6494:1 6638:1 7886:1 7977:1 8356:1 10534:1 11118:1 12323:1 12485:1 13519:1 13875:1 14349:1 14516:1 14786:1 15647:1 
0.1347770237439622 0.01638644906393882 113:1 871:1 4981:1 6791:1 6880:1 7209:1 9518:1 9764:1 9829:1 10092:1 10543:1 11174:1 13909:1 14051:1 14516:1 
0.3139998170936377 0 506:1 1000:1 1166:1 2141:1 2194:1 4981:1 6251:1 8461:1 8753:1 9009:1 9014:1 11213:1 12804:1 14051:1 15133:1 
0.7280260109513935 0.04945400041757133 3784:1 6494:1 12323:1 13973:1 
0 0.8578024851059149 1182:1 2192:1 4343:1 13632:1 15133:1 15629:1 
0.0258433288612671 0 877:1 1764:1 2019:1 2141:1 2794:1 3137:1 6961:1 7394:1 7470:1 9002:1 9894:1 10760:1 10893:1 12247:1 12614:1 13693:1 14051:1 14672:1 14963:1 
0.2830464308180426 0 1914:1 2019:1 3205:1 5201:1 6494:1 6589:1 6658:1 7394:1 8430:1 9125:1 11055:1 12165:1 12434:1 12525:1 13905:1 14051:1 14516:1 14530:1 15707:1 15803:1 
0.2672583813070746 0 10:1 1112:1 2058:1 2141:1 4495:1 4981:1 6251:1 7423:1 7695:1 8193:1 8826:1 10224:1 12247:1 12485:1 12889:1 15722:1 16216:1 
0.3879288551619778 0 805:1 1008:1 1049:1 2141:1 2397:1 2797:1 4687:1 4890:1 4981:1 6251:1 6942:1 6955:1 7098:1 7380:1 7695:1 7718:1 9002:1 10433:1 11003:1 12525:1 14021:1 14051:1 14516:1 14555:1 15381:1 
0 0.07003907892471242 1231:1 1308:1 4038:1 4575:1 4981:1 5689:1 5872:1 6237:1 8921:1 8990:1 9321:1 9874:1 10706:1 11078:1 12434:1 12665:1 14051:1 14365:1 14516:1 14657:1 14672:1 15185:1 15732:1 16248:1 
0.2906058469342054 0 161:1 555:1 1049:1 1851:1 2056:1 2058:1 3353:1 3741:1 4981:1 6494:1 6577:1 6955:1 9002:1 9652:1 10117:1 10380:1 10552:1 14516:1 15578:1 
0.3155883016172754 0 223:1 540:1 928:1 1008:1 2056:1 3288:1 3353:1 5689:1 6494:1 9002:1 9014:1 12433:1 12434:1 12525:1 13041:1 14530:1 15628:1 
0.2464602095365267 0 223:1 2055:1 2056:1 2141:1 2774:1 3336:1 4467:1 4981:1 5146:1 5695:1 7405:1 7868:1 8277:1 8412:1 11208:1 12457:1 13014:1 13474:1 14516:1 15862:1 16520:1 
0 0.01479585128182003 669:1 905:1 2476:1 4435:1 5075:1 6251:1 7860:1 8340:1 9021:1 9862:1 9965:1 10240:1 14516:1 15946:1 16121:1 
0.0002215786078376181 0 3916:1 4495:1 4962:1 4981:1 5419:1 9836:1 9931:1 10510:1 12598:1 13206:1 14051:1 14267:1 14329:1 14672:1 16636:1 
0.1625666033876298 0 263:1 1774:1 2056:1 2469:1 3070:1 3353:1 3398:1 4981:1 5419:1 5802:1 6461:1 6494:1 7779:1 8058:1 8191:1 10217:1 10747:1 12625:1 14347:1 14516:1 14674:1 16121:1 
1 0.07576259690441567 534:1 1008:1 2269:1 2981:1 4825:1 5689:1 6919:1 10759:1 10854:1 12485:1 13014:1 14516:1 15178:1 16333:1 
0.6754755885376833 0.01795975281732912 871:1 1143:1 1308:1 2454:1 3786:1 4748:1 5419:1 6169:1 6251:1 9014:1 9386:1 9633:1 12485:1 12525:1 12696:1 13666:1 14342:1 15133:1 16715:1 
0.1446484965334987 0 636:1 871:1 2109:1 2454:1 3651:1 4981:1 6521:1 10117:1 10759:1 13893:1 14176:1 14516:1 14789:1 16121:1 
0.5493081508849512 0 2141:1 2225:1 5146:1 5804:1 6494:1 10580:1 11208:1 
0.3883267607505573 0 1008:1 2056:1 4412:1 6005:1 7047:1 7898:1 8450:1 10854:1 12434:1 12741:1 14051:1 16124:1 16634:1 
0.2330727870271171 0 1865:1 2055:1 7886:1 7991:1 10763:1 14516:1 
0.2581673467413767 0 871:1 2141:1 12525:1 12696:1 13111:1 13489:1 14858:1 14987:1 16518:1 
0.4453808717671556 0 169:1 476:1 871:1 1468:1 2141:1 4981:1 7767:1 7977:1 9734:1 11952:1 12428:1 14237:1 14516:1 15133:1 
0.3954098107724851 0 871:1 1008:1 1143:1 1308:1 2141:1 2219:1 3113:1 3122:1 3291:1 3557:1 3887:1 5341:1 5447:1 5689:1 5762:1 5802:1 7572:1 8073:1 9002:1 10731:1 12337:1 12434:1 12525:1 12760:1 13260:1 14516:1 15185:1 16542:1 
0.6262139767332725 0.05010282959896278 2397:1 7189:1 8340:1 9002:1 9014:1 10382:1 11020:1 11529:1 15278:1 15578:1 
0.5861611729781542 0 49:1 871:1 1660:1 7209:1 7470:1 7949:1 9002:1 12115:1 
0.2577155126153921 0.01829482364349198 2055:1 3234:1 5689:1 6494:1 8961:1 10380:1 10417:1 11775:1 13529:1 15899:1 
0.3034870043262148 0 174:1 1308:1 2043:1 2427:1 4595:1 4895:1 4981:1 6437:1 9652:1 12119:1 12434:1 14051:1 14289:1 
1 0 540:1 14904:1 
1 0 1342:1 2141:1 4361:1 4731:1 5976:1 11069:1 12485:1 12525:1 14672:1 15133:1 
0.06583748542601242 0.02122200607384168 1317:1 1674:1 1701:1 5563:1 5565:1 7828:1 8063:1 8351:1 10617:1 11297:1 11755:1 11853:1 12470:1 13370:1 15568:1 15640:1 
0.2018905556623152 0 69:1 3150:1 3493:1 4981:1 9002:1 9266:1 11671:1 14051:1 
0.001994916008797766 0.04883243524039219 49:1 1008:1 1843:1 2019:1 3000:1 3070:1 4956:1 4981:1 5772:1 6494:1 7406:1 8710:1 9021:1 10831:1 11653:1 11941:1 14279:1 14516:1 
0 0.01991542745582476 300:1 1015:1 1972:1 2219:1 2397:1 5689:1 6420:1 8993:1 11811:1 13620:1 14516:1 
0.461219226367959 0 468:1 736:1 1166:1 2058:1 2141:1 2242:1 4981:1 6494:1 7605:1 8344:1 8659:1 9002:1 9894:1 10089:1 10380:1 10593:1 11202:1 12434:1 14555:1 15665:1 
0.1388548949167071 0 1049:1 1308:1 3820:1 4495:1 4825:1 4981:1 6251:1 6892:1 7694:1 7695:1 9074:1 9878:1 10117:1 12696:1 13442:1 13549:1 15133:1 16037:1 
0.1867728106824366 0 153:1 805:1 2019:1 2055:1 2131:1 2141:1 2269:1 3000:1 4065:1 4318:1 4899:1 4981:1 5689:1 5805:1 6251:1 6494:1 6961:1 8808:1 9008:1 10760:1 12434:1 12525:1 12590:1 13203:1 13437:1 13624:1 14078:1 14236:1 14516:1 14880:1 
1 0 4361:1 8196:1 14516:1 14560:1 
0.730235642582592 0 3600:1 4981:1 8444:1 10094:1 
0.1150664682588046 0 2141:1 2149:1 2981:1 4270:1 4981:1 5154:1 5287:1 6494:1 7098:1 10779:1 11229:1 12485:1 12525:1 13111:1 14051:1 15541:1 15862:1 
0.3100875750555588 0.006338444083390306 1102:1 1264:1 4361:1 8528:1 11039:1 12246:1 14516:1 16403:1 
1 0 69:1 8001:1 
0.1180488656247226 0 64:1 1775:1 1843:1 2141:1 4981:1 6494:1 6714:1 8659:1 14051:1 14485:1 
0.2388445553846342 0 362:1 3517:1 4581:1 5717:1 6379:1 8522:1 8856:1 10298:1 11231:1 12058:1 14051:1 14425:1 14491:1 14516:1 14843:1 16202:1 
0.5379893992563387 0 316:1 8659:1 14051:1 
0.260506736565811 0 687:1 1893:1 2055:1 2056:1 2058:1 2122:1 2334:1 4687:1 4981:1 5508:1 6420:1 6494:1 7285:1 7514:1 8485:1 8491:1 9218:1 10571:1 10782:1 11952:1 12650:1 13203:1 13970:1 14009:1 14516:1 14959:1 15227:1 
0.04907485957184917 0 1356:1 2002:1 2019:1 2056:1 2141:1 2981:1 3336:1 3353:1 3726:1 4003:1 4101:1 4371:1 4441:1 4732:1 6494:1 7779:1 8528:1 8707:1 8942:1 8978:1 9014:1 10226:1 10599:1 11252:1 12323:1 12790:1 12924:1 13663:1 14051:1 14516:1 16019:1 16100:1 
0.1076493004379048 0 3398:1 6389:1 6494:1 7427:1 10351:1 13855:1 14051:1 16505:1 
0.2148391636679581 0 1008:1 1342:1 1356:1 2055:1 2141:1 2219:1 2352:1 2925:1 2981:1 3000:1 4687:1 5149:1 5689:1 5802:1 6494:1 6765:1 7229:1 7456:1 7779:1 8514:1 8969:1 9582:1 10130:1 11016:1 11438:1 12175:1 12434:1 12734:1 14516:1 
0.03232705087581894 0 131:1 223:1 1530:1 2056:1 2186:1 2701:1 4341:1 5689:1 6494:1 7059:1 9002:1 9920:1 12525:1 14051:1 14516:1 
0.290672801378669 0 8473:1 12567:1 
0.553960398605793 0 1308:1 1442:1 1824:1 3441:1 4981:1 6195:1 6494:1 9014:1 9560:1 11788:1 13203:1 14516:1 
0.9400635419608121 1 858:1 2141:1 9985:1 15629:1 16403:1 
0.1097276198398254 0 33:1 592:1 2427:1 4412:1 4981:1 6494:1 8322:1 10721:1 11952:1 12525:1 15133:1 
0.4791453174622793 0.01535202079392875 1356:1 4981:1 5757:1 9698:1 10721:1 11139:1 14101:1 14516:1 16039:1 
0.04082093230989767 0 525:1 1600:1 2019:1 3353:1 4514:1 5004:1 5468:1 6494:1 6842:1 8186:1 9014:1 11473:1 14051:1 14419:1 14516:1 15227:1 15852:1 16002:1 16616:1 
0.172358597536314 0 669:1 962:1 1549:1 2141:1 4981:1 8809:1 10380:1 14386:1 
0 0.05661923446826929 1342:1 2056:1 2141:1 2313:1 2677:1 3041:1 3169:1 3353:1 4981:1 5186:1 5419:1 6403:1 6494:1 6589:1 8155:1 8356:1 9002:1 10553:1 10975:1 11256:1 12525:1 12809:1 13467:1 14051:1 14516:1 14713:1 15261:1 15492:1 15578:1 
0.147389870586288 0 540:1 748:1 6515:1 7671:1 8083:1 12485:1 12525:1 14342:1 
0.3504912178520546 0 2141:1 3114:1 3291:1 4495:1 4687:1 4981:1 6632:1 7695:1 8399:1 9839:1 10909:1 12525:1 
0.1477739841239035 0 2141:1 3000:1 4981:1 5075:1 6291:1 6738:1 8971:1 9002:1 9106:1 10380:1 10761:1 11934:1 14051:1 14516:1 15390:1 
1 0 
0.9213190355933047 0 2141:1 2454:1 2981:1 6169:1 6251:1 10854:1 10975:1 14051:1 14237:1 14723:1 
1 0 101:1 2058:1 2141:1 5508:1 6494:1 9002:1 9021:1 9819:1 10721:1 11869:1 12115:1 12416:1 12895:1 15185:1 15261:1 16121:1 
0.657426143021106 0 1678:1 6494:1 7427:1 7700:1 11282:1 14051:1 
0.09629344219399062 0 2058:1 2722:1 3595:1 5689:1 6291:1 6494:1 6949:1 9014:1 10973:1 16256:1 
0 0.2423398336637431 263:1 954:1 1442:1 1705:1 2920:1 3291:1 3336:1 3787:1 6494:1 10870:1 11736:1 13944:1 
1 0 1356:1 2269:1 3000:1 12115:1 12850:1 16598:1 
0.3757981991418239 0 1050:1 1342:1 1652:1 2141:1 2701:1 2904:1 3353:1 3729:1 4981:1 6494:1 7695:1 9002:1 10092:1 11630:1 12388:1 14051:1 14672:1 16518:1 
0.1299478303802897 0 89:1 858:1 1356:1 2019:1 2141:1 2397:1 2574:1 2882:1 3177:1 3717:1 3782:1 4981:1 5399:1 6429:1 6494:1 7209:1 7221:1 9582:1 10229:1 11213:1 12434:1 12525:1 13247:1 14024:1 14051:1 14132:1 14516:1 15852:1 15990:1 16438:1 
0.3410745793415381 0 429:1 1182:1 1277:1 1304:1 2141:1 3353:1 3398:1 4981:1 5862:1 7018:1 10351:1 10975:1 12380:1 13437:1 14051:1 14381:1 14991:1 15405:1 
0.3129201120867781 0.06057320942286237 2055:1 7106:1 7577:1 9002:1 
0.6230450440601857 0.1265487507661128 4139:1 9011:1 9090:1 11388:1 15759:1 
0.1696942936544779 0 1556:1 1851:1 2141:1 2538:1 3000:1 3290:1 4355:1 4899:1 5508:1 5689:1 5983:1 6494:1 7803:1 8356:1 8694:1 9030:1 9767:1 10074:1 10422:1 10473:1 11213:1 12525:1 12642:1 12762:1 13041:1 13123:1 14051:1 14288:1 14516:1 15859:1 16403:1 
0.3763702095971864 0.1587886447382597 669:1 1308:1 2453:1 3353:1 6856:1 9002:1 12366:1 13111:1 
0.4212525577922764 0 871:1 2056:1 2397:1 3336:1 4361:1 4981:1 5550:1 6494:1 7098:1 8196:1 9002:1 9466:1 10092:1 10380:1 10669:1 10812:1 14051:1 14273:1 14516:1 14560:1 14672:1 15012:1 15731:1 
0.6794796678321051 0.02064381572533406 1308:1 1705:1 2019:1 2141:1 2701:1 3008:1 3353:1 4175:1 4981:1 5689:1 6494:1 7141:1 8857:1 9002:1 12485:1 14516:1 14555:1 15127:1 15280:1 
0.1534035683247686 0.124096447913613 540:1 1990:1 3070:1 3946:1 6169:1 8745:1 9002:1 13893:1 14051:1 
0.6033423088280448 0 540:1 2052:1 4981:1 9014:1 10475:1 11492:1 14324:1 14514:1 15133:1 16465:1 
0.4706567399800536 0 113:1 141:1 540:1 1143:1 2038:1 2052:1 2058:1 2133:1 2988:1 3000:1 5671:1 8006:1 9014:1 9661:1 11139:1 11573:1 12434:1 13408:1 15133:1 
1 0 2270:1 7341:1 13087:1 
0.119993430332905 0 540:1 1182:1 1308:1 1615:1 3350:1 4731:1 5898:1 6644:1 7208:1 7981:1 9014:1 10367:1 12006:1 12696:1 13847:1 14036:1 14516:1 15133:1 
0.1234944899828962 0 1702:1 2058:1 2139:1 3071:1 3931:1 4687:1 6494:1 6687:1 7977:1 8186:1 10545:1 11908:1 13552:1 14051:1 14514:1 14672:1 15000:1 15065:1 15133:1 15227:1 16336:1 16354:1 
0 0.01604494050112682 858:1 1008:1 1308:1 2141:1 4743:1 5419:1 5689:1 6251:1 7098:1 7369:1 7695:1 8353:1 11952:1 14687:1 16403:1 
0.2063806592055205 0 506:1 680:1 858:1 2141:1 2574:1 4981:1 5075:1 5453:1 6169:1 6251:1 6385:1 6494:1 8436:1 9014:1 10578:1 10690:1 11213:1 12388:1 12434:1 13552:1 13614:1 14051:1 14522:1 14902:1 15086:1 15267:1 
0.06312468250623847 0 534:1 841:1 992:1 1231:1 1356:1 1621:1 1910:1 2141:1 2269:1 2803:1 3000:1 3398:1 4261:1 4387:1 4694:1 4899:1 4981:1 5689:1 6518:1 6938:1 7970:1 8102:1 9014:1 9908:1 10007:1 10351:1 10383:1 11358:1 11799:1 13203:1 14051:1 16121:1 
1 0 1231:1 4746:1 5419:1 7734:1 9002:1 14555:1 15133:1 
0 0.09150331073742049 1252:1 7795:1 9011:1 15133:1 16542:1 
0.06176653936176935 0 871:1 1206:1 1445:1 3070:1 3091:1 3617:1 4731:1 4981:1 6548:1 8392:1 9014:1 11526:1 12224:1 13926:1 14516:1 15271:1 
0.2913762103362603 0 540:1 1199:1 1212:1 3336:1 5695:1 7779:1 10089:1 13278:1 14516:1 
1 0 2434:1 4731:1 15227:1 
0.4463869072502608 0 6494:1 7440:1 10380:1 11404:1 14078:1 14516:1 
0.04581978132948926 0.007339391659041502 2019:1 2715:1 3668:1 4639:1 7948:1 15343:1 
0.1488155566427186 0 854:1 5149:1 6251:1 7341:1 8094:1 9589:1 10383:1 10956:1 15214:1 
0 0.2047988612764877 540:1 1872:1 2141:1 4926:1 4981:1 6251:1 8228:1 8457:1 9014:1 10187:1 15150:1 15449:1 15629:1 16066:1 16598:1 
0.09199472421637754 0 1596:1 4299:1 4746:1 4985:1 5545:1 6251:1 9002:1 10117:1 
0.1176741693677921 0.02019086835022211 1530:1 3000:1 3896:1 5000:1 5237:1 5572:1 5872:1 6494:1 8961:1 
1 0.07764814792543702 1440:1 2019:1 5689:1 12241:1 15185:1 
0.1351056277432361 0 80:1 223:1 1843:1 2056:1 2058:1 2701:1 4981:1 5088:1 6169:1 6251:1 7539:1 9002:1 9014:1 9773:1 10553:1 12525:1 14516:1 
1 0 855:1 1342:1 2019:1 4361:1 4981:1 5149:1 6494:1 7662:1 7779:1 8353:1 9119:1 11388:1 11952:1 12434:1 12525:1 12889:1 15133:1 
0.5080460629934781 0.0399810886114767 671:1 1308:1 5689:1 9002:1 9602:1 
0.09938707587822949 0 326:1 1008:1 2141:1 3731:1 4417:1 6494:1 7576:1 9516:1 9928:1 11353:1 11952:1 12388:1 14499:1 15560:1 16403:1 
1 0 8104:1 14492:1 
0.02766757154026284 0.03005884532892676 421:1 871:1 1326:1 2055:1 2131:1 2141:1 2397:1 3143:1 3353:1 4570:1 4899:1 4981:1 6118:1 6251:1 6494:1 7669:1 8196:1 8485:1 8752:1 9002:1 9014:1 9324:1 9824:1 10246:1 10273:1 10555:1 11094:1 11788:1 12050:1 14051:1 14054:1 14516:1 16121:1 16681:1 
0.4258131798570487 0.06147783294436771 540:1 2019:1 2051:1 2058:1 2141:1 3709:1 4343:1 4981:1 5149:1 7977:1 10831:1 10854:1 11182:1 11246:1 14043:1 15133:1 15629:1 
0.04966497371615878 0 871:1 1008:1 1764:1 2019:1 6494:1 7470:1 8154:1 10068:1 10756:1 10767:1 11163:1 11213:1 12434:1 12525:1 14926:1 15693:1 16403:1 
0.1613864924405002 0 2397:1 8497:1 9014:1 9814:1 10164:1 10863:1 10898:1 13093:1 14051:1 
0.835986322932768 0 540:1 954:1 1308:1 6060:1 6118:1 6531:1 8322:1 9002:1 9589:1 11671:1 11788:1 12323:1 12869:1 14051:1 
0.3416259933508453 0 592:1 4547:1 4981:1 5149:1 10164:1 10866:1 12388:1 
0.05224781960687452 0.04754920157337271 3403:1 6891:1 9014:1 11492:1 11526:1 12404:1 13170:1 
0.1198369559270043 0 113:1 2141:1 2881:1 3654:1 4981:1 6265:1 7365:1 7695:1 9835:1 10229:1 11054:1 11235:1 12614:1 13087:1 14051:1 
0.2519781182737809 0 1879:1 2141:1 2186:1 2574:1 2701:1 3719:1 4981:1 6494:1 7695:1 9269:1 10380:1 11855:1 12266:1 12517:1 14051:1 14134:1 14439:1 
0.5774587463305684 0.1358557740491979 680:1 2141:1 2219:1 2320:1 5689:1 6050:1 6494:1 6848:1 6919:1 7169:1 8477:1 9002:1 9028:1 10854:1 12158:1 12234:1 12388:1 12525:1 
0.155707804279015 0 596:1 2074:1 2141:1 2397:1 3398:1 5862:1 6880:1 8590:1 9014:1 10221:1 10250:1 13278:1 13821:1 14051:1 15914:1 16168:1 
0.9813341219525594 0.006158333957293462 101:1 2002:1 3336:1 5689:1 6494:1 6990:1 7779:1 12323:1 12525:1 15133:1 
0.1949886603362327 0 2269:1 2429:1 4923:1 4981:1 5126:1 11740:1 12323:1 12889:1 13207:1 13971:1 14051:1 15133:1 15395:1 
0.01695329088829676 0 170:1 2056:1 3205:1 3626:1 4038:1 5561:1 5809:1 5851:1 6727:1 8980:1 9002:1 11493:1 14051:1 15227:1 
0.07111100322892654 0.05313891080765365 871:1 1741:1 2055:1 3353:1 3734:1 4825:1 5240:1 7605:1 8524:1 9308:1 10068:1 10421:1 12475:1 14028:1 14499:1 15133:1 
1 0 
0.3113437178868392 0 534:1 2269:1 2778:1 2981:1 4591:1 5508:1 6804:1 7576:1 9761:1 11365:1 11494:1 12434:1 14516:1 14606:1 14669:1 16239:1 
0.05802991761654034 0 244:1 1202:1 1689:1 3949:1 4981:1 7394:1 8340:1 9014:1 9941:1 10691:1 13286:1 14516:1 15227:1 15372:1 15578:1 16349:1 
0.3095433048218229 0 612:1 756:1 946:1 1231:1 1326:1 1927:1 2397:1 4595:1 4981:1 6358:1 7695:1 8779:1 10380:1 11213:1 12247:1 12399:1 12434:1 13014:1 13716:1 14051:1 14959:1 16121:1 
0.06338770058971836 0.01091337195080624 1342:1 1533:1 1908:1 2019:1 2052:1 3353:1 5245:1 9894:1 10421:1 10631:1 10874:1 11540:1 12205:1 12409:1 13709:1 14516:1 15133:1 
0.2644345313135877 0 228:1 1008:1 2141:1 2334:1 2397:1 2981:1 3111:1 7695:1 9656:1 10661:1 13093:1 
0.3338724088683769 0.5315276094238962 2141:1 9261:1 10580:1 14051:1 15336:1 15629:1 15638:1 
0.2804145883977208 0 1851:1 2141:1 4981:1 6060:1 8330:1 9028:1 12525:1 13745:1 14051:1 14672:1 15295:1 
0.02664994435898291 0 1008:1 1705:1 2397:1 4744:1 4981:1 6251:1 6419:1 7169:1 7389:1 9002:1 9903:1 9942:1 13093:1 14516:1 15077:1 16121:1 16403:1 
0.4880753698581597 0 871:1 1384:1 1652:1 2056:1 2058:1 2171:1 2397:1 5289:1 6020:1 6494:1 6846:1 7581:1 8469:1 9002:1 9014:1 9276:1 14516:1 15578:1 15853:1 16225:1 
0.02676908697791779 0 1207:1 2054:1 3073:1 3537:1 4367:1 4746:1 4754:1 4835:1 4857:1 4882:1 5562:1 5580:1 6494:1 7249:1 8060:1 8895:1 10858:1 11853:1 11959:1 12166:1 14600:1 14602:1 
0.2875309441294931 0 871:1 3113:1 4567:1 5219:1 5872:1 6955:1 8186:1 9014:1 12088:1 14516:1 15086:1 
1 0.001830989643502715 223:1 4731:1 5229:1 6177:1 6251:1 10854:1 11287:1 12696:1 
0.9945064616671492 0 9928:1 11132:1 
0.1757870604482385 0.01196842009505335 1247:1 1417:1 2199:1 3071:1 3293:1 3701:1 3770:1 3933:1 4981:1 5125:1 5175:1 5689:1 6494:1 6931:1 7688:1 8834:1 9014:1 9761:1 11091:1 12434:1 13728:1 13899:1 14516:1 16037:1 
0.2365749812350368 0 1501:1 1940:1 2397:1 3000:1 4981:1 5448:1 5552:1 7175:1 7203:1 9002:1 9014:1 9898:1 12771:1 14012:1 14051:1 15185:1 
0.2432063025166142 0.3448922325502339 592:1 669:1 674:1 3070:1 3916:1 4981:1 6251:1 6494:1 9002:1 9386:1 10854:1 11431:1 
0.05095129702409863 0 871:1 2019:1 2242:1 2353:1 2631:1 3183:1 4981:1 9057:1 12156:1 12611:1 13183:1 14017:1 14051:1 14062:1 15086:1 15414:1 16121:1 
0.6284235590638347 0 4489:1 4981:1 6494:1 7844:1 10643:1 10705:1 11213:1 
0.344635495136291 0.06549910697311186 113:1 534:1 1015:1 2056:1 2269:1 3000:1 3489:1 4313:1 4981:1 6494:1 8340:1 9021:1 9022:1 9582:1 9742:1 10742:1 11784:1 12525:1 13358:1 14051:1 14516:1 14975:1 15971:1 16256:1 16517:1 
0 0.07200753832761707 1970:1 2055:1 5689:1 6050:1 9021:1 9501:1 9506:1 11588:1 13635:1 
0.02487855911611451 0 534:1 2019:1 2141:1 2269:1 2701:1 2779:1 3353:1 4731:1 4981:1 5162:1 5689:1 6333:1 6374:1 6494:1 7891:1 8452:1 9291:1 9879:1 10380:1 11952:1 12388:1 12525:1 13957:1 14051:1 14070:1 14248:1 14672:1 15544:1 15832:1 16168:1 
1 0 6251:1 14051:1 15133:1 
1 0.0987500224951965 3353:1 4825:1 13902:1 
0.7670950772193789 0 583:1 1008:1 2779:1 4746:1 12434:1 15133:1 
0.3625089339586751 0 651:1 9757:1 10461:1 12323:1 
0.005091961363974872 0 592:1 2019:1 2056:1 2141:1 2429:1 4008:1 4192:1 4550:1 4981:1 5004:1 5419:1 6251:1 6494:1 7605:1 8186:1 8242:1 8340:1 8378:1 8704:1 8966:1 8968:1 9458:1 10382:1 11213:1 11262:1 11287:1 12434:1 14051:1 14555:1 14672:1 15379:1 15661:1 16670:1 
0.2113910895272388 0.04742749087526456 871:1 2024:1 3000:1 3933:1 5419:1 5689:1 6623:1 9437:1 11607:1 14316:1 14766:1 15168:1 15451:1 
1 0 6169:1 7900:1 12115:1 16209:1 16354:1 
1 0 438:1 6476:1 8094:1 9903:1 
0.8251132058508573 0 5545:1 8554:1 9011:1 9723:1 
0.1482313321070648 0.04250558967344862 1226:1 2141:1 3070:1 3336:1 4180:1 4649:1 4825:1 4981:1 5150:1 5340:1 5689:1 8463:1 8694:1 9002:1 9014:1 10763:1 11351:1 11952:1 13998:1 14033:1 14146:1 14516:1 14733:1 15127:1 16517:1 
0.5100058119153797 0 2055:1 2141:1 3353:1 4687:1 5689:1 9060:1 9897:1 10380:1 10585:1 11952:1 13489:1 
0.3509980426546684 0.07765478467859815 553:1 2686:1 2701:1 3398:1 4570:1 4981:1 6494:1 8722:1 10153:1 11726:1 12485:1 13264:1 14051:1 14516:1 15933:1 
0.5731068889414388 0.009926649700544986 6494:1 8914:1 16505:1 
0.1444447814660935 0 3734:1 4386:1 5139:1 5735:1 6050:1 6251:1 7098:1 9907:1 13648:1 14364:1 16727:1 
0.4087210228422138 0 1342:1 2114:1 2141:1 3071:1 3244:1 3291:1 3639:1 4495:1 5146:1 5689:1 6312:1 7695:1 9002:1 9014:1 10553:1 12247:1 13143:1 13245:1 13876:1 14051:1 14420:1 16037:1 16616:1 
0.4644181887474906 0 1291:1 4981:1 5689:1 6080:1 6526:1 7188:1 8692:1 9002:1 9757:1 10380:1 12434:1 12525:1 14051:1 14516:1 
0.4150081480478987 0 540:1 871:1 5664:1 6494:1 7881:1 9002:1 10709:1 11788:1 12696:1 16688:1 
0.1633148302491549 0 6494:1 8539:1 14904:1 
0.02558780989933299 0.2097144195102508 669:1 805:1 1342:1 2328:1 2912:1 3152:1 6494:1 7937:1 7980:1 12247:1 12525:1 12696:1 13203:1 14021:1 14516:1 14723:1 14779:1 14904:1 15133:1 
0.5003894128241828 0.1029037968420837 1604:1 3000:1 3127:1 4981:1 5146:1 5689:1 5978:1 6251:1 7881:1 8340:1 11952:1 12247:1 14672:1 15133:1 
0.125855196356283 0 1919:1 2058:1 2141:1 3370:1 3899:1 4981:1 6494:1 8210:1 8783:1 11957:1 12027:1 12070:1 14051:1 14516:1 15722:1 16197:1 
0.546297214223901 0.05516783065074456 2066:1 3336:1 10092:1 10721:1 10762:1 11519:1 12388:1 13399:1 
1 0.1100315659617221 4717:1 6494:1 8752:1 10605:1 12323:1 
0.2238921633063887 0 1851:1 2679:1 2752:1 4613:1 4981:1 5773:1 10808:1 11036:1 13285:1 13515:1 14051:1 14516:1 15189:1 
1 0.07803629418110115 3152:1 6494:1 9191:1 10721:1 
0.0892996872320081 0 2055:1 2269:1 3447:1 4731:1 6948:1 7779:1 8857:1 9002:1 9582:1 10608:1 10854:1 11934:1 11952:1 12525:1 13073:1 13943:1 14051:1 14516:1 15227:1 16118:1 
1 1 6494:1 10721:1 11952:1 14516:1 
0.06493957743168038 0 2194:1 3336:1 4804:1 4981:1 6494:1 9014:1 9672:1 10414:1 10634:1 12388:1 14051:1 14516:1 14859:1 15664:1 16394:1 
0.2169707848360859 0 2052:1 2141:1 7553:1 9447:1 10467:1 10721:1 15133:1 
0.09926876713774781 0 797:1 871:1 1788:1 2413:1 3353:1 5689:1 5726:1 7328:1 7893:1 8410:1 9002:1 9878:1 10334:1 10380:1 10504:1 10580:1 10866:1 12466:1 14051:1 14365:1 14516:1 15227:1 16490:1 
0.3463597761244016 0 316:1 1308:1 1666:1 2181:1 4981:1 6494:1 8810:1 9002:1 9014:1 11681:1 12434:1 12646:1 12975:1 13944:1 14051:1 14095:1 14319:1 
0.5407035939972819 0 1008:1 2141:1 2427:1 2688:1 4361:1 6494:1 7087:1 7695:1 9622:1 9894:1 10068:1 12434:1 12525:1 14051:1 14530:1 14876:1 15333:1 15665:1 15802:1 15862:1 
0.2794480771081659 0 1419:1 4731:1 4981:1 5198:1 6824:1 8901:1 9014:1 9765:1 11671:1 12323:1 12436:1 12696:1 14516:1 14530:1 15133:1 16392:1 
1 0 1308:1 9028:1 12525:1 
0.14356815001706 0 328:1 999:1 1621:1 2056:1 2141:1 2395:1 2536:1 3291:1 3398:1 4825:1 4981:1 4984:1 5231:1 6601:1 6638:1 6769:1 7779:1 8273:1 8509:1 9734:1 11286:1 12525:1 13677:1 14382:1 14516:1 14935:1 16518:1 
1 0.4550672629549873 1008:1 6494:1 7880:1 
0.04050636762887322 0.04319667471299003 1477:1 2055:1 2320:1 2533:1 4981:1 6053:1 6251:1 6494:1 8340:1 8528:1 8781:1 9014:1 9021:1 9724:1 11213:1 14516:1 16518:1 
1 0.395629805735107 2141:1 3353:1 8353:1 8901:1 
1 0 7899:1 9622:1 14021:1 
0.3065898570889837 0 2141:1 2438:1 4361:1 4412:1 6494:1 6745:1 11287:1 13188:1 13745:1 14516:1 
0.834574582991137 0 9630:1 
0.3224205147729574 0 2141:1 2269:1 2465:1 3933:1 4746:1 4981:1 5277:1 5545:1 7844:1 8055:1 8340:1 16598:1 
1 0.02420689441653423 1846:1 3748:1 6813:1 9002:1 12323:1 14026:1 15662:1 
0.4123247354972174 0 534:1 2397:1 8554:1 10550:1 14462:1 
0.1292628554657697 0.01611862357322071 29:1 117:1 598:1 600:1 1308:1 1654:1 2328:1 2795:1 4981:1 5689:1 5818:1 6223:1 6494:1 9002:1 11095:1 12450:1 13717:1 13925:1 14260:1 14516:1 15682:1 16258:1 16599:1 
1 0.1406534251946824 1289:1 9734:1 12085:1 12115:1 
0 0.6189009699645248 1252:1 4321:1 6251:1 
1 0.917110812490199 540:1 1957:1 5149:1 5689:1 7977:1 15133:1 
0.08939182352064202 0 481:1 1121:1 1209:1 2141:1 3286:1 4769:1 4981:1 5146:1 6494:1 7104:1 7303:1 7867:1 9014:1 9269:1 10067:1 11213:1 13023:1 14516:1 16016:1 
0.1482896429392844 0.03138269352717997 2055:1 2350:1 4016:1 4981:1 5149:1 9014:1 9582:1 9913:1 12247:1 13312:1 15662:1 16179:1 16317:1 
0.0836755233031366 0 2141:1 2540:1 3370:1 4709:1 4897:1 4981:1 5813:1 12989:1 
0 0.03671381527367581 876:1 1051:1 3177:1 3931:1 4981:1 5545:1 5901:1 6251:1 6494:1 7977:1 9386:1 9673:1 10721:1 12323:1 12362:1 13893:1 14051:1 14516:1 15068:1 15133:1 15284:1 16517:1 
1 0 69:1 223:1 871:1 2701:1 4981:1 8435:1 9002:1 12525:1 14516:1 
0.5713934744915172 0.2246817127064439 6251:1 7123:1 12178:1 
1 0 3398:1 6494:1 10351:1 14801:1 
0.8402112571980199 0.006923217890487262 3505:1 6494:1 12123:1 
1 0 2141:1 3336:1 6251:1 6598:1 8969:1 11538:1 12434:1 12696:1 14516:1 14672:1 15133:1 16403:1 
1 0 871:1 1008:1 2055:1 2141:1 2453:1 3275:1 4687:1 4746:1 4981:1 6196:1 6494:1 7710:1 9002:1 10221:1 14280:1 14672:1 15618:1 16409:1 
0.2222090249835896 0.004795570927881872 330:1 2056:1 8418:1 15357:1 16072:1 
0.3440872912027135 0.03744141648054217 2056:1 3591:1 4199:1 9002:1 15678:1 
0.08363065422999524 0.4110909100700298 1049:1 2058:1 3104:1 4731:1 4981:1 5419:1 6251:1 8473:1 10117:1 14051:1 14499:1 15295:1 15629:1 
0.1883078410980634 0 2141:1 2981:1 3205:1 4591:1 4981:1 5287:1 6420:1 7412:1 8232:1 9903:1 10380:1 10475:1 12485:1 12525:1 14051:1 15997:1 
0.8905007430551475 0 666:1 1540:1 1987:1 2453:1 4412:1 4981:1 5382:1 6955:1 8353:1 9014:1 9538:1 12323:1 15133:1 
0.5709336417808522 0.06465960335135851 534:1 2789:1 3291:1 4189:1 4668:1 4981:1 8753:1 14306:1 14893:1 16002:1 
1 0 
0 0.00926947429639139 222:1 2141:1 3235:1 4162:1 4981:1 6822:1 8643:1 9002:1 9014:1 14516:1 
0.07275813836372419 0 926:1 1948:1 2141:1 4343:1 4387:1 4404:1 4981:1 5149:1 5507:1 5689:1 7869:1 7884:1 10274:1 12323:1 12525:1 12627:1 13755:1 14530:1 15133:1 15317:1 15951:1 
1 0 
0 0.037978871334901 29:1 113:1 438:1 871:1 1094:1 2055:1 2130:1 2981:1 3163:1 3353:1 3558:1 3933:1 4981:1 4984:1 6251:1 6494:1 9021:1 11252:1 11665:1 12323:1 12863:1 13570:1 14516:1 16216:1 16403:1 
1 0 1356:1 2058:1 2870:1 4746:1 6251:1 7779:1 9090:1 10143:1 10877:1 11952:1 14516:1 14641:1 15077:1 
0 0.00542138443402124 101:1 592:1 871:1 1008:1 1385:1 1614:1 2141:1 2920:1 3000:1 4981:1 6169:1 6224:1 6494:1 6863:1 7779:1 9002:1 9014:1 9021:1 9601:1 10615:1 11020:1 11573:1 12115:1 13399:1 13677:1 14051:1 14516:1 15317:1 16121:1 
0.2016807525665794 0 1468:1 1695:1 3000:1 3336:1 4981:1 6251:1 7001:1 9021:1 11351:1 12525:1 14051:1 15520:1 15918:1 
1 0.03833039756272419 805:1 3734:1 6251:1 6494:1 7907:1 9386:1 11182:1 13745:1 15133:1 
0 0.1369416994954263 871:1 1326:1 3558:1 6055:1 6494:1 8585:1 9014:1 12434:1 14051:1 14516:1 14555:1 15618:1 
0.07982813233188585 0.05092490752794844 2141:1 6169:1 6251:1 6494:1 8353:1 10086:1 10629:1 11653:1 12485:1 13202:1 
0.7122485546618063 0.09256417434475123 669:1 871:1 1008:1 4159:1 5689:1 6251:1 9907:1 12434:1 12904:1 14495:1 
0.3461920700260483 0 535:1 1530:1 1843:1 2019:1 2056:1 2427:1 4494:1 4981:1 5924:1 9002:1 11206:1 13518:1 14051:1 15227:1 15691:1 
1 0 
1 0 1008:1 1199:1 4361:1 10761:1 12388:1 16505:1 
0.1287504652442857 0 2305:1 3507:1 4509:1 4549:1 4981:1 5146:1 5393:1 6494:1 8528:1 10553:1 10866:1 10915:1 11182:1 12734:1 14105:1 14516:1 15227:1 16092:1 
0.5455337125200789 0 314:1 2141:1 2688:1 2870:1 4981:1 5689:1 6243:1 7341:1 7344:1 10086:1 14051:1 
0.01647571310302298 0 735:1 1852:1 2269:1 2403:1 4594:1 4981:1 7105:1 7695:1 8652:1 10127:1 10380:1 10732:1 11952:1 12665:1 13014:1 14051:1 15203:1 16016:1 16256:1 
0.6507192574518894 0.02646387532328446 113:1 2141:1 2269:1 2981:1 3071:1 3694:1 4981:1 5689:1 6494:1 8976:1 9761:1 10643:1 11459:1 12323:1 12564:1 15068:1 15133:1 
0.2873153107897071 0.1244331242767664 149:1 954:1 1530:1 7434:1 8181:1 9028:1 10070:1 
0.2693158919671911 0.08654312460501569 753:1 1008:1 1289:1 1308:1 2056:1 3163:1 4981:1 5689:1 5868:1 6251:1 6494:1 6708:1 8340:1 8613:1 8694:1 9351:1 10007:1 10466:1 14516:1 14959:1 16221:1 
0.4016045153128105 0 2141:1 6525:1 7227:1 
0.7032607199252019 0 1290:1 1730:1 2058:1 2453:1 2686:1 3353:1 4981:1 5689:1 9002:1 9460:1 10058:1 12434:1 12513:1 14516:1 14547:1 15133:1 15150:1 16741:1 
0.6852540756993211 0 1008:1 2141:1 2804:1 3071:1 3336:1 4247:1 4899:1 6182:1 6494:1 7463:1 12434:1 12525:1 13203:1 14017:1 14516:1 14672:1 
0 0.01998922463725517 149:1 680:1 2019:1 2267:1 3353:1 6169:1 6494:1 8751:1 9002:1 9050:1 10380:1 11736:1 11983:1 14051:1 14259:1 15999:1 
0.2472422261388978 0 534:1 540:1 1872:1 2019:1 2269:1 2863:1 3070:1 5175:1 8330:1 9014:1 9950:1 10380:1 10888:1 11287:1 12525:1 12696:1 13791:1 14051:1 14070:1 14081:1 14885:1 
0.1288538223997983 0 1308:1 2052:1 2055:1 3345:1 3642:1 4689:1 4981:1 5545:1 7369:1 8424:1 10870:1 11617:1 11952:1 12388:1 14516:1 14672:1 14954:1 15133:1 15556:1 
0.8269811858352094 0.01619271888203687 2351:1 9014:1 16427:1 
0.2339756400591891 0.03752156637705979 615:1 2141:1 3737:1 7045:1 8356:1 9030:1 9644:1 9767:1 12717:1 14530:1 
0.4340988706993131 0 62:1 1143:1 2141:1 5149:1 5577:1 5770:1 6494:1 9008:1 10925:1 11385:1 12115:1 13745:1 14051:1 
0 0.1127337062024376 1195:1 4981:1 5467:1 7546:1 9181:1 9698:1 
0.05793097870226567 0 348:1 540:1 2141:1 2235:1 2453:1 3810:1 3933:1 5664:1 7683:1 10461:1 11698:1 14499:1 16403:1 
0.1156555104366337 0 540:1 669:1 2056:1 2058:1 2508:1 2701:1 3336:1 3538:1 4726:1 4731:1 4974:1 4981:1 6401:1 6494:1 7695:1 8887:1 10276:1 10831:1 10854:1 11213:1 11365:1 12525:1 12614:1 12734:1 14051:1 14165:1 14237:1 14516:1 14672:1 15133:1 15150:1 16326:1 
0.1592405663255682 0 871:1 901:1 1349:1 2397:1 3933:1 4864:1 4981:1 5689:1 6880:1 6931:1 8083:1 8793:1 9002:1 12972:1 14051:1 15163:1 15565:1 15658:1 
0.176912283322692 0 4445:1 4942:1 6494:1 12676:1 13033:1 14051:1 14516:1 16271:1 
0.3057698008854554 0.006220899883505608 2019:1 11404:1 14282:1 14592:1 
0.3280054852757442 0.06015806332883385 101:1 904:1 1523:1 2131:1 2141:1 3274:1 3557:1 4764:1 4827:1 5149:1 5277:1 6494:1 8887:1 9014:1 11105:1 11952:1 12525:1 12908:1 13944:1 15133:1 
0.5131352109519761 0.1739710355337315 1533:1 1990:1 2141:1 2941:1 4746:1 8674:1 11952:1 13203:1 15133:1 
0.150727757043342 0.009044762978049266 911:1 1689:1 2055:1 2234:1 3336:1 3707:1 4981:1 5291:1 5971:1 7409:1 7567:1 7914:1 7977:1 8588:1 8979:1 9972:1 11004:1 12879:1 12880:1 14051:1 14869:1 15573:1 
0.645678135379932 0.3636384825455243 871:1 1288:1 1615:1 2052:1 2055:1 2141:1 2688:1 3309:1 4899:1 5664:1 5677:1 6251:1 8322:1 12525:1 12696:1 13203:1 14051:1 14672:1 15133:1 15150:1 15629:1 
0.2593779774838397 0 1585:1 2141:1 2981:1 3782:1 4495:1 4591:1 4981:1 5225:1 5419:1 5661:1 5689:1 7779:1 8009:1 8340:1 9002:1 9582:1 13848:1 13884:1 14516:1 14530:1 14672:1 15578:1 16274:1 16716:1 
0.04895868746136305 0 531:1 871:1 1049:1 1615:1 3353:1 4981:1 5149:1 7633:1 13111:1 16533:1 
0.06144593690200649 0 871:1 4981:1 8402:1 9845:1 9985:1 12189:1 
1 0 
0.6503134457683106 0.07355753164374423 592:1 1209:1 3353:1 7779:1 9002:1 14516:1 
0.03859500932251488 0 2019:1 2320:1 2490:1 4810:1 5508:1 5561:1 6494:1 9030:1 9575:1 9907:1 10068:1 11165:1 11674:1 12434:1 14237:1 14516:1 15227:1 15286:1 16403:1 
0.1910739919114252 0 2058:1 2453:1 4981:1 6225:1 7695:1 7977:1 8145:1 9355:1 11504:1 14555:1 15133:1 16256:1 
0.1350097526431113 0 1624:1 2056:1 2701:1 5689:1 6251:1 6494:1 9028:1 11794:1 12147:1 14051:1 15150:1 16403:1 
1 0 871:1 1440:1 2019:1 2124:1 4746:1 5419:1 5550:1 6251:1 6494:1 8731:1 9021:1 12115:1 13021:1 14746:1 
1 0 1438:1 4731:1 6979:1 15133:1 
0.3559067015848323 0.06146700014381087 1008:1 1308:1 2141:1 3291:1 3353:1 5689:1 5802:1 6041:1 6494:1 9002:1 9582:1 10522:1 12001:1 12434:1 12558:1 13204:1 13219:1 15227:1 
0 0.001059419866091005 1615:1 1744:1 2141:1 3070:1 4731:1 6403:1 6494:1 6891:1 8477:1 9894:1 12525:1 15133:1 
0.3107399660849079 0 844:1 871:1 1289:1 2320:1 3291:1 4200:1 4687:1 4981:1 5175:1 5689:1 7779:1 7863:1 8413:1 8485:1 8554:1 8911:1 9002:1 9177:1 10380:1 10812:1 12115:1 12525:1 12778:1 14051:1 14516:1 14678:1 14926:1 16385:1 
0.3629179756471403 0 1503:1 2141:1 3555:1 3916:1 5727:1 9002:1 10146:1 12298:1 12695:1 13502:1 14514:1 15133:1 15884:1 
0.2152596823367706 0 124:1 457:1 736:1 1008:1 1275:1 3353:1 3499:1 4825:1 4981:1 8947:1 9872:1 10068:1 11213:1 12388:1 13124:1 14713:1 14878:1 15004:1 15469:1 
0.04868466897871781 0 911:1 1302:1 1674:1 1983:1 4754:1 5133:1 5563:1 5565:1 5586:1 5971:1 6617:1 6673:1 7158:1 7251:1 7875:1 8577:1 8922:1 9861:1 10401:1 11755:1 11829:1 13060:1 13435:1 16428:1 
0.1326943908007478 0 2019:1 2141:1 4981:1 5682:1 7256:1 7401:1 9936:1 11240:1 12038:1 13182:1 13898:1 13955:1 14051:1 15173:1 15267:1 16121:1 
1 0 5862:1 9014:1 
1 0.6726555226370639 
0.3520429128912301 0 2981:1 3353:1 3728:1 6494:1 8353:1 8987:1 11139:1 13021:1 16598:1 
0 0.00745682854443539 149:1 954:1 1800:1 2019:1 2141:1 2242:1 2267:1 3070:1 5135:1 5689:1 5853:1 5858:1 6494:1 8123:1 8235:1 8809:1 10608:1 11540:1 12542:1 13192:1 13594:1 14051:1 14259:1 15123:1 16360:1 16392:1 16678:1 
0 0.01193264053526325 1299:1 2141:1 4862:1 5590:1 5689:1 6050:1 7695:1 7718:1 8463:1 9335:1 10975:1 12972:1 15852:1 
1 0 2019:1 2058:1 4981:1 6813:1 8040:1 8809:1 10380:1 14516:1 14657:1 
0.2754558317243289 0.01098587680313329 614:1 1308:1 2052:1 4394:1 4899:1 4981:1 5507:1 5689:1 6494:1 7881:1 8095:1 11952:1 11954:1 12434:1 13014:1 13467:1 15133:1 15683:1 15870:1 16062:1 16688:1 
0.03126803820972787 0 1106:1 2055:1 2453:1 3071:1 4480:1 4731:1 4740:1 4981:1 5149:1 5162:1 5689:1 6149:1 6494:1 7695:1 7722:1 9002:1 9030:1 10092:1 10433:1 12247:1 12323:1 12733:1 12972:1 14423:1 14555:1 15000:1 15722:1 
0.5823340359926309 0 69:1 1929:1 2141:1 3070:1 4343:1 4362:1 4416:1 5545:1 8353:1 9011:1 9014:1 9030:1 9589:1 11788:1 12178:1 12696:1 13709:1 14480:1 14672:1 15133:1 16333:1 
1 0.6269194744595363 2141:1 2241:1 5146:1 6494:1 
0 0.4234001705201846 1843:1 2141:1 3336:1 5406:1 7098:1 8186:1 9030:1 10421:1 11267:1 14687:1 15629:1 15693:1 16333:1 
0.3424523854977797 0.122882525388121 592:1 2019:1 2233:1 2912:1 4409:1 6494:1 6738:1 6955:1 8628:1 9014:1 12696:1 16193:1 16674:1 
0.02082577524188043 0 2779:1 5149:1 6632:1 12247:1 12525:1 
1 1 
0.158180476661896 0 450:1 540:1 680:1 1141:1 2508:1 3165:1 7495:1 7695:1 8667:1 9202:1 10759:1 10815:1 14051:1 15133:1 
0.05039839420845199 0.01669938710240354 3336:1 3758:1 5895:1 6494:1 7142:1 9002:1 12559:1 14051:1 14688:1 
0.03952497425658961 0.002669967039932015 57:1 105:1 3643:1 3728:1 3851:1 3902:1 4595:1 4981:1 6042:1 7002:1 7937:1 8738:1 11037:1 11039:1 12414:1 14050:1 14516:1 
0 0.06378176433310104 2141:1 3221:1 3336:1 3353:1 4981:1 5048:1 6251:1 6300:1 6494:1 7695:1 7779:1 8288:1 9530:1 9761:1 10709:1 12450:1 14516:1 15618:1 16121:1 
0.103806449782731 0 2453:1 4899:1 6797:1 8883:1 10831:1 14949:1 15227:1 
0.02471715690037208 0 1356:1 1481:1 2219:1 2373:1 4899:1 5458:1 5689:1 6494:1 6647:1 8651:1 8779:1 9211:1 9220:1 10812:1 12434:1 12485:1 13958:1 14051:1 14516:1 15012:1 15862:1 
0.005388551847036588 0 2438:1 2981:1 3336:1 4591:1 4981:1 5689:1 6494:1 7251:1 7779:1 7795:1 8777:1 9014:1 9599:1 11593:1 11952:1 13203:1 13988:1 15133:1 16403:1 
0.05535802493584902 0.2171442146130152 871:1 3958:1 4721:1 4974:1 6169:1 10580:1 11976:1 
0.06889823100002015 0 406:1 490:1 669:1 1209:1 1511:1 1705:1 2194:1 2242:1 2397:1 2863:1 3353:1 4441:1 5852:1 6494:1 8108:1 8166:1 8413:1 8662:1 9002:1 9412:1 10690:1 10854:1 12323:1 12388:1 12434:1 12956:1 12997:1 14051:1 14550:1 
0.1741389199680574 0 418:1 871:1 959:1 2141:1 3353:1 4890:1 4981:1 6772:1 7111:1 7558:1 7695:1 9014:1 10380:1 12115:1 13118:1 13132:1 14051:1 14088:1 14876:1 
0.1397348888591531 0 4:1 457:1 806:1 1008:1 1304:1 1518:1 2056:1 4981:1 6494:1 7972:1 8074:1 8485:1 10219:1 12434:1 12884:1 13306:1 13708:1 13772:1 14516:1 14839:1 15591:1 16616:1 
0.7344060408953511 0 1308:1 1987:1 2052:1 5267:1 6336:1 7002:1 15133:1 
1 0 2055:1 4981:1 6948:1 10380:1 11049:1 13866:1 
0.3129056904503009 0 1342:1 1585:1 1879:1 2141:1 4981:1 8667:1 9002:1 10337:1 12388:1 13756:1 14555:1 15884:1 
0.1564860026665733 0 15:1 808:1 1008:1 1182:1 1308:1 2141:1 2701:1 3248:1 4035:1 4899:1 6494:1 6598:1 6638:1 6669:1 8430:1 9440:1 12207:1 12486:1 12553:1 13203:1 13464:1 14530:1 14555:1 15227:1 16168:1 16425:1 16708:1 
0.6012727376968918 0.0512099904935108 3070:1 6494:1 7165:1 11952:1 12205:1 13073:1 
0.1995147449208613 0.0108313606800029 1554:1 2313:1 3336:1 4464:1 4981:1 5162:1 6813:1 11397:1 12448:1 13752:1 14516:1 15492:1 
1 0.02178493235258352 2055:1 4140:1 6060:1 9002:1 11736:1 11952:1 
0.2877578861691177 0.4119634194887611 540:1 2141:1 4731:1 6160:1 8353:1 13740:1 15173:1 
0.8845075178075741 0 4981:1 9835:1 12643:1 
0.3799367785742332 0 2019:1 2981:1 4981:1 6251:1 7576:1 11237:1 14051:1 
1 0 6494:1 10380:1 12803:1 
0.111294007982182 0 393:1 2133:1 3353:1 4687:1 7695:1 9002:1 9408:1 9842:1 12136:1 14051:1 14270:1 14660:1 16403:1 
0.158309776023893 0 858:1 871:1 1008:1 2141:1 2421:1 2688:1 3274:1 4687:1 4981:1 5146:1 5541:1 6494:1 6638:1 7631:1 7977:1 9002:1 9097:1 10117:1 10119:1 11563:1 12323:1 14051:1 
0 0.01635389310994154 2019:1 3174:1 3344:1 3493:1 4981:1 5043:1 6046:1 6494:1 7394:1 7836:1 9002:1 9014:1 9601:1 9900:1 10628:1 13944:1 14051:1 
0.9183960361450844 0 2058:1 5545:1 9002:1 11935:1 
0 0.0177017103753142 871:1 1182:1 1228:1 2981:1 4981:1 5419:1 5903:1 7176:1 9002:1 9014:1 11665:1 14516:1 15215:1 15795:1 
0.2273029976800361 0.2896881191602187 4746:1 5419:1 6494:1 7024:1 7977:1 8356:1 10042:1 15133:1 
0.9549028151285099 0 540:1 1872:1 2141:1 4062:1 9842:1 13151:1 14051:1 16598:1 
0.2359534894660351 0.1230165131155654 871:1 4981:1 8353:1 9435:1 15133:1 16671:1 
0.537723054848497 0.07049504993454558 871:1 5545:1 6494:1 7398:1 9761:1 12895:1 13203:1 14516:1 16542:1 
0.2453217095136423 0 1008:1 4626:1 6525:1 8852:1 9355:1 12388:1 12434:1 12615:1 
0.1361036674368043 0 2688:1 3728:1 4981:1 6251:1 8421:1 9226:1 9928:1 12050:1 14516:1 14647:1 15705:1 
0 0.01122920661559482 3336:1 3782:1 4981:1 6494:1 13586:1 14516:1 14688:1 15075:1 
0.007227010378418859 0 153:1 1819:1 2019:1 2141:1 3070:1 3274:1 3634:1 4128:1 4899:1 4981:1 5146:1 5871:1 6494:1 8340:1 8453:1 8512:1 9014:1 9092:1 9335:1 9430:1 9582:1 10493:1 11024:1 11282:1 12427:1 12525:1 13203:1 14051:1 15578:1 16256:1 
1 0.1065381407793505 4746:1 6251:1 7868:1 9021:1 10821:1 15133:1 
0.5269049828759406 0 534:1 1678:1 2056:1 3647:1 6199:1 6474:1 6494:1 6955:1 7174:1 9692:1 10380:1 12809:1 14893:1 
0 0.009020568206425402 2269:1 2732:1 3661:1 4981:1 7144:1 7301:1 7779:1 8353:1 14516:1 
0.274079558002201 0 2573:1 3734:1 4495:1 4981:1 6949:1 9014:1 12323:1 14376:1 14634:1 15133:1 15295:1 
0.8307472845986441 0 2052:1 2058:1 2141:1 2744:1 3070:1 3146:1 3933:1 4981:1 5664:1 7501:1 7710:1 8901:1 11952:1 12706:1 15133:1 15822:1 16066:1 
0.3806500036200636 0 309:1 1383:1 1419:1 2019:1 2353:1 3000:1 3353:1 3803:1 3933:1 4858:1 4981:1 5335:1 6034:1 6103:1 6169:1 6251:1 6955:1 7576:1 9014:1 10380:1 11492:1 11952:1 12434:1 12485:1 13173:1 14051:1 14961:1 16256:1 16517:1 
0.02894205141719804 0 459:1 2141:1 2389:1 2677:1 4981:1 5500:1 6279:1 6494:1 6955:1 9894:1 11139:1 11789:1 13693:1 13866:1 
0.07496157284880786 0 669:1 2055:1 2058:1 3163:1 4981:1 6401:1 6409:1 6804:1 7522:1 9002:1 9030:1 10380:1 11931:1 14070:1 14842:1 
0.1601349109733368 0 534:1 1158:1 2141:1 2269:1 2640:1 2981:1 4890:1 4981:1 6291:1 6494:1 6955:1 6980:1 8353:1 8477:1 10380:1 10580:1 12435:1 12525:1 12585:1 12665:1 13844:1 14051:1 14070:1 14471:1 14516:1 14713:1 14777:1 
0.8581090007172704 0 2055:1 3557:1 4731:1 5004:1 6251:1 6494:1 6687:1 8500:1 9589:1 10762:1 15852:1 
0.1028689021610354 0 1182:1 2030:1 2141:1 3353:1 4981:1 6465:1 6494:1 7565:1 9920:1 10278:1 10763:1 11358:1 11968:1 12165:1 12344:1 12525:1 13014:1 14051:1 14516:1 
0.8177723377607449 0.116330328805001 1599:1 1615:1 2141:1 2177:1 2981:1 3349:1 7683:1 9002:1 9014:1 10721:1 11952:1 12863:1 15133:1 
0.2203542830757855 0 1297:1 1650:1 2778:1 3446:1 4981:1 6169:1 9014:1 11139:1 11217:1 14051:1 15263:1 
0.2042145631050449 0.02082053370216866 1685:1 2055:1 2269:1 3209:1 4981:1 5149:1 6494:1 7779:1 8353:1 8364:1 8724:1 9002:1 9582:1 11803:1 12434:1 13570:1 16542:1 
0.01532553393482943 0 1304:1 2019:1 2141:1 2397:1 4439:1 4637:1 4981:1 7096:1 8358:1 9014:1 10229:1 11189:1 11213:1 12780:1 14516:1 15708:1 15746:1 16673:1 
0.3468039302357385 0 1538:1 2701:1 3353:1 4687:1 6494:1 6954:1 9002:1 13041:1 14051:1 
0.091350308790954 0 540:1 1049:1 1885:1 1953:1 2055:1 2497:1 2981:1 4511:1 4687:1 4707:1 4731:1 4911:1 5818:1 6494:1 8094:1 10565:1 10854:1 11788:1 11923:1 11952:1 12525:1 12603:1 13843:1 14051:1 15133:1 
0.8818181443006496 0 901:1 8051:1 10380:1 14051:1 
0.7352553556781082 0.03449352670613121 540:1 1308:1 1615:1 2141:1 4746:1 9931:1 11252:1 13745:1 14530:1 16356:1 
0.2925277971368592 0 246:1 2019:1 2133:1 3070:1 3509:1 4981:1 5382:1 6169:1 6251:1 6696:1 7266:1 9014:1 9691:1 10866:1 14051:1 14516:1 14672:1 15133:1 15558:1 
0.5485617346768146 0 1097:1 2058:1 2439:1 3353:1 4981:1 6251:1 6494:1 7404:1 9002:1 9014:1 9928:1 10608:1 11788:1 11952:1 13632:1 14051:1 14516:1 15693:1 16021:1 
0.1856524754783059 0 2055:1 7098:1 8760:1 10040:1 13399:1 13995:1 14051:1 16333:1 
1 0 213:1 1540:1 5689:1 8547:1 11573:1 12525:1 12643:1 15133:1 
1 1 
0.6043678730047761 0 858:1 871:1 962:1 2019:1 2052:1 3000:1 4890:1 6251:1 7695:1 7771:1 8799:1 9002:1 9030:1 9894:1 10068:1 11170:1 12525:1 15133:1 15852:1 
0.3087511474651373 0 2124:1 4981:1 5135:1 8731:1 9002:1 11049:1 12434:1 13021:1 13518:1 14516:1 
0.1254518267682445 0.01035517000454111 855:1 1345:1 1368:1 2041:1 2056:1 2141:1 2551:1 2701:1 3163:1 4969:1 6804:1 8094:1 9685:1 11825:1 12434:1 13369:1 14893:1 
0 0.1278126239623945 2243:1 9688:1 10721:1 
1 0 854:1 2141:1 7341:1 9579:1 11952:1 15133:1 
0.2638392991781804 0 1789:1 1990:1 2141:1 3268:1 4731:1 4791:1 4981:1 5555:1 6515:1 7576:1 7852:1 10421:1 11540:1 12889:1 12917:1 14051:1 15133:1 16403:1 16518:1 
0.9965062087201534 0 101:1 1237:1 3186:1 6494:1 14237:1 15133:1 
0.2236847776075519 0 871:1 1806:1 1987:1 2055:1 2141:1 4033:1 4471:1 4864:1 4899:1 4981:1 5689:1 6251:1 7424:1 7669:1 8058:1 8528:1 8547:1 9442:1 10380:1 10975:1 13730:1 14051:1 14081:1 14904:1 
0.1028056453279146 0 858:1 1304:1 1511:1 2055:1 2313:1 3175:1 4981:1 5944:1 5998:1 6050:1 6401:1 6494:1 7139:1 10044:1 12388:1 14516:1 15086:1 16432:1 
0.2284416718604128 0 1008:1 1732:1 2019:1 2141:1 2432:1 2574:1 2701:1 3398:1 4668:1 6494:1 8339:1 9404:1 9464:1 9794:1 10380:1 10639:1 11094:1 12388:1 12434:1 14051:1 14242:1 14668:1 15084:1 15167:1 15832:1 16719:1 
0 0.2524974240764284 1049:1 1182:1 1540:1 4412:1 4981:1 5146:1 6169:1 6494:1 7636:1 9119:1 9478:1 11698:1 15629:1 
0.0760549092428984 0 126:1 1705:1 2055:1 2141:1 2320:1 2981:1 3205:1 5250:1 6050:1 6494:1 7329:1 10443:1 11020:1 11540:1 11671:1 12434:1 13041:1 13093:1 14419:1 14516:1 16425:1 
0.1195671172300873 0.008864792979919536 534:1 607:1 2269:1 3336:1 4981:1 5203:1 6251:1 6494:1 8457:1 9002:1 9014:1 9021:1 9518:1 10812:1 11262:1 11958:1 12006:1 12108:1 14419:1 15185:1 15930:1 16542:1 
0.1441101821424461 0.0274470908756981 237:1 697:1 871:1 1018:1 1102:1 1112:1 1554:1 2141:1 2701:1 3336:1 4613:1 4649:1 4840:1 4864:1 4981:1 7779:1 8340:1 9014:1 10117:1 10220:1 11172:1 12525:1 14051:1 14382:1 14516:1 14672:1 15647:1 16390:1 16555:1 
0.2945487494762951 0 5743:1 6280:1 11139:1 
0.2646544688258188 0 871:1 1564:1 2141:1 2870:1 3353:1 3931:1 4981:1 5004:1 6772:1 7003:1 9030:1 9518:1 10383:1 12696:1 12750:1 14020:1 14112:1 14237:1 14514:1 14695:1 
0 0.07496915157556208 1163:1 1308:1 3178:1 3333:1 3786:1 5419:1 6169:1 9321:1 9903:1 12525:1 12696:1 15133:1 
0.3405686679194612 0.08294092946598945 2055:1 5638:1 6494:1 7969:1 8485:1 11213:1 11500:1 14516:1 15086:1 16282:1 
0.4595225670178753 0 400:1 761:1 871:1 3150:1 3291:1 3424:1 3698:1 4691:1 6250:1 6494:1 6842:1 6990:1 7064:1 7176:1 8353:1 8753:1 9014:1 9898:1 10166:1 10383:1 10812:1 12434:1 12525:1 14012:1 14051:1 
1 0.0832396294781074 199:1 6494:1 15048:1 15133:1 
0 0.01324937478658718 42:1 680:1 1325:1 2141:1 2935:1 3450:1 3719:1 3975:1 4869:1 6494:1 9038:1 10391:1 10656:1 12450:1 14319:1 15189:1 15798:1 
0.3015702640141422 0 6432:1 7070:1 
0.1473529015062579 0.08628823832324478 113:1 736:1 871:1 2141:1 3319:1 4038:1 4981:1 5419:1 5545:1 6494:1 6732:1 6856:1 7790:1 8186:1 8463:1 9002:1 9030:1 9444:1 12115:1 12298:1 12323:1 14051:1 14516:1 14736:1 15150:1 16379:1 
0.1857355473013938 0.02792448482008105 540:1 4731:1 6066:1 7602:1 7729:1 8353:1 11213:1 11727:1 15133:1 16542:1 
0.07603604055273976 0.001401352315739762 129:1 442:1 1049:1 2056:1 4038:1 4981:1 5872:1 6880:1 7756:1 7900:1 7923:1 8145:1 9014:1 9255:1 11213:1 12088:1 12289:1 12633:1 14051:1 14516:1 14774:1 15409:1 
0.6235154480847815 0.04293099906806018 1990:1 2019:1 3070:1 3404:1 4981:1 7369:1 9200:1 11878:1 14672:1 
0.117162236492825 0 1987:1 2141:1 2453:1 4065:1 4981:1 8040:1 9030:1 9878:1 10959:1 12434:1 12513:1 13922:1 15099:1 
0.009708780226517147 0.01456478158928216 871:1 889:1 1851:1 2328:1 3008:1 3319:1 4862:1 4981:1 5689:1 6394:1 6494:1 6679:1 8389:1 8485:1 9002:1 10475:1 11252:1 12115:1 12997:1 13093:1 13893:1 14516:1 14555:1 
1 0 2688:1 7341:1 8667:1 12525:1 14051:1 
0.06531171879524324 0 1141:1 2056:1 2141:1 2198:1 4618:1 4981:1 6955:1 7876:1 8485:1 9014:1 10246:1 10383:1 11145:1 12525:1 12890:1 14005:1 14051:1 14516:1 15741:1 16136:1 
0.8318170620699173 0.1017592004544251 1233:1 1308:1 1615:1 2141:1 3336:1 4731:1 4981:1 7389:1 7694:1 7710:1 9030:1 11231:1 16518:1 
0 0.00698750147407478 871:1 2019:1 2055:1 3578:1 4981:1 5225:1 5802:1 6804:1 7874:1 8633:1 10359:1 11888:1 12434:1 12525:1 14051:1 14263:1 
0.15299097640001 0 1304:1 1387:1 2161:1 2269:1 3274:1 3353:1 3497:1 3981:1 4412:1 4981:1 7779:1 8340:1 9014:1 9242:1 11213:1 11581:1 11648:1 12323:1 12803:1 12829:1 13677:1 13958:1 14051:1 14081:1 14625:1 
0.3611138082059847 0.2236613600049766 223:1 1289:1 1987:1 2315:1 3104:1 5190:1 5684:1 6251:1 6494:1 9002:1 9386:1 
0.07984010914945365 0.07228140246161122 230:1 534:1 1615:1 1858:1 2141:1 2409:1 2981:1 4981:1 5689:1 6494:1 8208:1 8340:1 8353:1 9002:1 9028:1 9673:1 10198:1 11370:1 11769:1 12573:1 13471:1 14051:1 14317:1 14530:1 
0.3027910537854804 0 2055:1 2267:1 2284:1 3014:1 3353:1 4981:1 5206:1 7203:1 7317:1 8051:1 9014:1 9075:1 9927:1 10404:1 11020:1 11045:1 12434:1 15341:1 
0.143518110710847 0 602:1 1511:1 2019:1 2058:1 2122:1 2141:1 2397:1 3805:1 4837:1 4981:1 6494:1 7142:1 9014:1 10380:1 11784:1 12022:1 12162:1 12247:1 12370:1 14051:1 14057:1 14211:1 14516:1 14530:1 15051:1 15722:1 
1 0 10721:1 
0.2902125383004444 0 192:1 270:1 1209:1 1308:1 1851:1 3000:1 3259:1 5004:1 5689:1 8756:1 9642:1 12525:1 14051:1 15133:1 
0.3309248378551993 0 101:1 384:1 573:1 871:1 1559:1 2225:1 2320:1 4825:1 4981:1 5545:1 6494:1 6809:1 7636:1 8149:1 8242:1 9002:1 9014:1 10580:1 11769:1 12380:1 14051:1 14516:1 14963:1 16226:1 
0.01169837409627986 0 2434:1 3353:1 4717:1 5114:1 5352:1 6494:1 6911:1 7058:1 7256:1 9014:1 12323:1 12434:1 13016:1 
0.250347962652128 0 540:1 871:1 4591:1 5149:1 6290:1 10130:1 14249:1 15693:1 
0.3518428381373584 0 6854:1 12965:1 16403:1 
0.2544223476613388 0 1008:1 2574:1 5802:1 6494:1 7650:1 8196:1 12402:1 12434:1 14051:1 14176:1 14263:1 14859:1 15086:1 
0.08380465412553402 0 1673:1 2977:1 6251:1 6494:1 11262:1 13823:1 
0.5692660412609615 0 69:1 4249:1 7160:1 
0.09599318148491305 0 1252:1 5149:1 15552:1 
0.2117566823246768 0 3463:1 4340:1 4981:1 6494:1 8984:1 9815:1 9849:1 10267:1 10861:1 10869:1 12790:1 14516:1 
0.6976530920420621 0 473:1 3114:1 4361:1 4981:1 5004:1 9028:1 11010:1 11049:1 14051:1 14081:1 
1 0 11923:1 13745:1 15133:1 
0.1664971575137819 0 871:1 1000:1 1308:1 3152:1 5887:1 6704:1 8848:1 9408:1 10086:1 10854:1 10899:1 11784:1 12485:1 12696:1 14516:1 
0.04743322339164283 0 4981:1 5004:1 5147:1 5647:1 8562:1 10491:1 10661:1 13596:1 14051:1 14516:1 15090:1 15490:1 15566:1 
0.0640963098590772 0.1591199610907604 1883:1 2397:1 5884:1 6804:1 10721:1 13093:1 
0.3415614469740265 0 2019:1 2141:1 2242:1 3209:1 3719:1 4899:1 7863:1 8438:1 9326:1 10380:1 10955:1 12277:1 12918:1 12936:1 14051:1 
0.3288043462592639 0 2055:1 2058:1 2981:1 3000:1 3728:1 6494:1 7712:1 9014:1 9610:1 10608:1 10975:1 10982:1 14051:1 15133:1 15793:1 
0.07932709003045538 0 1820:1 1987:1 2257:1 2412:1 3565:1 3933:1 7098:1 7203:1 8751:1 11213:1 12917:1 14051:1 14319:1 16360:1 16438:1 
0 0.05936842755474045 583:1 1000:1 2141:1 2377:1 3879:1 5565:1 7341:1 7710:1 8781:1 9002:1 12323:1 12428:1 15133:1 15831:1 
0.02652097082836428 0 2141:1 2219:1 3008:1 3949:1 5419:1 5689:1 6494:1 7574:1 9767:1 10221:1 12525:1 14040:1 14516:1 16016:1 
1 0.008913500127087188 2307:1 6494:1 11788:1 
0.05791901782276325 0.02908594724493932 223:1 669:1 1304:1 1325:1 1487:1 2141:1 2904:1 3353:1 4981:1 6027:1 7120:1 7129:1 8340:1 9002:1 9030:1 9761:1 9768:1 11317:1 12733:1 12943:1 13834:1 14051:1 14478:1 14516:1 15541:1 15578:1 
0.2615808387663549 0 2141:1 2269:1 4981:1 5004:1 5906:1 7479:1 9002:1 10229:1 13058:1 13911:1 
0.8531754021130653 0 2058:1 2397:1 3353:1 3590:1 5689:1 8959:1 9002:1 14370:1 14913:1 15578:1 
1 0 2141:1 4731:1 7710:1 8322:1 15133:1 
0.06058130123249933 0.02197027435494951 845:1 861:1 1674:1 1979:1 2109:1 2914:1 4127:1 4741:1 4754:1 6316:1 6908:1 8282:1 8922:1 11297:1 13135:1 13164:1 14355:1 15821:1 
0.2352186858494952 0 949:1 1008:1 1143:1 2730:1 2981:1 3557:1 5258:1 5689:1 6494:1 8933:1 9014:1 9092:1 9463:1 10691:1 11325:1 13854:1 13958:1 14017:1 16298:1 
0.2458173470318948 0 2141:1 3336:1 3734:1 5045:1 6494:1 6852:1 7779:1 8325:1 8547:1 9742:1 9878:1 10721:1 12485:1 12856:1 16037:1 16392:1 
1 0.01514343993500107 1182:1 1231:1 1308:1 2427:1 3882:1 5341:1 6169:1 6804:1 8340:1 9014:1 9021:1 10821:1 11037:1 12525:1 15133:1 16403:1 
0.6248287085090448 0 1114:1 5678:1 12997:1 14051:1 16719:1 
0.06136784518480891 0 223:1 919:1 2141:1 2395:1 2665:1 4731:1 4981:1 5638:1 6494:1 8668:1 9894:1 12880:1 14051:1 14516:1 15537:1 16505:1 
0.6834693847686598 0 534:1 1419:1 3291:1 5689:1 6041:1 6251:1 6494:1 9002:1 9092:1 9508:1 12204:1 12525:1 13552:1 14771:1 15093:1 
1 0 863:1 998:1 1008:1 2056:1 2269:1 2427:1 4981:1 6494:1 8857:1 9734:1 10117:1 10380:1 12434:1 14516:1 
0.1737413802033337 0 4194:1 6494:1 9429:1 10870:1 11139:1 14516:1 14779:1 
0.3520149480128688 0.06114942539601423 758:1 2397:1 2797:1 3353:1 4981:1 5146:1 6494:1 8165:1 8340:1 9014:1 9534:1 14337:1 14779:1 14959:1 16705:1 
0.2385204292574582 0.0001506586603335484 13493:1 
0 0.01555291210324589 871:1 1008:1 4981:1 5045:1 5213:1 7567:1 8353:1 9021:1 9688:1 11069:1 11780:1 12908:1 14687:1 
0.2016978132801869 0 1197:1 2019:1 2397:1 3101:1 3359:1 3361:1 4162:1 4667:1 4739:1 4981:1 5689:1 6494:1 6846:1 6987:1 7221:1 9014:1 9272:1 11149:1 12434:1 12525:1 13552:1 14516:1 15819:1 16037:1 
0.8764344572025955 0 3782:1 6494:1 10380:1 12918:1 14516:1 
1 0.03115179236285792 669:1 2038:1 2141:1 5561:1 9435:1 10854:1 11952:1 15133:1 
0.1916781268627285 0.008707775713238783 321:1 438:1 1304:1 1441:1 1453:1 3000:1 3274:1 3353:1 4613:1 4981:1 5150:1 6046:1 6216:1 6598:1 7098:1 9014:1 9752:1 9821:1 11020:1 11612:1 11952:1 13203:1 13704:1 14051:1 14516:1 15086:1 15578:1 15980:1 
1 0 2141:1 2225:1 3728:1 3933:1 4361:1 6388:1 8051:1 8322:1 8547:1 10086:1 11573:1 12323:1 15133:1 
0.5986501279297216 0 113:1 223:1 857:1 871:1 1008:1 2055:1 2242:1 4341:1 4981:1 8302:1 8724:1 9894:1 10854:1 12434:1 14051:1 14370:1 15620:1 
0.7658937383181795 0 1288:1 2701:1 4981:1 5689:1 11856:1 11952:1 12665:1 16256:1 16261:1 
0.1951885620360854 0 2876:1 4512:1 5225:1 6494:1 6924:1 8622:1 8952:1 12763:1 12809:1 14051:1 15649:1 
0.05489306865312565 0.06276497435723687 199:1 2141:1 3481:1 4825:1 6251:1 6494:1 9002:1 9014:1 9688:1 10721:1 11139:1 12525:1 14672:1 16518:1 
0.07453674324761229 0 737:1 2055:1 6966:1 9002:1 10380:1 14051:1 14149:1 15204:1 16058:1 
0.1945174067191383 0 1615:1 1696:1 2141:1 3353:1 7098:1 7389:1 8051:1 8094:1 8793:1 10137:1 12434:1 13295:1 13296:1 14070:1 16129:1 16403:1 
0.5998432930037689 0 871:1 2141:1 4023:1 4746:1 4981:1 5237:1 8521:1 9002:1 9009:1 9435:1 11655:1 12895:1 
0.5690059340891666 0.02722104830887993 69:1 2141:1 2881:1 3663:1 5588:1 10721:1 16392:1 
0 0.1585078925883536 2052:1 2141:1 4981:1 6177:1 6251:1 6955:1 7779:1 8436:1 9742:1 12539:1 15133:1 15578:1 
1 0.08966375189103465 2269:1 
0.08532993117034544 0 154:1 192:1 419:1 490:1 1737:1 1774:1 2019:1 2055:1 3499:1 4981:1 5031:1 7484:1 8535:1 8921:1 9338:1 10238:1 10380:1 11033:1 11149:1 11815:1 12525:1 14051:1 14516:1 14672:1 15384:1 15545:1 15661:1 
0.02081009156427107 0 871:1 1533:1 2572:1 3053:1 4495:1 5689:1 6141:1 6494:1 7694:1 7861:1 8080:1 9014:1 9126:1 10821:1 10854:1 12123:1 12895:1 13246:1 15649:1 15852:1 
0.2084556073325905 0.006187890053152221 1530:1 1554:1 2141:1 2359:1 3291:1 3505:1 3933:1 6494:1 7224:1 8300:1 9353:1 10831:1 12525:1 12696:1 14051:1 15133:1 16467:1 
0 0.01212546831081697 398:1 476:1 871:1 1923:1 2019:1 2870:1 2981:1 3000:1 3353:1 3569:1 3642:1 4448:1 5045:1 6060:1 6494:1 7823:1 7907:1 9749:1 9907:1 11139:1 16392:1 
0.5830426898318654 0.04811985925596386 2019:1 2055:1 3399:1 4687:1 4981:1 7689:1 8139:1 8903:1 11952:1 12665:1 13203:1 14051:1 14382:1 15090:1 
0.04975562941455342 0 1843:1 2141:1 6558:1 6856:1 7098:1 7341:1 7607:1 11258:1 12502:1 14081:1 14343:1 14555:1 14937:1 
0.1898003828488553 0.03060764577710414 858:1 1212:1 2288:1 6251:1 7633:1 12690:1 15578:1 
0.1720739305234592 0 1308:1 4591:1 5045:1 5209:1 6494:1 10383:1 10709:1 12434:1 15133:1 15722:1 15969:1 
0.005445105648052335 0 223:1 871:1 1238:1 2056:1 3234:1 3246:1 4512:1 6494:1 7144:1 7412:1 8232:1 12525:1 14051:1 14898:1 15150:1 
0.1804876690689317 0.01951688012102632 1705:1 2098:1 2141:1 2397:1 2574:1 3114:1 4981:1 5044:1 6795:1 6931:1 7235:1 8233:1 8330:1 9014:1 12485:1 14516:1 14982:1 16070:1 16121:1 16644:1 
1 0.1778843437401999 805:1 2141:1 2453:1 3933:1 4746:1 6494:1 7098:1 10050:1 10721:1 11788:1 
0.7475447189982597 0 540:1 1379:1 5684:1 
0.1555309867203995 0 540:1 1618:1 2019:1 2339:1 8874:1 9181:1 12883:1 
0.3167487795367179 0 3353:1 4746:1 4956:1 5419:1 6494:1 7881:1 9021:1 9478:1 14051:1 15000:1 15133:1 15227:1 15391:1 16403:1 
0.4386177572450544 0.2159345173643954 1308:1 2055:1 6522:1 9021:1 9767:1 11573:1 11653:1 12298:1 12696:1 
0.8556101133767809 0 1094:1 1342:1 2688:1 2981:1 3557:1 4591:1 7047:1 14555:1 15133:1 
0.03677152561456045 0.01260155377619907 1008:1 2019:1 2056:1 3000:1 4710:1 4981:1 5164:1 6361:1 7883:1 8094:1 8330:1 9021:1 9814:1 10141:1 12485:1 14516:1 14600:1 
0.002252755696576968 0 412:1 1660:1 2056:1 2141:1 2397:1 3349:1 4270:1 4687:1 4981:1 5099:1 5146:1 6494:1 7863:1 9002:1 9021:1 9561:1 10380:1 10553:1 12734:1 13614:1 14070:1 14358:1 14382:1 14516:1 14640:1 14886:1 
1 0.005312161507590557 540:1 3336:1 3558:1 5689:1 5802:1 6494:1 8752:1 9002:1 9791:1 10721:1 11287:1 12525:1 12993:1 14514:1 15722:1 
0.5704664483276821 0 871:1 2525:1 3882:1 7636:1 8717:1 12485:1 14342:1 16037:1 
0.1353235703489493 0.01467737271803913 871:1 1008:1 1308:1 1503:1 1600:1 1965:1 2056:1 2141:1 2701:1 2855:1 3336:1 3349:1 3600:1 3626:1 4981:1 5235:1 5419:1 5550:1 6494:1 6949:1 7232:1 7412:1 8504:1 9014:1 9030:1 9626:1 10580:1 10809:1 11039:1 11182:1 11726:1 12434:1 12799:1 13806:1 14516:1 14530:1 14959:1 15085:1 
0.4656043473603123 0 1258:1 2005:1 2019:1 2055:1 2141:1 3283:1 3734:1 4792:1 4864:1 6115:1 6426:1 9002:1 9688:1 10143:1 10914:1 14051:1 
1 0 871:1 1182:1 4405:1 5507:1 15133:1 
0.3355153348533059 0 10:1 1182:1 1987:1 2019:1 5924:1 10452:1 12485:1 15133:1 
0.03090867408098353 0 976:1 2141:1 2397:1 4600:1 4934:1 6483:1 7789:1 9014:1 11213:1 11541:1 12485:1 13877:1 14006:1 14672:1 14955:1 
0.07961717707716388 0 299:1 1524:1 2981:1 4412:1 4731:1 6630:1 8322:1 8596:1 9021:1 12525:1 12665:1 13561:1 14051:1 15133:1 
0.1945711078114442 0.119724079576299 1652:1 1705:1 2130:1 2141:1 2688:1 3353:1 3619:1 4038:1 4981:1 5203:1 7780:1 7977:1 9903:1 10096:1 10854:1 11213:1 14512:1 14516:1 16430:1 
0 0.006606586926066289 309:1 998:1 1711:1 1820:1 6494:1 6648:1 7176:1 8344:1 9014:1 10421:1 11972:1 13610:1 14051:1 15227:1 
0.01430057436588912 0 669:1 905:1 1308:1 1614:1 2234:1 4076:1 4792:1 4981:1 5689:1 5862:1 6987:1 8628:1 9840:1 10380:1 10590:1 11351:1 11951:1 12190:1 12525:1 12936:1 14051:1 14516:1 16595:1 
0 0.02029693451550034 223:1 2062:1 4731:1 6804:1 7635:1 8094:1 11213:1 11573:1 15689:1 
0.174077039879124 0 1308:1 2290:1 2397:1 3336:1 3975:1 4890:1 4981:1 6494:1 8459:1 9002:1 9588:1 10045:1 10380:1 11213:1 11277:1 12434:1 12525:1 14319:1 
0.4576261070426613 0 714:1 1099:1 2056:1 4811:1 14524:1 14746:1 
0.3479637302788369 0.05698039410567052 871:1 2056:1 4303:1 5150:1 6494:1 7237:1 7377:1 11394:1 11763:1 12174:1 14051:1 14310:1 
0.002690652230422713 0 480:1 534:1 2206:1 3353:1 4546:1 4810:1 4981:1 5689:1 6169:1 6494:1 6739:1 7695:1 8340:1 8554:1 9002:1 9122:1 10096:1 11020:1 11180:1 11353:1 12058:1 12589:1 13093:1 14516:1 14555:1 15832:1 
1 0 1008:1 2141:1 2870:1 2981:1 3000:1 3353:1 6224:1 6494:1 11351:1 11952:1 15578:1 
0.8557210914579251 3.686287386450715e-18 3689:1 12746:1 
0.1725596445847397 0 457:1 1471:1 1667:1 2019:1 2056:1 2058:1 2781:1 3741:1 4981:1 5689:1 6465:1 6494:1 8344:1 9459:1 9706:1 10553:1 10593:1 11282:1 11315:1 12388:1 12457:1 12525:1 12614:1 13150:1 13437:1 14051:1 15086:1 15150:1 15666:1 16067:1 16440:1 
0.2855661418347344 0 871:1 2141:1 2269:1 2508:1 3071:1 6164:1 6494:1 8477:1 8554:1 9028:1 10545:1 15133:1 
0 0.4347204214798126 1990:1 2141:1 2397:1 5213:1 9478:1 15629:1 16131:1 
0.6030361272934146 0 871:1 5419:1 6169:1 6251:1 8299:1 13478:1 15133:1 
0.1140766817012709 0 7846:1 9169:1 10672:1 14051:1 
0.2613188727847092 0 1533:1 2141:1 2398:1 3191:1 4184:1 4687:1 4899:1 4981:1 5146:1 7636:1 8186:1 8203:1 9002:1 9014:1 9041:1 9907:1 10236:1 12889:1 14051:1 14516:1 14590:1 14807:1 15185:1 15227:1 16616:1 
0 0.01892486200220281 1049:1 1851:1 2019:1 2141:1 2733:1 2779:1 3353:1 3484:1 3572:1 3643:1 6169:1 6251:1 6494:1 9002:1 9582:1 9815:1 11529:1 12088:1 13988:1 14021:1 14516:1 
0.2029012842872812 0 80:1 242:1 871:1 2058:1 3071:1 3734:1 4901:1 4981:1 5173:1 5219:1 6494:1 7206:1 7347:1 7439:1 11252:1 12525:1 14051:1 14516:1 14963:1 15505:1 16207:1 16624:1 
0.2722458622129647 0 49:1 2055:1 3000:1 4400:1 5424:1 6062:1 8140:1 9002:1 9501:1 9673:1 11467:1 11823:1 12434:1 12525:1 14070:1 
0.8345160477846422 0.0001416444055825758 11883:1 
1 0.4047700862764239 1615:1 2141:1 3722:1 9011:1 
0.5507436806926934 0 1308:1 2981:1 3070:1 6060:1 6500:1 8585:1 10709:1 13467:1 
0.05247379409562229 0 1273:1 4981:1 6748:1 9002:1 10380:1 14051:1 14248:1 
1 0.005601084547069261 669:1 1342:1 2141:1 5752:1 6251:1 8436:1 9009:1 9018:1 12529:1 15133:1 
0.3334297026607824 0 540:1 2019:1 2247:1 3152:1 3318:1 4314:1 4981:1 5802:1 6494:1 8457:1 9014:1 14051:1 16086:1 
0.4664957293620349 0 5847:1 7517:1 10473:1 13372:1 14021:1 15133:1 
0.9146702900077448 0 6494:1 11351:1 15776:1 
0 0.03805155227837052 1356:1 1886:1 2055:1 3336:1 5689:1 6494:1 6949:1 7097:1 7958:1 8893:1 9002:1 9014:1 9735:1 11139:1 11543:1 12060:1 14051:1 
1 0 534:1 863:1 1008:1 1364:1 2056:1 2269:1 3027:1 4613:1 4981:1 6182:1 6494:1 9781:1 12115:1 12434:1 12510:1 14051:1 
0.9013018167829965 0.03251235167689993 871:1 2141:1 2453:1 2981:1 5743:1 6046:1 6494:1 6958:1 7492:1 9002:1 9030:1 10683:1 11492:1 12323:1 13192:1 13770:1 
0.137186237105181 0 1798:1 2058:1 6494:1 6810:1 6949:1 9005:1 9014:1 11272:1 12230:1 12434:1 13866:1 
0.2739899241726624 0 1466:1 2019:1 2271:1 3958:1 4412:1 4981:1 6000:1 9002:1 11012:1 11898:1 13319:1 13973:1 14516:1 
0.2004744158547205 0 49:1 2019:1 2269:1 3035:1 4981:1 6494:1 6880:1 7409:1 7539:1 9014:1 9966:1 10380:1 10721:1 12092:1 14051:1 14516:1 
0.07462816785326895 0 385:1 1010:1 2019:1 2055:1 2196:1 2268:1 3051:1 3787:1 4595:1 4904:1 4952:1 6494:1 7406:1 7999:1 9769:1 13183:1 14051:1 14516:1 15153:1 15694:1 
0.2544493046147237 0.03134883616669192 4747:1 4981:1 6948:1 10013:1 14516:1 15578:1 16608:1 
0.6114500562844314 0.05375727248010963 534:1 669:1 871:1 5149:1 5419:1 8554:1 11582:1 11655:1 13944:1 14951:1 
1 0 199:1 751:1 2741:1 2981:1 3353:1 3578:1 4361:1 4981:1 5550:1 6494:1 9021:1 9076:1 12696:1 15133:1 
0.9758143271037361 0 223:1 1342:1 2051:1 2062:1 4981:1 5149:1 6494:1 6598:1 6955:1 8322:1 9878:1 11952:1 11977:1 12434:1 12525:1 13014:1 13203:1 15133:1 15683:1 
0.6723369072791264 0 412:1 2981:1 6251:1 8838:1 9021:1 12434:1 
0.7563426289738824 0.4961620955593155 583:1 2141:1 4726:1 6251:1 10854:1 11593:1 15629:1 16518:1 16598:1 
0.09614374394973169 0.03239726754938611 490:1 670:1 947:1 1008:1 1049:1 1308:1 1778:1 2141:1 2677:1 3336:1 4038:1 4454:1 4500:1 4981:1 5689:1 5802:1 6494:1 7414:1 8936:1 9335:1 10013:1 10060:1 10975:1 12139:1 12525:1 12771:1 12803:1 13260:1 14146:1 14382:1 14516:1 16000:1 
0.9356451365225138 0.2639659950573459 3070:1 15454:1 
0.2331023449087727 0 723:1 1304:1 1903:1 2141:1 3000:1 3417:1 3911:1 4981:1 5223:1 6863:1 7394:1 7975:1 9903:1 13234:1 14051:1 14546:1 15068:1 16403:1 16417:1 16598:1 
0.01289238622009616 0 1308:1 1615:1 2141:1 3431:1 4731:1 6134:1 6494:1 11952:1 12485:1 12525:1 12751:1 13504:1 14555:1 14850:1 15133:1 15693:1 
0.07888660448616812 0 1277:1 1304:1 1778:1 2904:1 4236:1 4981:1 5862:1 6110:1 6585:1 8516:1 10451:1 11110:1 11795:1 14051:1 14789:1 15517:1 
1 0.03091017723720015 429:1 12247:1 15722:1 
0.7584423660609558 0 1832:1 2058:1 2574:1 3146:1 3728:1 4731:1 4981:1 6251:1 8094:1 9014:1 11069:1 13539:1 14051:1 15133:1 
0 0.02065037450225799 85:1 855:1 2055:1 2056:1 2790:1 3150:1 3336:1 3669:1 3713:1 4939:1 4981:1 5075:1 5689:1 6494:1 7684:1 8435:1 9688:1 10380:1 11358:1 12525:1 14051:1 14485:1 14516:1 16282:1 
0.8357939307506074 0 1872:1 2508:1 2981:1 4450:1 4731:1 4981:1 5664:1 6169:1 9014:1 10793:1 
0.3604233494047659 0 126:1 540:1 592:1 2141:1 2881:1 5684:1 12614:1 13055:1 
0.1776730853690173 0 871:1 1987:1 2141:1 2590:1 2981:1 3269:1 4981:1 8651:1 9014:1 9950:1 10307:1 10910:1 11213:1 12525:1 13034:1 14051:1 14514:1 14949:1 16320:1 
0.5347140868550138 0 1336:1 3726:1 6494:1 7710:1 9002:1 14051:1 14516:1 14672:1 15133:1 15756:1 
0.1636702552221637 0 871:1 2055:1 2427:1 3000:1 4386:1 4981:1 5123:1 6632:1 8978:1 9002:1 9518:1 9928:1 
0 0.008092879345387752 805:1 1049:1 2002:1 2141:1 5545:1 6494:1 7098:1 7636:1 8040:1 9002:1 9355:1 9386:1 9907:1 10721:1 11788:1 12525:1 12871:1 13382:1 14051:1 15133:1 15687:1 
0.05349244298928225 0.02129432788972921 14:1 2518:1 3329:1 3453:1 3921:1 4426:1 4754:1 5565:1 5586:1 6109:1 8200:1 8922:1 9803:1 11297:1 12237:1 14157:1 16693:1 
0.164077414520643 0 161:1 534:1 871:1 919:1 1049:1 2701:1 3353:1 4416:1 4981:1 5508:1 5858:1 6494:1 6836:1 6955:1 9002:1 9742:1 10721:1 10866:1 11180:1 14051:1 15578:1 
0.07574051174781955 0 1356:1 2576:1 3353:1 4466:1 4550:1 4792:1 4981:1 5689:1 6095:1 6521:1 7695:1 7700:1 7977:1 8551:1 9340:1 9843:1 10854:1 11630:1 12211:1 14051:1 14398:1 14672:1 15588:1 15974:1 16184:1 
0.1878714592139812 0 2058:1 2141:1 2427:1 4361:1 4981:1 5369:1 8870:1 10750:1 13087:1 
0.8345385979412637 2.949029909160572e-17 4874:1 
0.8984548257476289 0.1643008380937942 996:1 7249:1 11570:1 13228:1 15080:1 
1 1 
0.0308885410609943 0 669:1 1143:1 1872:1 2055:1 2141:1 3309:1 4500:1 4569:1 4731:1 4981:1 6494:1 6558:1 7982:1 8178:1 9009:1 9394:1 9907:1 11213:1 11385:1 14672:1 
0.01802657728539254 0 64:1 7031:1 8751:1 11351:1 12809:1 14051:1 14074:1 
0.2430121690189138 0 871:1 2397:1 12084:1 13586:1 14051:1 15265:1 
0.2817363775386645 0.04331219632938555 855:1 856:1 1615:1 2055:1 2141:1 5664:1 8746:1 11661:1 13416:1 
0.2014377977404766 0.1129827609249052 191:1 1356:1 2141:1 3336:1 3728:1 3912:1 4361:1 4981:1 5464:1 5545:1 5796:1 6031:1 7601:1 8094:1 9589:1 11213:1 11287:1 12802:1 14516:1 14530:1 15133:1 16389:1 
0.112293248678429 0.04375796607210929 2141:1 2981:1 3728:1 4435:1 4981:1 5924:1 6246:1 7718:1 10756:1 10779:1 14051:1 16233:1 
0.219527097184887 0 1987:1 2141:1 2353:1 2662:1 4489:1 4864:1 4981:1 6305:1 7253:1 9907:1 10221:1 10553:1 12247:1 12434:1 12649:1 13790:1 13985:1 14051:1 14400:1 14516:1 15682:1 16353:1 
0.8345127363309567 0 11316:1 
0.5428944252451728 0 534:1 2269:1 4981:1 7203:1 7651:1 7700:1 8751:1 8958:1 9002:1 9622:1 10291:1 10578:1 12118:1 12434:1 14051:1 14713:1 16561:1 
1 0.1186622678234708 1419:1 3336:1 9761:1 10114:1 10383:1 15133:1 
0.2754734788578326 0 805:1 1220:1 2141:1 2397:1 3336:1 4981:1 5802:1 6632:1 6863:1 9021:1 11062:1 12304:1 12525:1 13917:1 15086:1 16295:1 
1 0 6426:1 8094:1 9355:1 
0.04621508795542279 0 5225:1 10721:1 14051:1 14601:1 15287:1 16202:1 16588:1 
0.2180085476886457 0 101:1 871:1 1112:1 1739:1 2712:1 4296:1 4981:1 7408:1 13111:1 14132:1 14237:1 15133:1 
0.2111575562370463 0 420:1 581:1 871:1 1621:1 2397:1 2855:1 3291:1 8231:1 10468:1 10619:1 13150:1 14516:1 
0.3867961103242686 3.989863994746656e-17 8668:1 10684:1 
0.7371570970047012 0 2017:1 2019:1 3870:1 4361:1 7344:1 10821:1 15133:1 
0.1290365153024157 0 1851:1 2779:1 2951:1 3398:1 3557:1 4613:1 4981:1 5689:1 5802:1 6494:1 9033:1 11036:1 11213:1 13119:1 14516:1 16408:1 
0.05959395166935442 0 1687:1 2141:1 3071:1 4981:1 5201:1 5575:1 11825:1 14516:1 15385:1 15516:1 
0.6127297670223329 0 669:1 805:1 1027:1 1308:1 4237:1 6169:1 6251:1 6855:1 7977:1 10092:1 10141:1 11139:1 14051:1 14672:1 15133:1 16351:1 
0.05398501605561879 0.03757446852022828 59:1 2397:1 4500:1 6494:1 6558:1 12434:1 14858:1 
0.6769628943763997 0 4981:1 6880:1 7695:1 8040:1 9002:1 11814:1 12690:1 13557:1 13691:1 14051:1 14138:1 14319:1 14516:1 
0.05270183051680781 0 1342:1 1726:1 1843:1 2019:1 4687:1 4981:1 5000:1 5147:1 6531:1 7567:1 7992:1 8364:1 9002:1 9016:1 9622:1 10380:1 10812:1 11506:1 12323:1 12388:1 12434:1 14051:1 14516:1 14845:1 15127:1 15133:1 
0.5543320654254269 0.1370397268581653 1641:1 2055:1 6494:1 9815:1 14516:1 
0.5075341475453075 0 483:1 2600:1 2747:1 4687:1 4731:1 5149:1 6068:1 6494:1 11213:1 15133:1 16618:1 
0.5883186893117898 0 1879:1 2141:1 2357:1 3353:1 6391:1 9002:1 10433:1 10761:1 13124:1 14051:1 
1 0 4825:1 7695:1 
0.01991782472527106 0.1867881298807457 489:1 540:1 1182:1 2269:1 3812:1 6177:1 6319:1 6937:1 10854:1 14051:1 14512:1 14514:1 15133:1 16121:1 
0.2902731346818617 0.01075296411347103 534:1 2269:1 6494:1 12972:1 13523:1 14285:1 14607:1 
0.5446515067513548 0 736:1 930:1 6648:1 9928:1 
0.2493024044565822 0 149:1 871:1 2688:1 3158:1 4039:1 4981:1 6227:1 6455:1 6494:1 9014:1 11372:1 12434:1 12525:1 14516:1 14672:1 15578:1 
0.3901411402374507 0.03126278710607875 669:1 1008:1 3847:1 4038:1 5149:1 6494:1 9400:1 9907:1 10721:1 12388:1 12525:1 
0.07720482248661438 0.005509317798346304 836:1 2141:1 2234:1 2269:1 3918:1 4981:1 5689:1 6846:1 6990:1 7387:1 7811:1 8233:1 9014:1 9030:1 10068:1 11110:1 11952:1 12813:1 14280:1 14516:1 15810:1 16680:1 16735:1 
0.4043806357889533 0 871:1 1308:1 2019:1 2058:1 2141:1 3178:1 5605:1 5818:1 6251:1 7098:1 8192:1 9089:1 9767:1 10683:1 11952:1 12115:1 13111:1 13150:1 14516:1 15077:1 15133:1 15698:1 
0.2509115221614103 0 871:1 948:1 2141:1 2633:1 4687:1 4981:1 5206:1 6494:1 7607:1 12895:1 14379:1 15437:1 
0.2312234992250111 0 491:1 2353:1 3115:1 3353:1 4524:1 4605:1 4852:1 5155:1 5761:1 8356:1 8626:1 13260:1 14051:1 14382:1 14516:1 15086:1 15507:1 16081:1 
0 0.02649126246372984 805:1 1308:1 2141:1 2744:1 3800:1 4981:1 5045:1 5343:1 9002:1 9355:1 9907:1 10721:1 10756:1 10831:1 14516:1 15133:1 
0.1552860169503337 0.01270436200096895 2055:1 2141:1 2761:1 6134:1 7977:1 8073:1 10537:1 10745:1 10900:1 16443:1 
0.08727615761040677 0 4394:1 5149:1 5656:1 5689:1 6494:1 13632:1 
0.4958439543118661 0 540:1 2141:1 2198:1 2823:1 3070:1 4731:1 5545:1 5664:1 7881:1 8109:1 9396:1 11538:1 11788:1 12863:1 15133:1 16326:1 
1 0 4731:1 4981:1 6398:1 10854:1 11213:1 11287:1 11573:1 12434:1 12525:1 12529:1 15133:1 
1 0.4972171748974943 14687:1 
0.3966808006077678 0.5300591887658668 2881:1 3336:1 7341:1 
0.5503790574378202 0 534:1 2141:1 3336:1 3788:1 4731:1 4770:1 4810:1 4981:1 5777:1 5868:1 6494:1 6565:1 7176:1 7839:1 7977:1 8400:1 9761:1 10224:1 10380:1 10643:1 11213:1 12434:1 12525:1 13278:1 14051:1 14530:1 14583:1 15086:1 15227:1 
0.2100721558640021 0 540:1 592:1 3506:1 4981:1 5013:1 8340:1 9089:1 14334:1 14382:1 15013:1 
0.3469976414391149 0.04849922905302284 1016:1 2055:1 2141:1 6606:1 6969:1 9904:1 11282:1 11556:1 
0.3869503135861306 0.0138557015253488 72:1 418:1 1049:1 1554:1 4981:1 5394:1 5424:1 6062:1 9903:1 11118:1 11166:1 11467:1 11952:1 12323:1 14051:1 14070:1 14081:1 14516:1 14530:1 14959:1 14980:1 15133:1 15679:1 
0.2547452948341857 0 223:1 798:1 1209:1 1531:1 1652:1 2056:1 2701:1 3122:1 3643:1 4981:1 5890:1 6437:1 6494:1 7591:1 9796:1 9972:1 14051:1 15852:1 
0.4072488808190349 0 442:1 914:1 2314:1 3110:1 3192:1 4707:1 4845:1 4981:1 8238:1 8749:1 9002:1 9583:1 12597:1 13745:1 14051:1 15150:1 
0.6953573340615234 0.07762683537977254 2269:1 2453:1 10652:1 10975:1 15133:1 16703:1 
0.04080216802556012 0 228:1 600:1 1325:1 1653:1 2141:1 2353:1 2981:1 4283:1 5689:1 5780:1 6494:1 6775:1 7576:1 9021:1 9237:1 9358:1 12913:1 13454:1 14516:1 14963:1 15113:1 15227:1 
0.03325967676521899 0 540:1 712:1 1682:1 2044:1 3072:1 4162:1 4242:1 5664:1 6251:1 6588:1 7605:1 7977:1 9014:1 12696:1 13537:1 14051:1 14672:1 14724:1 15000:1 15133:1 16503:1 
0.6277402808438365 0.07564780880376737 480:1 534:1 2055:1 2099:1 2269:1 5235:1 5689:1 6067:1 6948:1 9002:1 9014:1 9622:1 14051:1 14898:1 
0.03002845311744222 0 223:1 2133:1 3336:1 9878:1 11414:1 14021:1 
0.8069587576889392 0 10763:1 11737:1 
0.06195077597942961 0 1689:1 2141:1 2981:1 4981:1 5430:1 5508:1 8340:1 9021:1 12247:1 12579:1 14516:1 16544:1 
0.3886832306964273 0.02336021815854209 1615:1 2141:1 2981:1 3195:1 3353:1 4500:1 9002:1 11566:1 11653:1 15227:1 
1 0 1008:1 1342:1 2141:1 2574:1 2981:1 4495:1 5419:1 5508:1 5802:1 6494:1 6990:1 8463:1 9028:1 12434:1 14347:1 14516:1 15665:1 16256:1 
0.2484434882998998 0 553:1 871:1 1308:1 1705:1 2480:1 3398:1 4981:1 5075:1 5689:1 6494:1 8613:1 9014:1 13580:1 15085:1 
0.7316710258943085 0.02029483000962452 669:1 10683:1 10821:1 10854:1 11259:1 11709:1 11755:1 
0.4698242014855196 0 583:1 871:1 2695:1 3318:1 5221:1 5664:1 8322:1 10580:1 11252:1 11788:1 12308:1 12695:1 14051:1 16193:1 16626:1 
0.0324350836329207 0.0003899183255324028 1548:1 2055:1 2558:1 4075:1 4444:1 4487:1 4981:1 5330:1 5689:1 6494:1 9014:1 9095:1 10576:1 11470:1 11952:1 12279:1 15227:1 16050:1 16560:1 
0 0.009810487585153451 1865:1 2217:1 3353:1 3587:1 4076:1 5689:1 6494:1 8870:1 9875:1 10687:1 11580:1 11897:1 14051:1 14485:1 14516:1 
0.1539767424512229 0 2685:1 5400:1 6494:1 11416:1 12460:1 14051:1 14516:1 
1 1 
0.275473543294466 0.01088166172932668 1308:1 2052:1 4394:1 4899:1 4981:1 5507:1 5689:1 6494:1 7881:1 8095:1 10711:1 11952:1 11954:1 12434:1 13014:1 13467:1 15133:1 15683:1 15870:1 16062:1 16688:1 
1 0 962:1 9894:1 11084:1 12525:1 15133:1 
0.02803486453198584 0 2270:1 4981:1 8810:1 14398:1 
0.1313263048363775 0 1342:1 5542:1 6494:1 9141:1 10660:1 11489:1 12388:1 12606:1 
0.01795244465908499 0 448:1 992:1 2019:1 2141:1 2397:1 2803:1 3447:1 3715:1 4261:1 4667:1 4899:1 5075:1 6343:1 6494:1 7876:1 9014:1 9942:1 12323:1 13278:1 14051:1 15810:1 
0.1824310320559973 0 699:1 3435:1 5550:1 5689:1 6245:1 6488:1 6494:1 8451:1 9014:1 9554:1 14151:1 16403:1 
0.4959610621870319 0.07642233033427036 871:1 4125:1 6494:1 9666:1 16037:1 
0.2028323590689725 0 3:1 1688:1 1851:1 2056:1 2141:1 2273:1 2344:1 2871:1 4355:1 4981:1 5689:1 5966:1 6494:1 6514:1 6994:1 7695:1 8480:1 8613:1 10731:1 11952:1 12388:1 12491:1 14051:1 14070:1 14081:1 14516:1 14530:1 14555:1 14698:1 
0.7456987963659697 0.1599251747716843 540:1 1342:1 2225:1 2569:1 4731:1 6745:1 10421:1 13711:1 15133:1 16267:1 
0 0.02716345169108372 947:1 2056:1 2361:1 3336:1 4240:1 4390:1 4514:1 4595:1 4981:1 5488:1 5872:1 6494:1 6925:1 7529:1 9002:1 9014:1 10228:1 10639:1 10968:1 11017:1 12181:1 13388:1 14051:1 14455:1 14516:1 14530:1 14792:1 
0.7544407847122796 0 863:1 1008:1 2981:1 4038:1 4495:1 5250:1 5689:1 5856:1 6426:1 7176:1 7576:1 8340:1 8821:1 10451:1 12354:1 12434:1 13401:1 13881:1 13936:1 14051:1 16403:1 16741:1 
0.1444061192113831 0.01629347567821653 101:1 805:1 1250:1 1419:1 1963:1 2019:1 2609:1 3000:1 4981:1 5387:1 5508:1 5545:1 5637:1 5762:1 7427:1 9002:1 9092:1 9894:1 11952:1 12665:1 13295:1 14516:1 
0.4676661894521203 0 455:1 3274:1 3949:1 5508:1 6494:1 6931:1 7144:1 9092:1 9143:1 10501:1 12525:1 14051:1 14516:1 
0.1243888516427847 0 1471:1 1743:1 2019:1 2141:1 2843:1 3433:1 4580:1 4981:1 5075:1 5155:1 5661:1 7422:1 8356:1 12525:1 14051:1 14280:1 14382:1 14516:1 14530:1 14950:1 15090:1 15261:1 15265:1 16394:1 
0.2551637595075607 0 534:1 2269:1 6182:1 6494:1 6599:1 7695:1 15242:1 16460:1 
0.5939587549952891 0 4482:1 6494:1 15071:1 
0.2803204819766337 0 2750:1 4282:1 4981:1 5266:1 5689:1 6494:1 7086:1 9014:1 10183:1 12975:1 13552:1 13945:1 14051:1 14516:1 
0.2402532498814473 0 669:1 871:1 1182:1 1843:1 2141:1 2267:1 2397:1 2701:1 3552:1 4413:1 4416:1 4981:1 6494:1 6648:1 7093:1 7526:1 8543:1 9014:1 10135:1 12323:1 13093:1 14472:1 
0.3702795439176477 0.05538269013937979 669:1 2055:1 2141:1 2397:1 3000:1 3114:1 4950:1 4981:1 5299:1 5890:1 7203:1 10760:1 11213:1 11297:1 12525:1 13912:1 14516:1 16561:1 
0.004174595264995956 0 1846:1 2019:1 2701:1 4345:1 4677:1 4810:1 4981:1 8762:1 12598:1 14516:1 14777:1 
0.2537335797597872 0 97:1 871:1 2055:1 2223:1 3786:1 4412:1 5689:1 6333:1 6863:1 9519:1 10086:1 10658:1 11593:1 12247:1 15795:1 16403:1 16645:1 
0.06884860966477718 0 78:1 810:1 1987:1 2141:1 2981:1 3202:1 3800:1 3933:1 4981:1 5545:1 5960:1 7208:1 9002:1 10551:1 12565:1 13745:1 13791:1 14051:1 
0 0.2108086871193017 6177:1 6251:1 7881:1 15150:1 
0.07134986587284678 0 3071:1 3336:1 3353:1 4731:1 4825:1 5146:1 5158:1 5419:1 6251:1 7695:1 9002:1 9009:1 9021:1 10854:1 11540:1 11952:1 13489:1 13679:1 14858:1 16336:1 16741:1 
0 0.01769316896872867 592:1 3454:1 4313:1 4981:1 5777:1 6494:1 8233:1 9014:1 10380:1 11404:1 14672:1 16634:1 
0.298214312164627 0 1049:1 2141:1 4656:1 8477:1 11213:1 12525:1 12696:1 16403:1 
0.09689770011555097 0 1291:1 2056:1 3268:1 3309:1 6251:1 6515:1 11037:1 12434:1 12696:1 13209:1 14690:1 16518:1 
0.1651551903713737 0 3000:1 4076:1 4981:1 6005:1 6494:1 8072:1 8551:1 9320:1 11406:1 12388:1 12809:1 13293:1 14051:1 14516:1 15127:1 15578:1 
0 0.04203994051907367 669:1 926:1 6732:1 7881:1 9748:1 10421:1 10850:1 
0.7449064975404101 0.2791702693606289 1419:1 6648:1 12539:1 15133:1 
0.6531480201050828 0.001110659694241098 1615:1 2141:1 2701:1 2811:1 2981:1 3353:1 4398:1 4825:1 4911:1 4981:1 5149:1 6450:1 8572:1 9002:1 10182:1 12525:1 14516:1 14530:1 15127:1 16517:1 
0.05318851593016186 0 1182:1 1893:1 3958:1 4382:1 6494:1 11351:1 12388:1 12632:1 13144:1 14051:1 14516:1 15227:1 16392:1 
0.1951600985610304 0 1356:1 4981:1 5149:1 6836:1 6856:1 9912:1 12751:1 13745:1 15133:1 
0 0.1340954599037977 574:1 592:1 1720:1 2141:1 4981:1 5689:1 6169:1 8528:1 8664:1 10421:1 11639:1 12539:1 14051:1 15325:1 16209:1 
