svm_type c_svc
kernel_type linear
nr_class 3
total_sv 1642
rho -0.385657 -0.992636 -0.868847
label 0 1 2
probA -0.41089 -1.78639 -1.84182
probB 0.00819659 0.0073853 0.0282298
nr_sv 751 746 145
SV
1 0 155:1 305:1 
1 0 11:1 114:1 258:1 264:1 391:1 412:1 458:1 477:1 480:1 507:1 546:1 
0.4408381380213844 0 49:1 253:1 476:1 
1 0 21:1 109:1 144:1 349:1 388:1 476:1 480:1 
1 0 144:1 176:1 388:1 391:1 393:1 
0.3526416647793754 0 253:1 320:1 344:1 366:1 546:1 
1 1 
1 0 169:1 331:1 415:1 418:1 503:1 
1 0 381:1 415:1 480:1 528:1 
0.1402380454115566 0 253:1 383:1 480:1 528:1 
1 0 144:1 391:1 415:1 465:1 517:1 
1 0.5260154730236629 2:1 
1 0 388:1 
0.9340038956152193 0 12:1 22:1 53:1 114:1 144:1 176:1 331:1 391:1 415:1 
0.9744754079728795 0 83:1 144:1 243:1 300:1 391:1 415:1 480:1 
1 0 144:1 243:1 295:1 391:1 445:1 480:1 517:1 
1 0 160:1 253:1 373:1 388:1 415:1 
1 0 12:1 144:1 253:1 373:1 388:1 415:1 496:1 
1 0.2013172525875781 12:1 83:1 109:1 115:1 135:1 252:1 272:1 331:1 388:1 391:1 415:1 472:1 480:1 507:1 538:1 
1 0 253:1 330:1 373:1 391:1 415:1 
0 1 175:1 269:1 457:1 477:1 496:1 508:1 
1 0 12:1 182:1 253:1 415:1 480:1 
0.9451122366299305 0 12:1 109:1 162:1 295:1 
1 0 144:1 253:1 477:1 
1 0.7092626341289059 144:1 476:1 
1 0.1520766242027891 83:1 204:1 391:1 415:1 418:1 
1 0 2:1 144:1 169:1 243:1 388:1 519:1 
1 0 144:1 253:1 480:1 
1 0 415:1 480:1 
1 0 155:1 
0.3031843276682659 0 114:1 144:1 155:1 193:1 223:1 391:1 415:1 465:1 477:1 519:1 
1 0 12:1 113:1 144:1 253:1 388:1 415:1 480:1 
0 0.7936739180109931 53:1 114:1 144:1 253:1 418:1 431:1 475:1 477:1 
0.9877076313395536 0 83:1 104:1 226:1 253:1 294:1 393:1 415:1 427:1 465:1 517:1 528:1 546:1 
1 1 
1 0 12:1 144:1 243:1 269:1 
1 0 257:1 415:1 546:1 
1 0 144:1 383:1 391:1 415:1 480:1 491:1 503:1 513:1 
1 1 
1 0.09685367709259356 12:1 176:1 391:1 465:1 517:1 
1 1 457:1 
1 0 12:1 72:1 109:1 253:1 310:1 330:1 388:1 391:1 415:1 496:1 507:1 
0.7765320453383299 0.5892688892196951 111:1 311:1 388:1 391:1 393:1 415:1 418:1 465:1 495:1 517:1 546:1 
1 0 135:1 222:1 271:1 412:1 415:1 480:1 528:1 
1 0 12:1 83:1 114:1 122:1 144:1 253:1 388:1 412:1 415:1 421:1 480:1 507:1 
1 0.6671619085155569 83:1 253:1 331:1 388:1 391:1 415:1 455:1 
1 0 114:1 144:1 272:1 388:1 415:1 416:1 480:1 
1 0 144:1 373:1 
0 0.6765815378824029 12:1 83:1 144:1 223:1 253:1 415:1 445:1 477:1 546:1 
1 0.3726370126382191 12:1 144:1 215:1 222:1 296:1 341:1 373:1 412:1 472:1 495:1 507:1 
0.9536527203229095 0.2275984810360528 12:1 88:1 121:1 144:1 331:1 388:1 487:1 507:1 546:1 
1 0 12:1 144:1 215:1 238:1 253:1 258:1 269:1 295:1 391:1 445:1 513:1 
1 0 109:1 144:1 243:1 253:1 310:1 391:1 465:1 496:1 503:1 
1 0 144:1 210:1 223:1 233:1 243:1 253:1 320:1 373:1 415:1 480:1 507:1 
1 0.1593602098022881 223:1 237:1 388:1 415:1 480:1 
0 0.2818763450319442 83:1 152:1 
1 0 83:1 253:1 269:1 331:1 415:1 421:1 477:1 
1 0 12:1 272:1 391:1 415:1 465:1 480:1 
1 0 144:1 253:1 271:1 391:1 479:1 
1 0 204:1 331:1 546:1 
1 0 144:1 253:1 480:1 
0.124147348476528 0 252:1 415:1 480:1 
1 0 331:1 
1 0 144:1 215:1 243:1 391:1 415:1 475:1 480:1 
0.5928953819932529 0 12:1 253:1 341:1 472:1 
1 0 109:1 130:1 253:1 388:1 415:1 465:1 480:1 507:1 
1 0 68:1 109:1 233:1 253:1 277:1 373:1 388:1 458:1 
1 1 
0.9782413703724538 0 12:1 72:1 109:1 115:1 144:1 183:1 243:1 253:1 257:1 381:1 391:1 412:1 415:1 455:1 480:1 
1 0 238:1 243:1 
1 0 12:1 111:1 238:1 331:1 419:1 472:1 495:1 538:1 544:1 546:1 
1 0 176:1 418:1 507:1 
1 0 111:1 253:1 294:1 415:1 421:1 
1 0 12:1 253:1 391:1 415:1 480:1 
1 0 144:1 253:1 421:1 507:1 
1 0 415:1 
1 0.134857786863038 91:1 168:1 197:1 257:1 341:1 415:1 465:1 480:1 
1 0 72:1 238:1 412:1 
1 0 388:1 415:1 
1 0 12:1 109:1 144:1 238:1 243:1 253:1 302:1 373:1 412:1 415:1 445:1 491:1 
1 0 276:1 415:1 
1 0 253:1 
1 1 328:1 
1 0 109:1 114:1 271:1 383:1 388:1 412:1 421:1 465:1 507:1 
1 0 83:1 109:1 144:1 243:1 253:1 340:1 393:1 546:1 
1 0 480:1 
1 0 12:1 144:1 391:1 415:1 465:1 
1 0 144:1 388:1 415:1 480:1 
1 0 94:1 243:1 393:1 528:1 
1 1 
1 0.190617550536513 4:1 12:1 104:1 109:1 113:1 121:1 197:1 286:1 320:1 377:1 391:1 415:1 480:1 512:1 
1 0.5292496116311017 388:1 
1 0 109:1 113:1 144:1 168:1 243:1 383:1 412:1 421:1 445:1 455:1 480:1 528:1 
1 0 193:1 264:1 272:1 415:1 480:1 507:1 
1 0 373:1 415:1 419:1 445:1 546:1 
0.735037831216215 0 144:1 329:1 391:1 480:1 
1 0 295:1 331:1 388:1 415:1 
1 0.02780829582424851 2:1 12:1 155:1 294:1 296:1 412:1 
1 0 169:1 243:1 412:1 
1 0 12:1 83:1 238:1 276:1 415:1 477:1 507:1 
1 0 496:1 
1 0 415:1 
1 0 114:1 412:1 415:1 418:1 465:1 
1 0 243:1 331:1 412:1 418:1 421:1 503:1 
1 0 144:1 243:1 528:1 
1 0 2:1 12:1 72:1 83:1 144:1 253:1 291:1 304:1 320:1 331:1 388:1 415:1 480:1 
1 0 144:1 373:1 
1 0 144:1 145:1 243:1 252:1 305:1 373:1 388:1 480:1 
1 1 
1 0 2:1 144:1 415:1 476:1 480:1 
1 0.3079438993232569 507:1 
1 0 144:1 189:1 253:1 295:1 373:1 421:1 480:1 507:1 
1 0 136:1 161:1 421:1 
1 0 58:1 412:1 415:1 
1 0.1539348934883175 144:1 271:1 388:1 391:1 415:1 477:1 480:1 
0.83492595954325 0 24:1 104:1 175:1 373:1 
0.1357346849056253 0 32:1 144:1 253:1 
1 0 12:1 144:1 243:1 253:1 295:1 331:1 388:1 415:1 480:1 
1 0 193:1 253:1 415:1 480:1 
1 0 12:1 197:1 269:1 388:1 391:1 415:1 465:1 
1 1 
1 1 144:1 477:1 
0 0.128949897276685 2:1 83:1 144:1 161:1 253:1 314:1 391:1 415:1 437:1 455:1 528:1 
0.2972226728705252 0 12:1 144:1 325:1 341:1 381:1 388:1 391:1 415:1 472:1 480:1 
1 0 412:1 546:1 
1 1 
1 0 12:1 253:1 391:1 415:1 476:1 
1 0 12:1 185:1 
1 0 12:1 144:1 
1 0 12:1 243:1 549:1 
1 0.1087815230051374 144:1 288:1 391:1 415:1 477:1 507:1 
1 0 144:1 
1 0 253:1 
1 0 144:1 330:1 393:1 480:1 
1 0 114:1 388:1 
1 0 144:1 271:1 519:1 528:1 
1 0.7125505968088631 109:1 144:1 252:1 388:1 465:1 480:1 
1 0 58:1 104:1 144:1 253:1 412:1 465:1 477:1 479:1 546:1 
1 1 144:1 243:1 391:1 415:1 477:1 
1 0.05647950098874418 12:1 253:1 391:1 465:1 517:1 
1 1 
1 0 12:1 253:1 
1 0 144:1 253:1 373:1 415:1 
1 0 12:1 
1 0 21:1 388:1 
1 1 12:1 197:1 331:1 
0.7567921536513239 0 12:1 21:1 168:1 193:1 237:1 253:1 272:1 286:1 391:1 415:1 465:1 480:1 
1 0 391:1 415:1 418:1 438:1 477:1 
1 0 215:1 412:1 415:1 507:1 
1 1 12:1 114:1 243:1 388:1 412:1 457:1 
1 1 
1 0 21:1 144:1 388:1 
1 0 145:1 421:1 
1 0 176:1 253:1 373:1 415:1 
1 0 109:1 253:1 276:1 393:1 415:1 477:1 
1 0 253:1 331:1 
0 0.4374764806441654 53:1 114:1 373:1 
1 0 144:1 391:1 415:1 
1 1 
1 0 12:1 109:1 144:1 238:1 253:1 257:1 381:1 391:1 
1 0 12:1 109:1 175:1 253:1 476:1 
1 0.1036156002749877 12:1 169:1 238:1 253:1 296:1 320:1 391:1 415:1 465:1 
1 0 12:1 144:1 391:1 
1 1 144:1 331:1 472:1 479:1 
1 0 145:1 412:1 445:1 
0 0.4139233531552476 53:1 144:1 176:1 223:1 388:1 415:1 438:1 528:1 
1 0 144:1 253:1 373:1 415:1 480:1 528:1 
1 0 83:1 104:1 243:1 253:1 415:1 480:1 
1 0 12:1 253:1 445:1 
1 0 373:1 
1 0 12:1 109:1 371:1 
0.8226981074003646 0 4:1 12:1 210:1 243:1 253:1 320:1 326:1 373:1 391:1 415:1 
1 0 83:1 109:1 144:1 169:1 419:1 438:1 
1 0.7272419539755124 12:1 144:1 155:1 419:1 445:1 472:1 477:1 538:1 
0.668619836351533 0 109:1 127:1 155:1 216:1 
1 0 144:1 253:1 
1 0.3681282350649944 6:1 104:1 253:1 339:1 391:1 412:1 415:1 477:1 514:1 517:1 
1 0 114:1 144:1 152:1 222:1 388:1 412:1 513:1 
1 0.2183099917706598 83:1 84:1 104:1 168:1 197:1 253:1 391:1 427:1 480:1 513:1 
1 0 243:1 412:1 528:1 
1 0 388:1 391:1 415:1 465:1 496:1 
1 0 114:1 144:1 253:1 373:1 383:1 404:1 480:1 503:1 
1 0 2:1 21:1 144:1 243:1 253:1 314:1 320:1 391:1 415:1 
1 0 12:1 111:1 145:1 412:1 477:1 507:1 
1 0 12:1 144:1 243:1 257:1 331:1 383:1 412:1 415:1 538:1 
1 1 83:1 204:1 418:1 
1 0 12:1 72:1 84:1 257:1 391:1 415:1 477:1 499:1 507:1 
1 0 12:1 144:1 257:1 415:1 472:1 546:1 
1 0 21:1 83:1 169:1 204:1 373:1 415:1 418:1 
0.9588541354768343 0 112:1 204:1 243:1 253:1 320:1 404:1 415:1 445:1 547:1 551:1 
0.298993934172654 0 83:1 144:1 253:1 415:1 480:1 534:1 
1 0 144:1 169:1 257:1 331:1 388:1 393:1 412:1 418:1 519:1 546:1 
1 0 12:1 253:1 
1 0 144:1 155:1 197:1 253:1 373:1 477:1 
1 0 111:1 175:1 257:1 388:1 391:1 415:1 421:1 438:1 465:1 472:1 507:1 
1 1 
1 0 121:1 458:1 
1 0 144:1 175:1 373:1 477:1 479:1 
1 0 2:1 12:1 111:1 144:1 162:1 169:1 253:1 257:1 265:1 412:1 415:1 
0.1430956999106807 0.06686507812828472 12:1 130:1 243:1 291:1 295:1 373:1 391:1 415:1 465:1 563:1 
1 0.3810864126591938 12:1 72:1 84:1 391:1 412:1 472:1 
0.4451701071631433 0 2:1 168:1 173:1 206:1 253:1 257:1 320:1 373:1 412:1 415:1 480:1 
1 0 243:1 269:1 339:1 415:1 480:1 
1 1 
1 0.2291812501899321 67:1 160:1 243:1 253:1 347:1 415:1 480:1 528:1 
1 0 144:1 
0.1426367383229519 0 196:1 412:1 415:1 502:1 
1 0 144:1 233:1 238:1 271:1 391:1 415:1 507:1 
1 0 104:1 114:1 412:1 495:1 
1 0 12:1 233:1 
0.8079224899001937 1 144:1 196:1 415:1 465:1 477:1 
0.6294563068260212 0 12:1 53:1 109:1 162:1 257:1 273:1 335:1 371:1 388:1 415:1 445:1 480:1 
1 0 114:1 391:1 
0.1115525408314067 0 83:1 144:1 205:1 243:1 253:1 415:1 468:1 507:1 546:1 
1 1 161:1 314:1 391:1 
1 0 144:1 331:1 388:1 421:1 480:1 
1 0 12:1 72:1 144:1 160:1 253:1 373:1 388:1 415:1 458:1 465:1 
0 0.7399145523427301 243:1 335:1 381:1 477:1 
1 0 12:1 144:1 145:1 169:1 243:1 271:1 421:1 477:1 517:1 
1 0 169:1 176:1 381:1 472:1 
1 0 253:1 
1 0 12:1 412:1 496:1 
1 0 21:1 144:1 480:1 
1 0 144:1 243:1 310:1 373:1 388:1 421:1 496:1 
0.4879875892178028 0 176:1 505:1 
1 0.3036448434020358 161:1 209:1 499:1 
0.6141486298162968 0 508:1 
1 0 12:1 144:1 253:1 415:1 480:1 
1 0 12:1 124:1 135:1 136:1 222:1 388:1 412:1 415:1 458:1 507:1 
1 0 144:1 
1 1 465:1 519:1 
1 0 243:1 253:1 295:1 388:1 476:1 480:1 496:1 
1 0 238:1 381:1 
1 0 12:1 135:1 161:1 253:1 272:1 332:1 381:1 391:1 412:1 415:1 472:1 476:1 503:1 546:1 550:1 
1 0 226:1 238:1 544:1 
1 0 12:1 144:1 243:1 320:1 331:1 391:1 415:1 472:1 480:1 
1 0 253:1 388:1 
1 1 
1 0.1076374425836278 284:1 415:1 477:1 
1 0 114:1 412:1 465:1 
1 0 144:1 161:1 238:1 253:1 320:1 331:1 415:1 476:1 480:1 
1 1 58:1 
1 0 2:1 269:1 415:1 458:1 480:1 
1 0 2:1 253:1 371:1 442:1 
1 0 83:1 111:1 114:1 175:1 412:1 
1 0 144:1 233:1 253:1 441:1 
1 0 135:1 253:1 257:1 269:1 388:1 421:1 446:1 
1 0 19:1 144:1 271:1 388:1 391:1 412:1 415:1 462:1 
1 0 169:1 253:1 331:1 507:1 
1 0 144:1 257:1 
1 1 445:1 
1 1 
1 0 12:1 160:1 383:1 388:1 415:1 480:1 
0.9055771169450793 0 12:1 114:1 144:1 437:1 
0.614117449108409 0.007416501163553938 469:1 
1 0 415:1 465:1 
1 0.2056446582538322 104:1 109:1 144:1 480:1 
1 0 169:1 
1 0 2:1 109:1 144:1 243:1 253:1 388:1 415:1 
1 0 12:1 
0.7642263389162469 0 276:1 320:1 415:1 
1 0 12:1 144:1 226:1 243:1 331:1 
1 0.9457080195144805 144:1 161:1 388:1 393:1 
1 0 144:1 412:1 
0.6238942250661431 0 109:1 144:1 227:1 465:1 476:1 495:1 496:1 546:1 
1 0 2:1 144:1 253:1 391:1 465:1 480:1 
1 0 12:1 145:1 237:1 243:1 253:1 391:1 415:1 480:1 
1 0.02100038533054631 144:1 412:1 418:1 477:1 528:1 
1 0 12:1 253:1 
1 0 109:1 144:1 222:1 253:1 373:1 388:1 412:1 546:1 547:1 565:1 
1 0 295:1 391:1 415:1 480:1 517:1 542:1 
0.5746456891471533 0.2545632192666242 144:1 197:1 371:1 415:1 445:1 480:1 519:1 528:1 538:1 
1 0 12:1 83:1 253:1 391:1 412:1 415:1 546:1 
1 0 144:1 445:1 
1 1 72:1 412:1 457:1 
0.4280427616450796 0 2:1 12:1 132:1 189:1 253:1 373:1 388:1 557:1 
1 0.125961446877888 178:1 243:1 258:1 388:1 476:1 495:1 
1 0 144:1 253:1 331:1 373:1 480:1 507:1 
1 0.6829710080324204 12:1 34:1 173:1 197:1 320:1 415:1 528:1 546:1 
1 0 12:1 253:1 271:1 320:1 331:1 388:1 415:1 421:1 458:1 480:1 519:1 546:1 
1 0 2:1 84:1 243:1 253:1 273:1 415:1 468:1 480:1 507:1 
1 0 109:1 144:1 272:1 388:1 415:1 419:1 480:1 519:1 528:1 
1 0 109:1 114:1 144:1 243:1 331:1 388:1 391:1 421:1 507:1 
1 0.03141357435538458 12:1 415:1 477:1 480:1 
1 0 2:1 111:1 173:1 253:1 415:1 
1 0 253:1 391:1 
1 0.06032544499957533 109:1 111:1 144:1 291:1 415:1 480:1 517:1 
0.1597379787344265 0 103:1 144:1 253:1 295:1 388:1 415:1 476:1 480:1 
0.812747434073925 0 12:1 109:1 111:1 197:1 215:1 286:1 331:1 335:1 391:1 393:1 412:1 415:1 514:1 528:1 
1 0 188:1 197:1 238:1 243:1 270:1 335:1 366:1 421:1 472:1 480:1 
1 0 104:1 111:1 197:1 331:1 391:1 412:1 465:1 495:1 546:1 
1 0 253:1 373:1 415:1 480:1 
1 0 178:1 188:1 415:1 465:1 480:1 
1 0 12:1 144:1 
1 0 136:1 238:1 253:1 421:1 507:1 561:1 
1 0 480:1 
1 0.7591754515497248 289:1 472:1 546:1 
1 1 12:1 104:1 331:1 465:1 
1 0.3610066004020502 12:1 257:1 340:1 412:1 415:1 465:1 480:1 538:1 
1 0.03347705128469482 12:1 62:1 215:1 243:1 273:1 291:1 319:1 331:1 388:1 421:1 465:1 480:1 507:1 
0.5202167030385587 0.09965101282904572 272:1 388:1 391:1 511:1 
1 0.04898183377198482 132:1 145:1 388:1 465:1 
1 0 144:1 243:1 
1 0 295:1 388:1 391:1 415:1 
1 0.6887619974871011 103:1 243:1 331:1 373:1 388:1 391:1 415:1 480:1 
1 0 12:1 68:1 72:1 144:1 145:1 161:1 223:1 237:1 253:1 269:1 331:1 381:1 415:1 472:1 476:1 480:1 
1 0 253:1 415:1 507:1 
1 0 114:1 
1 0 2:1 12:1 183:1 197:1 331:1 412:1 418:1 
1 1 
1 0 109:1 195:1 253:1 415:1 480:1 557:1 
1 0 210:1 253:1 388:1 415:1 
1 0 21:1 144:1 373:1 393:1 415:1 421:1 476:1 480:1 517:1 
1 0 12:1 68:1 144:1 388:1 415:1 507:1 528:1 
1 0 144:1 253:1 373:1 480:1 
1 0 88:1 175:1 237:1 253:1 415:1 480:1 
1 0 104:1 173:1 195:1 320:1 335:1 412:1 415:1 519:1 546:1 
1 0 12:1 144:1 189:1 243:1 331:1 373:1 415:1 476:1 480:1 507:1 546:1 
1 0 480:1 
1 0 15:1 415:1 
0.9562023413331373 0 12:1 253:1 371:1 391:1 415:1 418:1 455:1 477:1 526:1 528:1 
1 0 12:1 144:1 197:1 253:1 331:1 415:1 427:1 458:1 472:1 
1 0 381:1 480:1 
1 0.007536489487386733 210:1 
1 0 12:1 21:1 144:1 253:1 415:1 
1 1 
1 0 253:1 480:1 
1 0 253:1 
1 0 253:1 
0.1952852244671028 0 144:1 161:1 239:1 257:1 271:1 295:1 415:1 480:1 528:1 
1 0 12:1 109:1 144:1 253:1 373:1 391:1 438:1 445:1 472:1 477:1 480:1 
1 0 144:1 253:1 
0.9950986765511147 0.04871143282078168 12:1 96:1 124:1 141:1 143:1 144:1 243:1 271:1 291:1 319:1 421:1 472:1 476:1 480:1 503:1 507:1 
1 0 144:1 243:1 253:1 331:1 388:1 480:1 
1 1 
1 0 144:1 176:1 391:1 415:1 480:1 
0 1 12:1 381:1 455:1 457:1 
1 0 136:1 144:1 169:1 257:1 331:1 412:1 415:1 
1 0 12:1 109:1 112:1 144:1 253:1 388:1 391:1 480:1 546:1 
1 0 114:1 304:1 331:1 388:1 391:1 412:1 415:1 480:1 503:1 538:1 
1 0 12:1 415:1 
1 0 12:1 109:1 111:1 144:1 160:1 253:1 272:1 286:1 331:1 388:1 415:1 480:1 550:1 
0 0.1694361709998748 144:1 277:1 495:1 
1 0 114:1 197:1 331:1 
1 0 12:1 173:1 271:1 320:1 331:1 415:1 
1 0 12:1 253:1 388:1 415:1 476:1 480:1 
1 1 
1 0 12:1 238:1 253:1 286:1 340:1 472:1 495:1 546:1 
1 0 12:1 58:1 144:1 145:1 161:1 169:1 216:1 273:1 388:1 393:1 528:1 
1 0 144:1 253:1 
0.3675952173433095 0.08515581381230765 144:1 241:1 243:1 391:1 528:1 
1 0.4821583848486119 144:1 310:1 477:1 505:1 
1 1 145:1 476:1 
1 0 2:1 12:1 109:1 144:1 168:1 253:1 314:1 320:1 388:1 415:1 
1 0 12:1 83:1 143:1 144:1 253:1 264:1 331:1 373:1 415:1 455:1 480:1 507:1 
0.8143313879955896 0 2:1 72:1 114:1 320:1 412:1 415:1 538:1 
1 0 12:1 72:1 109:1 237:1 253:1 286:1 330:1 415:1 
1 0.5029758968408149 388:1 
1 1 
0.3111015828261027 0 12:1 83:1 144:1 161:1 243:1 253:1 269:1 331:1 368:1 381:1 419:1 476:1 480:1 
1 0 144:1 243:1 391:1 415:1 
1 0.2156844450372553 109:1 388:1 
1 0 2:1 144:1 168:1 253:1 388:1 415:1 458:1 465:1 477:1 480:1 
1 0 12:1 109:1 144:1 197:1 243:1 373:1 388:1 415:1 480:1 
0.5566685175282802 0 114:1 178:1 253:1 388:1 495:1 517:1 
1 0 114:1 391:1 412:1 415:1 479:1 
1 1 175:1 253:1 388:1 391:1 476:1 
1 0 114:1 204:1 383:1 391:1 412:1 476:1 507:1 523:1 528:1 
1 1 
1 0 72:1 104:1 114:1 391:1 412:1 418:1 480:1 
0 0.09222705771125064 12:1 144:1 223:1 253:1 344:1 391:1 415:1 476:1 
0.8282046400704857 0 2:1 144:1 253:1 271:1 295:1 305:1 412:1 479:1 513:1 528:1 534:1 538:1 
1 0 12:1 243:1 253:1 391:1 415:1 476:1 
1 0 111:1 294:1 388:1 412:1 
1 0 412:1 
1 0.2043735963526087 391:1 415:1 418:1 465:1 480:1 517:1 
1 0.1800544123113674 114:1 477:1 480:1 
1 0.3991699775681069 83:1 144:1 253:1 388:1 415:1 465:1 476:1 
1 0 295:1 418:1 
1 0 12:1 109:1 130:1 144:1 215:1 243:1 253:1 286:1 331:1 373:1 388:1 391:1 415:1 480:1 
1 0 144:1 480:1 
1 0 373:1 
1 0 503:1 546:1 
0.7325801670844611 0 12:1 21:1 144:1 243:1 253:1 334:1 391:1 415:1 419:1 458:1 480:1 
0.9158038100805734 1 12:1 114:1 391:1 415:1 457:1 546:1 
1 0.2098405465969487 144:1 476:1 
1 0 12:1 331:1 
1 0 243:1 273:1 373:1 
0.05327688239769324 0 144:1 243:1 253:1 331:1 388:1 480:1 505:1 
0.6345652102513517 0 21:1 160:1 331:1 388:1 391:1 415:1 480:1 495:1 528:1 546:1 
1 0 53:1 144:1 257:1 331:1 373:1 412:1 415:1 503:1 507:1 
1 0 152:1 243:1 388:1 
1 1 
1 0 12:1 109:1 144:1 176:1 253:1 388:1 391:1 415:1 465:1 480:1 546:1 
1 1 12:1 114:1 238:1 373:1 412:1 415:1 457:1 503:1 528:1 538:1 
1 0.4526408468237843 253:1 391:1 
1 0 114:1 176:1 253:1 388:1 445:1 505:1 
1 0 253:1 331:1 
1 0.2866041045494763 246:1 415:1 503:1 
0 0.1759546074626261 355:1 391:1 
1 0 12:1 253:1 320:1 415:1 
0.6803907174242644 0 1:1 12:1 144:1 253:1 264:1 320:1 415:1 441:1 
1 0.07851027039369314 2:1 12:1 162:1 253:1 257:1 294:1 412:1 415:1 472:1 507:1 528:1 
0.7288577396306628 0 12:1 144:1 238:1 243:1 319:1 322:1 331:1 366:1 371:1 388:1 
1 1 185:1 
1 0 58:1 144:1 243:1 331:1 412:1 445:1 477:1 
1 0 12:1 109:1 144:1 185:1 226:1 243:1 253:1 381:1 388:1 391:1 415:1 480:1 
1 0 144:1 253:1 415:1 480:1 528:1 
1 0 253:1 412:1 415:1 445:1 
0 0.1859221655963578 109:1 335:1 412:1 465:1 552:1 
1 1 
0 0.01293452354068576 135:1 161:1 167:1 228:1 233:1 472:1 480:1 507:1 
1 0 12:1 144:1 175:1 204:1 253:1 294:1 415:1 477:1 480:1 503:1 507:1 517:1 534:1 
1 0 83:1 253:1 320:1 415:1 507:1 
1 0 109:1 373:1 412:1 480:1 
1 0.9257398219187793 12:1 320:1 421:1 472:1 
0.4247127552113015 1 12:1 253:1 457:1 
1 0 2:1 12:1 253:1 331:1 415:1 419:1 
1 0.05448900624981409 144:1 272:1 314:1 388:1 391:1 465:1 480:1 528:1 
0.3793830822753561 0.2490815379255916 144:1 194:1 294:1 
1 0.6056305400090682 391:1 465:1 480:1 513:1 
0.5654979360319203 0 104:1 238:1 418:1 546:1 
1 1 380:1 
1 0 144:1 195:1 233:1 243:1 391:1 415:1 480:1 507:1 534:1 
1 0 253:1 273:1 276:1 388:1 391:1 415:1 476:1 
1 0 144:1 238:1 388:1 415:1 517:1 546:1 
1 0 68:1 253:1 373:1 415:1 465:1 
1 0 83:1 144:1 415:1 
0 0.04271677325905933 143:1 144:1 223:1 253:1 331:1 393:1 415:1 476:1 480:1 
1 0 243:1 393:1 
1 0 109:1 335:1 
1 0 294:1 412:1 421:1 507:1 
1 1 445:1 
1 0.1821753071308673 111:1 243:1 465:1 476:1 
1 1 145:1 495:1 
1 0 155:1 
1 0 175:1 
1 0 12:1 243:1 257:1 335:1 388:1 391:1 415:1 477:1 480:1 517:1 
1 0.7242629334215577 12:1 109:1 243:1 257:1 271:1 483:1 
1 0 144:1 197:1 253:1 415:1 480:1 
1 0 144:1 
1 0 217:1 296:1 458:1 546:1 
1 0 2:1 12:1 388:1 415:1 
1 0 12:1 257:1 388:1 393:1 415:1 465:1 495:1 519:1 546:1 
1 0 12:1 160:1 173:1 195:1 243:1 253:1 320:1 388:1 391:1 534:1 
1 0 243:1 253:1 300:1 331:1 388:1 415:1 480:1 507:1 544:1 
1 0.6647400317281624 104:1 114:1 144:1 163:1 176:1 388:1 465:1 
0 1 53:1 
1 0 144:1 
1 0 144:1 215:1 237:1 243:1 253:1 331:1 373:1 415:1 480:1 
1 0.5901493675462616 104:1 122:1 144:1 331:1 412:1 480:1 565:1 
0.4394784569383338 0 2:1 163:1 243:1 257:1 412:1 415:1 476:1 546:1 
1 0 12:1 37:1 169:1 175:1 503:1 
1 0 12:1 144:1 253:1 415:1 480:1 528:1 
1 0 168:1 169:1 477:1 
1 0 240:1 253:1 415:1 419:1 480:1 
1 0 144:1 169:1 565:1 
1 0 144:1 169:1 257:1 480:1 
0.6085897243788663 0 144:1 253:1 391:1 415:1 477:1 480:1 558:1 
1 0 12:1 169:1 412:1 
1 0.2459872720893374 109:1 243:1 246:1 253:1 295:1 388:1 465:1 480:1 
1 0 144:1 253:1 310:1 388:1 391:1 415:1 507:1 
1 0 144:1 253:1 415:1 438:1 468:1 480:1 
1 0 12:1 144:1 253:1 320:1 331:1 421:1 507:1 
1 0 104:1 222:1 391:1 412:1 415:1 418:1 445:1 480:1 
1 0 331:1 
1 0 12:1 144:1 243:1 271:1 388:1 391:1 
1 0 144:1 421:1 
0 1 12:1 53:1 109:1 
1 1 
1 1 
1 1 12:1 175:1 294:1 415:1 
1 0 83:1 109:1 144:1 155:1 257:1 331:1 332:1 381:1 415:1 507:1 546:1 
0.3519568939030869 0 347:1 388:1 445:1 
1 1 
1 0 144:1 253:1 271:1 388:1 391:1 415:1 465:1 468:1 480:1 507:1 
1 0 145:1 
1 1 497:1 546:1 
1 0 114:1 243:1 412:1 503:1 538:1 
1 0 12:1 83:1 144:1 391:1 415:1 480:1 
0.88827250520666 0 143:1 347:1 391:1 415:1 503:1 
1 0 12:1 415:1 
1 0 210:1 331:1 388:1 415:1 465:1 480:1 
1 0 144:1 
1 0 144:1 
1 0 2:1 12:1 104:1 381:1 412:1 477:1 480:1 507:1 546:1 
1 0 2:1 12:1 144:1 271:1 294:1 388:1 415:1 421:1 465:1 
1 1 
1 0 144:1 168:1 253:1 373:1 415:1 441:1 465:1 480:1 499:1 519:1 
1 0.2604741721700357 388:1 
1 0 253:1 331:1 391:1 415:1 480:1 
0 1 111:1 253:1 415:1 418:1 457:1 519:1 528:1 546:1 552:1 
0.9070762478350382 0.09667697396590375 53:1 88:1 136:1 391:1 412:1 415:1 445:1 496:1 
1 0 415:1 
1 1 
1 0 12:1 388:1 391:1 415:1 480:1 
1 0 12:1 243:1 331:1 412:1 415:1 445:1 503:1 
1 1 
1 0 144:1 295:1 391:1 513:1 
1 0 16:1 109:1 144:1 381:1 393:1 415:1 438:1 445:1 465:1 472:1 480:1 546:1 563:1 
1 1 257:1 294:1 480:1 528:1 546:1 
1 0 12:1 58:1 144:1 145:1 204:1 253:1 332:1 388:1 391:1 393:1 415:1 421:1 465:1 476:1 480:1 495:1 
1 1 114:1 153:1 258:1 381:1 477:1 
1 0 12:1 243:1 415:1 477:1 480:1 503:1 519:1 
0.3881996263907406 0 144:1 412:1 546:1 
1 0 2:1 114:1 135:1 253:1 373:1 415:1 472:1 528:1 
0 1 12:1 53:1 144:1 197:1 495:1 546:1 
1 0 144:1 243:1 415:1 476:1 480:1 
1 0.5486413042948041 243:1 296:1 421:1 465:1 507:1 546:1 
0.863629936320034 0 21:1 253:1 295:1 373:1 388:1 415:1 
1 1 
1 0 421:1 
0.7777207394831911 0 144:1 176:1 185:1 499:1 
1 0 12:1 243:1 253:1 415:1 
1 0 84:1 253:1 257:1 320:1 415:1 
0.5901910193370041 0 253:1 322:1 495:1 546:1 
1 0 12:1 144:1 171:1 226:1 233:1 243:1 412:1 415:1 445:1 472:1 534:1 
1 0 12:1 53:1 173:1 271:1 388:1 415:1 507:1 546:1 
1 0 12:1 
1 0 109:1 187:1 243:1 388:1 412:1 415:1 480:1 507:1 528:1 536:1 
1 0.6530607249014344 2:1 12:1 144:1 331:1 421:1 477:1 480:1 507:1 534:1 
0.2337663617357295 0 12:1 144:1 253:1 350:1 415:1 480:1 528:1 
1 0 104:1 114:1 253:1 258:1 331:1 373:1 391:1 517:1 
1 0 2:1 175:1 257:1 412:1 415:1 480:1 
0.6198464517974019 0.1761452182350939 87:1 391:1 
1 0 12:1 269:1 
1 0 12:1 144:1 145:1 253:1 503:1 
0.7488694700583455 0.4612090033459226 12:1 114:1 381:1 552:1 
1 0 2:1 83:1 114:1 124:1 144:1 167:1 238:1 253:1 320:1 331:1 340:1 412:1 415:1 418:1 477:1 480:1 528:1 
0.2304403713396798 0 243:1 253:1 341:1 388:1 415:1 465:1 
1 0 12:1 240:1 253:1 259:1 415:1 
1 0 144:1 253:1 480:1 
0.9888823884756702 0 2:1 72:1 136:1 161:1 304:1 415:1 480:1 
1 0 373:1 
1 0.1109714906782757 12:1 58:1 144:1 215:1 257:1 310:1 331:1 369:1 391:1 412:1 503:1 
1 0.0517843186174633 12:1 257:1 294:1 412:1 449:1 
1 1 253:1 415:1 477:1 538:1 
1 1 2:1 12:1 104:1 140:1 253:1 331:1 412:1 457:1 465:1 546:1 
1 0 2:1 12:1 111:1 143:1 173:1 228:1 243:1 272:1 388:1 415:1 472:1 480:1 
1 0 109:1 415:1 465:1 503:1 519:1 
1 0 415:1 465:1 
1 1 
1 0 109:1 388:1 480:1 
1 0.34307802530653 144:1 161:1 269:1 295:1 296:1 340:1 373:1 381:1 480:1 507:1 
1 0 320:1 412:1 415:1 528:1 538:1 
1 0 111:1 144:1 145:1 294:1 373:1 393:1 465:1 546:1 
1 0 12:1 144:1 243:1 295:1 331:1 373:1 388:1 415:1 477:1 507:1 513:1 528:1 546:1 
1 0 412:1 418:1 
1 0 12:1 109:1 143:1 144:1 243:1 291:1 295:1 388:1 421:1 507:1 
0.7509364918403295 0 12:1 144:1 331:1 355:1 412:1 418:1 517:1 
1 0 145:1 243:1 253:1 271:1 331:1 388:1 415:1 465:1 480:1 
1 0 12:1 388:1 412:1 475:1 479:1 
1 0 83:1 109:1 335:1 415:1 421:1 
1 0 2:1 12:1 144:1 243:1 246:1 253:1 415:1 472:1 480:1 
1 1 
1 0 12:1 253:1 373:1 415:1 
0.8371135718841038 0.0147574999785509 15:1 144:1 206:1 243:1 253:1 388:1 445:1 495:1 507:1 
1 1 330:1 391:1 
1 1 
0.1289299828388359 0 53:1 109:1 144:1 289:1 383:1 472:1 
0.9871178678664607 0 12:1 68:1 144:1 243:1 253:1 373:1 505:1 517:1 
1 0 144:1 253:1 
1 0.3756134549653385 12:1 243:1 286:1 320:1 
1 0 373:1 415:1 480:1 528:1 
1 1 20:1 144:1 163:1 243:1 257:1 412:1 415:1 507:1 550:1 
0.7616020107874855 0 2:1 12:1 53:1 104:1 175:1 176:1 210:1 269:1 391:1 412:1 517:1 
1 0 12:1 144:1 
1 0.4264766305693414 12:1 21:1 269:1 457:1 458:1 477:1 513:1 547:1 
1 0.0636742617830327 104:1 144:1 275:1 373:1 391:1 
1 0 331:1 503:1 
1 1 
0.6892457541288002 0 83:1 144:1 243:1 253:1 269:1 295:1 388:1 391:1 415:1 476:1 477:1 480:1 513:1 543:1 
1 0 114:1 188:1 253:1 320:1 371:1 412:1 
1 0 144:1 415:1 480:1 
1 0 144:1 253:1 388:1 477:1 
1 1 289:1 328:1 415:1 480:1 
1 0 12:1 109:1 144:1 233:1 320:1 415:1 477:1 480:1 546:1 
1 0 144:1 197:1 243:1 253:1 319:1 480:1 507:1 
1 0 144:1 228:1 243:1 257:1 381:1 391:1 412:1 415:1 472:1 477:1 514:1 
0.2734197408853428 0.269804784465379 144:1 253:1 265:1 295:1 320:1 335:1 388:1 415:1 420:1 477:1 550:1 
0.6539712410310129 0.213721172045434 50:1 304:1 465:1 495:1 
1 0 68:1 109:1 144:1 238:1 252:1 253:1 388:1 445:1 507:1 
1 0 12:1 197:1 215:1 253:1 257:1 331:1 415:1 472:1 528:1 546:1 
1 0 12:1 109:1 145:1 253:1 320:1 391:1 415:1 465:1 
1 0 6:1 144:1 237:1 415:1 421:1 480:1 507:1 
1 0 412:1 496:1 
1 0 415:1 
1 0.550759618194001 144:1 257:1 420:1 517:1 
1 0 265:1 415:1 477:1 480:1 512:1 
1 0 257:1 388:1 
1 0 253:1 
1 0.2852653173525184 12:1 53:1 114:1 418:1 
1 0 415:1 
1 0 144:1 
1 0.158966798077806 109:1 253:1 271:1 320:1 381:1 388:1 473:1 
0.6116064053004249 0 12:1 144:1 253:1 271:1 388:1 415:1 421:1 445:1 455:1 465:1 538:1 
1 0 144:1 314:1 519:1 546:1 
1 1 175:1 388:1 528:1 
1 0 72:1 111:1 388:1 391:1 415:1 465:1 472:1 480:1 
1 0 109:1 144:1 169:1 238:1 253:1 391:1 415:1 480:1 
1 0.2694524598116806 111:1 144:1 294:1 412:1 538:1 
1 0 12:1 114:1 253:1 
1 1 53:1 412:1 415:1 465:1 
1 0 144:1 175:1 216:1 233:1 465:1 480:1 
1 0.4376418635745423 144:1 253:1 388:1 495:1 519:1 
1 0 331:1 480:1 
1 0 253:1 
1 0 421:1 507:1 
1 0 289:1 415:1 480:1 546:1 
0 1 169:1 373:1 495:1 
1 0 83:1 144:1 269:1 371:1 373:1 415:1 477:1 507:1 
1 0 144:1 415:1 477:1 480:1 
0.1440654996850017 0 12:1 46:1 143:1 144:1 253:1 272:1 331:1 373:1 391:1 415:1 517:1 
0.8811550406849591 0 294:1 393:1 412:1 546:1 
1 0 144:1 
0 1 53:1 345:1 415:1 480:1 
1 0.1924711554166193 173:1 391:1 412:1 415:1 445:1 
1 0 12:1 257:1 412:1 415:1 517:1 528:1 
0.5859505978247669 0 72:1 144:1 171:1 223:1 243:1 264:1 331:1 373:1 388:1 507:1 
1 0 109:1 135:1 197:1 222:1 253:1 257:1 373:1 391:1 415:1 476:1 495:1 507:1 546:1 
1 0 12:1 144:1 383:1 415:1 
1 0 258:1 269:1 388:1 415:1 528:1 
1 0.1230440995596232 12:1 53:1 84:1 144:1 253:1 258:1 331:1 415:1 472:1 480:1 
0.7337492357009411 0 12:1 72:1 109:1 144:1 253:1 331:1 415:1 480:1 
1 0 12:1 72:1 204:1 295:1 305:1 373:1 415:1 507:1 
1 0 12:1 169:1 257:1 388:1 391:1 412:1 472:1 563:1 
1 0.7503410132530259 53:1 143:1 144:1 388:1 415:1 503:1 507:1 
1 0 12:1 83:1 237:1 373:1 391:1 415:1 480:1 
1 0 109:1 144:1 253:1 271:1 388:1 
1 0 114:1 144:1 176:1 238:1 253:1 257:1 271:1 331:1 412:1 418:1 472:1 519:1 
1 0 253:1 
1 0 12:1 114:1 294:1 438:1 
1 0.5524685746858274 58:1 169:1 
0 0.4813691099041089 2:1 12:1 53:1 195:1 391:1 
0.1225998931377329 0.08835639982214274 2:1 88:1 192:1 246:1 253:1 373:1 391:1 412:1 415:1 471:1 480:1 495:1 517:1 546:1 
1 0 253:1 458:1 
1 0 162:1 204:1 243:1 331:1 412:1 
1 1 
1 0 388:1 415:1 480:1 507:1 
1 0 12:1 507:1 
0.4328677069676417 0 169:1 
1 0 12:1 257:1 412:1 
0.176300404055111 0 144:1 216:1 219:1 391:1 415:1 445:1 480:1 
1 0 58:1 144:1 340:1 412:1 
1 0 12:1 115:1 144:1 253:1 264:1 373:1 421:1 507:1 
0 0.6659432895084585 72:1 136:1 144:1 415:1 457:1 495:1 499:1 519:1 
1 0 12:1 144:1 472:1 480:1 507:1 
1 0 113:1 144:1 273:1 388:1 391:1 393:1 415:1 477:1 546:1 
0.8903696581979288 0 104:1 253:1 391:1 415:1 418:1 458:1 473:1 547:1 
1 0.02351131380929486 2:1 12:1 34:1 240:1 253:1 265:1 331:1 391:1 402:1 415:1 465:1 477:1 480:1 
1 0 383:1 
1 0 12:1 104:1 109:1 113:1 153:1 269:1 340:1 415:1 465:1 479:1 
0.6997682433629755 0 11:1 104:1 111:1 155:1 331:1 412:1 495:1 
1 1 83:1 144:1 480:1 
0 1 53:1 144:1 253:1 331:1 391:1 465:1 507:1 
1 0.1671670121701964 121:1 144:1 412:1 
1 1 
1 0.4575081204089942 144:1 253:1 307:1 415:1 480:1 
1 0.5512603704835519 193:1 415:1 480:1 
1 0 12:1 33:1 111:1 144:1 145:1 175:1 253:1 269:1 388:1 415:1 445:1 465:1 468:1 480:1 513:1 
1 1 53:1 83:1 114:1 412:1 418:1 
0.8230248131528695 0 83:1 253:1 341:1 391:1 415:1 468:1 480:1 519:1 
1 0 2:1 373:1 415:1 517:1 
0.9539287138537557 0 12:1 269:1 415:1 496:1 507:1 536:1 
1 0 122:1 144:1 145:1 178:1 243:1 388:1 415:1 419:1 438:1 465:1 480:1 
1 0 253:1 331:1 
1 0 12:1 253:1 331:1 391:1 415:1 480:1 
1 0 12:1 269:1 415:1 418:1 477:1 
1 1 253:1 291:1 331:1 373:1 415:1 465:1 507:1 
1 0 83:1 109:1 136:1 237:1 253:1 391:1 415:1 445:1 
0.7604569134967989 0 144:1 388:1 496:1 546:1 
0.558087040396351 0 144:1 253:1 330:1 373:1 413:1 507:1 
1 0 12:1 53:1 144:1 243:1 253:1 388:1 415:1 472:1 491:1 
0.8591524223498994 0 109:1 276:1 391:1 415:1 416:1 507:1 
1 0 169:1 
0.8528190373900925 0.1315592840540093 153:1 243:1 253:1 331:1 412:1 419:1 476:1 
1 0 58:1 144:1 175:1 253:1 335:1 388:1 391:1 415:1 465:1 480:1 499:1 
1 0.1587628972290402 109:1 144:1 281:1 391:1 445:1 507:1 
1 0 5:1 114:1 228:1 465:1 503:1 547:1 
1 1 381:1 
1 0 144:1 253:1 264:1 291:1 421:1 507:1 
1 0 210:1 
1 0 144:1 253:1 415:1 465:1 480:1 
1 0 12:1 144:1 
1 0 503:1 
0.9466817139535046 0 115:1 144:1 233:1 238:1 253:1 320:1 355:1 412:1 445:1 476:1 480:1 507:1 538:1 
1 0 144:1 415:1 480:1 
0.4450639082813571 0 253:1 272:1 415:1 480:1 
1 0 144:1 253:1 388:1 412:1 565:1 
1 0 412:1 
1 0 21:1 257:1 393:1 415:1 480:1 546:1 
1 0.3746385821836096 104:1 197:1 238:1 465:1 473:1 480:1 565:1 
0.6386630126103049 0 169:1 
0 0.1108763985689294 115:1 144:1 243:1 276:1 326:1 373:1 391:1 495:1 528:1 
1 0 12:1 68:1 253:1 373:1 
1 1 144:1 253:1 286:1 289:1 391:1 412:1 472:1 476:1 528:1 
1 0 83:1 220:1 253:1 276:1 458:1 496:1 
1 0 12:1 388:1 412:1 445:1 
1 0 135:1 144:1 316:1 331:1 393:1 421:1 480:1 499:1 528:1 
1 0 144:1 176:1 
1 0 12:1 109:1 233:1 237:1 253:1 269:1 272:1 388:1 415:1 480:1 
0.2305150432640593 0.595082464460873 12:1 153:1 388:1 415:1 
1 0.7140216579850307 109:1 243:1 272:1 388:1 528:1 
1 0 12:1 412:1 418:1 
1 1 
1 1 144:1 215:1 243:1 391:1 421:1 472:1 
0.1597479316464169 0 12:1 144:1 162:1 169:1 195:1 197:1 223:1 477:1 540:1 
0 0.2831253765228316 62:1 72:1 328:1 331:1 381:1 391:1 393:1 412:1 495:1 
1 0 12:1 144:1 243:1 381:1 415:1 472:1 480:1 
1 0 253:1 
1 0 12:1 91:1 144:1 388:1 415:1 419:1 420:1 421:1 445:1 480:1 503:1 546:1 
1 0 12:1 144:1 253:1 415:1 418:1 480:1 
1 0 144:1 222:1 243:1 331:1 388:1 546:1 
1 0 144:1 415:1 421:1 480:1 507:1 
1 0 144:1 383:1 480:1 
1 0 109:1 144:1 391:1 415:1 542:1 
1 1 
1 0 144:1 195:1 243:1 331:1 373:1 391:1 415:1 480:1 507:1 
1 0 144:1 480:1 
1 0 169:1 253:1 458:1 517:1 
1 0 12:1 238:1 257:1 412:1 523:1 
0.7686540799209205 0 109:1 237:1 240:1 253:1 257:1 272:1 391:1 415:1 458:1 476:1 480:1 543:1 
1 0 12:1 78:1 162:1 204:1 289:1 412:1 445:1 
1 0 68:1 238:1 253:1 415:1 421:1 465:1 507:1 
1 0 84:1 140:1 243:1 257:1 415:1 
1 0 144:1 253:1 
1 0 253:1 388:1 
1 0 12:1 109:1 258:1 381:1 414:1 458:1 507:1 
1 0.921387227535447 12:1 216:1 294:1 388:1 415:1 465:1 
1 0 12:1 169:1 210:1 
1 1 
1 0 2:1 253:1 331:1 373:1 415:1 480:1 
0.8060739813875075 0 144:1 173:1 216:1 238:1 243:1 391:1 451:1 465:1 
1 0 12:1 104:1 144:1 253:1 265:1 331:1 412:1 
1 0.9050965654864981 109:1 144:1 296:1 373:1 383:1 465:1 472:1 476:1 
0.03751354348618981 0 84:1 253:1 257:1 271:1 373:1 415:1 
1 0 12:1 21:1 458:1 
1 0 144:1 228:1 412:1 507:1 
1 0 144:1 253:1 331:1 465:1 
0.8484077093779575 0.1391248366219886 12:1 197:1 264:1 326:1 391:1 415:1 480:1 
0.2328686059090054 0 111:1 160:1 243:1 253:1 271:1 294:1 373:1 415:1 480:1 
0.5874390393732638 0 12:1 144:1 169:1 176:1 294:1 458:1 
1 0 12:1 458:1 
1 0 12:1 144:1 233:1 331:1 373:1 
1 0 114:1 
1 1 114:1 209:1 373:1 
1 0 104:1 204:1 393:1 
1 0.2267474580074284 215:1 228:1 412:1 472:1 
1 0 197:1 373:1 393:1 415:1 421:1 476:1 480:1 
1 0 144:1 253:1 480:1 
0.7337130865186801 0 12:1 124:1 144:1 160:1 258:1 271:1 388:1 393:1 415:1 480:1 554:1 
-1 1 
-1 0 2:1 144:1 253:1 480:1 
-1 1 58:1 519:1 
-1 0 144:1 253:1 257:1 
-1 0 144:1 
-1 0 114:1 
-0.8527650295947021 0 12:1 92:1 237:1 253:1 257:1 415:1 465:1 
-1 1 2:1 109:1 328:1 331:1 457:1 
-1 1 388:1 
-1 0 109:1 144:1 253:1 418:1 441:1 480:1 507:1 
-0.6106736076165405 0 12:1 83:1 84:1 186:1 331:1 393:1 412:1 415:1 472:1 
-1 1 12:1 296:1 
-1 0 12:1 162:1 253:1 257:1 331:1 415:1 421:1 507:1 546:1 
-0.3251688836778351 0 12:1 316:1 340:1 412:1 415:1 
-1 0 111:1 335:1 391:1 412:1 528:1 546:1 
-1 1 391:1 415:1 538:1 
-1 0 109:1 265:1 331:1 546:1 
-0.3517848322409626 0 12:1 33:1 109:1 168:1 237:1 243:1 252:1 253:1 258:1 259:1 284:1 391:1 393:1 415:1 472:1 477:1 480:1 
-1 0 253:1 363:1 373:1 388:1 415:1 477:1 
-1 0 2:1 12:1 253:1 294:1 388:1 415:1 
-1 0 144:1 480:1 
-1 0 320:1 415:1 442:1 480:1 
-1 0 144:1 253:1 388:1 476:1 
-0.7156301920520926 0 140:1 204:1 388:1 415:1 
-1 0 204:1 373:1 415:1 418:1 465:1 479:1 480:1 563:1 
-1 0 21:1 253:1 373:1 388:1 415:1 
-1 0 168:1 243:1 253:1 294:1 320:1 388:1 391:1 415:1 421:1 468:1 480:1 507:1 
-1 0 237:1 257:1 286:1 381:1 496:1 
-0.5171022259502673 0.5456101196011655 144:1 215:1 243:1 319:1 331:1 388:1 393:1 415:1 472:1 504:1 507:1 
-1 0 4:1 143:1 253:1 373:1 388:1 415:1 421:1 546:1 
-1 1 53:1 253:1 388:1 391:1 415:1 477:1 480:1 513:1 
-1 0 12:1 15:1 83:1 109:1 114:1 144:1 204:1 253:1 331:1 445:1 
-1 0 37:1 83:1 144:1 271:1 
-1 0 58:1 238:1 253:1 320:1 415:1 418:1 
-1 0 145:1 
-1 0 144:1 238:1 373:1 
-0.6469375967049605 0 12:1 253:1 269:1 291:1 320:1 391:1 415:1 480:1 517:1 
-1 0 145:1 421:1 
-1 0.6983292664616367 175:1 253:1 391:1 
-0 0.1691182760828109 12:1 161:1 222:1 243:1 253:1 388:1 391:1 415:1 477:1 550:1 
-1 0 114:1 253:1 257:1 320:1 412:1 
-1 1 
-1 0.0532995177210917 144:1 
-0.8866088487613761 0 137:1 173:1 320:1 412:1 505:1 
-1 0 144:1 169:1 388:1 391:1 
-1 0 253:1 391:1 
-1 0.3667240231312572 144:1 173:1 243:1 252:1 253:1 415:1 477:1 
-1 0.005493099287222734 12:1 21:1 59:1 269:1 373:1 381:1 415:1 472:1 480:1 519:1 528:1 
-1 1 83:1 373:1 
-1 0 21:1 68:1 144:1 243:1 253:1 331:1 388:1 421:1 528:1 
-1 1 
-1 0 12:1 295:1 320:1 391:1 415:1 418:1 472:1 507:1 
-1 0 12:1 237:1 388:1 391:1 415:1 421:1 538:1 
-1 0 144:1 169:1 176:1 421:1 565:1 
-1 0.4329634514969565 12:1 185:1 
-1 1 331:1 495:1 
-1 0 109:1 388:1 391:1 415:1 
-1 0 144:1 388:1 415:1 438:1 480:1 519:1 
-1 1 
-1 0 83:1 243:1 253:1 415:1 
-1 0 104:1 109:1 331:1 418:1 465:1 
-1 0 388:1 391:1 415:1 517:1 
-1 0 12:1 21:1 257:1 335:1 388:1 412:1 415:1 472:1 496:1 
-1 0 12:1 34:1 238:1 388:1 415:1 480:1 
-1 0 12:1 197:1 253:1 331:1 507:1 517:1 
-1 0 144:1 176:1 331:1 388:1 391:1 393:1 465:1 503:1 
-1 1 257:1 457:1 550:1 
-1 0.2820008984608019 115:1 373:1 528:1 
-1 0 12:1 480:1 
-1 0 114:1 
-0.9502226796084788 0 291:1 415:1 465:1 549:1 
-1 0 12:1 253:1 415:1 480:1 
-1 1 84:1 104:1 109:1 412:1 477:1 497:1 546:1 
-1 0 21:1 144:1 155:1 175:1 243:1 480:1 503:1 528:1 
-0.7563788688061062 1 12:1 388:1 445:1 565:1 
-0.2403992377368809 0 12:1 109:1 144:1 185:1 243:1 253:1 377:1 388:1 391:1 415:1 419:1 476:1 480:1 
-1 0 6:1 144:1 271:1 388:1 415:1 
-1 0 113:1 173:1 271:1 331:1 393:1 415:1 480:1 
-1 0 2:1 12:1 111:1 145:1 176:1 243:1 253:1 388:1 391:1 415:1 465:1 480:1 538:1 
-1 0 144:1 388:1 565:1 
-1 0 12:1 144:1 415:1 480:1 
-1 0 2:1 83:1 109:1 111:1 243:1 253:1 271:1 472:1 476:1 480:1 528:1 
-0.601219121077017 0 12:1 53:1 89:1 114:1 246:1 253:1 381:1 388:1 396:1 415:1 418:1 421:1 517:1 528:1 
-1 0 12:1 253:1 295:1 373:1 391:1 415:1 421:1 470:1 477:1 
-1 0 243:1 388:1 477:1 507:1 
-1 0.400836428117046 143:1 144:1 145:1 289:1 340:1 538:1 546:1 
-1 0 12:1 68:1 136:1 144:1 216:1 226:1 253:1 340:1 373:1 381:1 388:1 393:1 415:1 468:1 472:1 480:1 491:1 546:1 
-1 0 12:1 58:1 243:1 264:1 294:1 421:1 507:1 
-1 1 476:1 480:1 
-1 0 109:1 144:1 216:1 222:1 373:1 415:1 480:1 534:1 
-1 0 132:1 160:1 253:1 415:1 495:1 528:1 
-1 0 12:1 144:1 388:1 415:1 
-1 0 253:1 
-1 0 12:1 114:1 415:1 427:1 476:1 496:1 
-1 0.4431886163287057 12:1 58:1 104:1 175:1 391:1 
-1 0.01808389102252233 144:1 253:1 445:1 480:1 
-1 0 68:1 253:1 272:1 415:1 
-1 0 237:1 253:1 391:1 412:1 415:1 
-1 0 12:1 169:1 264:1 465:1 480:1 507:1 
-1 1 391:1 
-1 0 144:1 271:1 373:1 391:1 415:1 480:1 
-1 0 12:1 109:1 243:1 320:1 415:1 528:1 565:1 
-1 1 173:1 289:1 
-0.7944638920619996 0.5393209201149379 161:1 296:1 381:1 388:1 412:1 538:1 544:1 
-0.7682876274269149 0.1167062229488704 2:1 12:1 53:1 114:1 215:1 398:1 412:1 480:1 528:1 
-1 0 253:1 415:1 
-1 0 233:1 238:1 253:1 373:1 
-1 0 21:1 233:1 373:1 391:1 415:1 480:1 507:1 
-1 0 12:1 373:1 383:1 415:1 472:1 480:1 
-1 0.2280214900105859 12:1 161:1 197:1 253:1 257:1 412:1 
-1 0 421:1 
-1 0 72:1 114:1 412:1 496:1 
-1 1 
-1 0 144:1 391:1 480:1 
-1 0 383:1 421:1 477:1 
-1 0 331:1 412:1 507:1 
-0.9393612099616403 0 160:1 243:1 257:1 391:1 415:1 463:1 480:1 
-0 0.06665202889645898 12:1 83:1 94:1 104:1 111:1 114:1 144:1 296:1 528:1 550:1 
-1 1 12:1 91:1 238:1 373:1 472:1 
-1 0 222:1 373:1 412:1 
-1 0.1856703436184378 144:1 391:1 
-0.8725276354282554 0.00382851244069148 58:1 210:1 391:1 
-1 0 144:1 161:1 162:1 253:1 265:1 381:1 465:1 
-1 0 83:1 144:1 204:1 415:1 418:1 480:1 
-0.2987861832267132 0.6935884874786519 12:1 233:1 331:1 388:1 415:1 497:1 528:1 
-1 1 144:1 465:1 
-1 0 12:1 21:1 322:1 415:1 480:1 
-0.6206195185561089 0 144:1 243:1 253:1 291:1 330:1 391:1 412:1 415:1 480:1 
-1 0 237:1 253:1 330:1 388:1 415:1 480:1 
-1 0 243:1 253:1 388:1 391:1 415:1 421:1 476:1 
-0.4551860903186198 0.6172601755269064 53:1 89:1 109:1 243:1 296:1 331:1 441:1 445:1 480:1 
-1 0 12:1 83:1 253:1 276:1 287:1 391:1 415:1 
-1 0.9375107993937114 418:1 496:1 
-1 0 144:1 273:1 
-1 0 12:1 104:1 144:1 176:1 438:1 465:1 
-1 0 271:1 331:1 412:1 
-1 0 144:1 171:1 253:1 
-1 1 
-1 0 412:1 503:1 
-1 0 183:1 253:1 269:1 331:1 373:1 388:1 391:1 415:1 445:1 476:1 480:1 
-1 0 175:1 412:1 
-1 0 144:1 271:1 302:1 388:1 415:1 
-1 1 12:1 83:1 144:1 237:1 388:1 391:1 415:1 419:1 457:1 477:1 
-1 0 168:1 176:1 204:1 253:1 373:1 412:1 415:1 418:1 479:1 
-1 0 12:1 144:1 204:1 393:1 415:1 480:1 
-1 0 144:1 415:1 445:1 480:1 517:1 
-0.996136276160579 0 12:1 144:1 243:1 253:1 267:1 373:1 415:1 458:1 480:1 496:1 517:1 
-1 0.6044625184593578 12:1 144:1 163:1 412:1 418:1 472:1 563:1 
-1 0 12:1 144:1 168:1 243:1 253:1 269:1 294:1 320:1 377:1 476:1 480:1 
-1 0 12:1 83:1 257:1 412:1 
-1 0 12:1 72:1 122:1 253:1 257:1 258:1 269:1 331:1 391:1 415:1 421:1 480:1 
-1 0 12:1 144:1 210:1 243:1 272:1 415:1 480:1 507:1 
-1 0 12:1 109:1 144:1 243:1 258:1 480:1 
-0 0.07694331115756251 215:1 294:1 305:1 373:1 388:1 412:1 445:1 496:1 
-1 0 144:1 216:1 391:1 412:1 415:1 465:1 503:1 
-1 0 253:1 391:1 
-1 0 12:1 136:1 197:1 216:1 228:1 243:1 295:1 305:1 331:1 388:1 415:1 
-1 0.8694596433927406 67:1 144:1 253:1 
-0.3520420589306298 0 144:1 145:1 526:1 
-0.9905633522246566 0 104:1 222:1 253:1 294:1 373:1 412:1 477:1 503:1 546:1 565:1 
-0.9970122089352039 0 109:1 111:1 144:1 243:1 253:1 269:1 302:1 331:1 388:1 415:1 507:1 
-1 1 294:1 331:1 412:1 
-1 0 391:1 412:1 
-1 0 111:1 412:1 
-1 1 
-0.9660934912608651 0 12:1 144:1 215:1 257:1 258:1 271:1 391:1 491:1 528:1 
-1 0 136:1 144:1 197:1 253:1 415:1 480:1 546:1 
-0.5242209246642383 0 124:1 237:1 253:1 272:1 321:1 331:1 388:1 391:1 415:1 458:1 480:1 507:1 
-0 0.09181653798347818 12:1 111:1 114:1 257:1 265:1 294:1 341:1 472:1 480:1 528:1 550:1 
-1 0.2319277331912527 7:1 253:1 295:1 455:1 465:1 513:1 
-1 1 12:1 53:1 114:1 144:1 175:1 257:1 412:1 477:1 
-1 0 109:1 114:1 391:1 415:1 421:1 480:1 
-0.625658579844222 0 2:1 58:1 265:1 272:1 320:1 391:1 395:1 415:1 465:1 546:1 
-1 0 104:1 253:1 412:1 465:1 546:1 
-1 0 22:1 109:1 144:1 169:1 415:1 421:1 
-0.4685434008721038 0 144:1 162:1 171:1 176:1 331:1 415:1 445:1 503:1 
-0 0.1174836088577612 12:1 15:1 45:1 144:1 243:1 253:1 415:1 472:1 480:1 519:1 
-0.7699969742337429 0 12:1 189:1 220:1 310:1 415:1 496:1 507:1 542:1 
-1 1 465:1 
-0.4785771780695092 0 56:1 144:1 269:1 410:1 415:1 480:1 528:1 550:1 
-1 1 114:1 161:1 320:1 
-1 0 12:1 135:1 253:1 383:1 415:1 418:1 472:1 
-1 0 114:1 465:1 
-0.7596055340808994 0 111:1 175:1 238:1 412:1 415:1 455:1 477:1 503:1 550:1 
-1 1 53:1 144:1 388:1 465:1 
-1 0 415:1 480:1 544:1 
-1 0 2:1 84:1 109:1 144:1 253:1 257:1 371:1 391:1 415:1 480:1 496:1 519:1 
-0.5333968010070042 0 84:1 291:1 393:1 513:1 
-1 0 12:1 104:1 145:1 465:1 
-1 0 253:1 373:1 388:1 415:1 477:1 
-0.9221536779333018 0.01434979223987134 51:1 112:1 144:1 178:1 253:1 286:1 314:1 331:1 332:1 381:1 388:1 391:1 401:1 507:1 
-1 0 253:1 480:1 
-0.7105300874419455 0 104:1 109:1 144:1 243:1 264:1 304:1 391:1 412:1 507:1 519:1 544:1 
-1 0 412:1 419:1 445:1 
-1 0 58:1 383:1 415:1 458:1 480:1 
-0.09041434235341471 0 173:1 243:1 294:1 320:1 391:1 415:1 480:1 507:1 
-1 0 12:1 144:1 257:1 383:1 391:1 415:1 472:1 476:1 
-1 1 144:1 
-1 0 12:1 195:1 480:1 
-1 0 12:1 223:1 253:1 258:1 310:1 335:1 415:1 
-0.1054127431204315 0 2:1 12:1 109:1 144:1 145:1 197:1 243:1 253:1 373:1 381:1 445:1 468:1 507:1 519:1 530:1 
-1 0 2:1 144:1 197:1 243:1 253:1 344:1 373:1 391:1 415:1 445:1 
-1 0 144:1 145:1 257:1 
-1 0 253:1 388:1 415:1 477:1 499:1 
-1 0 144:1 215:1 257:1 331:1 480:1 
-1 0 12:1 84:1 144:1 193:1 253:1 257:1 415:1 477:1 480:1 
-1 0 21:1 243:1 388:1 415:1 418:1 480:1 528:1 
-1 0 144:1 243:1 331:1 373:1 388:1 415:1 445:1 480:1 
-0.1079012080983133 0 156:1 174:1 176:1 215:1 238:1 253:1 391:1 412:1 472:1 528:1 
-1 0 144:1 243:1 253:1 373:1 
-1 0 12:1 257:1 412:1 
-1 0 114:1 169:1 458:1 476:1 
-0 0.2783115166483085 12:1 144:1 305:1 388:1 415:1 421:1 480:1 497:1 
-1 0.265584842648281 197:1 253:1 415:1 477:1 480:1 
-1 0 2:1 12:1 238:1 388:1 415:1 458:1 507:1 
-1 0 144:1 391:1 480:1 
-1 0 12:1 144:1 233:1 388:1 519:1 
-1 0 12:1 144:1 169:1 476:1 507:1 
-1 0 12:1 83:1 109:1 144:1 223:1 253:1 258:1 388:1 415:1 480:1 
-0 0.4461629535971042 12:1 296:1 382:1 410:1 415:1 
-1 0 144:1 480:1 
-1 0 412:1 523:1 
-1 0 12:1 109:1 127:1 320:1 331:1 393:1 415:1 472:1 480:1 
-1 0 144:1 195:1 243:1 415:1 480:1 
-1 0 12:1 144:1 243:1 257:1 371:1 388:1 391:1 415:1 458:1 465:1 476:1 480:1 
-1 0 243:1 253:1 331:1 415:1 445:1 
-1 0 12:1 83:1 109:1 144:1 228:1 243:1 253:1 419:1 458:1 507:1 
-0.3960853807346902 0 12:1 240:1 243:1 258:1 391:1 465:1 
-1 0 104:1 109:1 113:1 243:1 253:1 331:1 388:1 412:1 465:1 
-1 0 12:1 72:1 109:1 111:1 412:1 415:1 480:1 
-1 0 4:1 144:1 169:1 320:1 388:1 391:1 415:1 507:1 
-1 0.0443980828404175 12:1 144:1 161:1 253:1 477:1 507:1 
-1 1 
-1 0 12:1 83:1 144:1 197:1 243:1 253:1 304:1 373:1 415:1 477:1 
-1 0 109:1 135:1 144:1 240:1 391:1 418:1 421:1 472:1 
-0.3243796979175914 0 12:1 84:1 144:1 222:1 243:1 253:1 331:1 340:1 388:1 415:1 472:1 480:1 
-1 0 2:1 12:1 21:1 144:1 253:1 331:1 388:1 415:1 507:1 
-1 0 12:1 83:1 144:1 152:1 155:1 253:1 415:1 
-1 0 38:1 144:1 243:1 253:1 391:1 415:1 480:1 
-1 0.09755432671419405 369:1 415:1 528:1 
-0.1887782783564224 0 109:1 320:1 388:1 391:1 415:1 458:1 507:1 
-1 0 144:1 388:1 391:1 415:1 445:1 480:1 
-1 1 45:1 53:1 388:1 
-1 0 114:1 144:1 222:1 412:1 
-0.4410151295879526 0.1794235340801774 12:1 53:1 144:1 145:1 238:1 253:1 273:1 438:1 465:1 
-1 0 144:1 415:1 430:1 465:1 480:1 
-1 0 421:1 477:1 491:1 507:1 
-1 0 109:1 113:1 144:1 187:1 243:1 253:1 264:1 331:1 373:1 388:1 415:1 480:1 496:1 503:1 
-1 0 12:1 175:1 415:1 418:1 477:1 
-1 1 12:1 243:1 381:1 415:1 472:1 
-1 0 243:1 253:1 373:1 415:1 480:1 546:1 
-1 1 415:1 465:1 
-1 0.009752693862335803 480:1 
-1 0 12:1 98:1 144:1 169:1 331:1 339:1 391:1 412:1 415:1 
-1 0 109:1 253:1 388:1 528:1 
-1 0 12:1 109:1 144:1 204:1 331:1 415:1 472:1 480:1 
-1 0.1195116403111162 12:1 104:1 144:1 169:1 243:1 273:1 294:1 465:1 
-1 0 144:1 446:1 
-1 0 140:1 144:1 253:1 412:1 415:1 465:1 480:1 495:1 
-0.7127276845332727 0 12:1 58:1 197:1 373:1 415:1 480:1 
-0.3193073779149542 0 160:1 310:1 388:1 415:1 495:1 517:1 
-1 1 
-1 1 
-1 1 12:1 391:1 421:1 457:1 477:1 
-1 1 253:1 289:1 314:1 331:1 472:1 
-1 0 111:1 
-1 0 113:1 305:1 415:1 480:1 
-1 0 144:1 253:1 388:1 415:1 480:1 
-1 0 144:1 243:1 388:1 415:1 477:1 480:1 
-1 0 12:1 238:1 388:1 415:1 418:1 472:1 
-0 0.2568765110170474 12:1 197:1 296:1 517:1 
-1 0 12:1 
-1 0 238:1 253:1 320:1 391:1 402:1 415:1 480:1 
-1 0.06325373946440858 12:1 83:1 272:1 391:1 393:1 477:1 480:1 
-1 0.02177465503154669 160:1 197:1 253:1 388:1 415:1 473:1 480:1 
-1 0.06292107873461236 12:1 72:1 103:1 243:1 253:1 269:1 321:1 340:1 371:1 373:1 415:1 465:1 507:1 517:1 
-0.5641477209026889 0.6389132574517348 12:1 45:1 144:1 243:1 269:1 331:1 381:1 472:1 
-1 0 144:1 271:1 388:1 445:1 480:1 507:1 
-1 0 144:1 388:1 480:1 
-0.2727165688205511 0 253:1 259:1 391:1 415:1 480:1 513:1 
-1 0 6:1 144:1 243:1 253:1 391:1 415:1 480:1 517:1 
-1 0.160251733080736 197:1 415:1 419:1 476:1 
-1 0 12:1 168:1 237:1 253:1 388:1 415:1 465:1 560:1 
-1 0 144:1 145:1 366:1 
-1 1 
-0.5848476108101155 0 11:1 12:1 144:1 253:1 331:1 373:1 388:1 415:1 421:1 472:1 517:1 519:1 
-1 0.6860051344804281 12:1 162:1 176:1 197:1 223:1 495:1 517:1 546:1 
-1 1 175:1 
-1 0 144:1 243:1 373:1 441:1 
-1 0 253:1 373:1 388:1 
-0.1466827337103897 0 12:1 109:1 197:1 222:1 238:1 415:1 
-1 0 144:1 253:1 480:1 
-1 0 12:1 253:1 391:1 517:1 
-1 0 12:1 331:1 371:1 415:1 419:1 480:1 
-1 0 144:1 253:1 444:1 465:1 
-1 0.1781246717293113 12:1 53:1 83:1 114:1 144:1 195:1 253:1 391:1 500:1 503:1 
-1 0 331:1 391:1 
-1 0.5040647133946633 12:1 215:1 243:1 472:1 
-1 0.6973921667138124 20:1 109:1 161:1 183:1 331:1 445:1 546:1 
-0.9519596441630597 0 12:1 144:1 331:1 415:1 507:1 548:1 
-1 0.4809685193242038 12:1 40:1 111:1 135:1 144:1 169:1 209:1 243:1 415:1 546:1 
-0.8640010910292699 0 2:1 12:1 58:1 109:1 215:1 243:1 257:1 335:1 373:1 388:1 391:1 415:1 499:1 
-1 0.5896782348180949 12:1 144:1 477:1 479:1 507:1 534:1 
-1 0 331:1 388:1 
-0.5824215278344164 0.03243013450972465 2:1 12:1 17:1 109:1 253:1 289:1 472:1 477:1 480:1 
-1 0 109:1 243:1 331:1 381:1 388:1 415:1 421:1 465:1 472:1 477:1 480:1 546:1 
-1 1 330:1 
-1 0 12:1 109:1 114:1 135:1 144:1 163:1 169:1 185:1 222:1 391:1 412:1 415:1 480:1 538:1 546:1 
-1 0.09506395321656938 109:1 144:1 197:1 243:1 472:1 480:1 
-1 1 
-1 0 144:1 237:1 391:1 412:1 465:1 
-0.1780545290123932 0 12:1 104:1 109:1 114:1 253:1 265:1 371:1 393:1 412:1 415:1 418:1 
-1 0 12:1 114:1 144:1 169:1 412:1 465:1 
-1 0.8729725270913911 109:1 114:1 153:1 209:1 258:1 391:1 393:1 503:1 546:1 
-0 1 45:1 381:1 412:1 415:1 472:1 476:1 477:1 507:1 519:1 
-1 0 144:1 253:1 383:1 388:1 391:1 480:1 
-1 0.09317944610748222 238:1 294:1 412:1 
-1 0.1835641056732016 415:1 
-0.6517586449767686 0 12:1 109:1 144:1 155:1 222:1 227:1 243:1 373:1 388:1 465:1 480:1 503:1 513:1 546:1 
-1 0 2:1 12:1 72:1 114:1 143:1 243:1 320:1 412:1 546:1 
-1 1 12:1 415:1 480:1 538:1 
-1 0 243:1 331:1 388:1 415:1 
-0.007759290186177751 0 12:1 121:1 135:1 243:1 291:1 295:1 415:1 450:1 465:1 472:1 
-1 0 12:1 104:1 114:1 373:1 388:1 479:1 496:1 
-1 0.5257445674314913 109:1 269:1 272:1 303:1 320:1 381:1 421:1 480:1 546:1 
-1 0 12:1 253:1 412:1 507:1 
-1 0 67:1 144:1 243:1 415:1 
-1 0 109:1 253:1 291:1 503:1 505:1 
-1 0 253:1 314:1 415:1 465:1 
-1 0 83:1 144:1 253:1 331:1 507:1 
-1 0.0377507324452643 144:1 161:1 243:1 331:1 388:1 415:1 445:1 
-1 0 12:1 412:1 
-0.7993325344763463 0 12:1 94:1 143:1 144:1 269:1 294:1 295:1 331:1 393:1 418:1 480:1 513:1 550:1 
-1 0 83:1 111:1 144:1 271:1 
-1 0.04490704584414863 144:1 243:1 296:1 335:1 376:1 393:1 415:1 465:1 480:1 
-1 0 111:1 144:1 296:1 304:1 480:1 
-1 0.1561272215720136 33:1 109:1 495:1 
-1 0 144:1 176:1 412:1 
-1 0 144:1 253:1 388:1 391:1 476:1 480:1 
-1 0.3793943798860679 169:1 295:1 
-1 0 173:1 243:1 528:1 
-1 0 109:1 243:1 253:1 269:1 320:1 393:1 455:1 476:1 480:1 
-1 0 2:1 391:1 415:1 507:1 
-1 0 213:1 415:1 480:1 
-1 0 12:1 257:1 326:1 331:1 341:1 
-0.132039944517835 0 243:1 388:1 415:1 421:1 454:1 
-1 0 12:1 109:1 238:1 445:1 477:1 
-1 0 253:1 330:1 365:1 415:1 
-1 0 12:1 94:1 253:1 271:1 294:1 330:1 391:1 415:1 418:1 495:1 546:1 
-1 1 2:1 111:1 294:1 528:1 
-1 0 12:1 144:1 388:1 415:1 480:1 
-1 0 12:1 144:1 253:1 445:1 480:1 528:1 
-1 0 238:1 253:1 415:1 477:1 
-1 1 480:1 528:1 
-1 0 238:1 253:1 373:1 
-1 0 12:1 114:1 175:1 253:1 465:1 480:1 517:1 519:1 
-1 0 13:1 253:1 480:1 
-1 1 
-1 0 144:1 215:1 253:1 257:1 331:1 373:1 388:1 415:1 507:1 
-1 0 83:1 412:1 419:1 496:1 
-1 0 124:1 222:1 331:1 381:1 412:1 458:1 507:1 517:1 528:1 
-1 0 12:1 168:1 273:1 507:1 
-1 0 144:1 381:1 412:1 421:1 472:1 480:1 
-1 1 
-1 0.1135874418579842 2:1 12:1 248:1 320:1 388:1 391:1 415:1 418:1 420:1 480:1 
-0.6159543209250391 0 12:1 160:1 168:1 175:1 197:1 271:1 296:1 373:1 412:1 415:1 449:1 454:1 
-1 1 294:1 331:1 412:1 457:1 
-1 0 144:1 253:1 290:1 391:1 480:1 526:1 
-1 0 12:1 104:1 114:1 173:1 271:1 546:1 
-1 0 12:1 83:1 91:1 144:1 210:1 
-0.7872514411768439 0 109:1 111:1 291:1 331:1 373:1 391:1 415:1 480:1 
-1 0 253:1 415:1 
-1 0 144:1 373:1 415:1 480:1 
-1 0 197:1 253:1 391:1 415:1 458:1 480:1 507:1 
-1 0 114:1 144:1 175:1 528:1 
-1 0 12:1 104:1 144:1 162:1 331:1 412:1 479:1 517:1 
-1 1 144:1 373:1 
-1 0.147796574060314 12:1 83:1 109:1 
-1 0 12:1 68:1 144:1 161:1 189:1 210:1 253:1 388:1 415:1 445:1 
-0 0.1312082063031245 61:1 104:1 109:1 339:1 391:1 415:1 418:1 477:1 
-1 0.1616176376553413 144:1 253:1 382:1 480:1 507:1 
-1 0 169:1 243:1 253:1 269:1 320:1 340:1 373:1 415:1 455:1 476:1 517:1 
-1 0.508507599387649 144:1 176:1 465:1 528:1 
-0.2185155125272719 0 12:1 104:1 144:1 257:1 329:1 331:1 388:1 418:1 480:1 540:1 
-0.1129052146741051 0 70:1 121:1 412:1 415:1 
-1 0.4477200610480109 144:1 476:1 480:1 
-1 0 12:1 253:1 415:1 480:1 
-1 1 412:1 495:1 
-1 0 114:1 115:1 197:1 253:1 295:1 528:1 
-1 0 12:1 144:1 176:1 253:1 388:1 391:1 445:1 458:1 507:1 
-1 0 109:1 269:1 331:1 391:1 415:1 421:1 465:1 503:1 538:1 
-1 1 546:1 
-1 0.5746070971204261 175:1 271:1 335:1 418:1 
-0.2796712898159699 0 12:1 20:1 111:1 144:1 197:1 253:1 331:1 388:1 412:1 419:1 477:1 480:1 
-1 1 144:1 391:1 465:1 477:1 480:1 
-1 0 12:1 109:1 253:1 391:1 415:1 
-1 0 114:1 412:1 546:1 
-1 0 169:1 391:1 412:1 415:1 503:1 
-1 0.404200012517268 257:1 412:1 479:1 495:1 546:1 
-1 0.5666808107001909 144:1 185:1 243:1 253:1 307:1 373:1 388:1 415:1 
-1 1 253:1 418:1 457:1 
-0.4579070253519965 0.01254484627086052 204:1 291:1 331:1 415:1 465:1 520:1 528:1 534:1 
-1 1 144:1 528:1 
-1 1 
-1 0 135:1 144:1 243:1 252:1 258:1 391:1 415:1 480:1 
-0 1 53:1 243:1 291:1 331:1 388:1 418:1 476:1 480:1 517:1 
-1 0 253:1 
-1 0 72:1 144:1 412:1 415:1 465:1 507:1 546:1 
-0.9396166232325217 0 2:1 58:1 144:1 253:1 415:1 445:1 465:1 477:1 480:1 519:1 
-1 0 12:1 136:1 144:1 195:1 233:1 253:1 294:1 331:1 391:1 480:1 507:1 
-1 0 144:1 253:1 291:1 295:1 335:1 465:1 
-1 0 2:1 144:1 388:1 391:1 507:1 517:1 
-1 0.1800833661578318 144:1 230:1 373:1 415:1 480:1 528:1 538:1 
-1 0 12:1 210:1 507:1 
-1 0 217:1 480:1 
-1 0 173:1 215:1 253:1 391:1 393:1 415:1 476:1 480:1 
-1 0 109:1 175:1 253:1 331:1 
-1 0.4070052023661703 12:1 458:1 475:1 550:1 
-1 0 253:1 388:1 415:1 
-1 0 12:1 109:1 144:1 253:1 472:1 519:1 
-1 1 
-1 0 72:1 124:1 173:1 253:1 412:1 415:1 477:1 480:1 503:1 
-1 0.2869415592239015 104:1 145:1 465:1 
-1 0 383:1 415:1 480:1 
-1 0 421:1 
-1 0 253:1 412:1 458:1 
-1 0 109:1 243:1 295:1 415:1 468:1 480:1 507:1 
-1 0 83:1 210:1 415:1 480:1 542:1 
-1 0 114:1 115:1 
-1 0 114:1 
-1 0 144:1 480:1 
-1 0 175:1 412:1 
-1 0 12:1 136:1 144:1 182:1 238:1 269:1 295:1 331:1 391:1 415:1 
-0.7296335745300458 0.1830240418811135 114:1 122:1 188:1 243:1 331:1 398:1 528:1 
-1 0 2:1 12:1 83:1 144:1 155:1 253:1 286:1 415:1 480:1 
-0.5027786311134781 0 72:1 104:1 226:1 308:1 310:1 331:1 388:1 412:1 419:1 465:1 496:1 546:1 
-1 0.7620118981449666 144:1 391:1 
-1 0 114:1 
-0.6270685022230602 0.5365697244335978 121:1 415:1 507:1 
-1 0 144:1 264:1 332:1 421:1 507:1 
-1 0 253:1 272:1 415:1 
-1 0 109:1 144:1 243:1 388:1 415:1 
-1 0.05419038128523305 144:1 275:1 391:1 477:1 540:1 
-1 0.06975269762626446 144:1 169:1 240:1 316:1 388:1 445:1 477:1 480:1 528:1 
-0.1517796284992394 0.185746115387269 1:1 253:1 296:1 415:1 476:1 
-1 0 144:1 257:1 412:1 
-1 1 388:1 465:1 
-0.4536066555356817 0 58:1 155:1 238:1 299:1 331:1 388:1 528:1 
-1 0 331:1 415:1 517:1 
-1 0 144:1 226:1 253:1 373:1 415:1 480:1 
-1 0.05004867604101474 83:1 272:1 276:1 373:1 415:1 476:1 480:1 507:1 
-1 0.206796650426527 253:1 
-1 0 188:1 
-1 0 12:1 144:1 253:1 265:1 331:1 347:1 412:1 503:1 528:1 
-1 0 12:1 144:1 215:1 391:1 415:1 495:1 546:1 
-0.8559199120865406 0 144:1 233:1 415:1 438:1 465:1 
-1 0 222:1 243:1 286:1 331:1 391:1 412:1 546:1 
-1 0 144:1 253:1 295:1 373:1 415:1 477:1 
-1 0 273:1 412:1 
-1 0 144:1 388:1 415:1 480:1 507:1 528:1 
-1 0.1250258783063875 153:1 243:1 253:1 373:1 412:1 415:1 418:1 419:1 480:1 
-1 0 238:1 253:1 388:1 415:1 480:1 
-1 1 144:1 
-0.5677377296172009 0 12:1 144:1 253:1 340:1 373:1 393:1 445:1 480:1 503:1 517:1 
-1 0 21:1 111:1 169:1 331:1 415:1 421:1 
-1 0 12:1 72:1 161:1 331:1 412:1 415:1 
-1 1 114:1 253:1 445:1 477:1 
-0.9684148040493972 0 12:1 171:1 507:1 
-1 0 104:1 253:1 388:1 
-1 0 144:1 412:1 
-1 0 391:1 415:1 
-1 0 243:1 253:1 341:1 391:1 415:1 480:1 
-1 0 2:1 12:1 109:1 144:1 381:1 415:1 472:1 480:1 534:1 
-1 0 388:1 415:1 
-1 0 104:1 114:1 143:1 
-1 0 84:1 144:1 276:1 393:1 415:1 421:1 465:1 472:1 528:1 
-1 0.5891374924564436 193:1 415:1 480:1 
-1 0 111:1 144:1 253:1 323:1 373:1 388:1 415:1 442:1 480:1 546:1 
-1 0 144:1 243:1 331:1 391:1 415:1 
-1 0 388:1 415:1 421:1 476:1 
-1 0 12:1 114:1 144:1 169:1 176:1 253:1 257:1 391:1 412:1 415:1 472:1 476:1 499:1 
-1 0 233:1 253:1 320:1 415:1 
-1 0 12:1 83:1 228:1 243:1 388:1 415:1 480:1 
-1 1 
-0.07889477466324196 0 104:1 226:1 388:1 415:1 477:1 480:1 
-1 0 144:1 517:1 
-1 0 12:1 265:1 391:1 415:1 465:1 534:1 546:1 557:1 
-1 0 1:1 144:1 197:1 243:1 507:1 
-1 0 233:1 
-0.9278753482456996 0 6:1 109:1 243:1 257:1 383:1 388:1 391:1 393:1 415:1 507:1 546:1 
-1 0 197:1 477:1 503:1 
-1 0.620330300520659 507:1 
-1 0.3477961292302494 68:1 88:1 145:1 272:1 320:1 
-0.6116155135045384 0 58:1 88:1 144:1 160:1 257:1 331:1 412:1 415:1 480:1 
-1 1 391:1 
-1 0 421:1 
-1 0 12:1 415:1 421:1 517:1 
-1 0 168:1 238:1 479:1 
-1 0 252:1 253:1 269:1 295:1 331:1 415:1 480:1 528:1 
-1 0 12:1 144:1 243:1 547:1 
-1 0 144:1 150:1 253:1 341:1 388:1 415:1 465:1 477:1 480:1 
-1 0 144:1 197:1 331:1 415:1 
-1 0.8627300373578848 12:1 72:1 215:1 331:1 472:1 
-1 0 144:1 253:1 259:1 373:1 415:1 480:1 
-1 0.2741577653802022 144:1 145:1 228:1 229:1 381:1 465:1 
-0.04410250591961393 0 238:1 273:1 388:1 415:1 
-1 0 12:1 144:1 176:1 238:1 257:1 412:1 
-1 0 12:1 391:1 415:1 519:1 
-1 0.7333534938954772 144:1 243:1 246:1 253:1 415:1 477:1 
-1 0 12:1 144:1 155:1 210:1 226:1 331:1 373:1 388:1 415:1 445:1 473:1 507:1 517:1 538:1 546:1 
-1 0 144:1 253:1 373:1 388:1 477:1 
-1 0 114:1 
-1 0 169:1 238:1 476:1 507:1 
-1 0 12:1 83:1 243:1 253:1 276:1 320:1 415:1 465:1 507:1 
-1 0 111:1 320:1 472:1 480:1 
-0.6574154357968961 0 144:1 145:1 190:1 240:1 243:1 295:1 391:1 415:1 421:1 468:1 
-1 0 84:1 144:1 331:1 393:1 415:1 445:1 
-1 0 144:1 391:1 415:1 480:1 
-1 1 
-1 0 144:1 253:1 272:1 415:1 480:1 
-0 0.675474695126224 53:1 145:1 339:1 388:1 391:1 412:1 415:1 428:1 477:1 480:1 507:1 519:1 
-1 0.111431678807147 11:1 12:1 377:1 381:1 415:1 477:1 534:1 546:1 
-1 0 12:1 144:1 243:1 253:1 257:1 320:1 412:1 415:1 476:1 513:1 
-1 0 12:1 104:1 169:1 412:1 465:1 
-1 0 104:1 144:1 243:1 253:1 286:1 310:1 388:1 
-1 0 331:1 388:1 458:1 480:1 507:1 
-1 0 253:1 415:1 480:1 
-1 0 517:1 
-1 0 12:1 144:1 243:1 415:1 438:1 445:1 465:1 480:1 514:1 517:1 547:1 
-0.9412599575316061 0 173:1 253:1 258:1 269:1 391:1 445:1 
-0.2795919472894071 0.06569846855306756 217:1 224:1 253:1 476:1 
-1 0.05245707627960881 12:1 210:1 243:1 257:1 320:1 331:1 415:1 445:1 472:1 546:1 
-1 0 144:1 388:1 415:1 480:1 507:1 528:1 
-1 0 12:1 68:1 111:1 253:1 272:1 296:1 322:1 388:1 391:1 415:1 458:1 480:1 546:1 
-1 0 412:1 421:1 
-0.2833424109557785 0 12:1 109:1 189:1 331:1 388:1 415:1 
-1 0 2:1 
-1 0 2:1 12:1 176:1 458:1 528:1 538:1 
-0.1127610704817097 0 12:1 114:1 246:1 253:1 331:1 412:1 421:1 472:1 477:1 480:1 
-1 0 12:1 204:1 264:1 415:1 507:1 
-1 0 68:1 253:1 276:1 391:1 415:1 445:1 462:1 480:1 525:1 
-1 0 12:1 204:1 253:1 331:1 373:1 412:1 415:1 503:1 546:1 
-1 0 331:1 546:1 
-0 1 12:1 45:1 144:1 391:1 415:1 480:1 528:1 
-1 0 83:1 238:1 
-1 0 144:1 480:1 
-1 0 2:1 12:1 111:1 243:1 253:1 271:1 294:1 319:1 388:1 391:1 480:1 495:1 519:1 546:1 
-1 0 12:1 104:1 144:1 253:1 286:1 388:1 404:1 445:1 480:1 513:1 
-0.9441141651202724 0 144:1 145:1 253:1 388:1 391:1 418:1 480:1 
-1 0.7222940132934186 12:1 257:1 366:1 373:1 381:1 465:1 507:1 528:1 
-1 0 2:1 12:1 295:1 373:1 477:1 503:1 507:1 513:1 
-1 0.9383302422387693 83:1 114:1 391:1 
-1 0 12:1 253:1 415:1 465:1 477:1 
-0.01212965208011555 0.1575744907861386 12:1 58:1 114:1 175:1 253:1 294:1 373:1 418:1 477:1 
-1 0.01794024470273713 415:1 
-1 0 144:1 160:1 253:1 373:1 480:1 
-1 0.0002682991024898253 144:1 155:1 
-1 0 12:1 72:1 121:1 144:1 243:1 331:1 388:1 391:1 393:1 480:1 
-1 0 243:1 271:1 412:1 480:1 
-1 0 12:1 121:1 271:1 412:1 415:1 
-1 0 388:1 415:1 458:1 476:1 480:1 
-1 0 12:1 109:1 331:1 412:1 
-1 0 12:1 188:1 271:1 294:1 412:1 546:1 
-1 0 155:1 271:1 
-1 0.1463663742015862 243:1 412:1 445:1 
-1 0 12:1 
-1 0 2:1 237:1 253:1 388:1 412:1 419:1 421:1 
-1 0 388:1 393:1 415:1 
-1 1 83:1 253:1 
-1 0 145:1 
-1 0.126602537084034 144:1 160:1 175:1 197:1 226:1 320:1 412:1 465:1 495:1 519:1 546:1 
-1 0 12:1 238:1 253:1 300:1 472:1 
-1 0.3327263386739015 12:1 53:1 121:1 144:1 412:1 415:1 418:1 477:1 507:1 517:1 536:1 
-1 0.876783036656388 104:1 340:1 465:1 546:1 
-0.144785874894888 0 135:1 143:1 144:1 243:1 257:1 415:1 503:1 507:1 513:1 
-0.1264433272271225 0 144:1 173:1 253:1 257:1 289:1 331:1 391:1 507:1 
-1 1 
-1 0.2908646182027973 114:1 380:1 415:1 503:1 
-1 0 12:1 113:1 115:1 144:1 243:1 253:1 257:1 331:1 388:1 415:1 472:1 480:1 
-1 0.01663863367857238 12:1 97:1 168:1 193:1 243:1 269:1 272:1 319:1 381:1 415:1 465:1 472:1 480:1 
-1 0 226:1 331:1 412:1 415:1 507:1 547:1 
-1 0.005462040030866902 253:1 
-0 0.02183356664671743 195:1 229:1 253:1 412:1 421:1 477:1 479:1 519:1 
-1 0 12:1 412:1 427:1 
-1 0.001385301946745932 109:1 514:1 
-1 0 2:1 12:1 144:1 238:1 320:1 388:1 391:1 415:1 465:1 480:1 507:1 
-1 0.2093784674486513 88:1 165:1 391:1 412:1 421:1 
-1 1 
-0.2456292710703358 0.4258518293811819 34:1 114:1 197:1 331:1 373:1 391:1 412:1 415:1 455:1 503:1 507:1 538:1 
-1 0 144:1 388:1 415:1 
-1 1 104:1 
-1 0 12:1 193:1 331:1 388:1 391:1 415:1 499:1 
-1 0 253:1 391:1 415:1 
-1 0 145:1 
-1 0 72:1 243:1 253:1 412:1 546:1 
-1 1 144:1 
-1 0 237:1 438:1 458:1 
-1 0 388:1 415:1 
-0 0.6676513209679652 291:1 415:1 421:1 455:1 507:1 
-1 0 144:1 197:1 243:1 415:1 480:1 
-1 0 114:1 373:1 
-1 0 12:1 160:1 253:1 415:1 476:1 480:1 
-1 0 144:1 243:1 246:1 331:1 391:1 415:1 438:1 507:1 
-1 0 144:1 145:1 253:1 331:1 388:1 
-1 0 12:1 144:1 295:1 465:1 
-1 0 109:1 243:1 388:1 391:1 415:1 
-1 1 
-1 0 144:1 465:1 507:1 
-1 1 391:1 
-1 0.8342381705233385 320:1 415:1 
-1 0 114:1 412:1 
-1 0 53:1 109:1 135:1 258:1 305:1 331:1 381:1 388:1 415:1 480:1 507:1 
-1 0 253:1 499:1 
-1 0.1531395883469747 12:1 
-1 0 12:1 144:1 253:1 
-1 0 175:1 294:1 391:1 415:1 458:1 465:1 480:1 
-0.05973438298658361 0.2984450888930574 12:1 56:1 257:1 412:1 476:1 528:1 
-1 0.18618609751615 109:1 189:1 243:1 253:1 455:1 480:1 519:1 
-1 0 12:1 144:1 169:1 188:1 204:1 253:1 295:1 305:1 373:1 393:1 412:1 468:1 513:1 
-1 0 2:1 114:1 253:1 257:1 412:1 465:1 
-1 1 
-1 0 415:1 438:1 477:1 
-1 1 253:1 
-1 1 197:1 243:1 253:1 388:1 415:1 465:1 476:1 
-1 1 457:1 
-1 0 271:1 296:1 388:1 415:1 418:1 480:1 546:1 
-1 0 109:1 114:1 269:1 388:1 412:1 480:1 538:1 
-1 0.05434526039810961 136:1 253:1 257:1 289:1 412:1 415:1 416:1 465:1 519:1 
-1 0 21:1 144:1 388:1 391:1 513:1 
-1 0.4369710187859858 109:1 253:1 286:1 393:1 495:1 519:1 546:1 
-1 0 2:1 415:1 480:1 507:1 
-1 0 243:1 412:1 480:1 503:1 
-1 1 
-1 0 12:1 144:1 253:1 257:1 310:1 371:1 383:1 472:1 476:1 528:1 
-1 1 2:1 83:1 415:1 495:1 
-1 1 144:1 
-1 0 144:1 243:1 388:1 415:1 
-1 0.05974962453970895 253:1 391:1 
-0.1653855741825188 0 145:1 243:1 415:1 472:1 480:1 538:1 
-1 0 144:1 243:1 415:1 
-1 0 253:1 412:1 546:1 
-1 0 233:1 253:1 271:1 388:1 415:1 476:1 480:1 
-1 0 253:1 388:1 391:1 415:1 480:1 
-1 0 144:1 253:1 256:1 331:1 383:1 388:1 415:1 507:1 
-1 0 12:1 109:1 140:1 388:1 
-1 0 271:1 
-1 0 2:1 12:1 109:1 144:1 253:1 373:1 381:1 388:1 391:1 415:1 465:1 472:1 477:1 480:1 528:1 
-1 0.6177514755201744 143:1 388:1 
-1 0 144:1 291:1 476:1 480:1 
-1 1 
-1 0 12:1 121:1 144:1 243:1 391:1 480:1 495:1 517:1 
-1 0.3008844389213233 421:1 546:1 
-1 0 12:1 104:1 111:1 169:1 331:1 412:1 415:1 421:1 465:1 507:1 
-0.5734680480500618 0 111:1 197:1 243:1 248:1 294:1 331:1 412:1 480:1 546:1 
-1 0.3852232751209666 83:1 144:1 253:1 
-1 0 412:1 415:1 503:1 546:1 
-1 0 5:1 12:1 144:1 391:1 412:1 472:1 
-1 0 109:1 144:1 238:1 391:1 477:1 
-1 0 12:1 388:1 391:1 
-1 0.4926683736775572 253:1 
-1 0 21:1 243:1 388:1 479:1 
-1 0 104:1 238:1 
-1 1 
-1 0 135:1 144:1 445:1 513:1 
-0 0.03445290240980661 12:1 144:1 240:1 373:1 388:1 391:1 415:1 465:1 472:1 477:1 
-1 0 144:1 253:1 388:1 415:1 
-1 0 253:1 388:1 415:1 507:1 
-1 0 144:1 253:1 273:1 373:1 391:1 480:1 507:1 
-1 0 144:1 480:1 
-1 0 421:1 
-1 1 114:1 328:1 391:1 415:1 465:1 
-1 0 114:1 161:1 215:1 412:1 
-1 0 12:1 109:1 144:1 253:1 257:1 314:1 373:1 388:1 421:1 472:1 546:1 
-1 1 204:1 
-1 0 72:1 144:1 257:1 331:1 415:1 458:1 507:1 528:1 
-1 0 144:1 388:1 505:1 
-1 0 12:1 238:1 253:1 320:1 388:1 391:1 415:1 465:1 507:1 
-1 0 269:1 388:1 
-1 1 310:1 
-1 0 412:1 421:1 
-1 0 12:1 253:1 272:1 477:1 480:1 
-1 0.02257672251873842 12:1 144:1 415:1 445:1 
-1 0.1392668614898449 144:1 253:1 312:1 332:1 393:1 415:1 473:1 495:1 528:1 546:1 
-0.4632686338789535 0 233:1 458:1 507:1 
-1 0 2:1 12:1 169:1 176:1 204:1 253:1 257:1 340:1 354:1 415:1 465:1 
-0.126176828259217 0 6:1 331:1 388:1 528:1 
-1 0 145:1 304:1 
-1 0 144:1 257:1 412:1 415:1 445:1 477:1 
-1 0 144:1 178:1 243:1 415:1 418:1 480:1 
-1 0 144:1 253:1 373:1 415:1 476:1 480:1 
-1 0 83:1 144:1 314:1 320:1 418:1 507:1 546:1 
-0.3899779797637275 0 144:1 145:1 253:1 319:1 418:1 438:1 480:1 507:1 
-1 0 12:1 15:1 253:1 415:1 480:1 
-1 0 72:1 236:1 238:1 412:1 
-1 0 2:1 109:1 373:1 415:1 421:1 480:1 
-1 0 12:1 144:1 477:1 480:1 
-1 0 12:1 63:1 130:1 253:1 310:1 331:1 373:1 388:1 391:1 496:1 503:1 538:1 
-1 0 58:1 72:1 109:1 136:1 388:1 412:1 465:1 546:1 
-1 1 
-0.609641913690249 0 2:1 83:1 109:1 144:1 145:1 238:1 253:1 391:1 476:1 519:1 528:1 
-1 0 144:1 415:1 465:1 547:1 
-1 0 109:1 144:1 272:1 371:1 388:1 445:1 465:1 507:1 
-1 1 104:1 
-1 0 114:1 
-1 1 144:1 
-1 0 144:1 331:1 373:1 415:1 477:1 480:1 
-1 0 12:1 237:1 253:1 415:1 438:1 507:1 
-1 0 12:1 144:1 175:1 296:1 373:1 381:1 412:1 
-1 0 144:1 264:1 388:1 480:1 507:1 
-1 0.4545120911538074 391:1 415:1 
-1 0.6813073395492334 53:1 144:1 271:1 286:1 412:1 465:1 480:1 503:1 507:1 
-1 0 145:1 
-1 0 12:1 253:1 295:1 391:1 528:1 
-1 0 2:1 72:1 104:1 114:1 215:1 243:1 253:1 291:1 412:1 480:1 507:1 546:1 
-1 0 144:1 215:1 233:1 257:1 499:1 
-1 0 12:1 144:1 169:1 320:1 476:1 
-0.3511462802439091 0 83:1 124:1 144:1 291:1 314:1 340:1 373:1 415:1 480:1 
-1 0.1632833234810021 112:1 373:1 415:1 421:1 476:1 480:1 538:1 
-1 0 21:1 61:1 144:1 176:1 243:1 253:1 330:1 339:1 415:1 
-1 0 144:1 162:1 269:1 273:1 295:1 388:1 503:1 513:1 
-1 0.2128652614350435 34:1 383:1 391:1 412:1 
-1 0 144:1 217:1 243:1 253:1 415:1 477:1 480:1 
-0.688395690229733 0 12:1 109:1 144:1 161:1 169:1 243:1 331:1 412:1 415:1 421:1 472:1 503:1 
-1 0 12:1 68:1 144:1 373:1 415:1 
-1 0 144:1 243:1 253:1 276:1 388:1 415:1 476:1 
-1 0 2:1 12:1 144:1 233:1 253:1 391:1 465:1 507:1 
-0.5163667927972195 0 12:1 145:1 169:1 257:1 415:1 419:1 465:1 
-0 0.1042924406634412 137:1 265:1 476:1 480:1 534:1 
-1 0 2:1 114:1 155:1 412:1 415:1 418:1 503:1 
-1 0 104:1 112:1 253:1 
-0 0.1395993372301719 145:1 243:1 296:1 335:1 415:1 418:1 477:1 
-1 0 109:1 144:1 565:1 
-0.6514538091181975 0 24:1 109:1 144:1 182:1 253:1 257:1 415:1 465:1 507:1 
-0.5588320469715613 0 222:1 238:1 286:1 289:1 294:1 305:1 320:1 373:1 393:1 415:1 419:1 
-1 0 12:1 83:1 233:1 415:1 480:1 496:1 
-1 0 12:1 145:1 404:1 
-1 0 21:1 253:1 331:1 412:1 421:1 
-1 0 412:1 419:1 544:1 
-1 0 12:1 144:1 195:1 273:1 295:1 388:1 391:1 480:1 
-1 0.1308616794035616 333:1 
-1 0 173:1 415:1 
-0.624813742609785 0 12:1 144:1 265:1 412:1 
-1 0 144:1 233:1 253:1 391:1 
-1 0 144:1 507:1 
-1 0 109:1 240:1 253:1 391:1 393:1 421:1 471:1 495:1 
-1 0 12:1 109:1 144:1 169:1 373:1 415:1 458:1 472:1 480:1 
-1 -1 
-0.4161420859156882 -0.3987407333947942 197:1 198:1 243:1 321:1 412:1 415:1 
-1 -1 
-1 -1 161:1 173:1 294:1 
-1 -1 418:1 528:1 
-1 -1 144:1 328:1 477:1 480:1 538:1 
-1 -1 253:1 477:1 
-1 -1 
-1 -1 103:1 114:1 243:1 412:1 415:1 503:1 
-1 -1 2:1 12:1 373:1 457:1 
-1 -1 91:1 289:1 421:1 472:1 
-1 -1 12:1 495:1 
-1 -1 114:1 391:1 517:1 
-1 -1 53:1 388:1 418:1 477:1 480:1 
-0.9106140856574156 -0 415:1 457:1 465:1 
-0.9925668119098456 -0.869097087328086 336:1 
-1 -1 238:1 421:1 
-1 -1 53:1 83:1 114:1 145:1 415:1 465:1 497:1 507:1 
-1 -1 209:1 
-1 -1 144:1 331:1 388:1 412:1 421:1 507:1 517:1 546:1 
-0.1984139357173737 -0.3765047533628328 12:1 56:1 198:1 253:1 373:1 528:1 
-1 -1 
-1 -1 12:1 40:1 144:1 472:1 546:1 
-1 -1 
-1 -1 2:1 12:1 415:1 504:1 
-1 -1 373:1 
-1 -1 83:1 480:1 
-1 -1 12:1 53:1 83:1 144:1 415:1 
-1 -1 296:1 415:1 
-1 -1 144:1 391:1 
-1 -1 12:1 109:1 144:1 294:1 331:1 336:1 380:1 388:1 503:1 507:1 513:1 
-1 -1 12:1 114:1 197:1 253:1 331:1 391:1 472:1 550:1 
-1 -1 465:1 
-1 -1 
-1 -1 257:1 289:1 331:1 412:1 415:1 480:1 
-1 -1 12:1 104:1 153:1 286:1 415:1 
-1 -1 528:1 
-0 -0.8693922540484317 75:1 391:1 
-1 -1 243:1 388:1 
-1 -0 12:1 373:1 457:1 
-1 -1 
-1 -1 12:1 198:1 
-1 -1 253:1 
-1 -1 
-1 -1 53:1 
-0.7494515430481161 -0.5298198162461747 12:1 58:1 144:1 291:1 295:1 373:1 415:1 457:1 473:1 477:1 546:1 
-1 -1 12:1 144:1 257:1 294:1 472:1 507:1 546:1 
-0.7575700439627834 -0.7365534013845916 97:1 144:1 193:1 223:1 229:1 388:1 391:1 415:1 465:1 480:1 519:1 
-1 -0.690965075695176 111:1 144:1 163:1 253:1 328:1 407:1 465:1 546:1 
-1 -1 12:1 153:1 331:1 391:1 415:1 496:1 
-1 -1 145:1 253:1 340:1 465:1 476:1 
-0.793728666897621 -0 53:1 109:1 388:1 415:1 516:1 
-1 -1 
-1 -1 374:1 391:1 
-1 -1 
-1 -1 128:1 185:1 243:1 388:1 528:1 
-1 -1 175:1 243:1 
-1 -1 34:1 144:1 176:1 209:1 215:1 252:1 382:1 388:1 391:1 415:1 418:1 495:1 546:1 
-1 -1 
-1 -1 12:1 169:1 175:1 457:1 
-1 -1 465:1 
-1 -1 143:1 381:1 412:1 457:1 
-1 -0.8238651900898973 109:1 163:1 223:1 257:1 289:1 391:1 415:1 546:1 
-0.613542590184128 -1 303:1 415:1 497:1 519:1 
-1 -1 320:1 415:1 480:1 519:1 
-0.1690868423040203 -0.1466557124882458 412:1 457:1 468:1 
-1 -1 
-1 -1 161:1 311:1 391:1 
-0.6949812397616294 -0.06142393368371022 114:1 197:1 216:1 286:1 388:1 457:1 528:1 
-0.9927428497012971 -0.9973686847913739 280:1 
-1 -1 84:1 215:1 391:1 393:1 415:1 472:1 
-1 -1 516:1 
-1 -1 12:1 253:1 373:1 391:1 415:1 495:1 
-1 -1 12:1 20:1 114:1 122:1 144:1 253:1 307:1 331:1 391:1 412:1 415:1 477:1 538:1 
-1 -1 
-1 -1 519:1 
-1 -1 465:1 
-0.9429731128224602 -1 445:1 465:1 497:1 546:1 550:1 
-1 -1 104:1 144:1 415:1 465:1 472:1 483:1 528:1 
-1 -1 144:1 480:1 
-0.3941969825677926 -0.1040633360699639 12:1 111:1 326:1 391:1 457:1 495:1 546:1 
-1 -1 104:1 114:1 175:1 
-0.3476931049714114 -0 198:1 514:1 
-0.272483894050599 -0 415:1 457:1 465:1 
-1 -1 
-0.8528984691388458 -1 104:1 114:1 144:1 328:1 412:1 457:1 480:1 507:1 565:1 
-1 -1 12:1 476:1 
-0.5763763249772219 -0.7726344078095755 144:1 504:1 515:1 
-1 -1 253:1 
-1 -1 53:1 
-1 -1 
-0.329151968163759 -0 12:1 144:1 445:1 457:1 
-0.7553681146060356 -1 144:1 320:1 331:1 339:1 393:1 412:1 415:1 455:1 457:1 477:1 480:1 
-1 -0.9595991997561419 83:1 109:1 197:1 294:1 420:1 455:1 
-1 -1 12:1 246:1 272:1 345:1 419:1 465:1 480:1 
-1 -1 373:1 
-0 -0.0221311625533692 2:1 457:1 477:1 
-1 -0 53:1 75:1 114:1 144:1 258:1 465:1 
-0.007957076119804216 -1 45:1 
-1 -1 104:1 121:1 388:1 412:1 445:1 507:1 552:1 
-1 -0.9949733846491453 314:1 388:1 457:1 
-1 -1 
-1 -1 269:1 291:1 331:1 445:1 495:1 
-1 -1 418:1 528:1 
-1 -1 
-1 -1 243:1 253:1 320:1 388:1 415:1 476:1 
-1 -1 2:1 53:1 83:1 144:1 391:1 445:1 528:1 
-0 -0.1788400274061957 45:1 53:1 144:1 186:1 391:1 543:1 
-1 -1 58:1 477:1 
-1 -1 83:1 388:1 415:1 
-1 -1 67:1 
-1 -0 72:1 412:1 457:1 495:1 
-1 -1 197:1 
-1 -1 109:1 243:1 253:1 296:1 373:1 392:1 480:1 495:1 
-1 -1 477:1 
-1 -1 381:1 391:1 472:1 
-1 -1 45:1 253:1 391:1 
-0.9844934353694582 -1 45:1 53:1 72:1 144:1 331:1 381:1 480:1 538:1 
-1 -1 71:1 
-0.05050905789402323 -0.1270421233169367 198:1 415:1 528:1 
-1 -1 53:1 144:1 477:1 
-0.9474504837474014 -0.9028367386164527 200:1 330:1 465:1 
-0.5490565092351086 -0.5488651889714853 63:1 111:1 144:1 243:1 388:1 412:1 457:1 475:1 477:1 
-1 -1 465:1 
-1 -0.8718245772747146 280:1 
-1 -1 144:1 388:1 476:1 
-1 -1 
-0.8843304714730217 -0.9873545466533498 51:1 109:1 253:1 334:1 391:1 534:1 
-0 -0.5931484874339341 296:1 331:1 366:1 457:1 
-1 -1 75:1 144:1 243:1 257:1 331:1 381:1 412:1 418:1 465:1 479:1 538:1 546:1 
-1 -1 12:1 476:1 
-1 -1 477:1 528:1 
-1 -1 480:1 
-1 -0.6065306442307796 88:1 196:1 431:1 476:1 
-1 -1 388:1 
-1 -0.8217490821526614 12:1 53:1 144:1 253:1 267:1 472:1 
-1 -0.9661408835044163 200:1 
-1 -1 12:1 161:1 412:1 415:1 
-0.5630257938071654 -0 169:1 457:1 
-1 -0.8882966249253287 243:1 296:1 381:1 415:1 552:1 
-1 -1 253:1 477:1 
-0 -0.4750961177339877 88:1 253:1 516:1 
-0.9375329275101831 -1 144:1 175:1 204:1 310:1 457:1 
-1 -1 144:1 271:1 335:1 477:1 507:1 
-0.0005041307577084986 -1 45:1 109:1 297:1 
