svm_type c_svc
kernel_type linear
nr_class 3
total_sv 1027
rho -0.314339 -0.92773 -0.659189
label 0 1 2
probA -0.813898 -3.50098 -3.75444
probB -0.0211717 0.24488 0.381821
nr_sv 496 450 81
SV
0.3279194891930227 0 378:1 961:1 1126:1 2982:1 5138:1 
0.2355693524545261 0.03703018429188865 693:1 1019:1 1071:1 1271:1 1676:1 2480:1 2814:1 3189:1 3270:1 3311:1 3616:1 3801:1 4231:1 4992:1 5000:1 5643:1 5827:1 5832:1 
0.2022163313449903 0 882:1 1098:1 1188:1 1249:1 2532:1 3191:1 4581:1 5158:1 5639:1 
0.05298131013214796 0 11:1 237:1 577:1 1188:1 1337:1 1891:1 2503:1 2579:1 2709:1 3320:1 3374:1 3607:1 4089:1 4721:1 4838:1 5793:1 5832:1 
0.03220861092273586 0 775:1 1640:1 2398:1 2499:1 2560:1 2579:1 3483:1 3607:1 3616:1 3620:1 4127:1 4744:1 5612:1 
0.06376458135788113 0 577:1 2334:1 2412:1 2480:1 2740:1 3053:1 4395:1 5475:1 5639:1 6111:1 
0.07299547796069347 0 1926:1 1980:1 3543:1 
0.2318784631572583 0 739:1 824:1 1079:1 1976:1 2034:1 2692:1 3609:1 3647:1 4326:1 5174:1 
0.09547838713994475 0 140:1 424:1 1177:1 1976:1 3111:1 3370:1 4083:1 4905:1 5414:1 5832:1 6189:1 6546:1 6607:1 
0.1286163827806145 0 274:1 817:1 852:1 996:1 1393:1 1620:1 1858:1 2307:1 2449:1 2583:1 3189:1 3558:1 3654:1 4394:1 4992:1 5831:1 6557:1 
0.1940249889525567 0 1464:1 2495:1 2563:1 3324:1 4499:1 4905:1 5114:1 5639:1 5832:1 
1 0 359:1 1219:1 1976:1 2406:1 2579:1 3616:1 6619:1 
0.2148104297197163 0.06208994765455057 961:1 1582:1 3722:1 4972:1 5886:1 6602:1 
0.1789657828946157 0 3607:1 6491:1 
0.1744200347242125 0.05199556797329142 852:1 1278:1 1307:1 1486:1 1976:1 2343:1 2450:1 2579:1 2632:1 3039:1 3330:1 3609:1 3616:1 3801:1 4028:1 4744:1 6619:1 
0.08538280166840707 0.001719272928317457 468:1 577:1 701:1 820:1 1956:1 1976:1 2106:1 2255:1 2307:1 2579:1 2690:1 3509:1 3616:1 3788:1 4353:1 4482:1 4855:1 5438:1 5448:1 5832:1 6025:1 6038:1 6321:1 6334:1 6388:1 
0.02507104797084433 0.04004416532903467 92:1 371:1 674:1 895:1 1219:1 2168:1 2255:1 2579:1 3307:1 3616:1 4276:1 4336:1 4424:1 4946:1 4950:1 5690:1 5832:1 6088:1 6284:1 6290:1 6625:1 
0.007718896054622329 0 110:1 783:1 794:1 820:1 852:1 993:1 1241:1 1976:1 2269:1 2579:1 2940:1 3517:1 3607:1 4000:1 4293:1 4691:1 5254:1 5639:1 5989:1 
0.0762539687535735 0 429:1 494:1 597:1 844:1 852:1 877:1 1179:1 1337:1 1976:1 2628:1 3002:1 3607:1 3609:1 3616:1 4181:1 4420:1 4545:1 4992:1 5017:1 5263:1 5431:1 5713:1 5832:1 5904:1 6327:1 6334:1 
0.1384479623666694 0 217:1 794:1 825:1 1008:1 1144:1 1976:1 2214:1 2327:1 2788:1 3616:1 3759:1 4455:1 4911:1 5066:1 5154:1 5308:1 5639:1 6086:1 
0.3517923945536876 0.3593655383412553 337:1 783:1 1004:1 3218:1 3267:1 5096:1 5827:1 6464:1 6581:1 
0.1225407223515627 0 852:1 1341:1 1859:1 1976:1 3209:1 5095:1 5147:1 5290:1 5639:1 5832:1 6565:1 
0.1502942813853917 0 449:1 852:1 911:1 1337:1 2225:1 2279:1 2539:1 2753:1 3412:1 3501:1 3566:1 3950:1 5207:1 6088:1 6365:1 
0.03670965037812837 0 1038:1 1126:1 1569:1 1667:1 2174:1 2257:1 2579:1 3477:1 3478:1 3703:1 4591:1 4947:1 5502:1 5639:1 5827:1 5891:1 
0.07214014287451644 0.07582607273276878 1258:1 1393:1 1858:1 2480:1 2702:1 6111:1 6430:1 
0.2877863700493123 0 1188:1 2579:1 4181:1 4838:1 5793:1 5895:1 
0.09803989057980672 0.1311065342100321 675:1 1976:1 2969:1 3537:1 3616:1 3647:1 4272:1 4558:1 5167:1 6334:1 6491:1 
0 0.003137188518292031 416:1 2255:1 2374:1 2579:1 3607:1 4326:1 4972:1 5886:1 
0.1455665352365474 0 1215:1 1390:1 1739:1 2579:1 3320:1 5639:1 5832:1 6130:1 6547:1 
0.5104575236418437 0.01438814946649773 577:1 1976:1 3332:1 3377:1 5334:1 5832:1 
0 0.1007039625845684 359:1 416:1 1976:1 2205:1 2266:1 2410:1 2579:1 3616:1 3801:1 3933:1 5138:1 5827:1 
0.09413270841564214 0 711:1 852:1 1197:1 1322:1 1976:1 2579:1 3607:1 3665:1 3833:1 3893:1 3943:1 4384:1 4592:1 4972:1 5639:1 5779:1 5832:1 6006:1 
0.08537950545756773 0.07784849284898339 2010:1 2579:1 2601:1 3330:1 3600:1 3647:1 3801:1 4358:1 5328:1 5639:1 5796:1 5827:1 6333:1 
0.1147452624040675 0 599:1 983:1 1126:1 2159:1 2692:1 3652:1 4905:1 5639:1 5886:1 6285:1 
0 0.2823152746309721 1996:1 4326:1 
0.2610514621427522 0.0314831807645087 359:1 376:1 742:1 989:1 1219:1 1562:1 1739:1 1887:1 1976:1 2449:1 2480:1 2610:1 2620:1 3614:1 3620:1 3950:1 4530:1 4594:1 4905:1 5101:1 5639:1 6026:1 6089:1 6334:1 
0 0.3219395290299199 1980:1 
0.1555551370490425 0 627:1 852:1 961:1 1210:1 1917:1 2255:1 2463:1 2579:1 3511:1 3611:1 3969:1 4123:1 4475:1 5839:1 6464:1 
0.3636987752867175 0.05698525904299256 369:1 1416:1 1912:1 2583:1 3050:1 3189:1 3647:1 5954:1 6062:1 6581:1 
0.02120225217256001 0 1060:1 1976:1 2480:1 2702:1 4616:1 4810:1 
0.1177230889363755 0 274:1 332:1 521:1 538:1 734:1 961:1 1317:1 1725:1 1976:1 2034:1 2455:1 2579:1 2614:1 2993:1 3272:1 3461:1 3616:1 4249:1 4263:1 4437:1 4499:1 4585:1 4588:1 4854:1 5832:1 6412:1 
1 0.01776699428559357 3764:1 
0 0.02297571846225247 359:1 603:1 852:1 1219:1 2406:1 3220:1 3616:1 3764:1 3818:1 4744:1 6515:1 6619:1 
0.5618243236273551 1 3218:1 4428:1 
0.3654494857607951 0 390:1 4011:1 4733:1 5444:1 
0.1073210015003916 0 107:1 306:1 464:1 783:1 821:1 852:1 1337:1 1976:1 2229:1 2327:1 2469:1 3099:1 3542:1 3607:1 3616:1 3970:1 4091:1 4181:1 4992:1 5275:1 5392:1 5527:1 5639:1 6474:1 
0.1499934205692514 0.02174125228309447 230:1 359:1 820:1 1079:1 1219:1 1350:1 1976:1 2144:1 2271:1 2446:1 2480:1 3050:1 3607:1 3616:1 3620:1 3647:1 4024:1 4316:1 4719:1 5912:1 6457:1 
0.3348306686586021 0 1623:1 1858:1 1976:1 3002:1 3189:1 3403:1 4719:1 4905:1 5012:1 5658:1 5740:1 5832:1 6604:1 
0.1427187841581271 0 289:1 785:1 817:1 849:1 852:1 881:1 934:1 1079:1 1976:1 2189:1 2218:1 2573:1 2579:1 3189:1 3324:1 3418:1 3607:1 3737:1 3801:1 4024:1 4992:1 5639:1 5743:1 5832:1 5909:1 6097:1 6286:1 6334:1 6342:1 
0.1227360636203119 0 183:1 227:1 1638:1 1976:1 2579:1 2775:1 3607:1 3646:1 3801:1 4048:1 4261:1 4420:1 5832:1 
0.1026287671340148 0 337:1 791:1 794:1 820:1 1079:1 1197:1 2511:1 2579:1 3052:1 4570:1 4961:1 6501:1 6609:1 
0.0926178386445749 0.01224847562024893 48:1 100:1 666:1 852:1 1090:1 1502:1 1503:1 1976:1 2311:1 2480:1 2560:1 2579:1 2628:1 2661:1 2744:1 2868:1 3159:1 3162:1 3705:1 3933:1 4946:1 5639:1 5827:1 6334:1 6381:1 
0.4544448604606715 0.02737439918932937 496:1 794:1 852:1 1179:1 1416:1 2019:1 2031:1 2218:1 2446:1 2579:1 2720:1 2884:1 3189:1 3403:1 3818:1 4001:1 4004:1 4263:1 4485:1 4992:1 5912:1 
0.08937445402227996 0 406:1 852:1 1316:1 1416:1 1592:1 1630:1 1831:1 2357:1 2579:1 2687:1 2754:1 3272:1 3325:1 3616:1 4181:1 4287:1 4333:1 4946:1 5193:1 5639:1 5643:1 5665:1 5678:1 5768:1 5777:1 5940:1 6088:1 6236:1 6464:1 6662:1 
0.15245385635884 0 337:1 359:1 783:1 821:1 1337:1 1349:1 1580:1 1950:1 2034:1 2255:1 2579:1 3099:1 3564:1 3616:1 3794:1 4128:1 4421:1 4646:1 4864:1 5204:1 5639:1 6058:1 6190:1 
0.002374861413891899 0 245:1 562:1 794:1 842:1 900:1 961:1 1049:1 1282:1 1310:1 1629:1 1976:1 2159:1 2255:1 2579:1 3091:1 3419:1 3933:1 3945:1 4046:1 4181:1 4364:1 4426:1 4992:1 5393:1 5639:1 5654:1 5832:1 5950:1 6111:1 
0.2080612913373781 0 1976:1 2129:1 2713:1 2801:1 3607:1 3933:1 5625:1 5832:1 5954:1 6439:1 
0.2187369043837552 0 3870:1 6180:1 6334:1 
0.08015212711606313 0 419:1 820:1 993:1 1617:1 1944:1 1976:1 2101:1 2189:1 2343:1 2534:1 2547:1 2944:1 3321:1 3349:1 3609:1 3997:1 4181:1 4698:1 5639:1 5827:1 6334:1 6464:1 
0.2534085129198683 0.01747484628229193 303:1 359:1 852:1 959:1 1413:1 1976:1 2149:1 2207:1 2359:1 2689:1 2760:1 3174:1 3480:1 3616:1 4420:1 5832:1 6314:1 
0.2186303704805822 0 925:1 1858:1 2579:1 3039:1 3616:1 4011:1 5639:1 5677:1 5831:1 
0.5342295555561164 0.00378757645949159 2480:1 3609:1 5167:1 
0.2401185748325141 0 1466:1 2579:1 2684:1 5191:1 5639:1 5832:1 6342:1 
0.3292000469586502 0.03675295822676056 400:1 597:1 1976:1 5832:1 6561:1 
0.3243275133103236 0.1423256794735115 588:1 703:1 2449:1 2640:1 2674:1 3609:1 4376:1 5830:1 
0.02799458187870789 0.02945855918405686 910:1 993:1 1362:1 1416:1 1549:1 1786:1 1976:1 2010:1 2255:1 2257:1 2517:1 2579:1 2836:1 3332:1 3416:1 3616:1 3994:1 4171:1 4211:1 5713:1 5783:1 5832:1 5839:1 5904:1 6626:1 6647:1 
0.0505541270053315 0 39:1 852:1 1179:1 2720:1 3757:1 4200:1 5236:1 5639:1 
0.1610563620937986 0 359:1 1041:1 1337:1 1539:1 1976:1 3169:1 3607:1 3726:1 4051:1 4181:1 4502:1 4992:1 5197:1 5538:1 5639:1 5765:1 5832:1 6229:1 
0.156813869203218 0 494:1 516:1 631:1 794:1 898:1 952:1 1337:1 2553:1 2760:1 2814:1 3607:1 3945:1 4267:1 4844:1 5639:1 6037:1 
0.3706037437308007 0 2388:1 3191:1 4376:1 5468:1 
0.09617861770321413 0 340:1 352:1 354:1 464:1 643:1 772:1 852:1 1079:1 1090:1 1337:1 1653:1 1976:1 2031:1 2255:1 2579:1 3082:1 3189:1 3616:1 3950:1 4024:1 4408:1 4810:1 5639:1 5832:1 6004:1 6327:1 6546:1 
1 0 2255:1 5193:1 6640:1 
0.1608173836473032 0 274:1 727:1 852:1 983:1 1179:1 2144:1 2332:1 2400:1 2446:1 2480:1 2595:1 3271:1 3296:1 3609:1 3623:1 3830:1 5193:1 5384:1 5431:1 5662:1 6663:1 
0.1999111607077247 0.002338020286993547 251:1 2830:1 3541:1 3647:1 4184:1 4744:1 4799:1 4992:1 5513:1 
0.2806137811925218 0.02013123094776511 583:1 1304:1 1887:1 1890:1 1976:1 2144:1 2189:1 3613:1 3915:1 5030:1 5639:1 6148:1 
0.1102760511975313 0 243:1 257:1 364:1 852:1 1008:1 1885:1 1976:1 1980:1 2484:1 3601:1 3616:1 4181:1 4910:1 5044:1 5449:1 5639:1 5826:1 5832:1 6280:1 
0.03720020773683317 0 2286:1 2579:1 3900:1 3970:1 4077:1 4294:1 4415:1 4493:1 4662:1 4673:1 4981:1 5283:1 5744:1 5832:1 5839:1 5843:1 5851:1 6464:1 
0.1600354283270298 0 1079:1 1671:1 2189:1 2579:1 2757:1 3304:1 3729:1 4024:1 4992:1 5236:1 5639:1 5839:1 
0.2352240675707758 0 237:1 1079:1 1976:1 3332:1 3501:1 5507:1 6557:1 
0.1759061684602539 0 57:1 359:1 1976:1 1980:1 2037:1 2492:1 2720:1 3445:1 4077:1 4810:1 5304:1 5832:1 6271:1 6416:1 
0.1362152440701292 0.02169970808398455 24:1 521:1 852:1 961:1 1179:1 2188:1 2480:1 3031:1 3054:1 3371:1 3607:1 5639:1 5931:1 5995:1 6016:1 
0.005909675862421743 0 737:1 1126:1 1612:1 2579:1 3655:1 5639:1 5832:1 5846:1 6461:1 6498:1 
0.0732106113796888 0 464:1 1842:1 3189:1 5193:1 6092:1 
0.1445937055814845 0.02452090752871295 821:1 1350:1 1976:1 3607:1 3863:1 3970:1 4095:1 
0.1441421034095487 0 402:1 521:1 652:1 794:1 852:1 993:1 1038:1 1337:1 1976:1 2255:1 2562:1 2579:1 3189:1 3234:1 3663:1 4413:1 4588:1 4704:1 4946:1 4972:1 5193:1 5257:1 5639:1 5890:1 5960:1 6357:1 6412:1 
0.3892931988118453 0.1276599955561304 1791:1 2449:1 4461:1 5104:1 
0.6495317227760309 0 176:1 359:1 448:1 577:1 1337:1 1858:1 2189:1 3050:1 3189:1 3607:1 3801:1 3928:1 4499:1 4992:1 
0.07816741979678148 0 507:1 1020:1 1071:1 1337:1 1349:1 1388:1 2068:1 2255:1 2480:1 2539:1 2579:1 2884:1 3384:1 3620:1 3875:1 4075:1 4301:1 5033:1 5639:1 5699:1 6334:1 
0.07906063523774955 0.02753473258159446 25:1 820:1 1349:1 1388:1 4057:1 4495:1 4844:1 4877:1 5832:1 
0.2134005711675227 0.04596117747639134 359:1 852:1 1976:1 2579:1 2884:1 3573:1 3616:1 3818:1 5051:1 5513:1 6465:1 6530:1 
0.2705231496165934 0 337:1 340:1 588:1 608:1 852:1 2255:1 2307:1 2579:1 3332:1 3373:1 3607:1 3609:1 3659:1 5304:1 6581:1 
0.2483160023611378 0.006616801028491516 303:1 380:1 577:1 725:1 937:1 1450:1 1852:1 1976:1 2579:1 3384:1 3607:1 4055:1 4263:1 5333:1 5832:1 5839:1 
0.1798721136756129 0 1501:1 2255:1 2449:1 3366:1 3620:1 4383:1 4905:1 6193:1 6491:1 6640:1 
0.1644936845393123 0.07897768668249773 4184:1 6395:1 
0.1873464237670397 0.06623664212504589 74:1 577:1 852:1 910:1 961:1 1090:1 1261:1 1337:1 1976:1 2039:1 2044:1 2073:1 2257:1 2546:1 2730:1 3183:1 3549:1 3616:1 3833:1 3968:1 4436:1 4462:1 5101:1 5294:1 5832:1 5985:1 6111:1 6416:1 6645:1 
0.1218093377424062 0 354:1 850:1 1079:1 1337:1 2189:1 2255:1 2357:1 2453:1 2579:1 3189:1 3833:1 4077:1 4499:1 4905:1 4946:1 5832:1 6583:1 
0.1950690251953187 0.0070086176139751 577:1 1865:1 1976:1 2205:1 2459:1 2709:1 4420:1 4992:1 5000:1 5133:1 5599:1 5832:1 
0.06293010822677862 0.0172608600622008 727:1 794:1 820:1 1976:1 2480:1 3237:1 4090:1 4946:1 5620:1 5631:1 
0.1280653756313617 0.03546214443093353 2435:1 2579:1 2749:1 2754:1 3114:1 3616:1 5438:1 5706:1 5832:1 5966:1 6517:1 
0.07962674485366 0 29:1 274:1 460:1 721:1 821:1 845:1 999:1 1976:1 2053:1 3607:1 3609:1 6088:1 6094:1 
0.6856495757957504 0 852:1 1887:1 2241:1 3145:1 3189:1 4004:1 5138:1 5513:1 5886:1 
0.3413058655791761 0.2586986289370478 1146:1 1976:1 2845:1 2947:1 
0.1392426535801418 0.06664488661600625 58:1 174:1 359:1 961:1 1465:1 1976:1 3189:1 3647:1 3798:1 3801:1 4376:1 4645:1 4892:1 
0.06248007647278124 0 562:1 608:1 852:1 910:1 961:1 977:1 1179:1 1622:1 2031:1 2255:1 2726:1 2756:1 3056:1 3189:1 3196:1 3609:1 3616:1 3898:1 5639:1 5717:1 
0.321347651639864 0 474:1 2034:1 2189:1 2255:1 3189:1 3555:1 3609:1 3647:1 4972:1 5174:1 
0.02865686097624097 0 1256:1 1349:1 1847:1 2255:1 2579:1 2898:1 3334:1 4905:1 5204:1 5236:1 6079:1 6386:1 
0.06111337137011791 0 293:1 352:1 464:1 487:1 820:1 821:1 852:1 863:1 1295:1 1672:1 1976:1 2031:1 2301:1 2579:1 2830:1 3095:1 3223:1 3420:1 3607:1 3609:1 4555:1 5527:1 5639:1 5832:1 5853:1 5886:1 6111:1 6334:1 
0.21688019830553 0 794:1 1079:1 1613:1 2400:1 2579:1 4124:1 
0.4524531953028544 0 274:1 521:1 1449:1 1912:1 1976:1 3050:1 3609:1 4701:1 6140:1 6668:1 
0.1159966647305223 0 282:1 597:1 634:1 794:1 1940:1 2255:1 2579:1 2982:1 3607:1 4610:1 4870:1 5351:1 5832:1 
0.06783609559581724 0.006601316811590274 189:1 1953:1 3548:1 3567:1 3814:1 3993:1 4538:1 4858:1 5712:1 5741:1 
0.02951755429969257 0.03317483278589704 124:1 910:1 1188:1 1683:1 1970:1 1976:1 2579:1 2916:1 2919:1 3233:1 3575:1 5532:1 5832:1 5886:1 6333:1 6642:1 
0.3829849359249527 0 1264:1 1614:1 4966:1 4992:1 
0.02255794753483967 0 226:1 318:1 794:1 1197:1 2032:1 2189:1 2453:1 2579:1 2984:1 3962:1 4344:1 4718:1 4992:1 5058:1 5330:1 5639:1 5744:1 5824:1 5832:1 6088:1 6280:1 6671:1 
0.6298368497656543 0.1080838344840253 177:1 351:1 890:1 1207:1 1764:1 2177:1 2189:1 3416:1 5030:1 5224:1 
0.2462843064738268 0 32:1 1486:1 1976:1 3189:1 3614:1 3690:1 4438:1 4972:1 5117:1 5149:1 6572:1 
0.2171735038873902 0.003877599692307609 917:1 1090:1 1739:1 1858:1 1976:1 2579:1 3019:1 3280:1 3579:1 3582:1 3607:1 3616:1 4179:1 4877:1 4910:1 5006:1 5827:1 5832:1 
0.4679674804966216 0.1024542206144493 794:1 3767:1 5101:1 5400:1 5828:1 6581:1 
0.08446824192730683 0 1125:1 1550:1 1986:1 2579:1 3585:1 5639:1 
0.1221964779618226 0 237:1 577:1 1125:1 1976:1 2205:1 2724:1 4181:1 4977:1 5196:1 5639:1 5832:1 
0.1275849982600458 0 359:1 577:1 852:1 1012:1 1671:1 1976:1 2057:1 3182:1 3607:1 3616:1 3950:1 3959:1 4299:1 4327:1 4890:1 5211:1 5533:1 5839:1 6416:1 6464:1 
0.05873522739128751 0 359:1 734:1 794:1 1243:1 1367:1 1562:1 1976:1 2062:1 2305:1 2579:1 2905:1 2933:1 5146:1 5588:1 5639:1 5822:1 5895:1 6088:1 
0.04622803797174425 0 281:1 359:1 390:1 577:1 1219:1 1322:1 1976:1 2480:1 2556:1 3145:1 5639:1 6416:1 
1 1 
0.1952352523022662 0.040311771630367 820:1 1038:1 2181:1 2579:1 5827:1 6463:1 6618:1 
0.001111788806495762 0 82:1 162:1 232:1 455:1 781:1 852:1 910:1 1179:1 1247:1 1945:1 1976:1 2021:1 2027:1 2546:1 2579:1 2632:1 2720:1 3512:1 3607:1 3616:1 5832:1 5839:1 6003:1 6204:1 6382:1 6546:1 6642:1 
0.1305611441088523 0 1486:1 1739:1 2480:1 3189:1 4137:1 4887:1 5373:1 5411:1 
0.3684669997686815 0 349:1 521:1 2034:1 2726:1 3189:1 3609:1 5609:1 6084:1 6241:1 
0.1713766377413081 0.01799029808150807 913:1 3854:1 4378:1 6631:1 
0.08454767044496576 0 237:1 483:1 843:1 852:1 1158:1 1188:1 1513:1 1625:1 1976:1 2780:1 3170:1 3303:1 3616:1 3656:1 4066:1 4379:1 4651:1 4983:1 5639:1 5969:1 6105:1 6563:1 
0.2332393774882533 0 274:1 337:1 852:1 983:1 1071:1 1197:1 1743:1 1887:1 1976:1 2480:1 2691:1 3095:1 3609:1 4068:1 4486:1 4644:1 4810:1 4972:1 4992:1 5138:1 5304:1 5431:1 5667:1 6378:1 6494:1 
0.2197955094644798 0.05561683186629339 690:1 852:1 1562:1 2506:1 4184:1 4341:1 5254:1 6591:1 
0.1850295616725459 0.04827703193532886 852:1 1126:1 1295:1 1880:1 2579:1 3541:1 6170:1 
0.0454782779329754 0.04981331220911476 207:1 352:1 742:1 763:1 820:1 852:1 961:1 1650:1 2255:1 4011:1 4421:1 4930:1 
0.2114808105360156 0.02279009557724733 10:1 133:1 213:1 245:1 1772:1 1831:1 1976:1 2578:1 2579:1 2848:1 3616:1 4437:1 4512:1 4992:1 5827:1 
0.1104130941756244 0.002890966097085416 87:1 2579:1 5171:1 
0.3702370633541179 0 57:1 119:1 337:1 737:1 898:1 1126:1 1570:1 1976:1 2127:1 2480:1 2999:1 4972:1 4992:1 5330:1 5639:1 6111:1 
0.174456514354374 0 110:1 375:1 716:1 2513:1 5639:1 
0.2362420862217801 0.02286116320266299 1140:1 1270:1 1492:1 2327:1 2579:1 3233:1 3620:1 3941:1 4263:1 5832:1 5846:1 6037:1 
0.5475959373711083 0 3607:1 3801:1 4953:1 5062:1 
0.0357562075829652 0 416:1 794:1 1564:1 1986:1 2579:1 2879:1 3490:1 4326:1 5639:1 5967:1 6381:1 
0.1244421497106309 0 332:1 416:1 1126:1 1538:1 1858:1 2006:1 2579:1 2801:1 3566:1 4905:1 
0.09889396966899211 0.05894331158944276 359:1 597:1 1228:1 1332:1 1337:1 2453:1 2579:1 3607:1 5376:1 5832:1 
0.1436380517449785 0 32:1 359:1 512:1 521:1 817:1 1558:1 2329:1 2480:1 2579:1 3189:1 3397:1 3614:1 4168:1 4529:1 4594:1 4737:1 5101:1 5639:1 5827:1 5831:1 5978:1 6159:1 
0.1806304381022195 0 521:1 1066:1 1349:1 1976:1 2032:1 2255:1 2579:1 2932:1 3346:1 3380:1 3616:1 3902:1 5026:1 5783:1 5827:1 6112:1 
0 0.02841721467528662 359:1 521:1 1083:1 1976:1 2480:1 3062:1 3878:1 6141:1 
0 0.0262582369227394 464:1 1105:1 1165:1 1307:1 1337:1 1754:1 2579:1 3189:1 3933:1 5025:1 5167:1 5639:1 
0.07090707162996462 0.04818667802235827 359:1 820:1 852:1 1219:1 2241:1 2406:1 3039:1 3222:1 3616:1 3818:1 3891:1 4075:1 5512:1 5639:1 
0 0.06457491066493574 2255:1 2480:1 2579:1 2628:1 3062:1 3416:1 3616:1 5954:1 
0.06535493477833387 0.05586226949709871 820:1 2532:1 2621:1 4586:1 4891:1 5832:1 
0.6852374969909566 0.07201941127478322 384:1 
0.291540296491932 0 82:1 852:1 1027:1 1071:1 1562:1 2384:1 3549:1 5156:1 5639:1 6523:1 6662:1 
0.07828549454155107 0 337:1 371:1 630:1 794:1 1162:1 1846:1 1910:1 1976:1 2455:1 2579:1 2760:1 3554:1 4347:1 5087:1 5330:1 5598:1 5639:1 
0.3863525995530358 0.08975406960496654 852:1 2869:1 4492:1 
0.5354822868101869 0 2503:1 3607:1 4298:1 4539:1 5513:1 6669:1 
0.1397203824828842 0.04312447169624567 295:1 852:1 984:1 1996:1 2405:1 2884:1 3039:1 3609:1 5529:1 6416:1 
0 0.03144108862620951 22:1 359:1 742:1 775:1 820:1 821:1 852:1 1197:1 1554:1 1656:1 1976:1 2205:1 2267:1 2503:1 2514:1 2820:1 3027:1 3482:1 3581:1 3616:1 4077:1 4420:1 4436:1 4785:1 4981:1 5156:1 5183:1 5330:1 5347:1 5602:1 5639:1 5749:1 5832:1 6439:1 
0.1843673477663405 0.07240659722063159 666:1 821:1 1976:1 2159:1 3300:1 3616:1 3647:1 4543:1 5827:1 5978:1 
0.1686237150042666 0.00551892433454091 608:1 929:1 1416:1 1976:1 2331:1 3189:1 3555:1 4992:1 
0.1972696629352517 0.2279741546004346 852:1 868:1 2255:1 3189:1 3218:1 3607:1 3801:1 5454:1 5502:1 5905:1 6059:1 
1 1 
0.04798604906199225 0 237:1 577:1 663:1 1079:1 1279:1 1394:1 1698:1 2614:1 3095:1 3191:1 3616:1 3970:1 4451:1 5204:1 5508:1 5620:1 5639:1 5832:1 6088:1 
0.004125743966343948 0 80:1 742:1 1197:1 1307:1 1614:1 2503:1 2579:1 3607:1 4085:1 4972:1 5893:1 
1 0.2334604890708566 2189:1 3655:1 4870:1 
0.0389348532938 0 794:1 1831:1 1976:1 2773:1 3184:1 3347:1 4421:1 4744:1 4850:1 5370:1 5639:1 6222:1 6622:1 
0.0009404123964455247 0 195:1 961:1 1337:1 1467:1 1976:1 2534:1 2679:1 2787:1 3069:1 3324:1 3473:1 3483:1 3620:1 3897:1 4851:1 5208:1 5639:1 5654:1 5827:1 5978:1 
0.2834335723187504 0 146:1 195:1 722:1 820:1 2940:1 3609:1 3623:1 5532:1 5639:1 
0.5627783839221586 0.2454402766829269 794:1 2543:1 3330:1 3801:1 4306:1 
0.4101160317246918 0 351:1 1976:1 2579:1 2822:1 3517:1 3616:1 5729:1 
0 0.6942546504060251 233:1 
0.1203004894141796 0 662:1 852:1 1190:1 1337:1 1448:1 2107:1 2257:1 2363:1 2579:1 2760:1 3016:1 3335:1 3616:1 3826:1 4123:1 4810:1 4954:1 4966:1 5193:1 5639:1 5899:1 5904:1 6546:1 
0.2142118856054474 0 337:1 821:1 852:1 1188:1 1337:1 1786:1 2108:1 4024:1 4562:1 4972:1 5006:1 5639:1 5785:1 6408:1 6453:1 6564:1 6581:1 
0.3268160165879052 0 359:1 852:1 1241:1 1310:1 1976:1 2031:1 2546:1 2756:1 3616:1 4004:1 4326:1 4475:1 5193:1 5639:1 6037:1 6111:1 
0.06547263977565795 0.007916836509520245 852:1 1463:1 2049:1 2579:1 2642:1 2756:1 3616:1 3652:1 3892:1 4555:1 4861:1 5359:1 5620:1 6203:1 6479:1 
0.08956355686199878 0 67:1 82:1 337:1 666:1 852:1 1270:1 1749:1 1932:1 1976:1 2579:1 5832:1 5951:1 6464:1 
0.4209074033663432 0.04106073817907185 1179:1 1306:1 2579:1 3448:1 3609:1 5797:1 5831:1 
0.2321274218134811 0 1980:1 3189:1 3866:1 4870:1 4946:1 
0.1369339034591487 0 521:1 1976:1 2241:1 2579:1 3330:1 3607:1 3933:1 4328:1 4438:1 4543:1 4744:1 4905:1 6519:1 
0.08514586289958946 0 794:1 820:1 1518:1 1872:1 1967:1 1976:1 2201:1 2277:1 2424:1 2579:1 2680:1 2757:1 2836:1 4541:1 4905:1 5319:1 5405:1 5560:1 5639:1 5651:1 5832:1 6366:1 
0.1520541805939721 0 237:1 774:1 1404:1 1976:1 2255:1 3443:1 4181:1 4621:1 5067:1 5101:1 5639:1 5753:1 5832:1 6334:1 
0.07684067761464188 0 80:1 852:1 2408:1 2728:1 4113:1 4675:1 4752:1 4946:1 5513:1 5556:1 5639:1 6670:1 
0.1151111459541241 0 794:1 1565:1 2777:1 4118:1 4918:1 5312:1 
0.3527316289487319 0 21:1 280:1 852:1 1197:1 1337:1 3483:1 3757:1 4465:1 5092:1 
0.1536786138211436 0 562:1 794:1 852:1 900:1 984:1 1036:1 1104:1 1261:1 1909:1 1976:1 2255:1 2639:1 3087:1 3235:1 3601:1 3616:1 3892:1 3986:1 4450:1 4555:1 5639:1 5693:1 5720:1 6111:1 
0.3009510587056277 0 209:1 337:1 666:1 727:1 1337:1 2579:1 4326:1 4543:1 5904:1 6113:1 6334:1 
0 0.03308406708884673 245:1 337:1 352:1 727:1 852:1 1179:1 2224:1 2579:1 3054:1 3832:1 4946:1 5138:1 5431:1 5827:1 5843:1 6089:1 6338:1 
0.06156132838810819 0 1170:1 1337:1 3385:1 3846:1 4764:1 5138:1 5176:1 
0.2195845417525731 0.01571530348621059 3:1 692:1 1219:1 1976:1 2257:1 3189:1 3416:1 3616:1 4376:1 5101:1 5288:1 5348:1 5639:1 5762:1 5827:1 6491:1 
0.4471884573439736 0 521:1 767:1 1332:1 2579:1 3189:1 3272:1 3342:1 3403:1 3607:1 3801:1 3870:1 5582:1 5904:1 
0.03131777278374768 0 352:1 836:1 1375:1 1521:1 1913:1 2068:1 2497:1 3272:1 3616:1 3738:1 3996:1 4077:1 4530:1 4840:1 5088:1 5101:1 5639:1 5753:1 5832:1 6097:1 6334:1 6416:1 6457:1 6617:1 
0.1922507969539048 0 817:1 1265:1 1739:1 2076:1 2255:1 3189:1 4144:1 4905:1 6120:1 
0.2119789451762205 0 359:1 783:1 1025:1 1053:1 1976:1 2054:1 2241:1 2702:1 3607:1 3616:1 4953:1 5117:1 5302:1 
0.04167867481540703 0.02933861682082695 388:1 764:1 794:1 953:1 1307:1 1836:1 1889:1 2034:1 2579:1 2623:1 3457:1 3777:1 3801:1 4297:1 4435:1 4442:1 4499:1 4511:1 5639:1 5832:1 
0.04310432579190316 0 67:1 355:1 581:1 655:1 1633:1 1976:1 2255:1 2496:1 2503:1 2579:1 3497:1 3616:1 3849:1 3990:1 4972:1 5536:1 5558:1 5592:1 5602:1 5628:1 5639:1 5886:1 6111:1 
0.3272968015546862 0 852:1 2144:1 2357:1 3189:1 4870:1 4992:1 5464:1 5827:1 6027:1 6223:1 6528:1 
0.2799004387611111 0 852:1 1220:1 1427:1 1468:1 1966:1 2255:1 2640:1 2650:1 3607:1 3818:1 5513:1 6470:1 
0.145397972911155 0 852:1 1694:1 1976:1 2063:1 2196:1 2255:1 2337:1 2579:1 2999:1 3019:1 3189:1 3609:1 4499:1 4810:1 5431:1 6574:1 
0.7201968312978456 0 2365:1 3647:1 4297:1 4558:1 5167:1 6334:1 
0.03754128248714188 0.08014429957160461 464:1 852:1 1976:1 2884:1 3039:1 3294:1 3616:1 4810:1 4992:1 5088:1 5827:1 6247:1 
0.04403177861295038 0.007927598524860477 820:1 852:1 1179:1 1976:1 2133:1 2480:1 2579:1 3383:1 3985:1 4425:1 4810:1 4932:1 5341:1 
0.2700600082940983 0 794:1 1905:1 1976:1 2210:1 2503:1 2597:1 2640:1 3647:1 4221:1 4326:1 4558:1 5167:1 5181:1 5921:1 6334:1 
0 0.0008722314197617398 277:1 581:1 1466:1 1976:1 2255:1 2622:1 2636:1 3251:1 4511:1 4946:1 5160:1 5167:1 5441:1 5608:1 5639:1 5740:1 5794:1 6111:1 6269:1 
0.394178987733411 0 852:1 2403:1 5954:1 
0.01183904824897512 0 311:1 401:1 961:1 1220:1 1372:1 1637:1 1976:1 2419:1 2579:1 2613:1 2874:1 3342:1 3429:1 3520:1 3673:1 4312:1 4429:1 4602:1 4681:1 4950:1 5001:1 5109:1 5639:1 5832:1 6241:1 6334:1 
0.3103333159580759 0 416:1 1486:1 1791:1 2480:1 2579:1 3189:1 3191:1 3324:1 3607:1 3609:1 3620:1 3647:1 4326:1 4810:1 
0.02744894257319866 0 852:1 1180:1 1267:1 2507:1 2855:1 3337:1 3571:1 3784:1 4419:1 4817:1 5105:1 5432:1 5639:1 5725:1 5980:1 6528:1 
0.199828484625534 0 22:1 335:1 398:1 794:1 820:1 830:1 1833:1 2579:1 2759:1 3659:1 3684:1 4582:1 5138:1 5247:1 5455:1 5639:1 5827:1 6416:1 
0.1015839480167576 0 130:1 193:1 656:1 820:1 852:1 1278:1 1667:1 1741:1 1834:1 2579:1 2760:1 3477:1 4311:1 4530:1 5639:1 6088:1 6298:1 
0.1936075337447216 0.03115629709203855 269:1 359:1 374:1 910:1 1179:1 1976:1 2012:1 2133:1 2144:1 2189:1 2449:1 3265:1 3607:1 3616:1 3764:1 4199:1 4543:1 4810:1 4992:1 5782:1 5843:1 6089:1 6581:1 
0.02588354986263953 0.003352610956909978 189:1 415:1 471:1 883:1 1223:1 1661:1 1891:1 2209:1 4292:1 4766:1 4943:1 5362:1 5956:1 6210:1 
0.2780150408083409 0 74:1 2405:1 2814:1 3271:1 6193:1 
0.3778360684976486 0.135655487980237 413:1 794:1 2357:1 2579:1 5827:1 5831:1 6581:1 
0.1510035582181851 0 352:1 620:1 852:1 957:1 1688:1 1976:1 2144:1 2579:1 2833:1 3189:1 3412:1 4326:1 4449:1 4769:1 4810:1 5093:1 5639:1 5886:1 6662:1 
0.1465784837852878 0 72:1 282:1 359:1 794:1 852:1 1976:1 2255:1 2301:1 2721:1 3195:1 3477:1 3616:1 4132:1 5165:1 5343:1 5538:1 5607:1 6088:1 6325:1 6494:1 6592:1 
1 0.02339864834886764 464:1 852:1 1179:1 3189:1 3616:1 5088:1 
0.2274090374015908 0.01593773669725192 276:1 332:1 794:1 1679:1 1797:1 1976:1 2204:1 3189:1 3710:1 3899:1 4077:1 4485:1 4810:1 5639:1 5832:1 5886:1 6111:1 
0.3815539395644154 0.04839022356308211 1307:1 5360:1 
0.07721859118871993 0 196:1 502:1 820:1 837:1 1017:1 1976:1 2145:1 2255:1 2379:1 2539:1 2757:1 4189:1 4311:1 4905:1 5639:1 5672:1 5832:1 6259:1 
0.1719860626263092 0 164:1 1349:1 2579:1 4002:1 4061:1 6171:1 
0.08974863483548093 0 1036:1 1262:1 1976:1 2116:1 2612:1 2884:1 3189:1 4972:1 5224:1 5427:1 5847:1 6591:1 
0.1774789355851466 0.00102348510953834 1584:1 1858:1 1976:1 2579:1 2588:1 3616:1 3945:1 4011:1 4320:1 4547:1 4992:1 5193:1 5794:1 
0.3054726530097437 0.03069073606622546 577:1 632:1 1739:1 1794:1 2446:1 3050:1 3189:1 3801:1 4904:1 4988:1 5101:1 5755:1 6625:1 
0.07991330943956347 0.07231990958112929 852:1 1094:1 2188:1 2406:1 2449:1 3039:1 3818:1 3945:1 4275:1 5513:1 
0.0395053074301246 0 521:1 854:1 1528:1 1955:1 1996:1 2226:1 2579:1 2725:1 3607:1 3801:1 4007:1 4320:1 5030:1 5114:1 5312:1 5571:1 5614:1 5639:1 
0 0.06175055803062914 359:1 512:1 1307:1 1976:1 1980:1 2226:1 2579:1 2612:1 3798:1 4635:1 5827:1 
0.003598568481128983 0 48:1 280:1 282:1 337:1 666:1 803:1 852:1 933:1 1337:1 1912:1 1976:1 2385:1 2430:1 3330:1 3412:1 3501:1 3607:1 3995:1 4810:1 4946:1 5323:1 5553:1 5832:1 5887:1 6074:1 
0.02463863749332016 0 1334:1 1799:1 2241:1 2797:1 2830:1 3616:1 3801:1 4539:1 4972:1 5685:1 6633:1 
0.08059119772565358 0 820:1 1601:1 1976:1 2077:1 2255:1 2480:1 2579:1 2618:1 3015:1 3338:1 3853:1 3970:1 4181:1 4857:1 4877:1 4992:1 5098:1 5318:1 5373:1 5639:1 5914:1 6334:1 6363:1 6603:1 
0.1377982385444704 0.03091956938581498 655:1 785:1 1607:1 1640:1 2177:1 2624:1 3616:1 3643:1 4199:1 
0.1729087634145768 0 274:1 343:1 521:1 821:1 1704:1 1739:1 2189:1 2579:1 3000:1 3069:1 3607:1 3609:1 5095:1 5832:1 
0.007356449129154034 0 359:1 464:1 475:1 794:1 852:1 1503:1 1743:1 1976:1 2060:1 2579:1 2814:1 3281:1 3607:1 3966:1 4176:1 4311:1 4691:1 4849:1 5156:1 5424:1 5495:1 5639:1 5862:1 
0.5338873840173984 0 1739:1 1912:1 2255:1 4385:1 5827:1 6546:1 
0.1802752515957196 0.01374851252660417 456:1 468:1 521:1 653:1 852:1 899:1 957:1 1219:1 1221:1 1858:1 2189:1 2211:1 2255:1 2579:1 2770:1 3818:1 3912:1 4199:1 4326:1 4870:1 5030:1 5827:1 5839:1 6647:1 
0.08683127598668547 0 509:1 1098:1 1125:1 4600:1 5639:1 
0.7581580178109105 0 783:1 852:1 2518:1 3189:1 6591:1 
0.3043750765097197 0 332:1 337:1 983:1 1034:1 1801:1 2579:1 4326:1 
0.1605834197684454 0.01362024266561826 195:1 820:1 1350:1 2503:1 2579:1 3019:1 4175:1 5832:1 6056:1 
0.01524144600390286 0 110:1 245:1 521:1 783:1 794:1 1592:1 2189:1 2255:1 2579:1 3099:1 3324:1 3607:1 3659:1 3970:1 3984:1 4050:1 4953:1 4972:1 5797:1 
0.06635021464087362 0 390:1 3291:1 3370:1 4744:1 
0.6740250731614509 0.0430254653598713 821:1 2177:1 5169:1 6247:1 6640:1 
0.3335527928868789 0 3267:1 
0.1197759752087619 0 107:1 852:1 1927:1 1976:1 2419:1 2579:1 2757:1 4181:1 4426:1 5639:1 5812:1 5832:1 6660:1 
0.2416929930705123 0 805:1 821:1 852:1 1548:1 1764:1 1976:1 2814:1 3002:1 3084:1 3189:1 3345:1 3403:1 3607:1 4682:1 4992:1 5116:1 5839:1 6357:1 6392:1 
0.2060017053408654 0 2579:1 3847:1 3970:1 4884:1 5620:1 
0.4991251937745446 0.1200892767059926 359:1 416:1 2036:1 2241:1 2261:1 3039:1 
0.0201868141417891 0 2446:1 2480:1 3371:1 3609:1 3833:1 4972:1 5498:1 5776:1 6026:1 6327:1 6546:1 
0.06925303576641506 0 783:1 1147:1 1188:1 2137:1 2255:1 3187:1 3607:1 4181:1 5420:1 5639:1 5832:1 6088:1 6241:1 6275:1 6315:1 6371:1 
0.2249782098320812 0 264:1 3698:1 5193:1 6546:1 
0.08375230088225513 0 332:1 821:1 841:1 852:1 961:1 1079:1 1178:1 1179:1 1188:1 1572:1 1873:1 1976:1 1985:1 2034:1 2102:1 2177:1 2480:1 2714:1 3002:1 3189:1 3291:1 3332:1 3616:1 3623:1 3889:1 4020:1 4267:1 4420:1 4429:1 5398:1 5401:1 5639:1 5982:1 6208:1 6457:1 6546:1 6673:1 
0.2168193148683466 0 674:1 1307:1 1730:1 3271:1 5193:1 5830:1 5839:1 6026:1 6663:1 
0.1700220683645948 0.03222089967745562 337:1 852:1 910:1 1179:1 1570:1 1976:1 2255:1 2257:1 2579:1 3609:1 3616:1 4024:1 4507:1 4574:1 4763:1 4986:1 5196:1 5832:1 5960:1 6084:1 6111:1 6338:1 
0.2789687555394605 0 689:1 3553:1 3607:1 4181:1 5639:1 6391:1 
1 1 
0.2117892255977477 0.06330238485842883 1468:1 1976:1 4991:1 5827:1 
0.2219866789880638 0.002064584791704239 359:1 1437:1 3173:1 3189:1 3801:1 4780:1 5754:1 
0.002104064039954117 0 325:1 328:1 525:1 961:1 1066:1 1188:1 1344:1 1976:1 2177:1 2188:1 2579:1 2580:1 3534:1 3609:1 3695:1 4022:1 4376:1 5150:1 5193:1 5628:1 5639:1 5832:1 6111:1 6519:1 6563:1 
1 0.04579849807365937 32:1 123:1 
0.09009041550724467 0 82:1 1632:1 1818:1 1976:1 2814:1 2959:1 4126:1 4129:1 4181:1 4496:1 4972:1 5832:1 5886:1 5895:1 6291:1 6464:1 
0.07779037229250216 0 339:1 435:1 1180:1 1762:1 1823:1 1920:1 2144:1 3189:1 3263:1 3333:1 3438:1 3595:1 3801:1 4217:1 5312:1 5626:1 5926:1 6334:1 6581:1 
0.0430024090692664 0 794:1 1008:1 1126:1 1197:1 1349:1 2023:1 2367:1 2503:1 2579:1 2860:1 2967:1 3330:1 3455:1 4075:1 4175:1 4263:1 4604:1 4972:1 5639:1 6429:1 6439:1 6464:1 
0.2973888840372337 0 406:1 821:1 1555:1 2189:1 2534:1 2747:1 3002:1 3024:1 3607:1 3759:1 4155:1 4810:1 5003:1 5423:1 5639:1 5804:1 5839:1 6464:1 
0.1290451701782341 0 274:1 337:1 1749:1 1858:1 1976:1 2125:1 2239:1 2579:1 3189:1 3607:1 3616:1 3838:1 3855:1 4044:1 4394:1 4762:1 4972:1 5019:1 5304:1 5368:1 5843:1 
0.03235066082941868 0 910:1 1307:1 1739:1 2257:1 3609:1 3623:1 4326:1 4992:1 5525:1 5639:1 6396:1 
0.01698279630710297 0 48:1 52:1 280:1 362:1 679:1 852:1 1026:1 1188:1 1337:1 1341:1 1880:1 1976:1 3616:1 3680:1 4282:1 4600:1 5049:1 5090:1 5331:1 5366:1 5422:1 5465:1 5472:1 5569:1 5639:1 5667:1 5832:1 6088:1 6111:1 6433:1 6484:1 
0.1467265558560149 0 1792:1 2579:1 4075:1 4810:1 5754:1 
0 0.01481187486906599 280:1 416:1 794:1 821:1 852:1 1344:1 1398:1 1629:1 1804:1 1976:1 2255:1 2579:1 2695:1 3446:1 3609:1 3620:1 3757:1 4326:1 4810:1 5832:1 6342:1 6416:1 
0.08706436719470788 0 274:1 1976:1 2244:1 2480:1 3609:1 3976:1 4369:1 4394:1 4882:1 4905:1 4992:1 5349:1 5639:1 5832:1 5886:1 6464:1 6546:1 
0.2635693631024557 0.1518273249072635 3123:1 3836:1 4946:1 
0.1713038381086479 0.01796866641271314 43:1 394:1 1711:1 4693:1 
0.2426802964661025 0.063260087882984 198:1 325:1 852:1 1322:1 1490:1 1976:1 3039:1 3045:1 3317:1 3607:1 4311:1 4499:1 5832:1 
0.5865323803803095 0 4499:1 4655:1 5639:1 
0.6853713622371329 0.07188768090719852 4567:1 
0.191219343486209 0 359:1 1976:1 1980:1 5303:1 
0.1725747504594418 0.1133668252463813 390:1 6581:1 
0.2035254302465757 0.003187906914235347 893:1 1079:1 1337:1 1477:1 2453:1 2579:1 2999:1 4181:1 5101:1 5753:1 5832:1 6056:1 6524:1 
0.2601827237364197 0 4011:1 4326:1 
0.03612980025670184 0.1230255483230099 852:1 977:1 2236:1 2408:1 3039:1 3818:1 3936:1 4075:1 
0.7536810562509727 0.01116988249982077 1976:1 2679:1 4317:1 6111:1 
0.1809240395623224 0 337:1 852:1 1071:1 1079:1 1190:1 2123:1 2255:1 2579:1 3609:1 5412:1 6026:1 
0.1087430840810017 0 2177:1 2232:1 2254:1 2579:1 3324:1 3607:1 3620:1 4097:1 5774:1 6141:1 6459:1 
1 0.06510580517928588 2579:1 3189:1 3836:1 
0.06357540423507527 0 359:1 742:1 783:1 1188:1 1337:1 2446:1 2480:1 2579:1 2760:1 3828:1 4286:1 4529:1 4877:1 5960:1 6029:1 6427:1 
0.008283484236335488 0.01611916986056897 39:1 55:1 359:1 961:1 1988:1 2579:1 3233:1 3505:1 3616:1 3808:1 4132:1 4403:1 5639:1 5737:1 5832:1 5886:1 5976:1 6037:1 6547:1 
0.07256910023306362 0 852:1 906:1 961:1 1128:1 1302:1 1329:1 1345:1 1609:1 1976:1 2255:1 2754:1 2890:1 3616:1 3672:1 4870:1 5043:1 5639:1 5746:1 5760:1 5832:1 6245:1 6439:1 
0.6153181523276681 0 1071:1 1814:1 2579:1 3189:1 3462:1 3647:1 4905:1 4972:1 5827:1 
0.2277293365339252 0 852:1 1889:1 2063:1 3603:1 5639:1 
0.3445028125224814 0 674:1 794:1 925:1 1284:1 1337:1 1530:1 2238:1 2480:1 2579:1 3189:1 3403:1 3607:1 4177:1 4485:1 5030:1 5639:1 6269:1 
0.1858131796422769 0.05072346742481262 337:1 462:1 605:1 820:1 1079:1 1197:1 1219:1 1976:1 3616:1 4376:1 4984:1 5329:1 5832:1 5932:1 6088:1 6129:1 6585:1 
0.09901939262679857 0 280:1 332:1 337:1 416:1 669:1 700:1 1412:1 1976:1 2078:1 2579:1 2632:1 2730:1 3132:1 3332:1 4247:1 4905:1 4946:1 5424:1 5431:1 5563:1 5832:1 6254:1 6416:1 
0.01100757124795316 0.009063085593159399 38:1 359:1 1768:1 1976:1 2688:1 2720:1 2854:1 3833:1 3969:1 4077:1 4250:1 4510:1 5579:1 5639:1 5832:1 
0.1465398646100271 0 203:1 457:1 852:1 877:1 1976:1 2480:1 3189:1 3502:1 3613:1 3616:1 5041:1 5148:1 5639:1 5921:1 6334:1 
0.252990011800773 0.04558264868680852 1511:1 2579:1 4946:1 5602:1 
0 0.2188748672771371 464:1 1265:1 1730:1 3189:1 3218:1 5468:1 
0.01980101110383867 0 830:1 887:1 1070:1 1126:1 1835:1 1976:1 2090:1 2230:1 2579:1 3607:1 3616:1 3898:1 3970:1 4294:1 4967:1 5059:1 5248:1 5639:1 5744:1 5832:1 
0.03310544961118383 0 245:1 361:1 794:1 852:1 1111:1 1250:1 1819:1 2764:1 2932:1 2966:1 3607:1 4024:1 4344:1 4403:1 5067:1 5493:1 5639:1 5886:1 5997:1 
0.08700436199191702 0 794:1 814:1 1282:1 2055:1 2579:1 2610:1 2640:1 2932:1 3363:1 3609:1 3668:1 4310:1 4467:1 4992:1 5577:1 5639:1 5832:1 5839:1 6276:1 6317:1 
0.1357834949989872 0 4:1 245:1 433:1 852:1 1797:1 1976:1 2480:1 2947:1 3275:1 3530:1 4001:1 4905:1 5174:1 6111:1 6285:1 6416:1 6477:1 
0.1886736802736593 0.009884521295041221 332:1 335:1 416:1 852:1 961:1 1114:1 1858:1 1976:1 2189:1 2480:1 2760:1 2814:1 2929:1 3054:1 3607:1 3609:1 4206:1 4447:1 4939:1 5639:1 5832:1 5843:1 6111:1 6165:1 6491:1 
0 0.01588214512959952 521:1 1190:1 1601:1 1825:1 1976:1 2255:1 2472:1 3566:1 3601:1 3991:1 4319:1 4474:1 4832:1 4992:1 5088:1 5639:1 5768:1 5832:1 5882:1 5886:1 5989:1 6074:1 6289:1 6490:1 
0.2767054319832699 0 61:1 222:1 268:1 416:1 727:1 821:1 1337:1 1492:1 1976:1 2579:1 2760:1 3607:1 3892:1 4090:1 4181:1 4420:1 4905:1 5171:1 5832:1 
0.1376180658018025 0 380:1 821:1 1126:1 1314:1 1337:1 2189:1 2255:1 2579:1 3607:1 3609:1 3616:1 3801:1 4991:1 4992:1 5236:1 5839:1 6249:1 
0.02514117734660858 0 820:1 821:1 852:1 1126:1 1782:1 1976:1 2031:1 2191:1 2938:1 3120:1 3305:1 3355:1 3497:1 4523:1 5006:1 5224:1 5402:1 5827:1 5832:1 5978:1 6342:1 
0.0305328474072112 0 806:1 821:1 1337:1 2255:1 2361:1 2579:1 2720:1 3049:1 3413:1 3497:1 3794:1 4465:1 4474:1 4582:1 4593:1 4950:1 5114:1 5276:1 5639:1 5832:1 5927:1 5967:1 6037:1 6188:1 6273:1 6334:1 6388:1 
0.01730082693374679 0 1558:1 1797:1 1969:1 1976:1 2144:1 3296:1 4012:1 4237:1 5062:1 5134:1 5306:1 5639:1 5715:1 5747:1 5886:1 
0.01742712053024957 0 778:1 980:1 1264:1 3037:1 3616:1 4347:1 4479:1 4817:1 5350:1 5639:1 6268:1 
0.144596579783329 0 794:1 1717:1 2239:1 2579:1 3371:1 4582:1 5147:1 5330:1 5639:1 6188:1 
0.1960736922348491 0.05112020710685933 577:1 821:1 990:1 1219:1 1337:1 1349:1 1976:1 2144:1 2301:1 2564:1 2579:1 3205:1 3274:1 4120:1 4340:1 5069:1 5523:1 5758:1 5832:1 5887:1 5938:1 6457:1 
0.06577009613546743 0 208:1 817:1 852:1 1071:1 1337:1 1416:1 1912:1 1976:1 2144:1 2449:1 2757:1 2884:1 3189:1 3191:1 3609:1 3616:1 3620:1 4199:1 4436:1 4905:1 5425:1 5658:1 5762:1 6416:1 
0.402543327645992 0.03546437036597193 690:1 910:1 1179:1 1912:1 2189:1 2255:1 2257:1 2740:1 4343:1 5193:1 5224:1 5832:1 6071:1 6416:1 
0.3557294923048531 0.1255606034585 359:1 521:1 984:1 1512:1 1888:1 2004:1 2144:1 2446:1 2480:1 3189:1 3609:1 3616:1 3777:1 3885:1 4719:1 5101:1 5425:1 6416:1 6665:1 
0.2475638368762995 0 343:1 354:1 742:1 822:1 852:1 910:1 1079:1 1606:1 1976:1 2126:1 2257:1 3223:1 3335:1 3607:1 3609:1 3616:1 4024:1 4077:1 4286:1 4807:1 4810:1 4972:1 5304:1 5639:1 6056:1 6439:1 6464:1 6625:1 
0.02584927036038405 0 55:1 64:1 794:1 1781:1 1976:1 2856:1 4132:1 4153:1 4330:1 4516:1 5079:1 5639:1 5832:1 6214:1 6589:1 6668:1 
0.05261893857065918 0.02306295697907432 256:1 359:1 984:1 1968:1 1976:1 2588:1 4090:1 4343:1 5571:1 5676:1 5832:1 5936:1 6368:1 6457:1 
0.5518537883793091 0.1438249745681978 852:1 890:1 2031:1 2579:1 4263:1 4523:1 6261:1 
0.1820846745029105 0.004675267192552522 359:1 521:1 594:1 608:1 852:1 1887:1 2144:1 2446:1 2480:1 3189:1 3607:1 4810:1 5101:1 5411:1 5886:1 6088:1 6357:1 6438:1 
0.03729602285534959 0 340:1 341:1 821:1 1764:1 2189:1 2383:1 3139:1 3371:1 4992:1 5119:1 5193:1 5639:1 6441:1 
0.2156566947044364 0.05249104950700217 820:1 2340:1 3132:1 3180:1 4347:1 5832:1 
0.4603839707915722 0.07416521988903889 15:1 351:1 983:1 1179:1 1730:1 2480:1 2695:1 
0 0.06376093933504441 359:1 852:1 1980:1 3609:1 4529:1 5101:1 5411:1 5954:1 6591:1 
0.4545006465488238 0.02356091333511217 64:1 186:1 359:1 581:1 852:1 1976:1 3076:1 3189:1 3927:1 4810:1 4988:1 5431:1 5699:1 5832:1 
0.1113333712957977 0 359:1 393:1 521:1 852:1 887:1 1240:1 1244:1 1316:1 1416:1 2114:1 2152:1 2189:1 2255:1 2283:1 2301:1 3000:1 3210:1 3607:1 3609:1 4330:1 4719:1 4951:1 4992:1 5323:1 5832:1 5863:1 6074:1 6241:1 
0.1710359119698381 0.01641545880453605 961:1 1843:1 2846:1 3324:1 3607:1 3616:1 4183:1 4420:1 4639:1 6114:1 
0.3639135281065541 0 359:1 658:1 2854:1 2966:1 3607:1 4021:1 4493:1 4870:1 
0.09174410139231225 0.02287742259152633 820:1 1294:1 2255:1 2579:1 3585:1 4181:1 4197:1 4741:1 5429:1 6355:1 
0.04987102846393208 0.01117977989846588 794:1 1270:1 1345:1 1976:1 2255:1 2437:1 2844:1 3607:1 3609:1 3616:1 4016:1 4181:1 5231:1 5832:1 6347:1 6618:1 
0.0548753569390872 0 464:1 771:1 821:1 852:1 898:1 932:1 1179:1 1188:1 1537:1 1562:1 1757:1 1976:1 2153:1 2177:1 2337:1 2579:1 3302:1 3609:1 3892:1 3933:1 4463:1 4870:1 4931:1 5639:1 5651:1 5832:1 6037:1 6194:1 6439:1 6464:1 6546:1 6668:1 
0.01990969274750594 0 67:1 521:1 808:1 974:1 1331:1 1831:1 1937:1 1976:1 2553:1 3892:1 4992:1 5639:1 5727:1 
0.7411885126971411 0 3801:1 4305:1 
0.4851154445864715 0.02589555528160318 82:1 772:1 852:1 1051:1 1739:1 3189:1 3609:1 3647:1 5886:1 6416:1 
0.1178128904446391 0.003048170703482039 189:1 523:1 671:1 1223:1 2197:1 2198:1 3100:1 3207:1 3329:1 4281:1 4733:1 4766:1 5011:1 5362:1 6231:1 6253:1 
0.1059800250256606 0.0002561738036868314 60:1 372:1 656:1 886:1 961:1 1250:1 1337:1 1391:1 1614:1 1976:1 3326:1 3652:1 3865:1 5324:1 5410:1 5639:1 5832:1 6415:1 
0.04995215392435681 0 794:1 1043:1 1219:1 1976:1 1996:1 2579:1 2717:1 3189:1 3430:1 3740:1 4326:1 4744:1 4905:1 5116:1 5463:1 5639:1 5832:1 6448:1 6495:1 
0.2237048971767004 0 234:1 562:1 1256:1 1388:1 1976:1 3607:1 5639:1 6357:1 
0.09036893306565139 0.007914097124168171 794:1 1188:1 1219:1 1967:1 1976:1 2189:1 2288:1 2503:1 2579:1 2939:1 3483:1 3620:1 4376:1 4493:1 4688:1 4806:1 5719:1 5832:1 
0.006430585078333899 0.04539651612646895 409:1 887:1 961:1 1077:1 2255:1 2547:1 3435:1 3604:1 4754:1 5462:1 5832:1 
0.8030171847318572 0 1996:1 4326:1 4744:1 5639:1 
0.05858368800739316 0 184:1 303:1 457:1 852:1 898:1 1036:1 1976:1 2579:1 2759:1 3008:1 3607:1 4024:1 4076:1 4181:1 4269:1 4519:1 4905:1 4992:1 5843:1 6188:1 
0.1450993808180214 0 195:1 196:1 794:1 814:1 2579:1 5470:1 5639:1 5832:1 6106:1 
0.001514063394586021 0 1026:1 1050:1 1270:1 1673:1 1976:1 2031:1 2126:1 2745:1 3321:1 3566:1 3741:1 4658:1 4817:1 5639:1 5783:1 5832:1 6079:1 6150:1 6201:1 6439:1 6581:1 
0.161418738648995 0.02829000797895396 416:1 521:1 1523:1 1797:1 1912:1 1976:1 2480:1 2727:1 3044:1 3189:1 3645:1 3994:1 4090:1 5101:1 5387:1 5437:1 6111:1 6415:1 
0.03768328068975051 0.001252666147560324 57:1 332:1 337:1 794:1 820:1 852:1 910:1 1188:1 1976:1 2255:1 2302:1 2480:1 2579:1 2764:1 3521:1 3579:1 3609:1 3612:1 4344:1 4485:1 4992:1 5057:1 5304:1 5386:1 5464:1 5645:1 5698:1 5832:1 5897:1 5962:1 
0.2691501415217907 0.00446777407730399 1739:1 2529:1 3277:1 5832:1 
0.329053944071283 0.01566336561940374 1433:1 1976:1 4078:1 5040:1 
0.03563891083656361 0 280:1 354:1 439:1 674:1 820:1 821:1 852:1 1556:1 1976:1 2127:1 2777:1 2896:1 3137:1 3616:1 3647:1 3715:1 4178:1 4181:1 4788:1 4905:1 5572:1 5600:1 5639:1 5692:1 5827:1 5995:1 6102:1 6285:1 
0.1534918456750475 0 852:1 857:1 1179:1 1691:1 1976:1 1980:1 2090:1 2579:1 2814:1 3609:1 4357:1 4530:1 5059:1 5639:1 6219:1 6342:1 6416:1 
0.2919978713701448 0 430:1 500:1 1739:1 4463:1 4917:1 5044:1 5832:1 6546:1 
0.7923429751896368 0.03602049823964721 562:1 3185:1 
0.1018098248429617 0 852:1 1976:1 2503:1 2579:1 2661:1 4496:1 4609:1 5639:1 5819:1 6188:1 
0.005699077135282849 0 925:1 4181:1 6618:1 
0.08118745485290757 0 149:1 346:1 1826:1 2264:1 2528:1 3540:1 3919:1 4156:1 4531:1 4849:1 5639:1 5798:1 5821:1 5832:1 5950:1 6471:1 
0.008761223726024977 0 2235:1 3233:1 3321:1 4091:1 4570:1 4972:1 4984:1 5639:1 
0.1542492062866692 0 4948:1 5639:1 6188:1 
0.1539382159598227 0 282:1 820:1 821:1 846:1 936:1 1858:1 1976:1 2177:1 2547:1 2579:1 2652:1 3390:1 3708:1 3845:1 4260:1 4359:1 4473:1 4572:1 4810:1 4905:1 5083:1 5304:1 5600:1 5617:1 5832:1 5995:1 6088:1 
0.1098328648165702 0 82:1 577:1 605:1 820:1 852:1 887:1 945:1 1161:1 1179:1 1188:1 1197:1 1858:1 2034:1 2189:1 2255:1 2301:1 2579:1 2677:1 2866:1 2960:1 3399:1 3860:1 4096:1 4454:1 4891:1 4992:1 5116:1 5832:1 6343:1 
0.2979101525074964 0 46:1 607:1 821:1 874:1 1079:1 1126:1 1413:1 2255:1 2579:1 2799:1 3607:1 3609:1 4009:1 5639:1 5832:1 
0.3426822189746637 0.03595942224744163 6422:1 6567:1 
0.3209278565051356 0 521:1 719:1 1200:1 1363:1 1976:1 2456:1 2579:1 3616:1 3850:1 4744:1 5304:1 5832:1 
0.1080115892558285 0.5750299858495205 354:1 613:1 852:1 3218:1 6546:1 
0.06497073284316054 0 718:1 737:1 1126:1 1671:1 1976:1 2000:1 2579:1 3419:1 3489:1 3554:1 3623:1 3908:1 4181:1 4326:1 5449:1 5639:1 5832:1 6491:1 6536:1 
0.02238304539527038 0 1197:1 1976:1 2281:1 3912:1 4326:1 4499:1 5654:1 5832:1 6417:1 
0.1182947404748422 0 852:1 965:1 1337:1 1349:1 2453:1 2480:1 2579:1 2636:1 3383:1 3384:1 3607:1 3616:1 4175:1 4474:1 5639:1 5651:1 5832:1 6141:1 
0.1248153341652829 0 237:1 352:1 577:1 724:1 931:1 1976:1 2034:1 3095:1 3189:1 3607:1 3609:1 3616:1 3801:1 3867:1 4777:1 5431:1 5832:1 6186:1 
0.06923692266100179 0.06630286378384891 210:1 634:1 794:1 825:1 1337:1 1807:1 2162:1 2579:1 2583:1 2703:1 3272:1 3616:1 4913:1 5639:1 5794:1 5832:1 6088:1 6338:1 6625:1 
0.4360091471836949 0 274:1 617:1 852:1 1976:1 3364:1 3522:1 4181:1 5778:1 
0.06503894594557943 0.001785314840883843 82:1 821:1 852:1 1066:1 1266:1 1337:1 1880:1 1976:1 2050:1 2144:1 2540:1 2579:1 2610:1 2754:1 3015:1 3250:1 3332:1 3607:1 3609:1 4311:1 4329:1 4420:1 4436:1 4545:1 5398:1 5639:1 5832:1 5904:1 6102:1 
0.05412386994953491 0.0214540312236397 540:1 631:1 2257:1 2446:1 2453:1 2579:1 3434:1 
0.2771754297806867 0 310:1 2585:1 3034:1 3216:1 3609:1 3801:1 5425:1 6416:1 
0.1539191164997438 0 852:1 1241:1 1316:1 1671:1 1797:1 1858:1 1976:1 3352:1 3609:1 3974:1 5754:1 6111:1 
0.1857922090352002 0 852:1 1188:1 1976:1 2000:1 2495:1 2667:1 3591:1 3607:1 4181:1 4345:1 4803:1 5639:1 5832:1 6171:1 6209:1 
1 1 
0 0.01859278229934064 852:1 984:1 1179:1 2446:1 2480:1 4436:1 5193:1 5639:1 5699:1 5909:1 
0.2762780164841813 0 32:1 852:1 2177:1 2357:1 2579:1 3607:1 3620:1 4194:1 4326:1 4773:1 4870:1 4905:1 5176:1 6074:1 6102:1 6457:1 
0.2796513508775607 0 662:1 2437:1 2579:1 4555:1 4621:1 5639:1 
0 0.09127562061884674 312:1 390:1 674:1 1200:1 1316:1 1369:1 2579:1 3099:1 4394:1 4723:1 5523:1 5827:1 
0.6426713286687736 0 910:1 1188:1 1197:1 4870:1 5160:1 6619:1 
0.1506689820309328 0 82:1 417:1 655:1 852:1 1079:1 1152:1 1337:1 1482:1 1976:1 2579:1 3607:1 4077:1 4677:1 4972:1 5639:1 5886:1 6111:1 6591:1 
0.07667614247058695 0 30:1 181:1 354:1 794:1 852:1 961:1 1197:1 1270:1 1476:1 1510:1 1976:1 2135:1 2463:1 2512:1 2551:1 2579:1 2854:1 2860:1 3241:1 3609:1 3860:1 4992:1 5000:1 5318:1 5639:1 5662:1 5832:1 6334:1 6338:1 6563:1 
0.1551738723316512 0 171:1 464:1 506:1 852:1 1337:1 1349:1 1584:1 1976:1 2327:1 4175:1 4436:1 4969:1 5386:1 5639:1 5775:1 6004:1 6175:1 6439:1 
0.3776804866451474 0.04980261683431286 467:1 820:1 3003:1 3607:1 
0.01386752991179691 0.01842429414399848 72:1 330:1 820:1 852:1 885:1 887:1 961:1 1452:1 1720:1 1976:1 2043:1 2063:1 2255:1 2985:1 3616:1 4172:1 4381:1 4757:1 5256:1 5483:1 5496:1 5832:1 5888:1 5960:1 
0.1625645269024961 0.03649476991826834 1639:1 3614:1 3654:1 4314:1 4594:1 
0.1349593645692522 0 337:1 495:1 622:1 727:1 852:1 1012:1 1188:1 1305:1 1735:1 2177:1 2255:1 2355:1 2376:1 2450:1 2579:1 3089:1 3332:1 3477:1 3609:1 3950:1 4200:1 4220:1 5079:1 5236:1 5268:1 5639:1 5726:1 5832:1 6334:1 6464:1 6546:1 
0 0.0106086442533328 82:1 574:1 1491:1 1614:1 1976:1 2255:1 2579:1 3616:1 3706:1 4164:1 4177:1 6306:1 
0.7693115713452607 0 274:1 521:1 983:1 1337:1 1980:1 2710:1 3607:1 4962:1 
0.2457924070092423 0.02511170357789483 359:1 704:1 821:1 961:1 1739:1 1976:1 2529:1 2579:1 2814:1 3277:1 3607:1 3684:1 3705:1 3812:1 4077:1 4181:1 4297:1 5639:1 5717:1 5827:1 5832:1 5886:1 6288:1 
0.3629932455045906 0 521:1 674:1 794:1 852:1 1079:1 1192:1 1337:1 1652:1 1976:1 2255:1 2579:1 2827:1 3541:1 3607:1 5832:1 5843:1 6056:1 6116:1 6416:1 
0.2789162508981602 0.01842237451916373 785:1 1219:1 1567:1 2446:1 3498:1 3607:1 3801:1 5571:1 5639:1 
0.3590054946728712 0 817:1 1529:1 1976:1 3189:1 3616:1 3801:1 5746:1 5748:1 5831:1 6573:1 
0.1549920646976924 0 577:1 820:1 961:1 1188:1 1569:1 1743:1 2176:1 2257:1 2399:1 2419:1 2501:1 2874:1 3464:1 3607:1 3616:1 4715:1 5450:1 5639:1 5785:1 6160:1 6491:1 6564:1 6581:1 
0.1999508506774962 0 38:1 50:1 817:1 849:1 1182:1 1188:1 2247:1 3188:1 3189:1 3616:1 3801:1 3895:1 4499:1 4719:1 4875:1 4905:1 4992:1 5167:1 5376:1 
0.1643789081201059 0 911:1 2884:1 5254:1 
0.112671119440576 0.02197623593793875 464:1 521:1 1336:1 2341:1 2634:1 2853:1 3176:1 3189:1 3616:1 3647:1 3801:1 3818:1 4177:1 4826:1 5101:1 5551:1 5632:1 5832:1 
0.06459726750656018 0 121:1 192:1 761:1 820:1 852:1 961:1 993:1 1120:1 1188:1 1976:1 2334:1 2579:1 2718:1 3475:1 3616:1 3794:1 3933:1 4347:1 4970:1 5254:1 5256:1 5569:1 5639:1 5977:1 
0.3288501445878727 0 354:1 521:1 852:1 2144:1 2189:1 2255:1 2480:1 2814:1 2927:1 3330:1 3649:1 4810:1 5890:1 6111:1 6546:1 
0.03237222675180837 0 203:1 280:1 354:1 852:1 1632:1 1976:1 2000:1 2446:1 2480:1 2530:1 2579:1 2782:1 3366:1 3616:1 4262:1 4309:1 4972:1 4992:1 5000:1 5438:1 5461:1 5639:1 5834:1 5971:1 6037:1 6334:1 
0.04023042802427373 0 337:1 852:1 910:1 1118:1 1188:1 1190:1 1197:1 1349:1 1863:1 1976:1 2255:1 2257:1 2587:1 2718:1 2753:1 3171:1 3229:1 3428:1 3504:1 3616:1 3618:1 3622:1 4005:1 4041:1 4175:1 4184:1 4749:1 4765:1 5304:1 5639:1 5737:1 6457:1 
0.6975394729226857 0 1190:1 1887:1 2144:1 3062:1 3189:1 3607:1 5843:1 
0.1821597638428979 0.08611926078625606 494:1 2713:1 3189:1 3614:1 6241:1 
0.1655806018930731 0.0513237789438598 86:1 359:1 472:1 571:1 930:1 942:1 1219:1 1438:1 1812:1 1976:1 2596:1 3616:1 3647:1 4786:1 5832:1 6109:1 
0.3112358035843921 0.01004512425742218 468:1 477:1 577:1 3801:1 4076:1 5330:1 5827:1 5832:1 5978:1 
0.7532018564981624 0.0280852012147459 977:1 3647:1 6088:1 
0.02781943027781075 0.004492386716631091 530:1 577:1 794:1 852:1 1337:1 1416:1 1976:1 2255:1 2285:1 2579:1 3315:1 3607:1 3609:1 3616:1 3652:1 4181:1 4333:1 4436:1 4972:1 5017:1 5439:1 5538:1 5639:1 5689:1 5737:1 5760:1 5832:1 5931:1 6675:1 
0.4730032112892102 0.0233855341275038 2579:1 4181:1 4600:1 4974:1 5645:1 5832:1 
0.09665760340122713 0 794:1 1086:1 1458:1 2514:1 3162:1 6147:1 
0.2479941212557291 0 351:1 2034:1 2104:1 2480:1 2884:1 3223:1 3862:1 4184:1 4429:1 
0.02847913146024418 0 464:1 910:1 1079:1 1173:1 2579:1 3189:1 3324:1 3616:1 3933:1 4192:1 4589:1 4799:1 5639:1 5827:1 
0.03689831533961046 0 727:1 852:1 1084:1 1126:1 1349:1 1976:1 2255:1 2503:1 2579:1 2632:1 2814:1 3146:1 3616:1 5639:1 5783:1 5832:1 6374:1 6397:1 6518:1 
0.2397381076648048 0.1774598999340306 734:1 852:1 1952:1 1976:1 2480:1 3191:1 3218:1 3290:1 3375:1 3616:1 3801:1 4112:1 4411:1 6426:1 6619:1 
0.06548471416425995 0.08872421672494786 488:1 1705:1 1887:1 1978:1 2480:1 3607:1 4090:1 6581:1 
0.05273290837583241 0 343:1 607:1 1188:1 2073:1 2201:1 2579:1 2590:1 3585:1 5989:1 
0.8271620765910123 0 570:1 794:1 2255:1 4915:1 6074:1 
0.02410419508499291 0 361:1 390:1 820:1 872:1 1007:1 1064:1 1197:1 1591:1 1831:1 2255:1 2579:1 2794:1 3607:1 3609:1 4181:1 4924:1 5113:1 5639:1 5750:1 5832:1 6063:1 6668:1 
0.2823332380893786 0.003340678203472686 28:1 821:1 1079:1 1126:1 1976:1 2003:1 2446:1 2480:1 2503:1 2988:1 3607:1 3609:1 3616:1 3953:1 4311:1 4905:1 5832:1 
0.1643035424448017 0 82:1 352:1 577:1 794:1 1739:1 1976:1 2034:1 2579:1 3029:1 3189:1 3330:1 3609:1 3664:1 4594:1 4810:1 4992:1 5174:1 
0.03554216093706358 0 275:1 521:1 2255:1 3607:1 3870:1 
0.1429004229702474 0 852:1 1484:1 2065:1 2189:1 2579:1 3002:1 3314:1 3831:1 4011:1 4810:1 4972:1 4979:1 5656:1 6227:1 6546:1 
0.25073786251991 0 3230:1 5502:1 
0.05862801319609405 0.01362467287777537 169:1 337:1 359:1 525:1 798:1 820:1 852:1 961:1 1252:1 1337:1 1822:1 1976:1 2425:1 2480:1 2579:1 3032:1 3277:1 3501:1 3607:1 3616:1 3753:1 3967:1 4100:1 4132:1 4145:1 4254:1 4473:1 4479:1 4485:1 4744:1 5639:1 5745:1 5832:1 6457:1 
0.02269407521043868 0.08644091566029277 794:1 852:1 1471:1 1730:1 1976:1 2034:1 3189:1 3218:1 3440:1 3801:1 4376:1 4512:1 4539:1 4905:1 5193:1 5431:1 5635:1 
0.1071406679247948 0 359:1 794:1 1819:1 2189:1 2579:1 2966:1 3609:1 4068:1 4341:1 4350:1 4507:1 4992:1 5981:1 6153:1 6269:1 6334:1 6546:1 
0.08466470157756492 0.01134675230112363 722:1 961:1 3392:1 3616:1 3963:1 4104:1 4390:1 5256:1 5639:1 
0.5260247602491327 0 390:1 521:1 2155:1 2343:1 2405:1 2425:1 3607:1 3801:1 3862:1 4744:1 4946:1 5030:1 5639:1 6357:1 
0.2241067641450758 0 1134:1 1316:1 3609:1 5147:1 5316:1 5639:1 6043:1 
0.4207133307089566 0 237:1 1815:1 1976:1 2034:1 4104:1 4391:1 4972:1 
0.1315104097135434 0.02437101051276214 930:1 1352:1 2726:1 3616:1 5293:1 5748:1 6362:1 
0.1716156116667771 0 38:1 852:1 1453:1 1976:1 2408:1 2463:1 2486:1 2924:1 3972:1 4466:1 4533:1 5067:1 5254:1 5639:1 6111:1 
0.1292233976631341 0 737:1 852:1 874:1 1079:1 1477:1 1976:1 2579:1 3729:1 4181:1 4767:1 4925:1 5000:1 5028:1 5639:1 5663:1 5802:1 6111:1 
0 0.01956768034596287 631:1 725:1 820:1 1264:1 1691:1 4097:1 
0.1388370540962566 0 759:1 852:1 1126:1 1179:1 1596:1 1887:1 1976:1 2275:1 2405:1 2915:1 3189:1 3412:1 3514:1 3516:1 3617:1 3943:1 4539:1 4810:1 4905:1 4992:1 5513:1 5639:1 5724:1 5886:1 
0.1525799555740346 0 239:1 829:1 852:1 961:1 1349:1 2327:1 2720:1 3616:1 4123:1 4134:1 5049:1 5330:1 5535:1 5543:1 5639:1 6455:1 
0.03761483892565581 0 233:1 4341:1 
0.4339069820681129 0.06961816868365968 32:1 176:1 577:1 2255:1 2579:1 2780:1 3189:1 3609:1 4946:1 5827:1 
0.1206664055805783 0 337:1 852:1 1197:1 1337:1 1976:1 2255:1 2495:1 2579:1 3015:1 3146:1 3226:1 3230:1 3607:1 3616:1 3742:1 4341:1 4357:1 4582:1 4929:1 5560:1 5639:1 5832:1 5839:1 5893:1 6026:1 6305:1 6341:1 6546:1 6618:1 
0.06590951881492733 0 760:1 1281:1 1976:1 2529:1 2579:1 2757:1 3960:1 4084:1 4360:1 4558:1 4905:1 5389:1 5639:1 5832:1 
0.05011413631971089 0.004005905556422613 157:1 910:1 1949:1 1976:1 2017:1 3189:1 4725:1 4946:1 5174:1 5307:1 5601:1 5639:1 6173:1 
0.1763000512352847 0 65:1 821:1 1282:1 1442:1 1601:1 2195:1 2303:1 2323:1 2663:1 3594:1 3607:1 4627:1 5639:1 6088:1 
0.1689935289435434 0.01957061172959709 359:1 687:1 820:1 1337:1 1486:1 1912:1 2065:1 2075:1 3008:1 3189:1 3404:1 3745:1 4068:1 4199:1 5014:1 5627:1 
0.2533641664737196 0.06511623300418043 257:1 887:1 5832:1 
1 1 
0.2936769446815855 0.02420680919117814 910:1 1107:1 1179:1 1657:1 1829:1 2177:1 2257:1 2692:1 3002:1 3945:1 4586:1 4628:1 4992:1 5832:1 5862:1 6485:1 
0.1447706617194801 0 143:1 345:1 413:1 521:1 728:1 852:1 1219:1 1220:1 1542:1 1887:1 1976:1 2034:1 2453:1 2579:1 3880:1 4992:1 5167:1 5581:1 5639:1 5827:1 5832:1 6581:1 
0.1831485147816621 0 245:1 246:1 315:1 499:1 525:1 590:1 757:1 961:1 1190:1 1831:1 1976:1 2517:1 4181:1 4556:1 4976:1 4992:1 5224:1 5639:1 5995:1 6111:1 6334:1 6457:1 
0.03131647461922402 0 82:1 400:1 608:1 748:1 794:1 817:1 1337:1 2076:1 2952:1 3189:1 4024:1 4199:1 4286:1 4395:1 4904:1 4980:1 5832:1 
0.2232427414586651 0.03373612672996915 87:1 852:1 936:1 961:1 1179:1 1239:1 2189:1 3893:1 4295:1 5256:1 6111:1 
0.2767009642148526 0.3770363923917826 852:1 3218:1 4263:1 4899:1 5639:1 6143:1 6252:1 
0.1543784143584664 0 727:1 852:1 1976:1 2405:1 3320:1 3609:1 3623:1 5513:1 5639:1 5886:1 6333:1 
0.1915980042273618 0.0276972180540639 359:1 549:1 655:1 821:1 864:1 961:1 2091:1 2390:1 2579:1 2705:1 3004:1 3379:1 3607:1 3616:1 4151:1 4420:1 4593:1 4905:1 5832:1 6481:1 
0.01629580378801021 0.003314120457102428 473:1 819:1 1222:1 1408:1 1743:1 1887:1 1891:1 1925:1 1933:1 2196:1 2206:1 2579:1 2874:1 3206:1 3556:1 4387:1 4766:1 4802:1 4813:1 4888:1 5857:1 5859:1 
0.32582388906592 0.02223279665670266 359:1 1240:1 1821:1 2067:1 2760:1 3272:1 3616:1 4861:1 5832:1 5989:1 6037:1 
0.08839472390602568 0.0831161579563731 1126:1 2449:1 2480:1 3647:1 4558:1 5101:1 5193:1 5200:1 
0.692848066700851 0.01153532128252172 4011:1 4494:1 
0.09674400010649038 0.006839260742432784 880:1 988:1 1220:1 1318:1 1467:1 1505:1 1562:1 1976:1 2016:1 2043:1 2255:1 2579:1 2748:1 3040:1 3533:1 3616:1 3945:1 4478:1 4992:1 5505:1 5575:1 5832:1 6415:1 6653:1 
0.02382340122915235 0 760:1 961:1 1188:1 1976:1 2318:1 2679:1 3607:1 3616:1 3706:1 4002:1 4842:1 5132:1 5618:1 5639:1 6074:1 6256:1 
0 0.1372913052525285 237:1 274:1 277:1 699:1 1219:1 1558:1 1976:1 2480:1 2579:1 3607:1 3777:1 5193:1 
0.1240152353649597 0 359:1 794:1 898:1 993:1 1274:1 1976:1 3199:1 3484:1 3636:1 4734:1 4884:1 5065:1 5620:1 5639:1 5642:1 6037:1 6457:1 
0.436986280997068 0 1793:1 1976:1 2579:1 4291:1 4318:1 5637:1 6334:1 
0.2369006987269111 0.04973340216370069 38:1 409:1 821:1 910:1 1188:1 1385:1 1715:1 1976:1 2257:1 2579:1 3324:1 3609:1 3620:1 3621:1 3860:1 3933:1 3957:1 4337:1 5356:1 5639:1 5832:1 6001:1 6366:1 6386:1 6642:1 
0.1776852623774459 0.02103288597160059 775:1 820:1 1747:1 2255:1 2400:1 3620:1 3824:1 4662:1 5469:1 
0.1083780415778013 0 794:1 852:1 910:1 1079:1 1108:1 1337:1 1704:1 1976:1 2039:1 2205:1 2255:1 2257:1 2525:1 2579:1 3135:1 3372:1 3609:1 3647:1 3995:1 4181:1 4810:1 4972:1 5595:1 5639:1 5643:1 5706:1 5886:1 6077:1 6327:1 6455:1 
1 0 2480:1 3189:1 5639:1 
0.6539391315343277 0 1337:1 1912:1 5576:1 
0.6864205026959949 0 233:1 1108:1 1887:1 2189:1 3189:1 4992:1 
0.1857913481706135 0.05171658994985576 265:1 3944:1 4215:1 4946:1 
0.003276164868009303 0 157:1 237:1 794:1 821:1 852:1 1592:1 1659:1 1817:1 1958:1 1976:1 2144:1 2229:1 2480:1 2579:1 2583:1 3008:1 3272:1 3324:1 3481:1 3588:1 3590:1 3808:1 3911:1 4183:1 4547:1 4558:1 4992:1 5639:1 5843:1 5886:1 6258:1 6334:1 6646:1 
0.2421721951921597 0.02501578095246946 359:1 797:1 1188:1 1562:1 2144:1 2255:1 2626:1 3799:1 4669:1 5482:1 5742:1 5924:1 6193:1 
0.2168734153906336 0 379:1 2446:1 4020:1 4368:1 4870:1 
0.2185342376481865 0 24:1 633:1 3223:1 5138:1 
0.6965263916352571 0.137463186648033 3416:1 3614:1 3923:1 6581:1 
0.05926649014272133 0.03769168915156498 852:1 1219:1 1655:1 1845:1 1912:1 1976:1 2035:1 2113:1 2255:1 3080:1 3377:1 3477:1 3607:1 3616:1 3957:1 4347:1 4582:1 4810:1 5612:1 5631:1 5666:1 5827:1 5832:1 5914:1 6056:1 
0.3335193961177622 0 820:1 852:1 1337:1 1351:1 1858:1 2255:1 3638:1 4181:1 4266:1 4810:1 5411:1 
0.2069120964916037 0 1069:1 1079:1 1349:1 1822:1 1976:1 2579:1 2792:1 3487:1 4102:1 4158:1 5326:1 5639:1 5832:1 6369:1 6416:1 
0.3053725696497035 0.01987263272575658 362:1 2579:1 4942:1 
0.02368067536030102 0.009760040358492855 1417:1 1486:1 2026:1 2272:1 2400:1 2480:1 2814:1 4004:1 4487:1 5476:1 5767:1 
0.2100003725533996 0.04195630242634185 359:1 416:1 852:1 1322:1 1671:1 1976:1 2437:1 2446:1 2480:1 2952:1 3607:1 3620:1 3985:1 4613:1 4810:1 5117:1 5965:1 
0.06699327779775879 0.002283826222123494 82:1 245:1 844:1 852:1 1220:1 1298:1 1316:1 1446:1 1797:1 2031:1 2255:1 3607:1 3616:1 4150:1 4311:1 4855:1 4897:1 5564:1 5639:1 5795:1 6111:1 6415:1 6625:1 
0.07417593364573154 0 1550:1 1976:1 2255:1 2307:1 2416:1 3476:1 3607:1 3609:1 3944:1 4181:1 4992:1 5639:1 5832:1 6663:1 
0.6573300451188965 0.0555807902170837 359:1 2241:1 2579:1 3607:1 3801:1 3878:1 4320:1 4744:1 5101:1 6658:1 
0.2906864452967555 0.0828886707526551 443:1 2287:1 3330:1 3635:1 4263:1 5513:1 
0.1326407980817783 0.007054378390890874 85:1 643:1 794:1 1416:1 1976:1 2118:1 2255:1 2322:1 2547:1 2579:1 2711:1 3126:1 3609:1 3950:1 5494:1 5639:1 5832:1 6037:1 6439:1 
0.04595977037787378 0.06398984176892784 82:1 245:1 274:1 332:1 934:1 1155:1 1284:1 2579:1 3159:1 3189:1 3609:1 4305:1 5101:1 5304:1 5832:1 5909:1 5932:1 5998:1 6491:1 
0 0.04734256692644911 245:1 635:1 967:1 1188:1 1246:1 1976:1 2031:1 2255:1 2480:1 3189:1 3324:1 3878:1 4810:1 5886:1 
0 0.03767016539096461 1979:1 2480:1 2757:1 3623:1 3860:1 4326:1 4905:1 5886:1 5906:1 
0.3367911848092411 0 852:1 1076:1 2034:1 2094:1 2539:1 3818:1 4075:1 4326:1 5254:1 5513:1 6581:1 
0.07808443183558904 0 752:1 852:1 998:1 1341:1 1551:1 1976:1 2579:1 3283:1 4812:1 4836:1 4856:1 4905:1 5639:1 5832:1 6285:1 6468:1 
0.1323631605704297 0.03603640082036878 827:1 4077:1 4326:1 4635:1 4972:1 5372:1 5827:1 5852:1 
0.4445654925436298 0.03638453340856932 204:1 2579:1 3501:1 4274:1 4946:1 
0.1180892319786397 0 392:1 727:1 1067:1 1100:1 1837:1 1976:1 4367:1 4460:1 5331:1 5422:1 5639:1 5832:1 6076:1 
0.5543072153681043 0 1284:1 2579:1 3695:1 4326:1 
0.235940467860398 0.04442442054851538 577:1 820:1 910:1 1488:1 1979:1 2756:1 3072:1 3252:1 3541:1 3607:1 3609:1 3647:1 3860:1 4275:1 4803:1 4810:1 5193:1 5639:1 5832:1 6088:1 
1 0.1531320316129657 2579:1 4326:1 4810:1 5832:1 
0.08738599004098392 0 476:1 794:1 961:1 1845:1 1961:1 1976:1 2579:1 2720:1 4446:1 4570:1 4972:1 5017:1 5639:1 5832:1 
0.09037413986180778 0.004500089881219378 877:1 1976:1 2523:1 2579:1 3616:1 3901:1 4196:1 4288:1 4972:1 5639:1 5827:1 5832:1 5955:1 6260:1 6543:1 
0.01755079664083829 0 817:1 852:1 2992:1 3189:1 3804:1 4219:1 4326:1 
0.05767535129509387 0 330:1 359:1 706:1 969:1 1337:1 2255:1 2268:1 2752:1 2904:1 3354:1 3607:1 3994:1 4170:1 4181:1 4232:1 4263:1 4391:1 5007:1 5639:1 5768:1 5832:1 6088:1 6128:1 
0.07670733727755132 0 521:1 659:1 870:1 1169:1 1976:1 2579:1 3099:1 3523:1 3607:1 3616:1 4701:1 4948:1 4992:1 5209:1 5639:1 5652:1 5744:1 
0.1706598025570146 0.0196837681935587 961:1 1601:1 1644:1 1976:1 2539:1 2579:1 3170:1 3408:1 4543:1 5055:1 5132:1 5639:1 5832:1 
-0.7854997786438438 0.1135458981487857 3168:1 4346:1 6640:1 
-0.03058595152506857 0 119:1 815:1 963:1 1773:1 2368:1 2579:1 2748:1 2946:1 2999:1 3528:1 5006:1 5245:1 5639:1 5832:1 5886:1 
-0.7465459681796651 0.2221433795322617 32:1 203:1 416:1 3039:1 
-0.1489860418700158 0 145:1 605:1 958:1 1197:1 2574:1 2579:1 2900:1 3917:1 4679:1 4810:1 5323:1 5639:1 5770:1 6578:1 
-1 0.04545581535000479 1079:1 2579:1 4796:1 
-0.4268786398878493 0.08205374742819344 170:1 522:1 3752:1 3801:1 6619:1 
-0.02513827167403588 0 337:1 359:1 517:1 521:1 807:1 821:1 852:1 1197:1 1976:1 2031:1 2256:1 2297:1 2357:1 2967:1 3183:1 3234:1 3406:1 3411:1 3529:1 4090:1 4676:1 4810:1 5271:1 5639:1 6439:1 
-0.2694812203144278 0.193500492273141 109:1 1337:1 1656:1 2354:1 2811:1 3218:1 3609:1 4461:1 5360:1 5886:1 6241:1 
-0.1428848788748061 0.01297707927194413 3:1 224:1 793:1 852:1 996:1 1205:1 1270:1 1274:1 1976:1 2255:1 2579:1 2632:1 2874:1 4564:1 5054:1 5573:1 5832:1 6005:1 6037:1 6110:1 
-1 0 521:1 3607:1 
-0.04434017826636261 0 591:1 643:1 737:1 841:1 993:1 1121:1 1337:1 1349:1 1908:1 2165:1 2579:1 2880:1 3647:1 3799:1 4792:1 4992:1 5128:1 5639:1 5768:1 5832:1 5889:1 6031:1 6056:1 6076:1 
-0.01794969219571163 0 89:1 128:1 314:1 852:1 1126:1 1149:1 1179:1 1976:1 2430:1 2463:1 3189:1 3609:1 3620:1 3957:1 4024:1 4075:1 4242:1 4337:1 4474:1 4507:1 5088:1 5839:1 6016:1 6334:1 
-0.07101908574572562 0 852:1 1391:1 1782:1 1976:1 2189:1 2480:1 2547:1 2553:1 3164:1 3322:1 3412:1 3501:1 3609:1 3934:1 4411:1 4810:1 4992:1 5639:1 
-0.01470351714951867 0 817:1 852:1 1976:1 2315:1 3189:1 3308:1 4476:1 5699:1 
-0.6001070350397866 0 109:1 1486:1 1912:1 2144:1 2480:1 3189:1 3616:1 3920:1 4383:1 4905:1 
-0.206112032184605 0.06726603668813834 1976:1 2474:1 3157:1 3616:1 3684:1 4181:1 5431:1 6597:1 
-0.5065100370471567 0.01834411228909766 335:1 620:1 1337:1 2480:1 3416:1 3609:1 4011:1 4263:1 
-0.03104107786120792 0 274:1 597:1 696:1 765:1 820:1 852:1 1033:1 1179:1 1190:1 1337:1 1468:1 1976:1 2068:1 2255:1 2257:1 3011:1 3348:1 3616:1 3620:1 3677:1 3757:1 3956:1 3964:1 4077:1 4181:1 4321:1 4622:1 5639:1 5643:1 5827:1 5832:1 5915:1 5958:1 6242:1 6419:1 6439:1 6630:1 
-0.05108627506016931 0 794:1 961:1 1269:1 1569:1 1976:1 2257:1 3180:1 3607:1 4577:1 5082:1 5259:1 5330:1 5350:1 5639:1 5827:1 6290:1 
-0.02856107314347385 0 185:1 337:1 485:1 579:1 660:1 821:1 852:1 1082:1 1181:1 1887:1 1976:1 2481:1 2552:1 2757:1 2760:1 2872:1 3386:1 3607:1 3791:1 3935:1 4748:1 5297:1 5639:1 5772:1 5886:1 6466:1 
-0.2598223481435246 0.05705705877066375 2143:1 2294:1 2579:1 3732:1 5832:1 6363:1 
-0.3264381331736914 0.05246518190289618 910:1 1976:1 2257:1 2411:1 5147:1 5645:1 5832:1 6030:1 6111:1 
-0.08620109332976066 0.01747466143255309 274:1 600:1 794:1 1079:1 1179:1 1219:1 1288:1 1976:1 2031:1 2034:1 2493:1 2692:1 2714:1 3272:1 3616:1 3620:1 3652:1 3836:1 4090:1 4263:1 4439:1 4905:1 5193:1 5832:1 6088:1 6506:1 
-0.1254853769262698 0 406:1 1098:1 1188:1 1270:1 1686:1 2579:1 3175:1 3191:1 3607:1 3713:1 3985:1 4181:1 4691:1 5224:1 5442:1 5639:1 6090:1 
-0.3777964594302934 0.02617525734684955 511:1 570:1 1976:1 1996:1 2241:1 2290:1 3545:1 3607:1 5167:1 
-0.2446237840683405 0.005192126940791818 359:1 521:1 581:1 757:1 794:1 1976:1 2163:1 2393:1 3239:1 3614:1 3647:1 4184:1 4539:1 5165:1 5167:1 5703:1 5831:1 5832:1 6217:1 
-0.1033218546975476 0 352:1 794:1 1544:1 1976:1 2020:1 2139:1 2503:1 3246:1 3607:1 3756:1 4181:1 5326:1 5471:1 5639:1 5786:1 5941:1 
-0.1889990883366535 0 512:1 1079:1 1601:1 1887:1 1976:1 2041:1 2189:1 2255:1 2284:1 2343:1 2576:1 2691:1 3064:1 3549:1 3607:1 3616:1 4077:1 4701:1 4757:1 4992:1 5639:1 5832:1 6111:1 
-0.209721917288478 0.03084192783129746 237:1 373:1 783:1 1126:1 1209:1 3931:1 4436:1 4463:1 4518:1 4656:1 4700:1 4739:1 4810:1 5224:1 6439:1 6546:1 
-0.1009218279001435 0.02704351789520467 247:1 821:1 887:1 1104:1 1179:1 1206:1 1416:1 1574:1 1806:1 1976:1 2255:1 2473:1 2566:1 2579:1 2985:1 3204:1 3607:1 3609:1 3620:1 4910:1 4992:1 5513:1 5569:1 6348:1 6457:1 
-0.2469829426364169 0.01036548121814305 632:1 794:1 910:1 1261:1 1269:1 1922:1 1976:1 2189:1 2338:1 2480:1 3607:1 3836:1 3860:1 5235:1 5639:1 5904:1 5995:1 
-0.1098281751725588 0.04292010768540133 17:1 1413:1 1440:1 1504:1 1976:1 2055:1 3272:1 3330:1 3607:1 3616:1 3799:1 4024:1 4058:1 4306:1 4600:1 5246:1 5639:1 5730:1 5827:1 5832:1 5852:1 6085:1 6600:1 
-0.1521077026698639 0 337:1 852:1 866:1 1119:1 1316:1 1337:1 1609:1 2579:1 2595:1 3609:1 3801:1 4069:1 4946:1 5040:1 5167:1 5639:1 5830:1 6334:1 
-0.2292801339125968 0.0017277402348461 40:1 821:1 1188:1 2263:1 2636:1 3272:1 3607:1 4816:1 5918:1 6088:1 
-0.3743633978391646 0 1858:1 2094:1 2579:1 3029:1 4669:1 5735:1 6008:1 6334:1 
-0.1386473694294547 0 32:1 205:1 303:1 674:1 1079:1 1197:1 1976:1 3246:1 3647:1 5193:1 5248:1 5330:1 5639:1 5843:1 6111:1 6342:1 6619:1 
-0.3970580426037127 0 8:1 521:1 3884:1 4870:1 5513:1 
-0.02170396562500543 0 562:1 889:1 1976:1 2697:1 2776:1 2972:1 3191:1 3271:1 4024:1 4181:1 4448:1 4992:1 5173:1 5639:1 5744:1 5770:1 6439:1 
-0.554702156454338 0.06253269204374179 570:1 674:1 794:1 2090:1 2579:1 4582:1 5193:1 
-0.01923262307825335 0 359:1 491:1 558:1 817:1 852:1 910:1 1337:1 1976:1 2316:1 3189:1 3801:1 3818:1 4117:1 4449:1 4870:1 5340:1 5378:1 5425:1 6334:1 
-0.006522041782807531 0 55:1 852:1 961:1 1079:1 1219:1 1694:1 1976:1 2301:1 2754:1 3339:1 3554:1 3616:1 3670:1 4432:1 4701:1 5209:1 5298:1 5639:1 5832:1 6111:1 6464:1 
-0 0.00570404811282481 245:1 274:1 359:1 842:1 852:1 910:1 1250:1 1636:1 1722:1 1848:1 1976:1 2093:1 2257:1 2715:1 3057:1 3607:1 4870:1 4992:1 5832:1 5845:1 5932:1 5997:1 6132:1 
-0.890983051993043 0 2189:1 4411:1 4870:1 5513:1 
-0.2663770664426903 0 144:1 359:1 1739:1 1976:1 3231:1 3607:1 3609:1 4870:1 5063:1 5843:1 6241:1 
-0.01142952326487106 0 305:1 359:1 935:1 1337:1 1349:1 1433:1 1976:1 2120:1 2255:1 2257:1 2533:1 2741:1 2773:1 3301:1 3416:1 3609:1 3616:1 4175:1 4236:1 4295:1 4713:1 4870:1 5115:1 5208:1 5223:1 5639:1 5832:1 6073:1 6369:1 6457:1 
-0.608276688113311 0.1786179292210463 876:1 2197:1 3616:1 5639:1 6581:1 
-0.1165949581840219 0 634:1 852:1 1042:1 1976:1 2177:1 2255:1 3268:1 3291:1 3403:1 3607:1 3616:1 3994:1 4323:1 5304:1 5398:1 5639:1 5827:1 
-0.2786573724303872 0 817:1 920:1 2585:1 3145:1 3189:1 3801:1 4810:1 5500:1 5639:1 6111:1 
-0.2362225610856462 0.06689848709498657 910:1 1088:1 2257:1 2535:1 4169:1 4417:1 
-1 0.2755770854585392 2579:1 4332:1 
-0.350005826592841 0 390:1 1589:1 1797:1 3189:1 4394:1 5544:1 6111:1 6672:1 
-0.3457952201139155 0.02683125642122915 983:1 1908:1 2579:1 3607:1 3616:1 3872:1 4304:1 4326:1 4465:1 
-0.1006524797649719 0.02618528233984214 820:1 2474:1 3276:1 3598:1 3616:1 4652:1 5058:1 5639:1 6295:1 
-0.1331853198080503 0 57:1 81:1 162:1 274:1 333:1 597:1 910:1 1197:1 1569:1 1797:1 1976:1 2255:1 2579:1 3539:1 4123:1 4800:1 4972:1 5639:1 5720:1 5827:1 6063:1 
-0.07049999904793298 0.004568608643487891 416:1 794:1 852:1 874:1 910:1 1179:1 1492:1 1976:1 2503:1 2542:1 4149:1 4213:1 4383:1 4475:1 4523:1 4905:1 4936:1 5125:1 5330:1 5566:1 5770:1 5832:1 6139:1 6464:1 6546:1 
-0.1386529025400461 0 274:1 378:1 521:1 585:1 794:1 1436:1 3437:1 3789:1 5513:1 5539:1 6334:1 
-0.4985302412580921 0 820:1 898:1 1079:1 1126:1 1309:1 1349:1 1616:1 2189:1 2255:1 2503:1 2579:1 3607:1 3609:1 4317:1 4905:1 5639:1 
-1 0.3404663644828467 427:1 
-0.1706175300842061 0.01116128950735514 237:1 406:1 821:1 852:1 1179:1 1519:1 1683:1 1865:1 1976:1 2116:1 3146:1 3230:1 3377:1 3616:1 3647:1 3757:1 3970:1 4992:1 5284:1 5820:1 6007:1 6088:1 6111:1 6608:1 
-0.008660447221198953 0 211:1 852:1 961:1 1079:1 1384:1 1443:1 1976:1 2189:1 3607:1 3616:1 4724:1 5242:1 5330:1 5364:1 5431:1 6271:1 6439:1 
-0.6231441329568242 0.009358666493095431 709:1 1284:1 1588:1 2189:1 2579:1 4326:1 4744:1 
-0 0.1944654104141118 852:1 983:1 2640:1 3818:1 4341:1 
-0.07855053777908291 0.07028641560248178 337:1 807:1 1908:1 2446:1 2595:1 3609:1 3818:1 4515:1 6050:1 
-0.2960100535101698 0 82:1 852:1 2097:1 2189:1 2255:1 2357:1 3189:1 3647:1 3661:1 4024:1 4660:1 5257:1 6111:1 
-0.2052402647182695 0 337:1 930:1 1079:1 1231:1 1337:1 1773:1 1976:1 3607:1 3616:1 3927:1 4376:1 4972:1 6362:1 
-0.00946129942096237 0.01181728281733684 254:1 391:1 416:1 820:1 1700:1 1883:1 1976:1 2533:1 2579:1 3607:1 3926:1 4034:1 4543:1 5072:1 5832:1 6281:1 
-0.00750287041200145 0.01474083447732094 820:1 1037:1 1219:1 1395:1 1955:1 1976:1 2144:1 2148:1 2255:1 2375:1 2379:1 2452:1 2870:1 3130:1 3303:1 3339:1 3616:1 4357:1 4394:1 4597:1 5059:1 5643:1 5648:1 5729:1 5832:1 5839:1 6311:1 
-0.2543769250851896 0 521:1 3118:1 3308:1 
-0.1835285116333195 0 817:1 852:1 1868:1 2579:1 3189:1 3403:1 3685:1 3818:1 4004:1 
-0.1660608228833117 0.003254549773303696 910:1 1143:1 1285:1 1428:1 1684:1 1976:1 2255:1 2478:1 4291:1 4555:1 4805:1 5146:1 5261:1 5639:1 6334:1 6564:1 
-0.4042049884828506 0.122458029502437 1219:1 1976:1 2377:1 3607:1 3616:1 4065:1 5302:1 
-0.1525699670135893 0 171:1 274:1 433:1 820:1 852:1 961:1 1467:1 1976:1 2756:1 3073:1 3607:1 3764:1 4582:1 5193:1 5224:1 5832:1 
-0.1310754854861391 0 852:1 1168:1 1197:1 1219:1 3008:1 3458:1 3609:1 4992:1 5639:1 5691:1 5810:1 5975:1 6416:1 
-0.4020118352429517 0 359:1 2034:1 2579:1 3039:1 3332:1 3607:1 3609:1 3616:1 3620:1 3852:1 4744:1 5513:1 5843:1 
-0.07248268123617189 0.3257392733385083 2447:1 3218:1 4444:1 4810:1 4980:1 5398:1 
-0 0.0382601532376495 237:1 794:1 910:1 961:1 1357:1 1773:1 3705:1 3716:1 4002:1 4905:1 6327:1 
-0.149282917932025 0.00831481982030214 852:1 1701:1 2437:1 2450:1 4380:1 4558:1 5832:1 6324:1 6358:1 
-0.237894321537094 0.03814947542908854 370:1 583:1 742:1 1293:1 1822:1 1865:1 1976:1 2255:1 2579:1 2710:1 3489:1 3607:1 3616:1 3927:1 4143:1 4420:1 5832:1 
-0.3980270859580741 0.1193857971509294 2539:1 3308:1 3801:1 6174:1 
-0.1159591985661327 0.1199633369348375 359:1 1650:1 1976:1 2301:1 2770:1 3745:1 5181:1 
-0.1739635496673869 0 337:1 605:1 852:1 1689:1 1976:1 2833:1 3006:1 4473:1 4991:1 5639:1 5717:1 5832:1 6480:1 
-0.4829448644304884 0.1849076453680369 383:1 1337:1 2480:1 3189:1 4924:1 5088:1 5101:1 5827:1 
-0.5874570836707312 0.02991814028492595 577:1 607:1 1322:1 2034:1 2255:1 2503:1 2579:1 2588:1 3836:1 4689:1 4905:1 5138:1 5467:1 5832:1 5954:1 6581:1 
-0.07144655916616459 0 852:1 1283:1 1284:1 1595:1 1990:1 2851:1 2913:1 3607:1 4558:1 4946:1 5301:1 5839:1 6392:1 6645:1 
-0.1223600414749376 0 3:1 177:1 682:1 1671:1 1852:1 1858:1 1976:1 2566:1 2579:1 3324:1 3607:1 3659:1 4972:1 5054:1 5839:1 6142:1 
-0.04537319294942272 0 821:1 1079:1 1797:1 1858:1 1976:1 2113:1 3324:1 3609:1 3620:1 3833:1 3957:1 5720:1 5832:1 6056:1 6591:1 
-0.01647020069468846 0 359:1 399:1 508:1 521:1 577:1 852:1 961:1 1310:1 1489:1 1844:1 1976:1 2144:1 2184:1 2255:1 3562:1 3607:1 3616:1 3623:1 3844:1 4024:1 4181:1 4744:1 4757:1 4870:1 5431:1 5639:1 5832:1 5855:1 5886:1 6351:1 
-0.7008093182846676 0.1054312227040414 1284:1 2579:1 3541:1 3607:1 6049:1 
-0.0714661018721232 0.02389869203535278 753:1 852:1 853:1 1219:1 1976:1 2189:1 2408:1 3330:1 3362:1 3607:1 3614:1 3624:1 3647:1 3801:1 3957:1 4065:1 4184:1 4391:1 4852:1 4905:1 5035:1 5120:1 5639:1 5816:1 6324:1 6546:1 
-0.1191992779881446 0 229:1 309:1 353:1 666:1 794:1 820:1 852:1 1557:1 1976:1 2081:1 2189:1 2195:1 2724:1 2784:1 2932:1 3128:1 3616:1 4024:1 4152:1 5115:1 5550:1 5639:1 5807:1 5827:1 5839:1 6088:1 6106:1 6225:1 
-0.2329430803934366 0.01343643364840834 755:1 1758:1 2255:1 2496:1 2606:1 3607:1 3826:1 4064:1 4725:1 4992:1 5827:1 
-0.1464031829629374 0.113119638631129 15:1 2480:1 2579:1 3678:1 3860:1 4345:1 4664:1 4870:1 5431:1 5632:1 5699:1 
-0.04832687535114263 0.01371317249310007 620:1 811:1 852:1 1441:1 1849:1 1976:1 2189:1 2579:1 2882:1 3194:1 3801:1 5124:1 5407:1 5651:1 5827:1 5839:1 5855:1 6334:1 6457:1 6546:1 6625:1 
-0.097839980179241 0.009954973066576717 82:1 446:1 794:1 820:1 852:1 898:1 1179:1 1601:1 1764:1 1976:1 2091:1 2300:1 2357:1 2458:1 2480:1 2579:1 3394:1 3607:1 3620:1 3862:1 3902:1 4027:1 4075:1 4588:1 5176:1 5238:1 5639:1 5699:1 5802:1 5832:1 5839:1 5995:1 6026:1 6234:1 6246:1 6546:1 
-0.3547814361979689 0 32:1 468:1 852:1 961:1 1887:1 2189:1 2255:1 2463:1 4090:1 4992:1 5000:1 5304:1 
-0.3118756251470496 0.0238795616222909 1188:1 1902:1 2031:1 4270:1 4405:1 4696:1 5832:1 
-0.3448792528957364 0 171:1 632:1 821:1 1976:1 2446:1 2966:1 4021:1 4311:1 4905:1 4972:1 5639:1 6489:1 
-0.03942113989147737 0 320:1 480:1 820:1 852:1 1079:1 1349:1 1712:1 1976:1 2394:1 2579:1 3398:1 3607:1 4123:1 5776:1 
-0.5047067608101161 0 5605:1 5639:1 6061:1 
-0.5724118963542973 0.008533050825816402 783:1 852:1 1188:1 1976:1 3801:1 4252:1 4530:1 4874:1 4953:1 6619:1 
-0 0.05178288236829423 32:1 78:1 337:1 852:1 1987:1 2669:1 3616:1 3644:1 3805:1 5101:1 5835:1 6581:1 
-0.2473225621079373 0 2031:1 2579:1 2696:1 4187:1 4699:1 4946:1 5639:1 5832:1 5839:1 6386:1 
-0.2777072569483764 0 698:1 821:1 898:1 1827:1 1976:1 3288:1 3332:1 3378:1 3501:1 4420:1 5639:1 5786:1 
-0.2132585624156834 0 151:1 1071:1 1153:1 1190:1 1516:1 1976:1 2877:1 3189:1 3616:1 3912:1 5639:1 6439:1 
-0.2861219762236007 0 359:1 438:1 852:1 1393:1 1501:1 1739:1 2155:1 3572:1 4326:1 4719:1 4972:1 4992:1 5000:1 5304:1 5832:1 
-0.5120255470398651 0.1980743361147754 336:1 821:1 1739:1 2449:1 3616:1 6478:1 
-0.1249657601480592 0 161:1 337:1 430:1 512:1 577:1 794:1 1107:1 1858:1 1976:1 2360:1 2579:1 3065:1 3312:1 3616:1 5234:1 5304:1 5832:1 5852:1 6444:1 6485:1 
-0 0.01090015515440069 396:1 742:1 852:1 1079:1 1782:1 1976:1 2255:1 2368:1 2463:1 2579:1 3607:1 4004:1 5123:1 5843:1 6035:1 6416:1 
-0.2065440377769607 0.05262870399541509 15:1 169:1 1197:1 1401:1 1797:1 3324:1 3416:1 3905:1 5224:1 5248:1 5330:1 6591:1 
-0.5547785955382404 0 3189:1 3403:1 3766:1 4810:1 
-0.3553519326462385 0 2177:1 3098:1 3189:1 3607:1 4004:1 5431:1 6414:1 6546:1 6663:1 
-0.1581868290039323 0.0613121510546853 418:1 852:1 967:1 1090:1 1416:1 1996:1 2568:1 3177:1 3189:1 3330:1 3801:1 4173:1 4485:1 4905:1 5832:1 5886:1 
-0.1180715840647157 0.002325861237214868 787:1 794:1 1636:1 3945:1 4049:1 4231:1 4426:1 4560:1 5147:1 5193:1 5639:1 5873:1 6447:1 
-0.1619477632730119 0.01652863703203323 639:1 794:1 821:1 1464:1 1976:1 2031:1 2503:1 2915:1 3005:1 3616:1 3945:1 4992:1 5522:1 5832:1 6593:1 
-0.05324756078185081 0.003611336758880412 437:1 607:1 794:1 852:1 1090:1 1179:1 1365:1 1649:1 1908:1 1976:1 1996:1 4499:1 5832:1 6341:1 
-0.3813602902655476 0 852:1 2177:1 2559:1 3189:1 3217:1 4810:1 5425:1 5639:1 6416:1 6494:1 
-0.9321568187856289 0 2189:1 3191:1 3223:1 
-0.2931011361153411 0 274:1 378:1 464:1 521:1 783:1 1093:1 2640:1 3189:1 3801:1 
-1 0.3405373620740547 314:1 
-0.3758258389232556 0.05470177856561761 1079:1 1843:1 2579:1 3616:1 4249:1 4829:1 5832:1 
-0.4559984884297369 0.04833172565553884 2087:1 2189:1 3145:1 3972:1 4208:1 4499:1 5067:1 5827:1 
-0.3650947384065248 0 184:1 2079:1 3189:1 3364:1 3609:1 4992:1 5297:1 
-0.1752662281720928 0 319:1 751:1 859:1 1964:1 1976:1 2255:1 3616:1 3760:1 4311:1 4810:1 5181:1 5304:1 5832:1 6056:1 
-0 0.004350357128741826 82:1 258:1 820:1 852:1 1184:1 1546:1 2144:1 2579:1 3366:1 3394:1 3801:1 4004:1 4085:1 4479:1 4905:1 5068:1 5101:1 5398:1 5937:1 6334:1 6406:1 
-0.214868454947916 0.03444167962676768 422:1 557:1 674:1 794:1 820:1 852:1 1179:1 2037:1 3785:1 4181:1 5193:1 6271:1 
-0.6301119992757737 0.07360969718990863 794:1 3189:1 3403:1 3614:1 3705:1 4298:1 6357:1 
-0.2634690906757134 0.0447746612332513 38:1 1492:1 2579:1 3132:1 3616:1 3819:1 4253:1 4359:1 5957:1 6579:1 
-0.2144564036764847 0 32:1 521:1 562:1 612:1 2080:1 3616:1 
-0.1501211218714583 0 21:1 359:1 566:1 620:1 1793:1 2177:1 2579:1 3412:1 3733:1 5639:1 6344:1 6546:1 
-0.4885090101718852 0 453:1 1581:1 1976:1 2579:1 3647:1 4558:1 5167:1 5832:1 6334:1 
-0.06933208759895745 0.007256778867910971 383:1 852:1 1071:1 1976:1 2185:1 2257:1 2958:1 3607:1 3609:1 3945:1 4022:1 4376:1 4465:1 4905:1 6457:1 6493:1 6662:1 
-0.6227839458004524 0.07791494246922953 359:1 2058:1 2579:1 4297:1 4392:1 
-0.008818967584202834 0 274:1 821:1 965:1 983:1 1505:1 1570:1 2000:1 2189:1 2524:1 2579:1 2636:1 3607:1 3609:1 4022:1 4181:1 4432:1 4711:1 5832:1 
-0.2534591036773182 0.03371615974632416 121:1 458:1 852:1 1976:1 2503:1 2706:1 2718:1 5832:1 6357:1 
-0.03989942566542313 0 570:1 673:1 1027:1 1100:1 1139:1 1254:1 1371:1 1976:1 2255:1 2301:1 2327:1 2564:1 2579:1 2874:1 2987:1 3189:1 3332:1 3616:1 4475:1 5639:1 5768:1 5832:1 6454:1 
-0.08895165198197019 0 2:1 116:1 452:1 475:1 820:1 832:1 1263:1 1294:1 1349:1 1593:1 1782:1 1872:1 1976:1 2061:1 2327:1 2406:1 3152:1 3578:1 3607:1 3690:1 4185:1 4555:1 5329:1 5639:1 5832:1 6439:1 6535:1 
-0.0806318975378353 0.01362116959739741 521:1 581:1 737:1 984:1 1270:1 1316:1 1337:1 1349:1 2243:1 2255:1 2757:1 3330:1 3362:1 3368:1 3541:1 3609:1 4004:1 4024:1 4042:1 4587:1 4751:1 4941:1 4946:1 5351:1 5832:1 6364:1 6429:1 
-0.159747762035669 0 340:1 852:1 1562:1 1631:1 1976:1 2031:1 2296:1 2679:1 2696:1 2978:1 3616:1 4181:1 4910:1 5044:1 5059:1 5351:1 5639:1 5729:1 6334:1 
-0.1599870243602273 0.01454723018033082 579:1 783:1 2709:1 3647:1 4297:1 4400:1 4874:1 5787:1 
-0.3166667725669008 0.02331737795610749 910:1 1321:1 2257:1 2579:1 2662:1 6074:1 6337:1 6342:1 
-0.4046997066294131 0 359:1 852:1 1071:1 2241:1 2579:1 2884:1 3039:1 4543:1 4744:1 4972:1 5101:1 5974:1 
-0.2518882496318069 0 337:1 416:1 1337:1 2982:1 4179:1 6336:1 
-0.0589023269601108 0 416:1 820:1 852:1 961:1 1797:1 1887:1 1898:1 1976:1 2255:1 2778:1 2861:1 3189:1 4810:1 4992:1 5006:1 5044:1 5886:1 6338:1 6640:1 
-0.1579967069243622 0.01106431487257524 74:1 852:1 1219:1 1737:1 2556:1 3189:1 3801:1 4105:1 6334:1 
-0.08544298438799106 0 608:1 985:1 1447:1 1858:1 2672:1 3189:1 3609:1 4099:1 6324:1 
-0.1406399148766355 0 1335:1 1349:1 2579:1 3464:1 4956:1 5048:1 5550:1 5639:1 5869:1 
-0.4962111637229607 0.1135539633675737 552:1 4001:1 4274:1 
-0.8070533204622391 0.1112449463759216 2034:1 2449:1 3189:1 5449:1 
-0.1184026037175353 0 163:1 352:1 399:1 616:1 772:1 794:1 1079:1 1188:1 1838:1 1976:1 2310:1 2909:1 3607:1 3609:1 3616:1 4232:1 4727:1 4946:1 5639:1 5666:1 5686:1 5748:1 5832:1 6083:1 6464:1 6656:1 
-0.1281004973267049 0.05938014250174554 287:1 1238:1 1248:1 2555:1 3189:1 3417:1 4263:1 6581:1 
-0.1460377043155671 0.02273709493319913 1747:1 1858:1 1976:1 2300:1 2579:1 3029:1 3395:1 3607:1 5257:1 
-0.2323288606777686 0.1130710840051556 274:1 727:1 852:1 1090:1 1975:1 1976:1 1996:1 2579:1 2780:1 3218:1 3607:1 3616:1 3876:1 3922:1 4376:1 5280:1 5380:1 5570:1 5827:1 6191:1 6334:1 6439:1 
-0.2098577871245792 0 82:1 794:1 1071:1 1562:1 1976:1 2640:1 3189:1 3647:1 4077:1 4278:1 4656:1 4744:1 5044:1 5096:1 5167:1 5639:1 5831:1 
-0.2236144499526594 0.03714076484472328 202:1 821:1 852:1 1380:1 1605:1 1976:1 2422:1 2579:1 3441:1 3620:1 3655:1 4518:1 4594:1 5014:1 5167:1 5832:1 6314:1 
-0.0991316013633491 0.006132047814366476 131:1 177:1 337:1 961:1 985:1 1079:1 1214:1 1219:1 1307:1 1976:1 2579:1 2760:1 2980:1 3384:1 3477:1 3522:1 3627:1 3636:1 4286:1 4694:1 4946:1 5832:1 6288:1 
-0 0.01780844207536905 386:1 783:1 794:1 820:1 821:1 852:1 1219:1 1481:1 1976:1 2255:1 2278:1 2579:1 2814:1 3659:1 3879:1 3908:1 4860:1 5602:1 5639:1 5832:1 6118:1 6597:1 6642:1 6668:1 
-0.203759488223296 0 340:1 852:1 1188:1 1197:1 1241:1 1856:1 1887:1 2255:1 2579:1 3547:1 3610:1 4077:1 4263:1 4462:1 4479:1 4637:1 5208:1 5330:1 5373:1 5423:1 5639:1 5717:1 5832:1 6111:1 6141:1 6170:1 6464:1 
-0.3839520124659437 0 852:1 3189:1 3697:1 4810:1 5452:1 6334:1 
-0.08969940756494994 0 32:1 83:1 332:1 521:1 852:1 1759:1 2449:1 2579:1 2884:1 3189:1 3607:1 3616:1 3655:1 4011:1 4485:1 5167:1 
-0.1242489846911951 0 199:1 263:1 464:1 842:1 852:1 934:1 961:1 1027:1 1360:1 1976:1 2189:1 3384:1 3448:1 3609:1 3616:1 3971:1 4810:1 5639:1 5643:1 5731:1 5832:1 6037:1 6464:1 
-0.07875276487470732 0 245:1 562:1 852:1 997:1 1349:1 1562:1 1976:1 2229:1 2255:1 2297:1 2579:1 3623:1 4294:1 4345:1 4420:1 4992:1 5744:1 5832:1 6563:1 
-0.2150695774282394 0 237:1 378:1 400:1 521:1 589:1 783:1 794:1 1416:1 1887:1 2982:1 3189:1 3607:1 4485:1 4946:1 6075:1 
-0.1207282725220484 0.01663221391508846 359:1 1761:1 1976:1 2034:1 2247:1 2579:1 3189:1 3616:1 5089:1 5176:1 6551:1 
-0.3577139765647057 0.08744326861258082 961:1 1287:1 3086:1 3616:1 5639:1 6346:1 
-0.1545836147283653 0 5:1 337:1 577:1 610:1 852:1 977:1 983:1 1079:1 1638:1 1764:1 1829:1 1976:1 2255:1 2357:1 2368:1 2982:1 3503:1 3607:1 3609:1 4603:1 5176:1 5940:1 6088:1 6416:1 
-0.1411232734689969 0.09420184787109193 563:1 2145:1 2579:1 3879:1 4912:1 5094:1 5127:1 5638:1 5639:1 5794:1 
-0.02804682928158488 0 99:1 189:1 423:1 471:1 592:1 601:1 614:1 818:1 1101:1 1223:1 1891:1 2197:1 2579:1 3025:1 3055:1 3550:1 3567:1 3608:1 3749:1 3977:1 4178:1 4246:1 4281:1 4322:1 4733:1 4766:1 4870:1 4945:1 5081:1 5645:1 5664:1 6023:1 6487:1 
-0.008780559157396941 0 794:1 1284:1 1887:1 2034:1 2089:1 2480:1 3189:1 3403:1 3664:1 4540:1 5101:1 5639:1 5827:1 6651:1 
-0.2554791711505154 0 337:1 820:1 977:1 1337:1 1963:1 1976:1 2072:1 2144:1 2255:1 2579:1 3159:1 3332:1 3501:1 3607:1 3609:1 4181:1 4992:1 5257:1 5639:1 5651:1 5662:1 5720:1 5895:1 6193:1 6366:1 6464:1 
-0.4196297334458794 0.02566075109337094 1887:1 3189:1 3609:1 4371:1 6237:1 
-0.3222275055680273 0.04384480227551204 1189:1 2749:1 3189:1 3616:1 4485:1 4733:1 
-0.4513811857060365 0.06055475927805982 770:1 785:1 2144:1 3120:1 3189:1 
-0.6154468520799492 0.1658519166087688 2158:1 2848:1 
-0.143968045909677 0.01594472885204071 177:1 820:1 821:1 1343:1 1563:1 1764:1 1976:1 2381:1 2480:1 2579:1 2821:1 2857:1 3147:1 3212:1 3515:1 5224:1 5379:1 5639:1 5832:1 6416:1 
-0.04724879638265476 0 235:1 910:1 1126:1 1739:1 1904:1 1976:1 2257:1 2303:1 2814:1 3288:1 3607:1 3609:1 3616:1 4420:1 4992:1 5116:1 5639:1 5683:1 5832:1 5904:1 6439:1 
-0.01910067508392064 0 19:1 722:1 919:1 961:1 1976:1 2356:1 3607:1 4181:1 4423:1 4957:1 5203:1 5233:1 5246:1 5639:1 5643:1 6063:1 6334:1 
-0.1749505887685017 0 354:1 359:1 2509:1 2760:1 2826:1 3272:1 4212:1 4808:1 5336:1 5639:1 6088:1 6452:1 6562:1 
-0.2620388607409416 0.08859189187362589 577:1 852:1 1943:1 2579:1 3189:1 3330:1 3623:1 3801:1 4506:1 4688:1 4810:1 5590:1 5827:1 6581:1 
-0.1925111351928362 0 237:1 1337:1 1393:1 1500:1 1976:1 2189:1 3616:1 3801:1 5812:1 5832:1 6241:1 
-0.09848947653233413 0.01367230972206508 32:1 359:1 475:1 620:1 1976:1 2480:1 3616:1 4007:1 4375:1 4420:1 5752:1 5849:1 5886:1 6111:1 
-0.728700004076851 0 359:1 1739:1 2480:1 3189:1 4001:1 5101:1 5639:1 5890:1 
-0.280245646229598 0 337:1 1278:1 1337:1 1976:1 2189:1 2544:1 2579:1 2937:1 4181:1 4326:1 4608:1 6129:1 
-0.09589577418514919 0 176:1 1335:1 1976:1 2034:1 2579:1 3412:1 3609:1 4181:1 4744:1 4793:1 4946:1 5048:1 6151:1 6386:1 
-0.009128234626809556 0.03708850698033778 416:1 657:1 794:1 961:1 1219:1 1485:1 1763:1 1839:1 1976:1 2145:1 2257:1 2611:1 3534:1 5043:1 5812:1 5827:1 5832:1 5967:1 6003:1 
-0 0.0199245577514748 274:1 416:1 852:1 1179:1 1293:1 1427:1 1647:1 1976:1 2255:1 2579:1 2606:1 3705:1 4606:1 4927:1 4998:1 5014:1 5040:1 5070:1 5161:1 5639:1 5794:1 5832:1 6015:1 
-0.03689804483485774 0 337:1 783:1 842:1 852:1 1419:1 1439:1 1831:1 1843:1 1976:1 2064:1 3099:1 3623:1 3825:1 4069:1 4344:1 4992:1 5645:1 5839:1 6585:1 
-0.6127804747090865 0.1294703016229478 359:1 1980:1 3036:1 3257:1 4779:1 
-0.2020786821997151 0.00450702828926475 38:1 617:1 923:1 1976:1 2579:1 2628:1 2865:1 4905:1 4921:1 5398:1 5748:1 5832:1 6037:1 6464:1 6668:1 
-0.573318036597008 0.09231155411522241 2177:1 3801:1 3953:1 4733:1 4755:1 6111:1 
-0.6773090138936749 0 821:1 852:1 1179:1 1413:1 1976:1 3002:1 3587:1 3647:1 3818:1 4181:1 4499:1 5639:1 
-0.0185109232175677 0 38:1 539:1 572:1 852:1 1179:1 1976:1 2102:1 4026:1 4555:1 4717:1 5335:1 5639:1 5643:1 5832:1 6111:1 
-0.3068973894153342 0.06632151375396428 359:1 2380:1 2763:1 3801:1 4275:1 5740:1 6384:1 
-0.4989068314552255 0.1385422936556278 359:1 1068:1 2579:1 3223:1 3330:1 3607:1 4719:1 
-0.06701650701340657 0.07124519514139541 378:1 1976:1 3098:1 5218:1 5832:1 6663:1 
-0.311910974242814 0.07258040939483469 2301:1 3272:1 3453:1 3620:1 5088:1 
-0.0670359400412799 0 332:1 577:1 783:1 1694:1 1976:1 2034:1 3099:1 3189:1 3200:1 3299:1 4992:1 5048:1 5181:1 5639:1 
-0.0558295412768734 0.009488122208224615 359:1 852:1 961:1 1054:1 1127:1 2722:1 2884:1 3535:1 4870:1 4928:1 5101:1 5839:1 
-0.2186317204544468 0 119:1 794:1 821:1 1976:1 2064:1 2988:1 2999:1 3171:1 3607:1 4468:1 4625:1 4925:1 4972:1 5639:1 5827:1 6320:1 
-0.06064629955486488 0 313:1 655:1 820:1 869:1 1027:1 1492:1 1947:1 2579:1 2632:1 2636:1 2714:1 3096:1 3191:1 3328:1 3607:1 3609:1 3616:1 3791:1 3954:1 4436:1 4828:1 4990:1 4992:1 5571:1 5639:1 5947:1 6445:1 6546:1 6552:1 
-0.2064496554603192 0.01631773159408598 221:1 324:1 2608:1 5006:1 5587:1 5639:1 5832:1 5873:1 
-0.04224705366393056 0 57:1 187:1 416:1 617:1 772:1 852:1 1316:1 1976:1 2167:1 2255:1 2301:1 2387:1 2579:1 2685:1 3272:1 3431:1 3475:1 3607:1 3609:1 3927:1 4181:1 4326:1 4558:1 4712:1 4972:1 5048:1 5320:1 5425:1 5532:1 5639:1 5794:1 5832:1 5852:1 6088:1 6111:1 6416:1 
-0.3442048403078931 0 727:1 807:1 3189:1 4946:1 5030:1 6244:1 
-0.3210943732315331 0 32:1 1442:1 1976:1 2814:1 3287:1 4007:1 4024:1 4499:1 5256:1 5388:1 5832:1 5843:1 
-0.274773738236341 0.01110601260954084 120:1 852:1 910:1 1107:1 1179:1 1188:1 1976:1 2453:1 2579:1 3616:1 4499:1 4810:1 4989:1 5106:1 5435:1 5688:1 6089:1 6619:1 
-0.402281887240162 0 2368:1 2539:1 2579:1 2692:1 3091:1 4181:1 
-0.1403800249794696 0.01402110194567477 852:1 1509:1 2414:1 2662:1 2791:1 3477:1 4496:1 5662:1 5832:1 6018:1 6370:1 6415:1 6481:1 
-0.09919557325096298 0 852:1 1584:1 1912:1 1976:1 2297:1 2566:1 2832:1 3099:1 3199:1 3933:1 4963:1 5006:1 5032:1 5388:1 5639:1 5643:1 5839:1 
-0.09293798019214342 0 166:1 282:1 416:1 521:1 794:1 820:1 852:1 961:1 1117:1 1194:1 1323:1 1337:1 1535:1 1601:1 1680:1 1687:1 2122:1 2255:1 2579:1 3004:1 3010:1 3494:1 4330:1 4870:1 4946:1 4992:1 5097:1 5171:1 5639:1 5886:1 6263:1 6416:1 6546:1 6659:1 
-0.1604314128099388 0.00471039718152654 62:1 794:1 1241:1 1773:1 1976:1 2255:1 2334:1 2413:1 2579:1 2686:1 3616:1 3759:1 4339:1 4877:1 4946:1 5639:1 5886:1 6416:1 
-0.2346728690134703 0 2579:1 3950:1 4043:1 4810:1 4870:1 5830:1 
-0.1815036405954229 0 305:1 386:1 537:1 937:1 1976:1 3607:1 3973:1 4025:1 4970:1 5047:1 5404:1 5520:1 5639:1 5827:1 5978:1 6247:1 6549:1 
-0.1536630451156097 0 820:1 821:1 1416:1 2122:1 2579:1 3609:1 4181:1 4810:1 5113:1 5236:1 5304:1 5832:1 6301:1 
-0.04685438216849765 0.004221127524984528 785:1 852:1 1079:1 1324:1 1397:1 1603:1 1976:1 2098:1 2205:1 2300:1 2579:1 3502:1 4810:1 4885:1 5088:1 5313:1 5639:1 5743:1 5827:1 5832:1 
-0.0766092453140388 0 95:1 150:1 198:1 521:1 789:1 794:1 849:1 910:1 1508:1 1976:1 2255:1 2257:1 2579:1 2696:1 3607:1 3609:1 4181:1 4946:1 5569:1 5656:1 5738:1 5832:1 6123:1 
-0.3056027223767988 0 544:1 577:1 1179:1 1416:1 2241:1 3090:1 3189:1 3361:1 3616:1 4320:1 4744:1 4905:1 5193:1 5513:1 5639:1 5809:1 
-0.1522681814091603 0 332:1 416:1 852:1 1195:1 1962:1 2347:1 2884:1 3541:1 3801:1 4870:1 5639:1 6047:1 
-0.1588209069603315 0 64:1 241:1 521:1 615:1 794:1 1326:1 1355:1 2255:1 2579:1 2948:1 3142:1 3423:1 3958:1 5639:1 6531:1 6542:1 
-0.3239708702372138 0.07821825797048607 852:1 890:1 3189:1 4182:1 4263:1 4810:1 
-0.140252444400372 0 175:1 1188:1 1746:1 2814:1 3117:1 3191:1 3801:1 4326:1 4488:1 4832:1 5667:1 5959:1 6424:1 6574:1 
-0.1060718303349474 0 68:1 224:1 895:1 961:1 1079:1 1569:1 1976:1 2257:1 2343:1 3607:1 3833:1 5147:1 5832:1 6491:1 
-0.002336136575122308 0 383:1 734:1 852:1 1387:1 1976:1 2189:1 2302:1 2579:1 2982:1 3607:1 3659:1 3688:1 4181:1 5426:1 5832:1 
-0.5741964395898806 0.01874381807562501 681:1 962:1 1791:1 1976:1 4314:1 5117:1 5639:1 5827:1 5832:1 6056:1 6416:1 
-0.2673464186820652 0.0149071919949114 852:1 961:1 1492:1 1976:1 2032:1 2229:1 2814:1 2965:1 3607:1 4174:1 4937:1 4992:1 5193:1 5858:1 5886:1 
-0.1559380624966121 0.04681253027020315 1173:1 2579:1 3081:1 3242:1 3616:1 3768:1 4022:1 5477:1 5832:1 6674:1 
-0.04757314708344534 0 416:1 852:1 910:1 921:1 1079:1 2170:1 2257:1 2579:1 3148:1 3607:1 3856:1 3945:1 5788:1 
-0.1718145496190542 0 122:1 303:1 337:1 391:1 852:1 940:1 1188:1 2579:1 3374:1 4326:1 4992:1 5464:1 5918:1 6038:1 6668:1 
-0.02487400574905588 0 821:1 852:1 1337:1 1349:1 1414:1 1976:1 2171:1 2188:1 2579:1 3332:1 3607:1 3933:1 3944:1 4073:1 4274:1 4597:1 4617:1 4622:1 5639:1 5643:1 5648:1 5832:1 6334:1 
-0.1237462641837329 0.07951801430591159 852:1 1690:1 1976:1 3502:1 4004:1 4921:1 6350:1 
-0.3065782608399154 0.05318552385814089 134:1 745:1 1614:1 2381:1 2579:1 5832:1 
-0.6390903299814046 0.01986286680906186 3189:1 4099:1 4875:1 
-0.1618226002903416 0 9:1 492:1 852:1 1179:1 1337:1 1494:1 1976:1 2823:1 3609:1 3620:1 3695:1 3846:1 5832:1 6111:1 
-0.04289329495204471 0.03344749111602872 792:1 820:1 1214:1 1316:1 1349:1 1976:1 2255:1 2579:1 2629:1 3730:1 3759:1 3908:1 4027:1 4096:1 4175:1 5662:1 5832:1 6415:1 
-0.0251589348758921 0 5:1 280:1 359:1 576:1 610:1 731:1 821:1 852:1 873:1 991:1 1188:1 1694:1 1976:1 2255:1 2579:1 2633:1 2814:1 3201:1 3205:1 3607:1 3616:1 3706:1 4049:1 4351:1 4552:1 4560:1 4810:1 5135:1 5486:1 5832:1 5852:1 5976:1 6048:1 6198:1 
-0.01273767279667799 0 171:1 425:1 521:1 1079:1 1556:1 1819:1 1976:1 2255:1 2915:1 3609:1 4186:1 4946:1 5639:1 5839:1 6034:1 
-0.1477663980815208 0 83:1 190:1 237:1 577:1 852:1 1179:1 1316:1 1337:1 1760:1 1976:1 2031:1 2463:1 3008:1 3189:1 3271:1 3616:1 3680:1 3801:1 4628:1 4992:1 5193:1 5639:1 
-0.07800960970328388 0 245:1 658:1 713:1 727:1 821:1 852:1 947:1 983:1 1132:1 1190:1 1337:1 1829:1 1831:1 2218:1 2255:1 2579:1 2814:1 2941:1 3171:1 3655:1 4041:1 4338:1 4502:1 4704:1 4773:1 4992:1 5639:1 5691:1 5839:1 6121:1 6334:1 6586:1 6629:1 
-0 0.0154044790497169 359:1 852:1 1137:1 1827:1 1837:1 2035:1 2255:1 2433:1 2712:1 3489:1 3616:1 5643:1 6174:1 6662:1 
-0.3062881676864365 0 82:1 83:1 359:1 817:1 1337:1 2238:1 2255:1 3189:1 3607:1 3609:1 3833:1 4356:1 5101:1 5639:1 
-0.2501387382707331 0 464:1 852:1 972:1 1337:1 1976:1 1982:1 2144:1 2676:1 3189:1 3818:1 5625:1 5832:1 
-0.3298727320622278 0 1261:1 1976:1 2579:1 3066:1 3607:1 3616:1 3908:1 4181:1 4326:1 4662:1 4992:1 6020:1 6111:1 6457:1 
-0.2480418076062271 0 337:1 690:1 852:1 1739:1 2177:1 2319:1 2579:1 4220:1 4992:1 5436:1 5639:1 5827:1 5898:1 
-1 1 
-0.07562254158655052 0 794:1 852:1 961:1 1079:1 1248:1 1349:1 1976:1 2063:1 2255:1 2579:1 2718:1 3029:1 3095:1 3185:1 3384:1 3452:1 3499:1 3524:1 3775:1 5326:1 5639:1 5827:1 6199:1 6334:1 6363:1 6416:1 6552:1 
-0.0946836496132664 0 852:1 961:1 1079:1 1337:1 1433:1 1866:1 1976:1 2145:1 2328:1 2579:1 2681:1 2779:1 3158:1 3607:1 3616:1 3893:1 4870:1 5549:1 5742:1 5827:1 5832:1 5932:1 
-0.0902872667269233 0 337:1 440:1 577:1 852:1 1036:1 1126:1 1976:1 2503:1 2579:1 2859:1 3607:1 3609:1 4181:1 4183:1 4873:1 4992:1 5082:1 5297:1 5639:1 5886:1 6338:1 6493:1 6533:1 6662:1 6668:1 
-0.0923936548821038 0 108:1 274:1 632:1 803:1 852:1 1252:1 1976:1 2142:1 2381:1 2579:1 2795:1 3870:1 3914:1 3950:1 5138:1 5639:1 5770:1 6334:1 6447:1 6644:1 
-0.134008209152033 0 152:1 512:1 1432:1 1457:1 1976:1 2031:1 2255:1 2257:1 2579:1 2677:1 3421:1 3616:1 4109:1 5015:1 5060:1 5572:1 5639:1 5832:1 5967:1 6004:1 6037:1 6491:1 
-0.2306261425096858 0.05708964096080559 785:1 985:1 1976:1 4385:1 4484:1 4905:1 5782:1 5934:1 
-0.1079317479368552 0 588:1 1079:1 1104:1 1337:1 1976:1 2477:1 2814:1 3384:1 3607:1 3616:1 4359:1 4992:1 5283:1 5843:1 6111:1 6563:1 
-0.0755514636064839 0.03073699874540215 177:1 809:1 1966:1 1976:1 2579:1 2603:1 3607:1 3616:1 3719:1 4411:1 4946:1 5254:1 5832:1 6158:1 6366:1 
-0.3330385897918601 0.149960525089862 1227:1 1293:1 2227:1 3330:1 3607:1 
-0.2141179391967406 0 2059:1 2579:1 3189:1 3403:1 3515:1 3801:1 4291:1 
-0 0.0392645861571103 118:1 852:1 1322:1 1762:1 2176:1 2449:1 2579:1 2762:1 3189:1 3541:1 3801:1 4558:1 4810:1 5458:1 5827:1 
-0.1396688174246582 0 359:1 674:1 852:1 937:1 1071:1 2579:1 3109:1 3330:1 3522:1 3541:1 3623:1 4181:1 4231:1 4543:1 4642:1 4784:1 4870:1 5193:1 5639:1 6074:1 
-0.1837561129847368 0 187:1 231:1 315:1 359:1 456:1 521:1 1053:1 1150:1 1671:1 1976:1 2280:1 2579:1 3606:1 4108:1 5832:1 
-0.06862175780644626 0 38:1 475:1 577:1 655:1 701:1 833:1 1176:1 1858:1 1976:1 2255:1 2588:1 2854:1 2999:1 3336:1 3367:1 3447:1 3489:1 4068:1 4213:1 4341:1 4870:1 4905:1 4946:1 5190:1 5330:1 5639:1 5832:1 6439:1 
-0.07589167575701346 0.0221223097551665 821:1 1005:1 2189:1 2257:1 2458:1 3416:1 4290:1 4588:1 4735:1 4992:1 5827:1 6022:1 
-0.2097063706239291 0.152609612635962 811:1 852:1 1342:1 1976:1 3647:1 3746:1 3818:1 5030:1 5827:1 6581:1 
-0.2516001562103088 0.0806910320734483 852:1 910:1 1179:1 1190:1 1637:1 1976:1 2255:1 2257:1 2313:1 2345:1 2357:1 3332:1 4123:1 5691:1 6546:1 
-0.15295336502814 0 521:1 794:1 961:1 1277:1 1785:1 1976:1 2244:1 2255:1 2407:1 2480:1 2527:1 4206:1 4662:1 4910:1 5639:1 5832:1 6038:1 
-0.2033280474941556 0.02557398202884504 359:1 521:1 607:1 1976:1 6146:1 
-1 0.4500208117458229 890:1 4263:1 5832:1 6665:1 
-0.1652487024253362 0.02592321437239151 359:1 852:1 903:1 1024:1 1675:1 1800:1 1976:1 2255:1 3309:1 3331:1 3607:1 3613:1 3616:1 3769:1 4436:1 4706:1 4992:1 5399:1 5827:1 5832:1 6470:1 6619:1 6667:1 
-0.3330303654116152 0.04667275888612807 987:1 1328:1 1332:1 1976:1 2585:1 3416:1 3607:1 3801:1 3805:1 6026:1 6663:1 
-0.1531710812622225 0 553:1 849:1 852:1 983:1 1623:1 1732:1 1765:1 1976:1 2428:1 2579:1 2640:1 2713:1 3189:1 3609:1 3616:1 4326:1 5288:1 5411:1 5776:1 
-0.1529494857904865 0 1337:1 2542:1 2917:1 3215:1 3607:1 4106:1 4118:1 4905:1 5639:1 
-0.6822924815594704 0.07249106487351796 359:1 852:1 1887:1 2255:1 2579:1 4326:1 4382:1 4866:1 5101:1 5620:1 6074:1 
-0.2106673629329569 0.04150945069918628 24:1 2439:1 2579:1 3759:1 4008:1 4473:1 5804:1 5818:1 
-0.1015119255873792 0 359:1 511:1 844:1 993:1 1114:1 1976:1 2043:1 2058:1 2187:1 2446:1 2579:1 2735:1 2822:1 3189:1 3703:1 4181:1 4437:1 4862:1 5451:1 5639:1 5832:1 
-0.1073498558880533 0 32:1 457:1 794:1 852:1 1976:1 2181:1 2309:1 3332:1 3502:1 4274:1 4452:1 4952:1 5532:1 5832:1 5875:1 6089:1 6137:1 6416:1 6457:1 
-0.0821167552117294 0.006208671549462299 569:1 639:1 1090:1 1219:1 1361:1 1976:1 1982:1 2134:1 2241:1 2252:1 2412:1 2446:1 2760:1 2765:1 3099:1 3607:1 3818:1 4311:1 4732:1 
-0.08044542770740558 0.01547762193884662 374:1 501:1 536:1 1085:1 1382:1 1478:1 1769:1 1891:1 1894:1 1922:1 2196:1 3548:1 3998:1 4566:1 4766:1 4996:1 5367:1 5552:1 5838:1 6132:1 6212:1 
-1 0.3522026202142111 4972:1 
-0.02963818340848698 0.1844190926606205 332:1 337:1 421:1 521:1 852:1 2189:1 2564:1 2805:1 3054:1 3218:1 3616:1 4832:1 5304:1 5827:1 5839:1 
-0.3520369614673043 0.1079551841572332 15:1 655:1 1179:1 1473:1 3609:1 4267:1 5639:1 6405:1 
-0.2735246196993485 0.1141075256090114 827:1 1016:1 1489:1 2144:1 2257:1 5372:1 6001:1 
-0.0551802488809332 0.01725814925987453 974:1 1079:1 1976:1 2982:1 3029:1 3833:1 4636:1 5022:1 5832:1 6056:1 
-0.1029789282390091 0 577:1 1322:1 1976:1 1999:1 2002:1 2179:1 2465:1 2579:1 3607:1 3780:1 4175:1 4181:1 4512:1 4582:1 5639:1 5800:1 5832:1 
-0.1109753888786369 0.02353821171233812 1335:1 1569:1 1714:1 1976:1 2174:1 2255:1 2579:1 3416:1 3607:1 4017:1 4019:1 4154:1 4773:1 4950:1 5381:1 5827:1 5832:1 
-0.2397584237055433 0.01083874909517561 433:1 666:1 852:1 910:1 1403:1 2257:1 2579:1 2908:1 3945:1 4543:1 5298:1 5827:1 6334:1 6338:1 6546:1 
-0.1615456516329041 0.03319443565503397 335:1 852:1 1104:1 1179:1 1976:1 3607:1 3647:1 3807:1 4021:1 5193:1 
-0.349946458129684 0.08337946241184292 852:1 1219:1 1739:1 2210:1 3916:1 4004:1 6416:1 
-0.3022164739187584 0.0179889348529498 82:1 337:1 852:1 1071:1 1865:1 4549:1 5904:1 6024:1 
-0.1740747670464881 0.0102861844412627 274:1 1976:1 2031:1 3190:1 3418:1 3616:1 3659:1 4333:1 4509:1 5193:1 5639:1 5832:1 5843:1 6038:1 6111:1 
-0.01970145879061599 0 559:1 820:1 821:1 852:1 875:1 2032:1 2352:1 3029:1 3150:1 3616:1 3620:1 4420:1 5006:1 5117:1 5304:1 5682:1 5718:1 5827:1 5832:1 5885:1 6045:1 6334:1 6457:1 6480:1 
-0.07150213785360486 0 481:1 961:1 1976:1 2089:1 3607:1 3786:1 4022:1 4311:1 4972:1 5639:1 5645:1 5720:1 5790:1 5832:1 6342:1 6416:1 
-0.04290794611150416 0 235:1 280:1 359:1 464:1 577:1 794:1 852:1 983:1 1219:1 1707:1 1915:1 1976:1 1998:1 2255:1 2724:1 3060:1 3557:1 3581:1 3985:1 4473:1 4717:1 4992:1 5639:1 5699:1 5720:1 6037:1 6347:1 6464:1 6497:1 6662:1 
-0.08186713208015896 0 19:1 807:1 852:1 1179:1 1293:1 2255:1 2579:1 3609:1 3950:1 4539:1 5221:1 5721:1 6464:1 6546:1 
-0.2767383606116666 0.01089238673260533 852:1 984:1 1337:1 2405:1 2814:1 3375:1 3616:1 4004:1 5030:1 6052:1 
-0.1639552249894721 0 195:1 1197:1 1570:1 1858:1 2366:1 2579:1 2915:1 3607:1 3902:1 4193:1 4337:1 4868:1 4877:1 4946:1 4992:1 5238:1 5787:1 5832:1 
-0.008668582775709779 0 274:1 521:1 821:1 1256:1 1731:1 2191:1 2395:1 2572:1 2579:1 2591:1 3120:1 3607:1 4481:1 5776:1 5832:1 6629:1 
-0.02853589402162372 0.003653213060389801 55:1 64:1 760:1 993:1 1562:1 1756:1 1923:1 1976:1 2083:1 2526:1 3272:1 3515:1 3616:1 3736:1 3964:1 4007:1 4024:1 4390:1 4869:1 5284:1 5639:1 5832:1 5968:1 5989:1 6051:1 6125:1 6278:1 6534:1 6596:1 
-0.1388626123366004 0.02388684730401019 3:1 1219:1 1976:1 2255:1 2337:1 2529:1 2579:1 2680:1 2880:1 3616:1 4513:1 4757:1 5054:1 5532:1 5639:1 5832:1 5978:1 6417:1 
-0.3704208516077614 0.03499282025030453 727:1 1188:1 1976:1 5164:1 5580:1 6416:1 6615:1 
-0.09605218536693068 0.05835675839910021 139:1 377:1 821:1 852:1 1179:1 1219:1 1513:1 1976:1 2382:1 4183:1 4399:1 4490:1 4992:1 5827:1 5832:1 6345:1 
-0.1735787164625265 0 359:1 852:1 890:1 1094:1 1976:1 2884:1 3607:1 3684:1 3750:1 3879:1 4024:1 4077:1 4263:1 4972:1 5254:1 5330:1 5639:1 5900:1 6439:1 
-0.1919478063939466 0.01798533933479816 1820:1 2298:1 2579:1 2740:1 3433:1 4870:1 6237:1 
-0.2699501419117176 0.1134924162758623 788:1 1971:1 6061:1 
-0.02826178195600907 0 58:1 195:1 303:1 381:1 416:1 794:1 852:1 1179:1 1219:1 1271:1 1289:1 1502:1 1976:1 2189:1 2337:1 2579:1 3008:1 3069:1 3223:1 3607:1 3609:1 3837:1 3856:1 4123:1 4330:1 4352:1 5639:1 6457:1 
-0.3286848231371705 0.09124833703602789 852:1 1219:1 1965:1 2446:1 2480:1 3412:1 3933:1 4744:1 4761:1 5597:1 5974:1 6416:1 
-0.7154187569430888 0.1810436701567589 3050:1 4199:1 5803:1 6581:1 
-0.2952749912959137 0.008795496358087811 195:1 737:1 794:1 2255:1 2579:1 2848:1 3759:1 4695:1 5229:1 
-0.1601778840369987 0 794:1 1359:1 2400:1 3288:1 3384:1 3607:1 4195:1 5208:1 5639:1 6338:1 6443:1 
-0.2881468939055925 0.1471716093380112 1146:1 1219:1 1427:1 2638:1 2665:1 3607:1 3647:1 3801:1 5340:1 
-0.1664026762462942 0 498:1 2000:1 2254:1 2579:1 4198:1 5511:1 5532:1 5639:1 5832:1 5837:1 5839:1 5888:1 
-0.08112284459743151 0.00375467552052427 852:1 1219:1 1359:1 2151:1 2847:1 2884:1 2907:1 3616:1 3653:1 3912:1 4558:1 5030:1 5464:1 5639:1 5641:1 
-0.1996945013433111 0.02352556095536452 280:1 727:1 852:1 924:1 1976:1 3134:1 3369:1 3609:1 4227:1 4804:1 5196:1 5224:1 5776:1 5832:1 
-0.1703129835219419 0 176:1 359:1 1028:1 1058:1 1197:1 2579:1 2631:1 3466:1 3666:1 3826:1 4334:1 4691:1 5103:1 5639:1 6608:1 
-0.04343053007217988 0.002683370406204902 332:1 747:1 831:1 852:1 1716:1 2029:1 2034:1 2483:1 2579:1 3310:1 3330:1 3616:1 3801:1 4037:1 5639:1 6334:1 6394:1 6415:1 
-0.1942397230933181 0.0134007714931009 325:1 521:1 1882:1 2066:1 3609:1 3616:1 3781:1 3902:1 5075:1 5513:1 
-0.1692833814985784 0 521:1 852:1 1179:1 1416:1 2255:1 4345:1 4394:1 4674:1 5978:1 6357:1 
-0.1121881719696608 0 397:1 2067:1 2255:1 2337:1 2895:1 3272:1 4512:1 4870:1 4972:1 4992:1 5133:1 5179:1 5260:1 5403:1 5431:1 5654:1 5839:1 5920:1 6028:1 6088:1 6246:1 6285:1 
-0.369650351966592 0.1161795719920484 62:1 757:1 772:1 856:1 1337:1 1754:1 2177:1 2480:1 2710:1 3609:1 4558:1 4946:1 5030:1 
-0.07101979856638921 0 359:1 727:1 794:1 1079:1 2533:1 2579:1 2814:1 4357:1 4435:1 4870:1 4992:1 6668:1 
-0.07665878748720607 0.005350433344358944 245:1 303:1 525:1 737:1 797:1 821:1 852:1 1837:1 1976:1 2250:1 2696:1 2697:1 2707:1 3025:1 3054:1 3280:1 3402:1 3607:1 3609:1 4181:1 4558:1 4728:1 5600:1 5639:1 5827:1 5832:1 5993:1 6353:1 
-0.01108764158491313 0.02141505744236221 647:1 852:1 1957:1 1976:1 2164:1 2579:1 2931:1 3609:1 3694:1 4377:1 4656:1 4881:1 4992:1 5507:1 5870:1 6038:1 6338:1 
-0.3103364588091596 0 274:1 521:1 852:1 1008:1 1066:1 1487:1 1614:1 1976:1 2144:1 2255:1 2450:1 2480:1 2579:1 2742:1 3002:1 4326:1 4497:1 4532:1 4719:1 5169:1 5358:1 5478:1 5636:1 
-0.2191037350023955 0 32:1 332:1 794:1 852:1 961:1 1190:1 1248:1 1337:1 1350:1 1416:1 1638:1 1774:1 1850:1 1912:1 1976:1 2249:1 2255:1 2603:1 3607:1 3616:1 3623:1 3684:1 3926:1 3950:1 4181:1 4376:1 4440:1 4810:1 5330:1 5886:1 6247:1 6491:1 
-0.3170992050117935 0 335:1 521:1 852:1 1220:1 1299:1 2547:1 2579:1 2652:1 2952:1 3041:1 4992:1 5254:1 5827:1 5831:1 
-0.9166468462431963 0.03073286687175017 983:1 2176:1 3607:1 3609:1 
-0.126031571816479 0 15:1 609:1 852:1 1179:1 1276:1 1337:1 1700:1 4181:1 5084:1 5639:1 5827:1 5832:1 5886:1 
-0.1191735930368787 0 217:1 245:1 359:1 521:1 577:1 666:1 1122:1 1179:1 1226:1 1337:1 1358:1 1976:1 2189:1 2255:1 2480:1 2600:1 2709:1 2802:1 3379:1 3607:1 3609:1 4068:1 4477:1 4663:1 5827:1 5832:1 6038:1 6546:1 6618:1 6629:1 
-0.5404117914308415 0.1041987093049531 961:1 1570:1 2327:1 3015:1 4131:1 
-0.3906556987414472 0.2363388884903948 359:1 2189:1 2912:1 3189:1 3607:1 3777:1 4992:1 
-0.2073355595358864 0 546:1 820:1 821:1 852:1 984:1 1071:1 1079:1 1337:1 1976:1 2480:1 2533:1 2579:1 2974:1 3002:1 3127:1 3189:1 3324:1 3403:1 3616:1 3659:1 3764:1 3801:1 3878:1 4320:1 4326:1 4341:1 4608:1 4612:1 4659:1 5224:1 5431:1 5490:1 5832:1 
